#pragma once
#include "dl_lib_matrix3dq.h"

dl_matrix3d_t* model_forward(dl_matrix3du_t *input);

const static qtp_t conv1_filter_item_array[] = {
	680, 22604, -25369, 18002, 16129, 24317, 170, -10568, 
	3823, -20313, 12808, -12309, 4596, 5091, -4446, -4125, 
	21529, -20642, 4944, 6623, -24709, 7657, 24475, -10192, 
	-15395, 3659, 2656, 21990, -22904, -13013, -5299, 24571, 
	26402, -18440, -12935, 16057, -21345, 5217, -898, 19601, 
	11930, -4728, 15226, -20209, 1370, 18340, -11779, 1470, 
	9752, -12265, 9831, 3625, -24530, 6925, 352, -15967, 
	-6484, -17067, 19489, -7805, 4665, 17823, 26907, 4838, 
	-19587, 7851, -10942, -26208, 1740, -16151, 22355, -11548, 
	13329, 16036, -2462, 23345, 27546, -7503, -13717, -19436, 
	-12791, 2608, -429, -20181, -16218, -11626, -4535, -23592, 
	5059, -26971, -21512, 1466, 16151, -14642, 20151, 11181, 
	1796, -9336, -15777, 3479, 8169, -10604, 3628, 7541, 
	25034, -26192, -9223, 19376, -24861, 12908, -723, 24700, 
	1902, -9900, -1006, -3412, -16092, 6220, -24223, 24597, 
	2920, 16542, -20639, 8561, 4491, -12837, -13574, 10062, 
	24760, 4767, 19209, 10578, -9350, 2971, 22015, -14895, 
	-15374, 18977, -16793, 1773, 14337, 3350, 17805, -6559, 
	-12395, 9912, 16679, -13099, 20348, -17393, -6605, -7287, 
	8624, -14864, 27870, -21669, -10140, 21930, -18389, -1542, 
	17601, -3623, -2118, -20961, 23218, 2355, -17884, -10481, 
	-1254, 23437, -400, -4029, 26493, 21230, 8382, 9757, 
	25877, -19725, -21672, 16170, -21299, 24797, 21145, -4044, 
	-15677, 685, -20036, 4564, -18939, 7637, 21323, -3389, 
	-18958, 16232, -131, 19304, -2902, -26297, 291, -10423, 
	-8901, 20208, -6972, -17695, 11698, 9501, -2748, -1028, 
	-14230, -21849, 22244, 16444, 15327, -20273, -4352, 8534, 
	-9437, 7423, 17879, 10614, 26790, 10279, 8146, 27242, 
	-4076, -23097, 23287, -22065, -15315, 3120, 11928, -76, 
	-22090, -19349, 2445, -26225, -13766, -15893, 4871, -14511, 
	27974, 12643, 26151, 15126, -21477, -14406, -11468, -1879, 
	-15700, -8696, 16872, -11825, -14481, 8157, -15254, -18059, 
	-10880, -2252, 29388, 7165, 22112, -13567, 6581, 1280, 
	-9395, 53, -5183, -19681, 28669, 6245, -5165, -13790, 
	-83, 6094, -7682, 18725, 24715, 1061, 3753, -17056, 
	-11073, 22987, 8215, -5996, -18448, -7328, 2608, -19484, 
	2293, -11424, -14143, -12446, 7625, -10795, -1615, 6958, 
	14482, 22484, 23701, -22192, 18829, -24089, 8058, 20668, 
	-750, 21176, 22375, -5642, -20198, 6938, 7408, -3374, 
	4376, 20566, -19564, 5263, -1396, -2516, 8581, -26159, 
	15537, 6864, 2029, -9646, 11443, -21417, -17139, -16284, 
	-1200, 8360, -3223, 7845, 20423, -14682, 3105, -20343, 
	21176, -4780, -17882, 14240, 27053, -14027, -8188, -17324, 
	-3682, -2160, 19852, -8753, 27870, 93, -917, -7923, 
	10878, -211, -29142, -12051, -14522, -7913, 8079, -5446, 
	20545, 19907, 9980, 1544, 24162, 12254, 18039, 6838, 
	1967, 1586, 10536, -7278, -12583, 12435, 2509, -7062, 
	23152, -13689, 1353, 23714, -22077, 3828, -6267, -24781, 
	6766, 19988, -18375, 9701, 15557, 5015, -21896, 14373, 
	23333, -16308, 23270, 439, 11352, 24101, 11097, 19361, 
	-7873, 23022, -18281, -27205, -22473, -913, -22962, -7130, 
	-23261, -21424, -3616, 23987, -12763, 19675, -15214, 2218, 
	14962, -19559, -8983, 3572, 18241, 12341, 21602, -9686, 
	12600, 18438, 1689, 27593, 12650, 5279, -836, 23447
};

static dl_matrix3dq_t conv1_filter = {
	.w = 3,
	.h = 3,
	.c = 3,
	.n = 16,
	.stride = 9,
	.exponent = -17,
	.item = (qtp_t *)(&conv1_filter_item_array[0])
};

const static qtp_t conv1_bias_item_array[] = {
	8389, -2363, 10072, 12254, 20413, -3917, -1898, -10908, 
	9525, 18598, 12738, 13857, 7165, 20506, 1990, 586
};

static dl_matrix3dq_t conv1_bias = {
	.w = 1,
	.h = 1,
	.c = 16,
	.n = 1,
	.stride = 16,
	.exponent = -16,
	.item = (qtp_t *)(&conv1_bias_item_array[0])
};

const static qtp_t conv2_filter_item_array[] = {
	3735, -3527, -5624, 2830, 236, -6583, 849, 3270, 
	-3385, 12241, -535, -719, 7842, -1702, -3577, -926, 
	-412, -326, -8159, 869, -889, -4801, -165, 8451, 
	-5113, -2679, 316, -3735, 7888, -2990, -3356, 6040, 
	1981, 1969, -4097, -828, 3758, -830, -3769, 2170, 
	-7918, -6312, 7152, 1220, 7637, 893, 4023, 3527, 
	-3921, 936, -8946, 6785, 4220, 14, -2738, 4454, 
	-1319, 18757, 1948, 775, 323, 531, 4252, -3116, 
	1107, -2045, -16894, 10740, -3592, 3004, 5764, -2904, 
	-3650, 6087, 2908, -2640, -775, -569, 3642, -3584, 
	3133, -2867, -11065, 15333, 5945, 3837, 6510, -866, 
	-1354, 2792, -278, 498, -402, -895, 4683, 2343, 
	-1678, 4937, -13503, 1341, 971, -4715, 5216, 4654, 
	-1503, 7171, 2958, 4288, -2441, -3154, 796, 5993, 
	-2719, 5728, -17050, -3013, -4227, 3441, -1945, -3981, 
	-7155, -1785, -1786, 417, -5055, 3021, 4428, 4456, 
	-4231, 2972, -10446, 8058, 2967, 7332, 7547, -2863, 
	-1480, 82, -799, -2209, -3539, -3330, 343, 4218, 
	4177, 4690, -12785, -6910, -5001, -3932, 2350, -5289, 
	4519, 6477, -536, 779, -1726, -316, 2063, -2820, 
	-5511, 3872, -6636, 2234, -1688, -6508, 2178, -5382, 
	-3943, 2974, -6112, 5152, 2437, -2529, 1832, 5792, 
	2383, -2664, -9866, -5542, 2163, -9515, -2367, -1445, 
	4981, 5135, -1056, -579, -4472, 2108, -1643, 6681, 
	-3164, -971, -6697, -10985, 2831, -10177, -2623, -457, 
	4093, 5777, -2656, 5004, -54, 2700, -3238, 3388, 
	2509, 3630, -9118, 6099, 1684, -7278, -4645, 3212, 
	4354, 5000, 1446, 5412, -1344, -1071, -3236, -4102, 
	5174, -527, -7002, 998, -5378, -7761, 2958, -1335, 
	4052, -333, 1788, 5261, -3464, 2096, -6848, 2849, 
	-398, -913, -3401, 249, -3414, -843, -467, 1129, 
	6328, -3886, 292, 3701, -2947, 1086, -1148, -3049, 
	-3028, 4742, -3032, 4766, -3771, -5715, 2942, -1972, 
	5598, 7351, -255, -3908, 3952, -4002, -2935, -7162, 
	-2206, 4214, -7229, 1330, -6527, 82, 1138, 4316, 
	5414, 3309, -3135, -4524, -2101, -4838, -5016, 129, 
	-508, -1171, -1309, -1225, 723, 980, 3289, -601, 
	4506, -9824, -11123, -160, -1130, 3767, -5340, 4769, 
	-2440, -3246, -4035, 5259, 5155, -3498, -5930, 53, 
	6403, -2085, -8857, 3122, -5241, -1695, -3075, 5650, 
	103, 1732, 2694, -1205, 5007, 3909, -1499, 1271, 
	-2024, 7352, -6048, -4092, 4313, -438, 4952, 7004, 
	967, -7167, -8401, 6403, -4694, 1412, -1763, -5428, 
	-4266, 1710, -8406, 1939, 3051, -981, -3500, 4553, 
	212, -2635, -15956, 45, 484, 8585, 4674, -2057, 
	3879, 2586, -9099, -4183, -841, 3074, -2483, -2934, 
	5546, 7322, -10176, 3102, 828, 7530, 7501, 1642, 
	-3997, 1517, -2706, -3120, -3859, 1343, -458, -737, 
	4096, -591, 6926, 5276, -2246, 2531, -1914, -4607, 
	952, -10543, -7729, -5042, -3046, -1871, 4006, -3561, 
	6811, 4694, 8298, 3202, -1546, 5311, -7604, 2644, 
	7933, -4861, -5920, 5027, 5938, -4863, -5148, 760, 
	6365, -749, -4195, -4337, 6561, -910, -2491, 5289, 
	-2288, 8759, -2886, 4427, -2308, 1949, -5089, 398, 
	1123, -642, 5380, 3018, 1030, 3190, 242, 2970, 
	-3052, -3041, -2116, -5263, -190, 4810, -473, 1911, 
	571, 3651, 5965, -3328, -554, 4148, 2345, 3733, 
	2735, -1399, 1401, 415, -3182, 4045, 418, 80, 
	-5135, 439, 9840, -4368, -1362, 2636, -4066, 5397, 
	-864, 1404, 2757, -4294, 1292, -1745, 5268, 1715, 
	1461, 4166, 5038, -351, 5382, -1587, 1936, 7464, 
	-380, -6114, 976, 5360, -2826, -4862, 1638, 5122, 
	-1114, -1232, 12648, 5613, 787, 2618, -2587, -2518, 
	3449, 8044, 620, 2972, -3200, -2749, 3335, 2856, 
	-3924, 608, -199, 1380, 555, -1728, -973, 4514, 
	2202, 1698, 1910, 1710, 3834, -5668, -764, -7089, 
	978, 876, -4557, 3724, 295, 3581, 4001, -2080, 
	6481, 2040, 4779, -2171, -3290, -3595, 4310, 328, 
	-7203, -5730, 5170, 2115, -2345, -3364, 1965, -1285, 
	-1171, 987, 802, -4692, 2338, -4248, 5132, 3730, 
	-614, -3572, 7306, 6411, -945, -4571, -7848, 5880, 
	-5924, 4410, 5023, 911, 1669, -4188, -366, 3552, 
	4569, 1716, -7557, -11191, 5859, 373, -3843, 254, 
	9774, 6665, 1742, -2485, 5340, -2027, 277, 4504, 
	885, -7408, -1302, -3159, 2859, 4011, 5550, 3501, 
	-1488, -3827, 3676, -5335, -841, -240, 3442, 3602, 
	4644, 16, 6088, -6094, 4198, 6939, 5200, -2070, 
	5767, -1699, -5848, -2218, 4421, 5550, -97, -1714, 
	-1674, -3041, -1116, 5194, -1250, -3091, 2563, -1698, 
	2818, 12821, 1707, -3917, 7196, 5632, 885, -4889, 
	-1892, 1253, -5936, 2853, -4714, -420, 5975, -45, 
	1152, 3576, 4975, -4929, 4205, 3847, 4705, -3533, 
	256, 311, -7811, 7984, -1125, -1402, -376, -4601, 
	5276, 8770, 4471, -4437, -1099, 6987, 2434, -4125, 
	-848, 1158, 11413, 5534, 4864, -3582, 5440, 916, 
	2197, 2442, 6049, -3369, 8261, 548, 6534, 4917, 
	7988, 5471, 3294, 5977, -885, -4396, 1536, -768, 
	6839, -3708, 5343, -1689, 2735, -2210, 2571, -5354, 
	6727, -4615, -2709, 12578, -3239, 3529, -5516, -1326, 
	3061, -7377, 1500, 2196, -1488, -748, -3082, -640, 
	-1649, -5038, -4759, -5979, -662, 5158, -7049, -1940, 
	4430, -1717, 2739, 2077, -1702, -7306, -5393, 5140, 
	2170, 2412, -1706, -603, -4631, 3740, -5502, -2819, 
	-1161, -5710, -4693, 311, 1289, -5147, -7062, 3194, 
	116, -3822, 1269, 771, -1717, 2076, -529, -1996, 
	4207, -3764, -3308, 1465, 658, 411, -2471, 3385, 
	2133, -5166, -3078, 5348, 1534, 4710, -2175, 2758, 
	-4001, 1323, 2516, -3174, 1081, -2517, -76, 6538, 
	-2381, -6063, -3526, 6835, -1326, -306, 556, -6399, 
	3409, -2519, -2334, 1304, -2242, 2183, 2478, 784, 
	3620, 2095, -2458, 8618, 77, 3713, -725, -106, 
	-2789, 10261, -4309, 1261, -5127, -997, -3607, 1776, 
	6554, 107, -2767, -2376, -706, -2759, 1369, -6221, 
	4139, -5560, 7628, -4087, 4037, 5451, 1345, 406, 
	6109, -2532, -6415, -6462, 3014, -2974, 1188, -4554, 
	5340, -10771, -6957, -4084, 1209, 1528, -3412, 1454, 
	1329, -643, -6587, -8541, -1790, 4108, 6335, 4377, 
	6960, -2766, -3075, 1035, -4003, 827, 3273, -3508, 
	4815, 397, -1320, -7389, -4662, -5807, 325, 7169, 
	-5283, -660, -6027, -526, -1244, 3326, -4260, 841, 
	4450, 4319, -6482, -3579, -5295, -3330, 1189, 4583, 
	1004, -446, 84, 989, 3362, 5256, -1000, -868, 
	5480, 3346, 1093, 5025, -1738, 4680, -4776, -5109, 
	-2290, 6771, -4972, -859, 246, 437, 314, -3144, 
	-1045, 3555, -3296, 2897, -1908, 1875, -234, -2317, 
	-223, -4057, -6554, 1581, 915, -6151, 74, 2335, 
	4539, -2818, 222, 5859, 5560, -1433, 3326, -4700, 
	3857, 1598, -5719, 4862, -3205, -2813, 912, 5467, 
	6018, -6120, 5288, 1984, -2483, -1900, 136, -4462, 
	2154, 5915, -1338, -3533, 621, 686, -1822, -5113, 
	2160, -1288, 2434, -9184, 603, 340, 444, 1413, 
	-6733, 95, -3446, -5103, 5259, 4833, 2287, 5558, 
	-1835, -6439, -3050, -3947, 2496, 935, 2921, -7287, 
	-2938, -2154, -5656, 674, -4507, 1546, -4416, 6135, 
	-494, -5977, -4608, 1938, -1548, -2388, 825, -6877, 
	-6127, 3128, -889, 2157, 3471, 4940, -1926, 5080, 
	3616, 1197, 742, -75, -2174, 412, 5000, -879, 
	2421, 5388, -1953, 489, 5442, 3267, -1462, -185, 
	-591, 6205, 7822, -1147, -766, 5207, 1969, 6256, 
	-344, 3261, 8078, 949, -1157, 4311, -1384, 1653, 
	3175, 778, -1761, -3496, -4695, 5516, 1954, 1813, 
	-1930, 10503, 10014, 3573, -91, 6192, 6043, 1019, 
	-4222, 770, 5753, -1967, 4589, -3383, -2081, -4794, 
	-118, 2355, 6080, -968, 940, 3542, -1432, -4063, 
	-2835, -2721, -1820, -4752, -1782, 5470, 6356, -5877, 
	44, -2290, 6039, 1891, 63, -3678, 2675, 304, 
	-2101, 1534, 2896, -4800, 742, 1608, 6322, -2853, 
	4036, 2847, 6014, 259, 3232, -587, -4393, -5061, 
	-2263, 2772, 7016, -619, 3914, -4137, 2469, -2763, 
	2144, -3649, 4745, 1491, -65, -1700, -4579, -4280, 
	412, 578, 7106, -1608, -2255, 1703, -4868, -3343, 
	3242, 6838, 10210, 1434, 564, -4021, -1534, -2958, 
	-744, 644, 9214, 6023, 1, -4087, -5246, -2079, 
	6408, 3358, 10973, -2223, -3411, -372, -3965, -2159, 
	4967, -5162, -11121, -77, 4023, 3403, 4554, -1246, 
	-4188, 5359, 2677, 5402, 3481, -1440, 726, -592, 
	2983, -5105, 2424, -3808, 1438, 1949, 3671, 1882, 
	2291, 3446, 10161, 35, -3369, -1268, 886, 4491, 
	-4159, 1545, 2102, -1816, 2070, 6036, -2777, -349, 
	3666, 2125, 11457, 2222, -3500, -3021, -1947, 5322, 
	-678, 1070, -6459, 4216, 3896, 4176, 6459, 1794, 
	-5824, 15577, -6584, -2625, 3124, 6564, 3270, -5273, 
	-3376, 1245, -10962, 1138, 3729, 5503, 3650, -1948, 
	-9050, 11242, 4796, 1486, 2732, 1659, 6826, -2134, 
	2918, -789, -11825, 8261, -4604, 8473, 4740, -441, 
	-5260, 8429, 5863, 396, 931, 5576, -3089, 1914, 
	5074, -3068, -6036, -870, -1419, 7096, 398, 5703, 
	3070, 7220, -7572, -1320, 1503, 2950, 4272, 1923, 
	6010, 382, -9290, -4031, -5621, 7954, 1093, -749, 
	701, 9667, 9787, 3640, -5317, 3230, 2066, -5230, 
	-3694, 3077, -4749, -18380, -5211, 4241, -5444, 2577, 
	1620, 857, 5551, -2932, -4325, -5721, -4527, 1981, 
	-116, 409, -380, -12835, -944, -3618, -4296, 4329, 
	-227, -4631, 3367, -1417, 4190, -2896, -2165, -4197, 
	-5563, -400, 1124, -4581, 207, -1381, -5136, -2010, 
	1773, -4504, -6201, -1070, -1557, -1484, 892, 220, 
	-221, -4455, 764, -9301, 4690, 6572, -5193, 1166, 
	-3040, -3580, -3486, 1447, 2862, 1614, -4994, 5845, 
	1105, -4254, 8343, -7929, -1275, 574, -2433, 560, 
	-4460, 8256, -2175, 1851, 3890, -625, -1702, 2105, 
	5107, -2459, 6762, -6429, 3425, 192, -4363, 2760, 
	507, 1460, 2299, -5848, 4097, -2512, -5510, -2776, 
	2124, -5546, 6371, -6783, -2919, -2928, -1109, -3130, 
	1720, -2740, 3089, 2834, 5517, 3975, 54, 1355, 
	-2354, -2300, 9035, 335, 2391, 1789, -4057, 7324, 
	1827, 6707, -1995, -1810, 6417, 5371, -1333, 2574, 
	4521, 6104, 1836, 2063, -1531, 607, -6698, -4467, 
	-4816, -6766, -7540, 1641, 3410, 13, -4214, 4140, 
	6328, 3441, 6715, 1788, 2750, -7679, 3741, -3322, 
	-4052, -8714, 1410, 1313, 1012, 6160, 471, 2048, 
	8934, 3307, 11043, 2225, 4050, -5260, 7305, 4030, 
	-3658, 4614, 6737, -2492, 2101, 6128, 8628, -5017, 
	-4387, -6302, 10729, 5680, 2325, -9956, -538, -3925, 
	-4177, -1658, -6949, 5972, -1443, -3540, 745, 136, 
	-3435, 3019, 2298, 7218, -1058, -4742, -2652, -5203, 
	7987, 2500, -3198, -2274, 5252, -997, 856, -2210, 
	8328, -2500, 12799, 6242, 5094, -9591, -2154, -1128, 
	-4440, 4148, 800, -3176, -3101, -3744, 4067, 562, 
	1946, -1464, 8019, 2753, 772, -4099, 2454, -1497, 
	-3653, -1113, 1130, -5244, -4466, 5899, -51, -3515, 
	4053, -6105, 5257, 6342, 2198, -10824, -4346, -444, 
	-933, -8165, -4139, 911, 6284, 456, -4128, 4193, 
	5560, 3740, 1868, 3390, 4474, -7304, 4605, -1448, 
	-3202, 4939, 1996, 3242, 223, -2930, -688, 2262, 
	-3721, -6053, 1032, 9835, -3837, -3687, -639, -2711, 
	175, 1253, 232, -3956, 3228, 3077, 4418, 5941, 
	-4755, -4139, 5538, 11246, -3774, -5558, -993, -891, 
	-2411, -2964, -4227, -5604, -705, 3757, 3845, 6691, 
	-4764, -2723, -13274, 4758, 1462, 638, -4099, 1592, 
	-4190, 1072, -5222, -356, 7603, 438, 28, 2538, 
	3176, -662, -7077, 8854, 2190, 700, 2397, -5054, 
	-1391, 2154, -4751, 2938, -495, 4705, 5736, -2595, 
	3218, -2316, -8694, -2191, 4740, 9125, 7180, 500, 
	-6085, 2481, -1524, 3195, -3642, 1449, 5660, 4780, 
	-735, 3090, 168, 9422, -900, 5599, -1603, -1760, 
	-4535, -4394, 1946, -4346, 7190, 2193, 3145, -1416, 
	-2105, -3422, -15273, 6752, 770, 6326, 4847, 110, 
	3249, -4890, -5159, 4163, -3055, -420, -914, -2618, 
	5044, -1798, -9202, -7046, -2820, 1290, -6923, -5368, 
	9925, 5271, 8380, 798, 2471, 1333, -6395, 1226, 
	-2712, 1267, 4404, 6477, -294, -1769, -5638, -4843, 
	3214, -3717, -5662, 442, -2086, -5461, -1231, 3291, 
	2346, -1109, -4476, 6315, 4355, -1652, -563, -2542, 
	8169, -5625, -6156, 3364, -4821, -2329, 902, -2306, 
	5332, -1836, -7256, 6031, 2793, 253, 633, 6307, 
	2753, 4351, -5246, -2860, -2092, -3936, -4116, 328, 
	3663, -8622, 5741, -980, 4590, 5787, 3458, -472, 
	9190, -7543, -5166, -5775, -977, 2526, 224, 824, 
	-3419, -303, 5172, -1383, -1270, 5658, -6795, 4253, 
	1298, -3651, 1464, -802, 651, -3542, -342, -1359, 
	-710, -1009, 12515, -5664, 4952, -1170, -5445, 3111, 
	-2144, -4984, 5552, -504, 3487, 4439, -1371, -3729, 
	-3297, -4982, 5426, 7389, 3972, 7614, 1493, -3197, 
	-5381, -5744, -8645, 1077, 2678, 2112, -492, -423, 
	3986, -348, 2045, 1044, 3367, 7358, -2508, 4289, 
	5165, 6235, 5742, -5890, 2748, -2862, 2478, 1552, 
	763, -4131, 2012, 4122, -1158, 6987, -1924, 1033, 
	-2234, 7484, 3051, 4718, 1981, 1123, 4958, -4902, 
	622, -3148, 11575, 6990, 2848, 1573, -1974, -4185, 
	5971, -3882, 3880, -5881, 1704, -839, -1475, 4335, 
	68, -3546, 4663, 3394, 1256, 5444, -2634, -887, 
	7616, -1058, 10172, 4351, 3450, -2945, -4708, 3035, 
	5317, 2331, 8266, 3964, -2273, 1752, -2630, -1650, 
	7629, 5722, 912, -803, -5024, -1907, 1039, 4941, 
	1698, 1266, 5580, -4886, -3252, -4680, 861, 1185, 
	-5665, -10370, -2177, -3529, -2775, -293, 5878, -4529, 
	-5577, -5376, 9385, -705, 1142, -9289, 317, -530, 
	-1099, -10189, -7169, -4398, -1709, 7060, -4963, 6518, 
	3916, 6757, 6394, -11289, -3037, 94, -1928, 3542, 
	4923, 839, -8232, 5106, 28, -1077, -5534, -2378, 
	-1117, 3012, 5707, -12144, 2949, 3201, 6760, -2620, 
	2806, -12769, 2567, 3035, -2821, 3125, 2493, 1692, 
	184, -3518, 6789, -3864, -1351, 1365, 5336, 2933, 
	67, -14422, 854, -2049, 2920, -3386, -2641, -1719, 
	-2028, 6237, 10216, -1336, 1837, -944, -2496, 7056, 
	97, -3265, -4144, -2241, -4531, -3404, -4472, 3451, 
	-2236, -3986, -6959, -12257, -905, 1091, 712, -2302, 
	131, 3546, -4739, -3204, 4354, 3975, -2576, -5978, 
	-737, -9764, -2062, -12876, -4152, 1797, -3802, -1483, 
	-3472, -4357, -6013, 4373, -269, 4332, -3120, 3894, 
	5264, 5791, 3835, -1066, 5808, -4464, 1195, -3907, 
	-3195, 1075, -2481, 3623, 1917, -528, 3331, -1162, 
	-4573, -1209, -4478, 7891, -2525, -4871, -3637, 8209, 
	4654, 1767, -2964, -1187, 6798, -617, -6587, -3502, 
	1711, 503, 14111, 12891, 5319, -218, -4412, -2536, 
	-5790, 11650, -5908, -951, -599, 1227, -2259, 6494, 
	-2412, 1390, 10954, 12684, 1348, -616, 6133, -4675, 
	-8216, 9171, 1459, -2884, 2593, 3979, 90, 7704, 
	5281, 12, 7156, 6219, 3479, -4730, -1124, -2969, 
	-4032, 13629, -5837, -1111, 7963, -3738, -4504, -514, 
	-3744, 6169, 6018, -1858, 2389, 461, 6141, -1609, 
	565, -1361, -8047, 5705, 6630, 6673, -3311, -710, 
	-2261, 3777, 993, -3113, -725, 6481, 7646, -5721, 
	-6011, -4758, -123, 236, 753, 5714, 5126, 4192, 
	-1039, -906, 27561, 8241, -1772, 2486, -5666, -1693, 
	5270, 4085, 1923, 2515, -1391, -6274, -5734, -3524, 
	1734, 6425, 12582, 12806, 473, 6948, 3785, 2850, 
	-519, -7664, -6751, 5548, -558, 1954, -717, -4866, 
	1069, 3401, -283, 1183, -2216, 5076, 280, 4917, 
	3271, 4597, 451, 2428, -7162, 3643, -4959, 3387, 
	2453, -919, 15708, 91, -3964, -8371, -6406, -1675, 
	4206, -5326, 4159, 3614, -2044, -4837, 2631, 2058, 
	3143, -2591, 7312, 4305, -358, -4518, -1027, 5559, 
	8562, 5772, 7000, -4555, -3607, -4564, -3178, -725, 
	-1100, 865, 8678, 630, -620, -10256, -3307, -3476, 
	-662, 6998, -683, 1162, -2167, -5831, -1690, -1794, 
	-6350, -2888, 12760, -1182, 4356, -4058, -1699, -4635, 
	-4271, -353, -5276, -4310, 4679, 3940, 4470, 6769, 
	-352, 2740, 11828, -4575, -3210, 2920, 353, 893, 
	-148, -1114, -4684, 4199, -3941, -3800, 936, 2604, 
	-3930, -3753, 9664, -7810, -4518, 220, 5961, -4247, 
	3642, -2171, 2953, -6237, 4087, -4009, 4026, 1836, 
	4828, -2896, 1676, 19, -3812, 4489, 1975, 1201, 
	3506, 2255, -8406, 946, -1858, 3184, 3688, 1171, 
	-2093, 2371, -572, 343, 1154, -620, 5995, 771, 
	-4340, 5414, -5427, 2819, -3009, 1161, -3956, -2689, 
	3639, -3252, 5876, 8576, 4747, -1639, -3103, 1794, 
	276, 9955, 1, 4667, 2671, 2681, 1971, 1440
};

static dl_matrix3dq_t conv2_filter = {
	.w = 3,
	.h = 3,
	.c = 16,
	.n = 16,
	.stride = 48,
	.exponent = -16,
	.item = (qtp_t *)(&conv2_filter_item_array[0])
};

const static qtp_t conv2_bias_item_array[] = {
	-3755, 14635, 17859, -10852, 3194, 3536, -17091, 2991, 
	-4683, -4385, -4317, 16867, 5609, -1568, 12001, 7411
};

static dl_matrix3dq_t conv2_bias = {
	.w = 1,
	.h = 1,
	.c = 16,
	.n = 1,
	.stride = 16,
	.exponent = -17,
	.item = (qtp_t *)(&conv2_bias_item_array[0])
};

const static qtp_t conv3_filter_item_array[] = {
	-2487, 8112, -3071, -5760, 4063, -283, -5894, 583, 
	-1491, -1493, -1015, 350, -3750, -11118, 18, 244, 
	-3076, -661, 7601, -8359, 1996, -1884, 1996, -693, 
	6424, -2549, -2762, 1149, -2218, -7615, -1817, 797, 
	-7589, 5633, -2201, -10483, 2028, -2884, -6133, 4261, 
	7333, -2716, 2684, 320, 891, 2145, 6768, 1162, 
	-1366, -1949, -2550, 2037, 4244, 3140, -119, 11, 
	-7561, 1476, -1645, 2053, -1291, -6929, 1275, 417, 
	-4356, 5151, -1847, 1248, 5600, 496, 4854, 7072, 
	-608, 4252, -5921, 2585, -2018, -2300, -1794, -7874, 
	-1580, 8143, -2189, -3246, 3838, -4067, 3182, 3348, 
	-1659, -5691, -92, 469, 621, -2745, 707, 1126, 
	-3237, 2486, -6674, -1479, 290, -625, 5090, 6311, 
	-4781, -5887, 4741, 487, -866, -5012, -5753, 1329, 
	1965, -943, -1549, 5976, 3756, 3253, 6269, -4226, 
	3228, -3050, 6166, 980, -1497, -1255, -3223, 8202, 
	-1861, 1881, -4407, 3296, 1360, 6193, 3097, 1399, 
	6266, 1754, 5617, -3725, -1170, 1717, 1015, 6681, 
	-5298, 3964, 5832, 2670, -1029, 5383, -1691, -9032, 
	-4285, -5835, -2023, 687, 6021, 879, 948, 5218, 
	4923, -2547, 2801, 5680, 338, -1246, 11, -1007, 
	-1620, 3575, -3654, 4405, -4944, 2531, -246, 3785, 
	2340, -727, -454, 3020, 1909, 1222, 4813, -2213, 
	5624, 13, 5292, -3863, -5649, 2068, 4774, -2407, 
	1226, -2099, 5260, 3553, 1380, 4008, -453, -1847, 
	-3468, -5923, -3325, -4261, 2298, 7672, -519, -3336, 
	-3964, -3308, 407, 2843, -3891, 2765, 4542, -6476, 
	3091, 2087, -9130, -2200, -4033, -707, 6355, 2620, 
	-845, -5136, -5132, -1253, -1390, 3299, 2317, -4928, 
	-3157, -4885, -3330, 3014, -2742, 1080, 3223, 173, 
	4281, 4713, 929, 5195, -1078, 1834, 4717, -4820, 
	-4407, 1502, -2357, -2065, -2903, 8674, -213, -5053, 
	-50, 6353, -5260, -132, -6076, 3465, 508, -4031, 
	-3415, -2626, -3177, -4122, 3603, 2626, -2686, -1115, 
	186, -3034, -2707, 2279, -964, -5723, -1720, 3811, 
	-4171, 4488, -6006, -4487, -2912, 4528, 5814, -9523, 
	-4353, -3914, 3845, 5635, 1755, -2134, -3455, 6752, 
	2771, -4474, -1972, 225, 5827, 5170, 5190, -560, 
	1710, 940, -2055, 2763, -1578, 1251, 2270, 7049, 
	-699, -1153, 564, 6521, -334, 4983, 5450, 836, 
	-1031, -2842, 3616, 5118, -155, -5488, 2942, 6930, 
	107, 3985, 4895, -606, 1408, -42, 7186, -1052, 
	-1433, -2360, -4751, 2677, -4107, -6773, 5036, 3779, 
	-3552, -4458, 5990, 2773, -6810, 7190, -3627, -82, 
	-6818, -3802, -4378, 2687, -6532, -5136, 3972, 801, 
	-5724, -4541, 4663, -5169, 760, 11969, -3774, 5599, 
	-1693, -498, -2667, 7866, -5315, -4493, -594, 77, 
	1461, -2893, 6311, -2034, -6062, 1855, 4603, 5096, 
	-3389, -7301, 2659, 7167, 3110, 6835, 812, 5272, 
	4111, 2259, -2838, -3394, 589, 10502, 551, 1912, 
	-4296, -4751, 6805, 359, 4272, 1633, -5231, -2289, 
	438, -3195, 360, 4010, 5559, 2646, -731, 3585, 
	2756, 1188, 3140, 7160, 154, -1128, 226, -4036, 
	2235, 3227, -4989, -1112, -1274, 4785, 5567, 8920, 
	1506, -2353, -2601, -2239, 5060, -7921, 1225, -2221, 
	5009, -3907, 4364, -88, -4322, -3595, 2967, 1228, 
	2286, -2855, -3072, 4493, -3260, -3777, 4658, -5657, 
	2786, 5356, 2776, 161, 3164, 6409, -2322, 1641, 
	5570, -6261, -2416, -2082, 90, 2560, 3380, -2170, 
	-1411, 1000, 3899, -4884, 134, 4753, 33, -2138, 
	3946, -4608, 830, -3080, 5222, -757, -2837, -1335, 
	4622, 2190, 6205, -4858, -6067, 1975, -121, 2009, 
	5901, -5485, -58, 3145, -4228, -918, 464, -619, 
	2941, 4753, 4499, 1420, 2843, -100, 711, -316, 
	319, 1349, -1653, -3730, 3373, 2500, -4467, -12082, 
	-91, -503, -432, -3978, 973, 3739, -5369, -3017, 
	-1677, 5252, -1732, -4528, -3483, -5536, 5499, -3093, 
	2618, 6890, 4086, 4266, -5991, -1152, 1083, -2539, 
	3053, -4916, 2656, 2152, -1425, -394, 4988, -5256, 
	1621, 6327, 2940, 1959, -4115, 4206, 97, 5217, 
	2729, -3548, 310, -2426, -2209, 3797, -3025, -5181, 
	-3669, 6640, 4916, -4644, -5212, -1343, 3653, 5963, 
	5013, -6109, 1945, 3313, -9377, 255, -2271, -10449, 
	-2937, -1168, 3330, -786, -5350, 4751, 1229, -6476, 
	3310, -274, -5890, 1662, -681, -4317, 6101, -5475, 
	2524, -2689, -2516, -1828, -3013, -1934, -130, 1822, 
	-650, -4594, 2959, 2176, -4954, 2602, -1307, -7875, 
	-1236, 3303, -324, 2674, 1759, -185, -2105, -5437, 
	7131, -8000, 96, -6561, 796, 3434, 2812, -11995, 
	5481, 2582, 5258, 57, 2466, -7941, 2087, 5429, 
	6178, -3765, -3489, -4493, -5093, 4123, -3536, 880, 
	6274, -421, 4876, -4511, 3004, -1040, 4952, 1243, 
	976, -5029, -5971, 4328, 3178, 2359, -483, -600, 
	6551, 1556, 1803, 5394, 3488, 3329, 2456, -1050, 
	5561, 1664, 1615, 3655, -2460, -2283, 489, 620, 
	3958, -2532, -2284, 2686, 4682, -5614, 1479, 104, 
	-1569, 957, -78, 2758, 2942, -5201, 4077, 3841, 
	-4085, -3977, 3752, 237, 3221, 970, -2109, -5097, 
	3330, -3595, 1939, -3679, 5077, -7052, -1839, 4893, 
	-34, 1211, 6112, 344, -3801, -2009, 2044, -7372, 
	4841, -138, -3412, -1062, 1768, -4268, -3840, 2665, 
	-3351, 630, -1338, -1585, -676, -6187, 1814, -57, 
	795, -3050, 857, 5006, 3439, -1204, -4889, 863, 
	-3409, -309, -1710, -4737, 206, -6176, 1134, 6996, 
	-1372, -6000, -3473, 6988, 691, 2331, -3211, 6261, 
	3425, -3283, 5451, -5609, 2939, 2474, -5644, 7018, 
	4360, -6660, 799, -3393, -3829, 177, 1596, 8413, 
	3774, 744, 4919, 4006, 4150, -5138, -452, 6294, 
	2883, 609, 4907, 8381, 1250, -3886, 3708, 6074, 
	702, 392, 4149, 646, 3450, -2210, 2559, -1290, 
	-5764, -5802, 1103, 1292, 1244, -2114, 1491, 2401, 
	-4915, 2614, 3255, -104, -1699, 2773, 908, 3843, 
	1600, -316, -2792, 2359, -2585, -6031, 3910, 5733, 
	-4945, 667, -3284, 2713, 6236, 4571, -2991, 3819, 
	3656, -2857, -2360, 6108, -63, -5937, 3362, 302, 
	-5751, -1072, 2381, -5647, 4366, -2676, -1768, 3790, 
	2178, 59, -2140, -2975, 3980, -5022, -7468, 3930, 
	-5718, 556, -4196, -2069, 2477, -3072, 4279, 4096, 
	5511, -5302, 2568, -5062, 5075, 6085, 3833, -9993, 
	-3602, 324, -2173, 1564, 3306, 617, -3269, 996, 
	8446, -3204, 2128, 7091, 4476, 4553, 4016, -1670, 
	1984, -4828, 181, -1866, -3689, -1408, -4839, 2790, 
	6229, -1207, -429, 963, 4540, 5433, 4113, 1492, 
	716, 1525, 4163, -4785, 4916, 4417, -7410, 7217, 
	6558, 4298, 7534, 6443, 7510, -1721, -5591, 1249, 
	1506, -2653, -160, 3026, -1008, 6289, 4800, -4496, 
	-1189, 1335, 3902, 8694, 8048, -1603, 3053, 1174, 
	6909, -207, -1119, 5467, -2340, -276, 2237, -5422, 
	-3816, -692, -2958, 9202, 2049, -2888, -1852, 6037, 
	-3455, -3239, 2717, 5505, 2365, -297, -4018, -533, 
	-411, -2125, -4159, -10, 1071, -5412, 3890, 2786, 
	3059, 1386, -3301, 4012, -2205, 7492, -2719, -3054, 
	-3401, -497, -5636, 5448, 2008, 3339, 4715, -352, 
	-2011, -692, 6098, -3454, 2570, 5043, -2938, 2314, 
	-959, 2345, -3199, -1334, -3731, 2057, 924, -4291, 
	1714, 351, 6286, -3399, -2370, 1951, 1662, -2607, 
	772, 1062, -3298, 5031, -1012, -2916, 2021, -1078, 
	2388, 996, -5648, 2385, -2847, 5982, -3646, 6433, 
	-3307, -812, 527, 2733, -3625, -5718, -2761, 926, 
	2427, -4182, 2505, -5434, 6730, 8798, 2193, -3242, 
	-5075, 229, 70, -2884, -2830, -415, -4403, -7304, 
	-537, 2409, 1826, 1632, 2467, 2151, 4576, -2464, 
	-4502, -4906, -1865, 8116, 3495, -4520, 498, 1493, 
	4754, -5434, -4012, 3400, 6325, 5068, 2671, 37, 
	-511, -4339, 3634, 8436, -162, -352, -1137, -6990, 
	4972, -5140, -4250, -5365, 5142, 8032, 93, -4236, 
	-826, 3203, -844, -1340, -4446, -1500, -3762, -5843, 
	-1099, -2336, 4791, 2583, 5102, 4991, 627, 3092, 
	1088, 59, 1978, 4522, -623, 3604, 1634, -2340, 
	-4804, -6172, 5236, 4196, 6348, 426, -5635, 134, 
	-570, 1473, 2459, 8452, 1341, -5537, -316, -1027, 
	4146, 4175, 3632, -3134, 2747, 1908, -5147, 3422, 
	4043, 2930, 3852, 5662, -4693, 4743, 1878, -804, 
	-2685, -1381, -1826, -3107, 2203, -1924, 1750, -9268, 
	-3034, 1238, 5470, 2660, 10468, 935, -1559, -1883, 
	950, -85, 2816, 2872, 2675, -5206, 3892, 4138, 
	2741, -2304, 7192, -952, 3791, 4289, -1620, 6377, 
	-3428, 1276, 1213, 4519, 7656, -2691, 1919, -2559, 
	-7205, 2039, 6784, -5230, 3528, 5038, -6675, 3472, 
	1808, 879, 3060, 663, -12, 518, 2515, 83, 
	-1050, 5188, 1789, 5479, -4266, -165, 773, 5378, 
	2216, -921, 7598, 5095, 2520, 4269, -6836, 912, 
	-300, 2328, 1579, 660, -6776, -1169, -477, -5668, 
	-4641, 282, -1221, 4930, 26, 7926, -4686, -6355, 
	770, 1298, 1347, 3599, 2973, 4415, 1735, -3747, 
	-4705, 3071, -612, 1190, 6352, -2058, 940, -5189, 
	-2660, -3153, 246, -4122, -6326, 2770, 282, -10728, 
	-5144, 2195, 669, -6032, 1471, -1266, -4941, 5247, 
	-1897, -7393, 5133, 2708, 2148, 5339, -348, -5806, 
	-826, 839, 2143, -2304, 4127, 4167, -5448, 4876, 
	-3841, -5332, -3074, 4884, -250, 538, 2049, -9966, 
	245, 881, 2562, -2588, 6166, -1397, 2568, 11314, 
	-497, -1410, -1066, 5496, 2463, 3193, -1836, 340, 
	5690, 5206, 4603, -2797, 1690, 819, -3404, -7768, 
	-2032, 4687, -986, 2001, 4749, 1608, -3457, 1061, 
	7047, 4823, -176, 2156, 4038, -63, 3924, -2274, 
	1980, 1, -1001, -2564, 1750, 6244, 2424, 6276, 
	4473, 3430, -3786, 848, 6021, -5768, -2581, -780, 
	4727, -3607, -2498, 4878, 2883, 605, 631, 5961, 
	3677, 3536, 1345, 1131, -4279, -2809, 5711, -7743, 
	2536, -1897, 1808, -1382, 4568, 603, 771, -3861, 
	4650, 3523, -1964, -75, -5603, -2535, 3491, -324, 
	-680, -2341, 1776, 4679, 441, 4396, 6647, 7337, 
	-1490, 1232, -645, -3434, -4356, -5049, -4237, 500, 
	4518, 242, -1260, 2141, -5259, -5, 2869, -1682, 
	3669, 2960, 5221, 2443, -8139, -6399, -2548, 452, 
	-718, -4489, -2769, 3421, -3067, -3121, -2444, 84, 
	689, 1493, -2621, -6472, -4447, -4826, 2187, -2335, 
	-3688, 2407, 1726, -2994, -1142, 7311, 1401, 740, 
	3190, -4910, -5303, -349, -699, 2723, -1865, 6785, 
	1839, -3396, -3660, -1157, -773, 2830, -5160, 8600, 
	5705, 1020, -408, 1617, 3699, 9233, -146, 2698, 
	-6987, -4871, -6369, 7293, -5732, 438, -1396, 3525, 
	2918, 862, 4975, -4643, -4112, 8257, 272, 5957, 
	-392, 2291, 1531, 3578, 5704, -2709, 1745, 4415, 
	-1581, 180, 1280, -4252, -2802, -2144, -978, 5645, 
	-2181, -9274, 1658, 1030, 576, -7897, -2244, -10140, 
	-2537, -4153, -4304, -2693, 2669, 3522, -4390, 4323, 
	2213, -12583, -3594, -2548, -7019, 2045, 2372, -1627, 
	5551, 4062, 666, -6640, -4323, 11109, 6902, 2370, 
	6238, -4958, -193, -4976, -1741, -6206, 538, -2621, 
	-3101, 439, 1328, -4903, -1166, 224, -1551, 7539, 
	2496, -898, 8377, 6905, -3571, 1804, -332, -382, 
	6727, 6399, -9001, 211, 3665, -3825, 3491, -2549, 
	2166, -2867, 4508, -3037, 5892, 2675, -4314, 3559, 
	1277, -1205, 1296, 3000, 4747, -3886, 5770, -933, 
	4919, -11278, -793, -355, -2981, 2725, 5448, 165, 
	4185, -1028, -757, 7024, 5335, 1394, 1358, 1147, 
	-1544, 811, 965, 9122, 902, -2094, 217, 3326, 
	4309, -1284, -392, 537, 2584, 1820, -6178, -153, 
	-1091, 6196, 626, -2126, -71, -2140, -889, 900, 
	3009, 2496, -8691, 275, -5210, -2213, 4893, -3928, 
	-938, 6993, -822, 458, 4405, 4523, 2965, -905, 
	-285, 1440, -4903, 4136, -2882, -7404, 1273, -3668, 
	4709, 2553, -1554, 2508, -1147, 2293, -2151, 4584, 
	-2298, -2043, -4250, -1490, 5923, 2832, -4517, 3998, 
	2115, -304, 268, 2926, -4893, 6649, -4617, 6391, 
	-5684, -3054, -9580, -1052, -2465, -2375, 3643, 4218, 
	4553, 9027, -603, 4117, -10, 4367, 1069, 3107, 
	4524, -2279, -5891, -861, -810, -7320, 2430, -305, 
	4593, -3487, 7039, -531, 2712, 3099, 2070, 418, 
	4607, -7267, -2839, 4933, -1001, 7549, -5387, -870, 
	2866, 7321, 129, 1129, -4154, -3376, 3740, -4496, 
	-1958, -3721, -2997, -386, -5690, -345, -2103, -1319, 
	4559, 7181, -515, -3970, -3163, -852, 4793, -3247, 
	-3385, 1037, -4237, 2053, -1521, -2261, -4636, 2149, 
	5233, 5194, -2763, -3751, -2176, 1839, 2781, -6803, 
	-4015, 1894, -4598, 4176, -3160, 534, -4880, -3949, 
	6195, -1432, 1193, -1853, -1546, -3392, 858, 3080, 
	2162, 810, -1519, -4311, 2393, 3200, 4064, -3248, 
	2835, 1210, -537, 2804, 4291, 116, 3100, 2860, 
	-4452, 350, -2028, -2751, -911, -773, -2046, -6673, 
	4517, -6473, 22, -3807, -6990, -370, 4406, -4577, 
	3704, 3506, 2760, -1621, 2928, 5010, -1369, -2104, 
	3695, 1347, 3348, 3015, -374, 4737, 3913, 3088, 
	2488, -1544, 2460, 5551, 7380, -5079, 5440, -5564, 
	3616, -370, 440, -3399, 1314, 6775, -2584, 4442, 
	1825, 3375, -1103, -2909, 1371, -4004, -611, 901, 
	1377, -1846, 2701, -3490, 3077, 2648, 1481, -3083, 
	-4028, 1712, -4313, 303, 1367, -1284, 4288, 1456, 
	-2771, -1976, 3923, 1549, 409, 4270, 1030, 468, 
	-821, 2674, -3873, 3221, 5438, -2299, 3192, -3570, 
	-4730, 1183, -5701, -2596, -2848, 1194, 2285, 1939, 
	277, 6277, -3492, 3864, 3816, -8612, 1747, -7765, 
	4123, 4473, -4252, 1435, 2018, 2423, 6651, -5566, 
	825, -1583, 2258, -4641, -5783, 286, 2287, -9210, 
	1589, 638, -7550, 2071, -1735, 3645, -29, -8817, 
	-1573, 4019, 7061, 3966, -8124, 461, 4194, -9566, 
	-958, -3322, 4098, -3324, -9194, 4908, 8583, 454, 
	1524, -5241, -2296, -791, -670, 1815, -2815, -5207, 
	880, -4411, 1228, -9677, 6898, 3169, -4965, -1790, 
	3493, -1693, -2406, 5440, 7236, -5878, 992, 8133, 
	6209, -1272, 7807, -13735, -2912, 9569, 3651, -8823, 
	1479, -2262, 3316, -1621, -3080, -1374, 7625, -224, 
	-3595, -5984, 6334, -8504, 2767, 11240, 2354, 2573, 
	4446, -3497, 2091, 2789, 720, -5907, 4928, 7875, 
	-6732, 5587, 2936, -4921, 7723, -1957, 1816, 6635, 
	-3539, 135, 1459, 8936, 7215, -8803, 5149, -906, 
	3538, 5802, 6883, 750, 2503, -3559, 2630, 1237, 
	-1504, -1636, -5689, 1911, -3544, 1395, 5265, -7530, 
	70, 6882, 3997, -4322, -214, -6188, 4131, -3356, 
	-5668, 2072, 3210, 8421, 930, -824, -414, 676, 
	31, -10817, 484, 3432, -4077, -2098, 2943, -6215, 
	-6576, 3284, 6602, -5958, -5339, 15629, -6228, 5776, 
	-6854, 540, -8981, 3951, -4279, -947, 10271, -3378, 
	-6554, 7058, 10033, 2310, 1328, 18941, 79, 9191, 
	-8174, -1207, -4148, 3066, -1290, 5468, 5490, -1994, 
	-1995, 701, 2486, 306, -523, 11023, -5789, 1231, 
	-3027, -3212, -3526, 2111, 5857, -1120, -2230, 414, 
	940, 2745, -34, -6638, -1688, 6989, 1911, 4962, 
	51, -111, 406, 4373, 1284, -858, -3361, 731, 
	8087, 6244, 8223, 2331, -2509, 13271, 5230, 11802, 
	-5807, -3875, 1761, 2009, -3940, 77, -6050, 1855, 
	-3019, 7301, 889, -3733, 1569, 11267, 2762, 11545, 
	-2754, -565, -1178, 5121, 37, -3764, 1130, -718, 
	2368, -4444, 1829, 3798, 7325, 8948, -964, -4784, 
	-6844, -3109, 822, 3899, 4668, -4463, 2089, 3858, 
	3763, 4569, 486, 8533, 983, 6107, -3586, -287, 
	-6053, -4559, -1636, 7948, -713, -7549, -5901, -144, 
	-1979, 2867, 6265, 1175, -28, 11277, 3001, -5490, 
	-3524, -964, 664, 530, -7536, -2764, 1673, 3771, 
	6, 1407, 6128, -934, -6875, 6221, -4663, 4735, 
	-2400, -5024, -3771, 6809, -2865, 895, 4239, 1363, 
	-5298, 6009, 6136, 1128, -4365, -675, 3561, -3639, 
	1002, 3209, -1646, 3093, -4454, -4180, -2148, 1666, 
	-2488, 179, -1466, 2042, -181, 839, 3003, -5313, 
	-1470, 2575, 4074, -10897, -3732, 725, -134, 1355, 
	-4210, 8054, 3947, -7286, -631, 2695, -2521, 7541, 
	3383, -1652, 5581, -1719, -2112, 3826, -6491, -1011, 
	-4594, 7805, -2511, -8250, 3436, -4164, 538, 5334, 
	626, -1417, -3829, -3214, 1732, 3232, 2289, 4366, 
	298, 4043, -5321, -2402, 705, -8730, 8626, 7955, 
	-1106, 2451, 4467, -5885, 1541, 1576, -6163, 4041, 
	1951, 10328, 1242, -586, 3340, 483, 5054, 2284, 
	-807, -2120, 3828, -7083, 1193, -4069, -3528, 7190, 
	-1793, 5611, 1491, 3243, -2284, -617, 6748, 886, 
	197, 699, 494, 2443, 5418, -3613, -6545, 2092, 
	-828, -2215, 1056, 1151, -543, -6478, 6751, 424
};

static dl_matrix3dq_t conv3_filter = {
	.w = 3,
	.h = 3,
	.c = 16,
	.n = 16,
	.stride = 48,
	.exponent = -16,
	.item = (qtp_t *)(&conv3_filter_item_array[0])
};

const static qtp_t conv3_bias_item_array[] = {
	16840, -1743, 2756, -7953, 14813, 1751, -15568, -1666, 
	8665, 3319, 6826, 1933, 742, 15564, 1801, -261
};

static dl_matrix3dq_t conv3_bias = {
	.w = 1,
	.h = 1,
	.c = 16,
	.n = 1,
	.stride = 16,
	.exponent = -16,
	.item = (qtp_t *)(&conv3_bias_item_array[0])
};

const static qtp_t conv4_filter_item_array[] = {
	7012, -10118, -14968, -6159, 1276, -8858, -6377, 9791, 
	-8193, 7733, 3203, 5248, 8298, 2207, 9340, 665, 
	12766, -7553, 5640, -407, -117, -13671, -9383, 13118, 
	-354, -2247, 12078, 8641, -1822, -6656, -5065, -2796, 
	-1018, -10374, 16751, 4050, -6985, 2521, -12974, -4437, 
	-2175, 8671, 22696, -8385, 963, 4956, 2291, 1033, 
	6365, 7197, -19812, 11392, 1952, 8085, 3567, 1717, 
	3275, -6502, -5997, 7077, -9419, -6009, -4119, -1351, 
	-9836, 10840, -10232, 1483, -6387, -9439, -3674, 2204, 
	-6239, 9459, 3208, 6018, -3233, -5882, -3538, 2236, 
	5017, -4396, -3370, 8385, 11726, -2671, -8923, -10525, 
	-18880, 4963, 5950, -1147, -9391, -6491, -814, 6541, 
	-6016, -374, -6523, 3252, 2951, -18072, 2610, 15524, 
	2299, -10362, 9169, 11549, 1467, -9774, 3381, 6792, 
	-4917, 10672, 2758, 12561, 940, -15416, -10410, 1691, 
	-8554, 7534, 2790, 2975, -4816, 11748, 3630, 4021, 
	-8829, 7422, -2637, 5341, 4694, -425, 3902, -10672, 
	-14088, 8420, 14635, 3991, 962, 10444, 2522, 14424, 
	-11245, -18041, 7609, 3879, 5981, -16071, -10532, -4874, 
	-3777, 3513, -3438, 2259, 9737, -8361, 8698, -2188, 
	-6991, -17427, -4457, 6500, 505, -5207, -3926, -464, 
	-13776, -7256, 115, 3571, -3586, -1971, 4976, 6199, 
	1480, -13820, -3336, -5790, 3856, -15641, 3719, 3351, 
	-2445, 5201, -749, 9053, 1540, -5188, 10507, -11328, 
	-8410, -15269, -6431, 6379, 12512, -15171, 9560, -2018, 
	-6970, 4773, 17187, 8668, 3422, -418, -3952, -559, 
	326, -24430, -2736, -4185, 4, -15176, 8254, -2279, 
	-17156, -5822, 16317, -973, -5015, -2745, 1852, -2017, 
	-7758, -15417, -611, 6727, -7568, -9333, -517, -6214, 
	-14570, 2096, 6597, -6070, 6591, 7563, 2247, 5187, 
	-3903, -4722, -9362, -11699, 2548, 3205, 6453, -1560, 
	6694, 4078, 16746, 1957, -4672, 6762, -8349, -1265, 
	-2566, -2180, -17037, 3122, -796, -2951, 3687, 2518, 
	-11271, 2412, 14811, 5974, 4242, -4741, -5011, 9131, 
	9940, -13882, -9589, -9015, 5429, -9234, 11731, -1098, 
	634, -8871, 6971, -3569, 2028, 11510, -5533, 2230, 
	7340, -149, 885, 4784, 832, -8939, -6575, 2729, 
	-3459, -5234, 794, -7533, 2135, 1023, 7715, 7826, 
	682, -8553, -6898, 6563, -3252, 2908, 2357, -10160, 
	-951, -5009, 4451, -2190, -8521, -3963, -1141, 5393, 
	8736, 2343, 1765, 3034, 1194, 10310, 5283, 8366, 
	-4885, -7755, -8580, -12689, -8441, -3873, 9210, 2849, 
	9445, 266, 3529, -3965, 606, -5649, -6456, 1492, 
	127, -2974, 6247, 8662, 4343, 11501, -192, -1654, 
	-7649, -15133, -8370, 12276, -8436, 2835, 6082, -10284, 
	7240, 679, -9041, -10410, 5411, 9159, 9505, 4332, 
	12339, -6308, -5707, 8563, -6634, -6300, -55, -3545, 
	11499, 8834, 2971, -12058, -2658, 7231, -9864, 9714, 
	8590, -7407, 5703, 8871, -5826, 3457, 2738, 11140, 
	3071, 7509, -2994, -12144, 3318, -1228, -2608, -6130, 
	3010, -4641, -5389, -883, 2297, -4030, -4505, -8470, 
	14074, 7912, -9907, -2145, 4940, -4957, -8739, 10590, 
	7362, -8414, -5756, 8054, 4805, -1984, -8008, -12448, 
	42, 792, -10998, -3008, -4317, 4640, 8515, -1373, 
	-777, 324, 2075, -18012, -11819, -3249, -6556, -5178, 
	12308, 10247, -3607, -9177, 4697, 4055, -2091, -1106, 
	5654, -8696, 8658, 978, -3313, 13024, 160, -7249, 
	-3102, -5712, 5843, -13704, 4183, 2712, 10758, -3432, 
	-509, 3942, -11015, -12815, -5811, 2584, -5473, -1642, 
	10367, 3989, 582, -5605, -2679, 3391, -10267, 1188, 
	2271, 1444, -7039, -2791, 10408, -2318, -7824, 2525, 
	3505, -5035, 7836, -2007, -7049, 1740, 11827, -2214, 
	8474, -12538, -3213, -2009, 1569, 659, -8814, 3918, 
	-2620, -1443, 7363, -13933, -7464, -148, 1368, 7897, 
	2406, -6489, -1858, -4914, -5203, 6422, 6122, -1265, 
	11298, -11857, 449, 6484, -5249, -8264, 10350, -10643, 
	7252, -560, -3357, 4311, -1179, -2657, -3299, -3894, 
	10009, -7094, 7573, -8428, 1040, -5939, 11654, -590, 
	-9600, -4159, 9073, 3194, 7702, -7815, -5611, 6410, 
	12437, -4145, 4048, -12414, -7959, 14265, 12544, 4239, 
	331, 7079, 12313, 6195, 6553, 11431, -1365, -11072, 
	9415, 6927, 9013, -13926, -7901, -1246, 17810, -2907, 
	-2723, -14982, -2903, -11755, 7247, -5581, 478, 2279, 
	6078, -5041, 1996, 8221, 12158, 1728, -2201, -3418, 
	-3149, -3561, -8611, -6931, -7828, -6418, 2406, 12693, 
	4874, -3425, -10051, -2670, 3277, 7011, -818, -3705, 
	429, -10057, -4502, 5767, 8009, 7199, -6962, 13152, 
	-6979, 7384, -2249, 5557, 4044, -11608, -1273, -12622, 
	-1740, -2054, 2832, 568, -5285, -4417, 6660, -647, 
	-1898, -11273, 4072, -6192, 986, 11915, 11747, -8220, 
	5439, -3483, 2553, 869, 5789, -728, -13544, -3937, 
	7296, 3268, -4935, -1454, -6635, 3615, 4970, -5658, 
	1324, 7029, -1215, 2269, 8424, 8822, -13315, 12688, 
	-10488, -2602, -9524, 2321, -4233, 7721, 6146, -13546, 
	5462, -10586, 11044, 8094, 2206, 8110, -6982, 2923, 
	-2387, -4787, 12105, 994, -4003, 12875, 10646, 1939, 
	-699, 7949, -10614, -8201, 2369, -4462, -1226, -3649, 
	5397, -8810, 392, 2583, 1444, 12390, 215, -6622, 
	-5044, -2674, 2348, 6439, -4749, 3519, -3037, -4681, 
	4747, 3446, -1158, 4457, 2727, -7986, 7546, -11175, 
	-5157, 13800, 14260, 1900, 1442, -4557, -6156, 6700, 
	-12828, 1201, 1112, 8917, -5163, 4264, 10715, -10972, 
	-6843, -128, 20, -1360, 559, -7212, 1771, -4739, 
	-10503, 9726, 7674, 7010, -10008, -7377, 9206, 3300, 
	-8888, -3141, 981, -4855, -3059, -5077, 4570, -8149, 
	-8378, -9782, 9596, -311, -14552, -12029, 3913, -6459, 
	396, -729, 4252, 12381, -1336, -1891, -927, 1013, 
	-726, -8158, 13226, 12423, 1639, 10055, 10617, -5490, 
	-3412, -5082, 11917, 7376, -10536, 7740, 10130, 5471, 
	-14516, -7197, 14674, -4851, -4, 3315, 12822, 7185, 
	3732, 2083, 14053, 11629, 1284, -6155, -8474, 3155, 
	-3815, 2258, 4805, -3763, -3687, 7516, -11482, 2148, 
	9485, 9910, 16683, 3630, -10143, 1810, -2168, -3029, 
	623, -4031, 10637, 3783, 5794, 2382, 6470, -9004, 
	-1257, -9211, 20057, 10080, 7926, -6110, -6639, -2357, 
	-8381, 2706, 832, -4213, -8421, 7543, -1876, -4223, 
	-7063, -16507, 10585, 8695, 68, 369, 99, -8873, 
	4173, -4857, 8794, 2600, -13795, 5773, -3706, -885, 
	-3623, -6464, -3381, -5217, -4937, 6796, -4666, 11117, 
	-12777, 8437, -3724, -6864, 4292, -8715, 11774, 9678, 
	-7051, -12150, 351, 4885, -1609, -594, -3685, 8541, 
	3321, -7681, 7768, 4034, 7331, -1986, -6292, 11516, 
	-357, -1201, -3968, -2094, 6716, -375, -11304, 468, 
	-1577, -1197, 6339, -3974, 4320, -3562, 1519, -9892, 
	-13431, -7401, 5615, 4343, -1137, -462, -5063, 6591, 
	1586, 11873, 17385, -6951, -1882, 3100, 11447, -436, 
	-6980, -4395, 3456, -1604, 10342, -7104, 9861, 5335, 
	-11846, -6357, 4275, -5033, 2160, 9167, 3711, 10020, 
	-5876, -13446, -1789, 8057, 8821, -4112, 7720, 1270, 
	-15100, -4290, 5596, -2482, -2887, 1065, 12380, -1898, 
	5477, -5179, -16475, -8081, -2830, 6074, 8246, 4370, 
	-7902, -6427, 2703, -3681, -5776, -6401, -10047, -2193, 
	6415, -6993, -14167, -10862, 5822, 5768, 6980, 8632, 
	-6468, -7111, -9289, 10192, 1886, 12065, 7658, -6155, 
	-5550, -6444, -1926, -1305, -3712, 7059, -7090, 11325, 
	-4215, -6864, 7705, -2401, 331, 8126, -1852, 7861, 
	12988, -773, -471, -4985, -4915, 4918, -11384, 15052, 
	5380, 10358, 10, 4744, 17578, 10437, -1817, -9823, 
	14937, -4653, -682, -7519, -2786, -3485, 9133, 697, 
	-8414, 4564, 6670, 8431, -43, -7399, 5671, -4847, 
	10576, -2097, -9116, -3706, -5326, -5690, 9576, 12479, 
	8794, -3154, 2783, 8264, -8274, 6287, 8400, -6523, 
	-2239, -10602, -5699, -2478, 6835, 11387, 3874, 11623, 
	4039, -4689, -6188, -5951, -2391, -1780, 5783, -3319, 
	3893, 326, -13398, 7043, -2807, 3907, 5907, 15129, 
	11983, 6669, -5003, 7602, -405, 2467, -3706, -8533, 
	-8751, 622, -10914, -5472, -10879, -3602, 11489, -3572, 
	-10453, 10488, -5878, 903, 1101, -6776, -8783, -5979, 
	9919, -14875, -7806, -5268, 9690, -8161, -10906, 12512, 
	11719, -9454, 4739, 6788, -6785, -1847, -4727, -5645, 
	-4272, -3204, 1089, 13425, -2554, 7965, 7330, -3475, 
	-7051, -6190, 9142, -7242, 4309, -2592, -9569, 6214, 
	3651, -3761, -7318, 11422, -2988, 1395, -7091, -1001, 
	-9809, 5391, -4256, 4798, -4968, -11443, 3939, 5291, 
	2343, -8727, -308, -1313, 9432, 9725, 7962, -2307, 
	-3825, 9161, 2431, 1957, 8359, -3994, -2960, 5813, 
	12922, -1115, 11231, -6354, 7189, 10106, 7728, -10491, 
	-6804, 7914, -2896, 6345, 13638, 10384, 8513, -3286, 
	14359, 4880, 13588, -5761, 1090, -4520, -5666, 646, 
	12082, -1416, -10007, 2204, 79, -3329, -1688, -10507, 
	-7381, -7892, 9524, -4449, 6873, 6053, 6974, 5486, 
	6640, 4572, 7070, -7367, -6087, 9581, 12088, -2120, 
	6479, -8931, 349, 1424, 434, 2606, -3914, -11207, 
	-242, -6460, -7795, 12450, -14670, 5101, 7947, -10479, 
	9866, 2595, 11340, 7086, 6692, -784, -8421, 343, 
	7043, -12201, -6936, -5245, -16527, -3483, 9621, -10983, 
	-11171, -7153, -12353, 7083, -2656, 10454, 862, -8114, 
	-3870, 5020, 3087, 8223, -14391, 1037, -8206, -5665, 
	-12583, -12559, -9817, 563, 10729, -6757, 331, -11490, 
	7007, 7323, 11866, -9544, -15762, -8481, 4880, -1041, 
	3150, -19963, 5645, -9973, -10746, -18024, -9598, -5357, 
	-4747, -12702, 4324, 6322, -23477, 5620, -8827, -7909, 
	10786, -2212, 11176, -13675, -163, -1162, 11845, -9295, 
	12295, -11533, 14129, -2572, -9878, -2755, 3159, -1067, 
	5439, -12257, -4184, -10917, -13877, 2324, -10210, -11117, 
	2479, 5570, -9805, 2466, 6156, -1221, -13336, 10058, 
	-7265, -9396, 2108, -11398, -9568, -5304, -14677, 3567, 
	10616, 6175, 13316, -6388, 11135, -4001, -12959, 5522, 
	-7390, -8121, 10792, -9565, 5516, 7716, -3518, -1370, 
	-5289, 397, 11294, -100, 11408, -6747, 5438, 3996, 
	-3004, -11697, -2925, 8717, -3656, -8240, -7801, 1830, 
	14624, -2100, 8000, -4493, -819, -12838, -2448, -6194, 
	8451, -10787, -2651, -8158, -10787, 5169, -6488, 9078, 
	6405, 416, 3100, 9580, 14375, 10424, -9769, 8541, 
	7070, -12940, -4672, -2887, -5488, 13248, 343, 6121, 
	8937, -3074, 3303, 8952, -421, 4540, -628, -3443, 
	-1080, -9555, 2594, 12347, -1412, 3925, 184, 10836, 
	9088, 1058, -865, 8258, 7959, -9526, 5743, 4103, 
	10216, 320, -8941, 10108, -5654, 8848, -3656, 10493, 
	597, -1183, -6015, 2192, 8812, 6236, -10153, 11835, 
	12951, -238, -6532, -861, 2069, -5224, -4648, 5947, 
	935, 3925, 8363, -4960, -10125, 11487, 3406, -1847, 
	-4650, 4688, -7329, -2106, -6604, -8095, 5525, -1979, 
	-4947, 9776, 9416, -5411, -2452, -1382, -3803, -9954, 
	6053, 5661, -10101, -5335, -3694, -961, -5952, 3287, 
	4094, 11492, 2712, -8561, 6120, 7631, -425, 7048, 
	791, 16288, 13216, 5520, -5928, -3784, -10395, 1297, 
	-699, -583, 1206, 6902, 3801, -7679, -10740, 8613, 
	-3812, 12749, -2205, -9589, -6279, -4255, -6300, -811, 
	-5836, -2332, 4905, -1081, -7981, -8241, -1072, -9152, 
	-3829, -8959, 9094, 4177, -3466, -110, -5772, -12238, 
	7056, 7704, -6752, 978, -8332, -122, 366, 3171, 
	12682, -3826, 2444, 1412, 6801, -1128, -6529, -391, 
	-7155, 7926, -13287, -262, 10180, 13208, 3265, -5409, 
	-4620, 12569, -2877, -3978, 10337, 6841, 7127, 10999, 
	-6261, 480, 8445, -2050, -3779, 4168, 11445, -11205, 
	-1825, 85, 1863, 4109, 5917, -7190, 13067, -6041, 
	10308, 1644, -7437, -10268, 11484, 10058, 4683, -4580, 
	10685, -6935, -17828, -11707, 9521, 11888, 10857, 3411, 
	11246, 1567, -15450, 2536, 805, 12412, -4452, -55, 
	-1869, 13095, -13848, -9338, 9657, 11309, 10749, -7131, 
	7213, 1793, -164, 7747, 3028, 9626, 7112, -725, 
	1889, -8203, -4183, 1434, 6260, -1781, 2421, 192, 
	10193, -6234, -11465, -7383, -2021, 294, -5393, -998, 
	4768, -4954, -6979, -14467, -2728, 8756, 2735, 4643, 
	1448, 11117, -13485, 10731, -284, -3737, -10414, -9893, 
	14150, -3238, -10411, -7787, 6485, 6466, -408, 9049, 
	12041, 7400, -19876, -3982, -9350, -6605, -11044, -7039, 
	-3215, 3201, -3546, -12706, -4382, 9701, -4620, -1160, 
	-1445, 170, -24131, -9514, -8553, 8768, -1654, -2028, 
	6197, 10258, -5419, -3397, 2609, 291, -4022, -4695, 
	9730, -6315, -9044, 6414, -1383, 1250, -605, -14979, 
	-5445, 14791, 3166, -20158, -14739, 2833, -11513, -2313, 
	-613, 481, -14901, -8078, -9645, 7878, -2905, -3221, 
	11906, 3995, -8830, -12651, -13404, 2566, 5561, -1125, 
	5448, -10621, -23184, 2857, -11160, -5220, -7350, -2707, 
	-10554, 4486, -4586, -11175, 6220, 3022, -8825, -402, 
	-6457, -4222, 6962, 15143, 10583, -4726, -10747, 14739, 
	1081, 15107, 1101, 6143, -2217, -25, 16358, 8602, 
	14246, 9028, -574, -4230, 10557, -2856, 14969, 3775, 
	-7006, -1234, 6206, -19764, -6309, 5556, -6446, 4575, 
	14, -8559, -11256, -400, -3357, -4417, -8815, 5540, 
	-10716, 609, -3087, -11490, 1318, 4128, 1012, -396, 
	-4057, 7609, -13958, 13545, -7690, -9082, 3585, -4990, 
	5920, 15177, -2769, 1594, -8818, 9386, 4202, 7243, 
	1032, -1224, -8343, 7017, 11025, -8786, 8526, 9032, 
	-8571, 11991, 8606, -10318, -2550, -174, 10022, 8528, 
	12531, -2317, -11860, 2700, 12, 546, 2098, -4379, 
	-2880, 12351, -12959, -10929, 8339, 12337, 13731, -7977, 
	-15896, -4377, -13997, -4541, -8845, 7355, 7608, -2473, 
	8907, 4790, -12370, -4043, -458, 4133, 5111, 6997, 
	14, -3191, -13673, 6927, -1187, -12380, -2253, 361, 
	-7062, -7859, -10698, -16596, -407, -7185, 49, -8017, 
	8826, -10676, -8833, -9413, 1584, -6049, -13090, -256, 
	-7689, 13074, -10147, 6879, 7680, -4899, -5655, -12122, 
	3771, -1269, -2967, -4066, -5433, -1785, 853, 10563, 
	-13246, 8989, 28, 9910, -1362, -3479, 11061, -14002, 
	1676, -3869, 4270, -7695, -4032, -5318, -13193, 7948, 
	-10986, -3627, 1701, 11227, 10890, 15754, 4874, 4890, 
	-4411, 2293, -5571, -4158, 772, -5105, -8390, 11591, 
	-2635, -1243, -250, 5473, -6819, 11180, 7491, -458, 
	1356, 3703, -1008, 8725, 10269, -5060, -7309, 13126, 
	-17579, 16817, -3493, 6351, 1276, 8080, 13247, -8888, 
	-9982, 9664, 9153, -5823, 12721, -7245, -435, -961, 
	1969, 14087, -6717, -8631, -10365, 10846, -1636, -12187, 
	-5943, 9073, -4482, -796, 1420, 9682, -4608, -1356, 
	-14035, 7465, -5767, -9271, 910, -1262, -800, 3529, 
	-11997, 13962, 563, 7822, -1269, 2816, 5764, 7330, 
	-5822, 3172, 7759, -3461, -1728, 2140, -354, 3088, 
	-8373, 854, -4974, -6637, 2547, -5536, -10837, 449, 
	-2171, 1650, 15114, -3403, 5123, 5040, 4840, -3286, 
	5425, -4275, -2858, -3887, 7023, 1841, -3760, -2815, 
	9104, 8294, 9240, 4082, -325, 4679, -3020, 8598, 
	8666, 8449, 6493, -1286, -5073, -989, 5914, 6581, 
	-7151, 10370, 18103, -2216, 1825, 10077, -233, -296, 
	6503, -11039, 9477, 2561, -5025, 8354, 4557, -2316, 
	5454, -1027, 10565, -4795, -10964, -10820, -6003, -12264, 
	100, -4731, 8670, 763, -1317, -55, -12480, 11824, 
	-5011, 9119, 15985, 5530, -5925, -1801, -12296, -2026, 
	11597, -7706, 4433, 1360, -6676, -11909, 3433, 4477, 
	4328, 12994, 11671, -6369, -5409, -2086, -10324, 7095, 
	-1370, -8200, 3985, -9397, 2084, 8754, -971, 4939, 
	-6099, -1522, 419, 12868, -11163, 3159, 3252, -12671, 
	11923, 49, 8445, 8713, -798, -4574, -10778, 7638, 
	-1527, -6722, 12142, -8305, -1171, 2471, 539, 8437, 
	9575, -649, -1022, 11461, -3997, 5976, -5405, -6886, 
	1133, 8418, 15918, 10900, -5836, -13390, -9203, 2250, 
	11456, -2501, 5569, -8377, -3544, 5353, 9763, 8104, 
	1453, -1672, 15333, -2605, -5209, -1909, 2966, -4298, 
	-2290, 2395, 6288, -6763, 3011, 3884, -9863, 6459, 
	-5982, -5712, -7973, -10973, 2844, -4439, 6654, -7349, 
	-13704, -10159, 4439, 4056, 8189, 539, 7356, -2173, 
	1770, 9980, 8610, -8480, 8338, 8384, -3732, 6164, 
	-11373, -5642, 1419, 1465, -7827, 3813, 9911, -4158, 
	-9169, 5433, -5079, -3367, -4097, 7725, -2422, 1865, 
	-3726, -6607, 13921, -3779, -6953, 1969, -2874, -69, 
	-442, 6620, -5614, 5846, 2117, 9612, -8123, 1173, 
	-5403, -6323, -5478, 1975, -9614, -4838, 10311, 8888, 
	-9134, 5330, 1718, -1397, 1513, 10725, 9530, 11078, 
	1397, -3804, -7312, 5467, -7085, 6184, -8171, 310, 
	-7553, -1302, 2112, 6191, -6793, -2579, 8123, 8127, 
	-69, -12530, 927, 10828, -9194, 4477, 89, -388, 
	4994, 8400, -3603, -11704, 9980, 11919, -7167, 9882, 
	5292, 9390, 15545, 9325, 1049, 448, -9774, 6918, 
	143, 1051, 5080, -2326, 9494, 613, 8129, -4284, 
	-4185, 8888, 8699, -1102, -3522, 1925, -1089, -1335, 
	-12070, 9248, 5371, 644, -8578, -7268, -5928, 6234, 
	6009, -5360, 8473, -2394, -5059, -11264, -2055, -5542, 
	-8787, 11129, -4691, 14758, 5554, -8570, 2236, -3043, 
	-11110, 11297, -5826, -7727, -496, 9443, -2166, 6543, 
	-3289, -5617, -3051, -2241, 7913, 8319, 4911, -2343, 
	-7649, 15232, 3914, 5968, 8633, -4823, -823, 8118, 
	4453, 4392, -2849, 6478, -4318, 8947, -7788, -1475, 
	6891, 5292, 7278, -560, 18715, 11693, 6973, 15194, 
	-7337, 11784, -9715, -4635, 210, 8055, -7604, -4653, 
	-7260, 11595, -22002, -1799, 5738, 10206, -9600, 5072, 
	-12505, -7894, -12021, 89, -11019, -1821, 11664, -7463, 
	12100, 14687, -14954, -3021, 7462, -8952, 5829, -9480, 
	-7877, -7098, -3627, -5422, 8282, 16536, -8580, 2710, 
	9060, 10246, -8874, -1020, 10357, 4887, -7420, -4009, 
	-12671, 6228, -16845, -7129, 10612, -6936, -1050, 10250, 
	2316, -6988, -22307, -8689, -5466, 1588, -11347, 7588, 
	-7470, 1212, -13623, -3156, -6470, 5476, -13984, 11944, 
	-8997, -11148, -2207, 6824, 12546, 5435, -3712, -4306, 
	-12416, 4877, -8853, -68, -5038, 4086, -3352, 6123, 
	9288, 1053, -13724, -8054, 11444, -5725, 7797, 8688, 
	-2481, -2848, -12922, 4679, 4505, -15703, 5719, -5186, 
	-9967, 5458, 7526, 6285, 3415, -5480, 2583, 8483, 
	1658, 259, 8565, -9113, 4484, -18103, -11877, -5738, 
	2938, 3648, 2740, -12201, 7856, -7686, -6392, 3940, 
	8160, 5774, -13553, -8598, 4964, -22879, 640, 5262, 
	-8101, -2017, -7266, 9613, 8051, 4361, -5115, -7590, 
	-265, -10164, 2998, -2098, 5932, -1039, 9379, -6384, 
	4001, 564, -2307, 4595, -9193, -9862, 7124, -9454, 
	-12064, -12179, 5153, -3188, -4016, 2871, -6272, 1788, 
	8153, -3070, -6899, -7799, 4879, 6715, -9681, 4334, 
	6926, 3385, 3900, 7431, 8747, -5959, 1346, -4259, 
	-3803, -11412, -820, 11360, 13901, -6735, -1750, 3159, 
	6529, 2715, 3470, -2706, 3131, 5593, 8877, 546, 
	-2866, -7927, 7725, -2285, -9368, 5370, -5896, 12182, 
	4221, -4110, -3378, -13164, 7873, -1133, 9799, 1863, 
	4180, -4416, 7164, 9319, 8077, -2843, 1716, 6864, 
	1214, 7532, 6235, -1313, 8810, -2288, -3762, 1292, 
	-1205, -10234, -3067, 12249, 13803, -1422, 5774, -6595, 
	812, -8486, -4498, 224, -7771, -690, 8158, 10745, 
	-8738, 11814, -834, -12421, 5333, -5143, 10264, 8834, 
	-8770, -16824, -1570, 3322, -6930, 12910, 7364, 2590, 
	8495, -7953, 11247, -7745, 12431, -4779, -6521, 10571, 
	-7543, 280, 9805, 8792, -639, 3487, -8008, 3810, 
	-8222, 4680, 4983, -7593, -2936, -7514, 12987, 14287, 
	2636, 816, 3245, 8891, 3847, 8296, -4912, 8811, 
	-7227, -9377, -2233, -4386, 5988, -3486, -9317, 2022, 
	-8439, 3553, -5848, 1195, 3196, -4599, -9227, 8507, 
	-9930, 13268, 5880, -553, 8706, 3399, -8081, 10941, 
	-2433, 3969, 7931, 3290, -6072, 6052, 8577, -8650, 
	-15835, 13965, 318, 2030, 12998, -6764, 3049, 11267, 
	-1582, 5491, -7789, -180, -844, 5668, -11020, 3901, 
	7133, 11957, 10584, 405, 6368, -3168, 5184, 6805, 
	-873, 1914, -7821, -5974, 8666, 16251, -4491, -4423, 
	-13576, 2486, 8242, 4611, -6478, 6547, 3077, -5023, 
	-4348, 7724, 2014, 9924, 4008, 10050, 468, -68, 
	-13107, -517, 2820, 8769, -5714, 7810, -1485, 5037, 
	5975, -6853, -3062, -3308, -2401, -9606, -14046, 2293, 
	-337, -12796, 8840, -6861, -4612, 6594, -11373, 9457, 
	9086, 16740, -7038, -6824, 3454, 8266, 821, 11442, 
	1648, -7582, 8813, -1799, 9798, 5117, -1068, 3329, 
	5765, 1135, 56, -12366, 999, -8839, -14671, 5156, 
	-6755, -10865, -2354, -266, 10048, 2290, -12380, 5189, 
	-844, 5877, -5889, 9931, 15209, 2968, -6135, -3358, 
	8124, -5154, 19337, 1667, 10620, -7430, -7013, -5772, 
	-227, 1794, -3716, -5353, 832, -8818, -7793, 19108, 
	-1910, -5093, 4863, 10847, -600, -9780, -3695, 2198, 
	-7689, 12007, -15666, -15846, -8927, 4298, -4274, 9637, 
	3384, -5886, -4031, -4393, 6720, 1899, -7933, -7484, 
	-4383, -9374, -2740, 7209, 16290, -7262, 7808, 11700, 
	-429, 8729, 17562, -5191, 11191, 791, 6572, 10173, 
	7140, 767, -2840, 6116, 8295, 11219, 4392, 9623, 
	8753, -1505, 6868, 3037, 11612, 6517, -535, 5967, 
	-1219, -3545, -13227, -2331, -4339, -5651, 1078, 7497, 
	4822, 11878, -2560, -4305, 8400, -10071, 4687, -10589, 
	12341, -9131, 9140, 4513, -9057, -4252, 3608, -1723, 
	15917, 10995, 6928, 2052, -5203, 1042, -2377, 4412, 
	14166, 2697, 16225, -8317, 5351, -6539, -11106, 116, 
	-2529, 10419, 119, 3800, -5258, -13606, -16044, -12605, 
	10115, 2821, 8274, 3682, -6288, -6402, 7179, 1955, 
	9676, -9101, 9697, -10318, 3007, -10580, -8680, 1920, 
	-14265, -5553, -5734, -2796, 3471, 513, -4226, -6311, 
	-3809, -2635, 3728, 9338, 2830, 6921, 10938, 10092, 
	-12008, -3560, 3923, 6146, 12820, 994, 3959, -8640, 
	1738, -11863, 3748, 5195, 5422, 6863, 3796, 10207, 
	-16726, -11258, -2128, 1534, 1459, -2820, -3928, -6185, 
	-14847, -1329, 799, -900, 8437, 7975, 1896, 11237, 
	-9455, -10263, -18163, -5220, 1471, -2015, -1633, -26, 
	-5873, 2204, 4010, 982, -3402, -460, 7232, 4573, 
	-7632, 7608, -11236, 303, -11564, 5057, -6843, 12506, 
	-2544, -8265, 10655, 2882, -4152, 2910, -3595, -10043, 
	6840, -4187, -11002, -1522, -3330, 4837, 4452, -4810, 
	-9243, 8025, -4044, -302, 10359, 3930, -4496, -4199, 
	-1880, 9355, 12642, 2073, -6891, -356, 2990, -1821, 
	14346, -3586, 9278, 7690, 1724, 5939, -9669, -549, 
	-9673, 8509, 3886, 1940, -2413, 87, 5537, -6521, 
	-3272, -7593, 268, -8847, -2658, -2464, 10338, -5322, 
	2872, -7641, -298, 1544, -6684, 1252, 11577, 8370, 
	-4147, -7885, 6767, -5731, 1630, -8783, 13987, -12485, 
	12331, 10940, 1429, 5691, 8144, 8813, -5276, -4302, 
	-5943, 9524, -5135, 5139, -5804, 4643, -6418, 10492, 
	4485, -2233, -5315, -1251, 9132, 8398, 242, 12154, 
	-13012, 4174, 654, 7651, -1625, -390, -4320, 3492, 
	-6703, 10443, -9048, 5407, -7711, 5291, 7235, -3745, 
	-14857, 2144, 8098, -7614, -20308, -6662, 1190, -14490, 
	13377, 6760, 11349, 3254, -4997, -400, -9299, 6159, 
	8439, -6817, 7737, -117, 10524, -8108, -4622, 4016, 
	2244, 10737, 10838, -9481, 6599, -8411, 8531, 7821, 
	-16973, 8760, -7212, -5441, 881, -7450, 7131, 108, 
	10692, -5319, -8673, 8121, 2553, 9597, 7780, -4071, 
	-405, 9749, -928, -8499, -9514, 10760, 2830, -4482, 
	214, 3358, -3971, 2370, -6487, -15382, 154, 10205, 
	-2672, 7294, 12263, -6551, -5470, -2379, -2064, -4189, 
	-494, 6875, -5233, -2238, -4256, -6724, -2275, 3469, 
	-3974, -345, -6411, 11953, 3857, -712, -1126, 5967, 
	-7371, 8191, -3625, 11937, -6930, 7622, 8693, -6931, 
	-3077, 11158, 15473, -3990, -903, 9183, 33, 731, 
	3822, 13917, 6705, 4391, -866, 1284, -3657, 4133, 
	-7769, -7486, 16924, 14467, 127, -13423, -9166, -9589, 
	185, 4119, -894, -8241, -8215, -7314, 2801, -6730, 
	11548, 4272, 5964, -1944, -8882, -636, 5230, 6079, 
	12, 16902, 19284, 6900, -9491, 1660, -4423, 8602, 
	8222, -1943, 10512, -175, -7016, -377, -119, -10660, 
	-9799, -2589, 10530, -1451, 5037, -23938, -12095, -1412, 
	-16656, -5849, 14240, 9525, 1080, -3083, 6875, 6455, 
	-1133, 14046, 9015, -5946, -3377, -20367, -13381, -4835, 
	-10890, 8321, 17753, 14327, -8106, -6594, 2131, 566, 
	611, -1222, 16424, -8159, 8862, -2355, -1789, 5400, 
	3340, 3125, 15673, 6718, -7402, 6856, 9980, 4035, 
	-299, 16936, 2827, -8778, -7010, -190, -7053, 10943, 
	-5342, 3740, 14701, 11682, 1967, 7703, 2475, -1129, 
	7621, 4607, 19217, 5510, -5373, -3553, -5867, 7347, 
	1878, -5954, 14103, 10266, 2254, 5718, 4506, 9728, 
	5473, -632, -997, 2857, 6345, 1044, 9922, 3595, 
	9656, -539, 2539, -506, -4114, 5500, -10275, -11186, 
	2589, 13572, 7457, 18, -10402, -2567, -5689, 4796, 
	6693, 1378, 9951, -2653, 5344, -11788, -4329, 8283, 
	4164, 2542, 11338, 11068, -8240, -7020, 6154, -6001, 
	-5832, -4614, 6089, 3049, -3750, 5441, 8059, -4023, 
	-4958, -4561, 8440, -621, 753, -2178, 3165, -7734, 
	-3800, 974, 8535, 145, -13846, -1180, 9139, -5469, 
	6290, 10121, 11308, 6089, -5327, -2326, -10134, -6859, 
	9223, -9067, -5331, 683, -5443, -1508, -4094, 3198, 
	3157, 2220, -3382, 1665, -6473, 12564, 8245, 12071, 
	-7817, 3408, 10901, -9195, 6478, 4235, 8406, -8520, 
	-6525, -918, -8034, 1719, -10430, 10163, -7782, -9428, 
	-5624, -7509, 7532, 2801, -4030, 252, 5073, -1611, 
	4961, -7708, -6543, 1658, 4115, 359, -10635, 5902, 
	3720, 8608, -3887, -6099, -4713, 4349, 9191, 280, 
	10326, 2463, 14069, 4142, 1573, 9335, 11044, 2728, 
	8244, -10175, 13949, -1839, -7885, -485, -8242, -3392, 
	-5176, 11013, -3125, 16223, -2304, -8486, 10691, 6194, 
	3507, -2250, 13254, 1546, -15194, -2369, 432, 88, 
	8060, -9956, 7153, 1861, 3086, 3724, -5816, 10627, 
	-5165, 5947, 16840, -4995, -7421, 9719, 7784, -2577, 
	8534, 2791, 22585, 1847, 3877, 3717, -310, 3370, 
	9252, -664, 5416, -11595, 3453, 8308, -8411, 1448, 
	-11113, -593, 2659, 3282, -7566, 8509, 7074, -930, 
	-2295, -11405, -526, 7657, -5661, -4317, 5953, 319, 
	14230, 3366, 17729, -5285, -11408, 1459, 4014, -1146, 
	-2009, 10871, 5243, -10027, 3625, 7986, 8982, 7198, 
	-6637, -12395, 1628, 13781, -2391, -4074, -6528, 403, 
	4830, -6079, 2059, -13064, -2666, -7119, 9180, 9561, 
	3513, 5077, 6215, 12060, -5085, 6851, -7478, -3434, 
	-6217, -2477, 1566, -8349, -17948, -8094, 6384, 4428, 
	-2170, -17143, 9281, 13396, -7506, 14507, 8465, 9837, 
	4285, -2350, -1078, -8522, 13454, 3551, 7817, -3216, 
	7269, 7658, 9499, -6285, -1051, 5215, 3185, -4094, 
	-4169, 1897, -12512, 9820, 1506, -11717, -3206, 5069, 
	-3529, 2299, 5014, -4837, -9144, 5058, 10993, 5689, 
	4365, -9484, 17669, 11136, -7663, 9218, 9315, 7033, 
	-14859, -2721, 2672, 3321, -2936, 5625, -2341, 2869, 
	8509, -6565, 6862, -1533, -1663, -1528, -8899, 3275, 
	-8, 2633, 20312, 7837, -1178, 2596, -11328, 8459, 
	15356, -7272, -3868, 492, 2559, -13332, 7131, 9319, 
	-2855, 10802, -4581, -7486, 10060, -13611, -1424, 3169, 
	-9960, -6142, 18272, -8622, 5324, 3, 4722, -6018, 
	-13017, -19102, -4751, 15703, 1400, 9517, 817, 3901, 
	11262, 12145, 9747, -6548, -7256, 11516, -161, 10456, 
	-8486, 7687, -660, -4042, -8691, -4960, -11561, 12382, 
	-1510, -828, -4241, 8401, 2783, -7564, -11514, 3721, 
	10042, 4144, -2912, -1070, 4890, -5127, 9063, -8225, 
	-5888, 4255, -51, 1507, -2230, -7453, 1601, -14758, 
	7431, 153, -3388, 12599, 9702, 11789, 1654, 5481, 
	14702, -5483, -3298, -832, 14851, 1164, 774, 1822, 
	9072, 1616, 9711, 2371, 3891, 5744, -4183, -6630, 
	-804, 3195, 4653, -2915, 5905, -5662, -6829, 975, 
	6856, 2164, -9173, -19800, -8010, 6307, -19347, 5898, 
	-1303, -5760, -9580, -4691, -8810, -2548, -7870, -500, 
	5033, 12886, 11665, 10828, -2059, 8346, 9945, -7498, 
	12826, -1666, 5242, -3488, 13261, -10270, 7568, -4008, 
	13500, 1693, -1397, 10725, 12588, 4402, -6923, -3861, 
	-2800, 7581, -5792, -8606, 12379, 462, 9209, -10114, 
	15075, -20083, 1873, -21005, 1511, 4299, -16991, 11220, 
	11608, -14442, 1753, -5797, -358, -7956, -3827, -17381, 
	-2994, -2014, -2041, 14123, 10376, 6443, 5062, -5814, 
	5610, 10878, -5388, 1708, 11919, -9211, 1798, 11453, 
	1292, 11738, 14632, 15683, 11472, 11471, 11553, 14600, 
	-4522, 11371, -125, 2835, 1820, -5779, 9667, -16256, 
	5320, -21987, 2169, -18348, -11307, 7701, -13442, -8372, 
	-3700, -2351, -8201, -9948, -2397, -5737, -6457, -13869, 
	-15085, -14822, 15978, 14985, -9815, -255, 695, -3717, 
	3959, 8105, 7349, 520, 10384, 6034, -872, 11037, 
	-2112, 7652, -335, 2656, -8539, 5569, -1713, 6237, 
	-2834, 3824, -6179, 7073, 8248, -6412, 5414, 11339, 
	3857, -5469, -16346, -7159, 9410, 6104, -10125, 9187, 
	-3114, 8990, 9375, -5800, 4237, 6807, 4375, 7857, 
	-12425, -5739, -2640, 5755, -9525, -1063, -10264, -2444, 
	-489, 3303, 7994, -4175, 10470, -10948, 8816, -7067, 
	2210, -1825, 543, -7364, 3773, 2706, -12194, -1803, 
	11549, 548, -2459, -4683, -3507, 1122, -8092, 2906, 
	892, 2642, 9619, -11385, -1420, -7614, 7248, -7131, 
	6926, -11513, 1290, 5877, -5172, 9485, -4980, -10995, 
	-6399, 3320, 3735, -6232, 10121, 8722, 4378, -8879, 
	-2044, 12851, 13718, -6443, 11971, -1323, 6341, 4346, 
	-5209, 7701, 6009, -12530, -891, 2623, -11066, 6597, 
	662, 10636, -2934, -7281, 5185, -1065, 3346, -2155, 
	1740, -8052, 3460, -1603, 6847, 5319, 8052, 4117, 
	-387, -8992, 621, 2066, -2158, 5495, -3273, -4659, 
	9443, 10449, -8798, 10370, 3001, -9316, 4890, -4212, 
	1739, 6370, 3971, 6352, 8456, -2345, 4722, 1653, 
	12047, -6137, -14070, -2837, 7731, 7019, 4744, -527, 
	-9031, 7460, 6706, -2058, -6668, 7273, -3545, -9351, 
	6761, -12871, -14229, 11535, 8483, 4234, 10844, 2090, 
	-9317, -4396, -9615, 9443, -125, -101, 7339, -13069, 
	1344, -4412, -7739, 2961, -5152, 2208, -8023, -6490, 
	9494, -4467, -4590, -7583, -3999, -1425, 4673, -11102, 
	5211, -6317, 4917, -5202, 6158, 4761, -1549, 1955, 
	-7826, 9447, -6118, -765, 5792, 11792, 1865, -3351, 
	10034, -8045, -9298, 278, -1394, 3769, 12566, -5069, 
	3870, 11778, -508, 5581, 4114, -2894, 10004, -4742, 
	5320, 7399, 8915, 4815, -4073, -4031, 5480, -6084, 
	-8720, -13282, 14661, 2675, -2615, -11162, -13685, -11357, 
	-162, -8078, 16571, 10993, -3938, -8225, -8889, -9072, 
	6036, 4859, 9922, 4369, -6138, 6009, -5038, -6664, 
	7365, -10800, 8633, 8695, 1156, 431, 4668, -1130, 
	-1087, 2372, 11484, -12786, -1438, -11905, -6044, 7070, 
	1898, -8501, -1138, 5317, 5677, 2829, -2074, 6005, 
	3963, -4254, 2270, 3302, 6870, 3598, -7750, 15707, 
	-14416, -7617, -14625, -2886, 5904, -11270, 8015, -1608, 
	-10500, 10253, 5425, 1543, 22270, 10098, 179, -3787, 
	-19, -4265, -19172, 10257, -5208, 5394, 2218, -12579, 
	740, -1938, 2345, 1902, -2650, 7376, -5915, 7737, 
	7995, -6354, 1839, 15885, 10735, -7013, -5049, 11468, 
	-9707, 4379, 1358, -475, -5195, 4455, -6909, -2463, 
	-11919, -10752, -8577, 16613, 237, -2774, 10298, -15410, 
	-9843, 11662, 1780, -11140, 2230, -1384, -4116, 12206, 
	-13053, -3276, -14103, -7330, -7097, 6818, 14815, -15942, 
	2579, -4056, -14829, -242, 10007, 8939, -2875, -2865, 
	-8329, 5340, 5060, 7686, 9917, -9943, -8427, 7315, 
	-7544, 13501, 3368, -7758, -1941, 1551, -2070, 8062, 
	-10666, 2360, -16093, 8529, -533, -3267, 612, -9718, 
	-4481, 10851, -9297, -11865, -2466, -6194, 1384, 10943, 
	5974, -4081, 3004, 9680, 10936, 7419, 8112, -8116, 
	-1236, 8548, -2908, 466, 10050, 4590, -6763, 8820, 
	8929, 1552, 10032, -1422, -4368, -1238, 4197, -1941, 
	13155, -384, 2213, 7239, -12714, -11708, -8025, -7172, 
	2961, -7033, 1433, -124, -3537, -922, -11356, -6172, 
	7107, 4934, -5402, -5754, -6510, -3247, -14431, -16637, 
	10703, -2394, 10347, 827, 2560, -1638, 498, 7934, 
	759, -1827, -2003, -7874, -7233, -10455, -1073, 7144, 
	-7441, -5220, 18808, -3380, 2580, -4709, 1937, -766, 
	6523, -4867, 17630, 6936, -10883, -12357, -9326, 5744, 
	8126, -64, 5050, -9616, -8019, -8404, -15916, -2747, 
	2658, -3830, 14263, 7216, -6144, -146, 1684, -962, 
	4834, -5189, 5765, -8025, -3489, -7524, 5653, -6595, 
	-3875, -7351, 9780, 9073, 8116, 10394, 999, 6577, 
	2689, -1452, -7627, -9191, 11318, -850, -3028, -4930, 
	-9505, -3299, 15419, -7937, 1564, -669, 7135, 8064, 
	-5314, -5947, 2322, 6690, 9903, -6875, 12287, -8094, 
	-16508, -7898, 9264, -7860, 9157, 689, 13663, 12804, 
	3327, -6529, 9398, -3157, 12435, 6508, -4827, -1746, 
	5602, 7172, 21414, 2555, -2471, -5480, 612, 8227, 
	-6984, -6519, -11619, -5039, -7654, 7807, 4413, 566, 
	-5056, 6547, -1842, 9129, -1721, -2534, 5841, 2227, 
	3182, -4501, -30537, 6509, 8679, 3089, 8385, -7193, 
	-8229, 50, -6365, 4145, -1645, 13680, 7003, 4591, 
	7441, -1341, -13738, 2430, -2225, 8091, 6299, 759, 
	-7199, 995, -4091, 3919, -1810, 793, -3718, -9205, 
	8162, -1324, 3368, -10472, -4599, -2794, 6049, -12412, 
	18035, -1058, 33, 10138, -6696, -11256, -1582, 3777, 
	-2145, 3348, 7876, -10395, -8761, 6332, -7235, 8, 
	14575, 2680, 6357, -6167, -10150, -13379, -10854, 4115, 
	9643, -8030, 11012, 2568, -7617, -8648, -9952, -6534, 
	9741, 8379, -5294, 4607, -772, -7504, -2497, -1796, 
	-2870, -12909, 18154, -12140, 8159, -7630, 2783, 6183, 
	-3284, -12478, 19675, -7833, -2450, 9692, -9290, 1255, 
	-11429, 1609, 17128, -1030, 6339, -19838, -11778, -2805, 
	-7675, 3256, 10381, -2543, 507, 653, 9155, 696, 
	-5717, -1320, 11453, 1318, 14985, -922, -6392, 2400, 
	-16770, -11440, 19023, -5245, 6888, -1969, 8003, 12909
};

static dl_matrix3dq_t conv4_filter = {
	.w = 3,
	.h = 3,
	.c = 16,
	.n = 32,
	.stride = 48,
	.exponent = -17,
	.item = (qtp_t *)(&conv4_filter_item_array[0])
};

const static qtp_t conv4_bias_item_array[] = {
	-17061, -17322, -12508, 21419, 22825, -5638, 3879, -12292, 
	28024, 13918, -8144, -1264, 1164, 31024, 10500, -6537, 
	5114, 5453, 17295, 25317, -5809, -5222, -4148, -23896, 
	-12330, -9027, 5151, -13709, 5074, 2565, 26509, 14407
};

static dl_matrix3dq_t conv4_bias = {
	.w = 1,
	.h = 1,
	.c = 32,
	.n = 1,
	.stride = 32,
	.exponent = -17,
	.item = (qtp_t *)(&conv4_bias_item_array[0])
};

const static qtp_t conv5_filter_item_array[] = {
	-6076, 6246, 874, -4851, 7520, 2240, 3536, 556, 
	7430, 986, 9425, -7644, 2951, -1957, -5131, -1144, 
	818, 3827, -2211, 2714, 1043, 6491, 3939, -3083, 
	-5534, 7397, -5023, -342, 1815, 2442, -10524, -8433, 
	-11570, -8154, 3414, -8447, 5388, -1742, -3061, 207, 
	3941, 5686, -5123, -8861, -2100, -7381, 4657, -3179, 
	7233, -2817, -15263, 105, -9144, -5004, -6849, 7, 
	-4555, 11719, -14859, -5914, -557, 1059, -1996, -8673, 
	-599, -12717, 3881, -3121, 6613, 1146, -9606, -3593, 
	-5604, 3210, 6113, -4646, -3481, 3066, 9387, 7530, 
	1230, 4107, -1905, 2126, -4395, 8218, -8525, 6749, 
	6516, 8257, 3570, -5365, -7616, -4313, -1439, -2775, 
	102, 4636, 6534, -836, -5789, 6779, 2099, -7634, 
	567, -1673, 12455, -14036, 19557, -3703, -473, -5372, 
	6392, 3789, 2306, 7554, -5565, 1781, -1693, 3581, 
	2691, -246, 3112, 604, 5435, 157, -8761, -5640, 
	-306, -12494, -6987, 5348, 1780, -8791, -9873, 6994, 
	-1676, -662, 1445, -14207, 145, 2297, 7172, -10336, 
	69, 3468, -3460, 4368, 1112, 6242, -2870, -5627, 
	-3143, 1053, -9167, 7059, -4091, -7336, -5053, 3876, 
	8243, -17281, -470, -6894, 4349, 4255, -4429, -4011, 
	-788, 10224, 5658, -5020, -2804, 1486, 9141, -3798, 
	-5622, 4729, 3404, 6074, -7834, 3528, -9635, 4764, 
	582, 4465, 942, 5696, 2909, 3432, -5214, 166, 
	-6544, -5738, 9075, 1344, 6433, 227, -5085, -4424, 
	4171, 2981, -156, -7213, 16453, -2830, -119, 1958, 
	-1547, 8781, -13647, -1445, 7408, -6766, -3370, -2786, 
	5092, 3432, -5747, 242, 100, 5539, -2683, 9686, 
	-8324, -5562, 3902, 1860, 811, -2163, 3281, 4754, 
	7788, 4882, 7880, -9283, -1325, 4470, -3516, -1210, 
	5954, 2575, -7864, -2064, -562, 6297, 2334, 6511, 
	-1097, 9962, -5487, 6821, 5092, -727, -136, 7250, 
	-1734, -7683, -5843, -7256, -3431, -1686, -2619, 6264, 
	4410, 7356, 3383, -4319, -183, 3753, 7611, 7427, 
	10233, 7659, 8015, 10688, 7505, -377, -10174, 5341, 
	3945, 11251, -6582, 4907, 8308, 8136, -3293, -3803, 
	1640, 5918, 4393, -7497, 1312, 8472, 11, 4058, 
	3246, -5911, -4041, -4851, 14532, -6267, -7708, 9141, 
	-7585, -6524, -76, 1361, 7071, -560, -9737, -17, 
	1150, 5539, -8220, 5123, 5578, -1582, 4024, -4066, 
	-2751, 7690, 2513, 3176, -4736, 5769, 1202, -8226, 
	7380, -3526, -12500, -1238, 4579, -673, -9518, 6876, 
	3961, 5039, 6668, -380, -5153, 8668, -4111, -7208, 
	7058, 4042, -2698, 5128, 4129, 6154, -11769, -6397, 
	-2758, 2215, 3464, -1904, 5622, -3964, -75, 3104, 
	1466, 10773, -10173, -3420, -1270, -605, 2099, -6355, 
	-4401, 5620, 730, -1717, -4817, 3041, 3780, 7033, 
	-1894, 11609, -2467, -6089, 8427, 3380, -7485, -9504, 
	-2566, 11740, 3245, -2298, 600, 7805, 7298, -11284, 
	2064, -3374, -12057, -1146, 4597, -4761, -1750, -2179, 
	-2928, 6085, 7906, -2949, 1501, 9912, -16688, -1226, 
	7647, 3862, -15432, 6970, 3128, 1583, -983, -15133, 
	-12079, 1483, -6237, -8185, -5083, 1157, 3123, 1993, 
	3007, -3178, -4785, -5157, 1435, -9530, -4358, -1681, 
	-10123, -1520, -8778, -3053, -12491, 1827, -9513, -1654, 
	5519, 464, -7680, -4582, -7492, 6218, -5784, -17297, 
	-2058, 6708, -8180, -5412, -1484, 9393, -1890, 11595, 
	8301, 942, -5872, 6095, -2727, -12690, -9797, 1457, 
	-1577, 6560, -1670, 7798, -12443, -3878, 3997, 6776, 
	-1262, -1075, -3865, 336, 3389, -3983, -2273, -9504, 
	-8598, -2554, -1422, -9420, -5267, 5498, 8, 1473, 
	-3189, 6422, -2682, 1514, -1335, -6966, -2873, -1535, 
	-1308, 8289, -1854, -1924, -8367, -3927, -1760, -5174, 
	-325, 3815, -11931, -1075, -3059, -3782, -3530, -1037, 
	-5023, 7551, -848, -3003, 7447, -10079, -1373, 3601, 
	-4183, 8489, -3797, 2896, 1722, -5510, 2018, 3635, 
	2945, -1203, -5430, -4162, -6601, 7606, -4720, -4949, 
	-8334, 10290, -19774, -13196, -3904, 7422, -7921, -493, 
	7644, 10932, 2924, -2259, 2556, 4624, 4587, 2723, 
	-2452, 10025, 2397, 1950, -1927, 5754, 6690, -4037, 
	5460, -925, 4539, 10720, -9966, 445, 11054, -1009, 
	3945, 11248, -8345, -10363, 6628, 5406, -4741, -1980, 
	-4821, 5637, -7072, -9298, -6756, 6237, -3328, -2054, 
	-3583, 4736, -9879, -2919, 4096, 5012, -5820, 4134, 
	5283, -5325, 10778, -1562, -4864, 1702, 6999, 8590, 
	-1499, 2419, 1527, 3123, -1637, -6317, -4512, 1098, 
	1625, 4989, 1986, -428, -6783, -1955, -1340, 6245, 
	1321, -5200, 5070, 10975, -455, 8697, 8250, 3088, 
	5417, -497, 3776, -4312, 7250, -5427, 1901, -3791, 
	-7450, -5469, 3136, -5832, 5024, 6097, -2568, 7092, 
	1588, -2214, 4006, 8319, -8106, -5584, 4164, 1302, 
	-9547, 34, 4204, 2726, 3032, 8319, -2200, -6186, 
	10249, 846, 13405, -6178, 10362, -1391, 6865, 2250, 
	1163, -7774, -1476, 1695, 147, 11145, 3919, -3122, 
	2642, 6723, 1124, -3228, 1225, -2805, 5485, 1221, 
	-85, -4144, 5737, -3039, -3196, 2775, -7848, 6727, 
	-4415, 1945, 9436, 11458, -5201, 451, 2835, 3641, 
	-7084, -2715, -4746, -9160, 6203, -5523, 1907, -2406, 
	-2356, 9662, -2323, 15143, 6289, 1667, 9142, -2225, 
	4562, 4727, -2, -421, 10820, -1101, -6055, 7718, 
	-5229, 3033, -5141, 8091, 2697, -11530, 10506, 3020, 
	-1354, -9634, 920, 4548, -6639, -8437, 5049, -1398, 
	-2086, -1244, 7246, 11626, -8222, -5801, 10512, 2780, 
	-6016, -4734, 4026, -53, 121, -2518, 10493, -2864, 
	1594, 4500, 9505, 5733, 4602, 3989, 7590, 3018, 
	-4641, -5162, 3049, 3063, -6534, -370, 4367, 1997, 
	-6554, 10280, 3572, 187, 6604, 4197, 10638, 4316, 
	-4057, 225, 2585, 1863, -4042, 1668, -2244, 2141, 
	-9194, 3471, -679, 7485, 7839, -956, 1418, 443, 
	-2569, -2416, 1094, -12325, 4080, -11817, 6591, -2200, 
	-6438, -541, -1909, 11663, 8171, 4080, 6910, -6577, 
	6191, -2240, -540, 7631, -525, -9573, 4894, -3641, 
	-14439, 4185, -3025, 3381, -2323, -1947, 2777, -3629, 
	-2354, -14389, 907, -9446, -5327, -10503, 8050, -2204, 
	5587, -1047, 5678, 7967, -1004, -2149, 3563, 270, 
	2716, 3164, -443, 10566, 2682, 2594, -3277, 6771, 
	1527, 1381, 1555, 9858, 3716, -8986, 7505, -465, 
	4942, 1969, 1561, -2058, -4495, -11361, 6766, -3368, 
	-2129, 4994, 8913, -1236, -5920, 9659, 11878, 5694, 
	513, -3900, -9312, -3233, -9391, -13371, 2145, -3172, 
	-8667, -2946, -1503, 3384, 3011, -3047, -746, -9421, 
	4275, -6584, -13088, 8048, -1907, -3960, 14148, 10764, 
	4331, -2583, -4245, 6317, 2415, 1353, 2082, -6317, 
	-11717, 1656, 9226, 1372, -2003, 3154, 6410, -4417, 
	-2652, 7369, 4637, 13846, -248, -8628, 5767, -8001, 
	134, -1460, 5875, 442, -135, -7061, 10903, 12997, 
	2227, -6786, 611, -4187, -4883, 5235, 10042, 514, 
	3171, 765, -6028, -8830, 9647, 1758, -524, 355, 
	-5442, -2127, -1220, -3112, -1247, 2634, 2393, -7520, 
	4601, 2775, -2829, -2519, -12227, 9892, 4818, -3420, 
	7049, 1040, 118, 4954, 3619, 49, 2889, -6846, 
	-6380, 494, 2822, -414, 2822, -5471, 8409, -2400, 
	-1025, -1514, 8989, 4991, 7022, -2118, 6555, -4598, 
	4107, 1936, -2648, 621, -2626, -7325, 15952, 7875, 
	-1536, 5383, 2697, 8012, 1524, 2231, 12129, -10684, 
	4336, -8557, -4209, -5837, -2235, 4514, -2212, 3165, 
	-3233, 7075, 7483, -214, 9956, -9986, 3726, -2701, 
	-2073, -5241, 3839, -1833, -1728, 2088, 9883, 9166, 
	869, 2026, -1922, -9536, 207, -3529, 209, 4591, 
	5549, 1661, 477, -4921, -3953, 7672, -2598, 7630, 
	-7939, 3457, 3351, 2318, -2452, -6199, 1302, -7090, 
	-4386, -5928, 10432, 6396, -457, 4446, 5637, 1066, 
	-8705, -7920, 187, -1196, 1250, -3879, 8409, -901, 
	-6833, 5484, -3165, 2434, -2157, -6985, 5383, -569, 
	-1117, -2670, 4345, 2477, 2153, -12050, -1976, -1462, 
	-1044, 4414, -306, 3611, 1757, -2113, 4093, -3453, 
	-8457, 3901, 9006, -4132, 4763, -8298, -6281, 614, 
	-6793, 506, -6068, 7521, 10702, -4441, 8112, 4339, 
	-3566, -6327, 3515, 8962, -6437, -3230, 25, 7333, 
	-2674, 2815, 189, -2336, 5608, 4517, 3585, 3126, 
	-2128, -7715, 621, 1008, -1037, 2395, 4079, 980, 
	-2354, -2259, 2162, -4894, 5369, -5481, -6387, -1231, 
	-5378, -2746, 5356, 1318, -6794, 464, 6767, 131, 
	1871, -2721, -929, -5113, -3083, -6647, 4864, 1986, 
	-9753, -1114, 5947, -2012, -1847, -8638, -6939, -5823, 
	-834, 2594, -5760, -2096, -11299, -5924, 6041, -2108, 
	2195, 2041, 194, 4090, -6142, -3151, -10241, 287, 
	2418, -3387, -5726, -8965, -2056, -9469, -2545, 6788, 
	-4708, 1465, -2214, 7419, -157, -8331, -5560, -10945, 
	-5412, 771, 3059, -3031, 2237, 6770, 2917, -4451, 
	6954, 3554, -5479, 3842, 3282, -8856, -11301, -468, 
	-1959, 1451, 2528, 6500, -2760, 1226, 3637, -3914, 
	10207, 2160, 335, 10920, 2308, 2778, -1515, -6000, 
	658, -2058, 3574, 3972, 1457, 4410, 11510, 7930, 
	5766, 1406, 1647, 3892, -367, -2091, -5415, 8244, 
	2917, 4589, 3000, 9143, -6852, 7088, 9473, 3140, 
	-6831, -334, 2312, 10941, -5167, -2810, -4915, -3003, 
	-3099, -416, -4281, 9585, 432, -4612, 6014, -6204, 
	-6774, 5720, -9465, 1181, -5536, 1021, -14162, -2758, 
	-2937, -2470, -11345, -4204, 2795, -10602, -3245, 6080, 
	158, -4964, -6640, 4919, 15, -860, -4273, 2236, 
	6105, -1159, 3474, -2695, 10598, -1014, -7752, -2440, 
	-4382, -5518, -7223, 2949, -4421, 2420, -56, 4173, 
	-4992, 758, 7459, 3729, -8089, -6032, 2591, -1234, 
	10440, -9429, -728, 4933, -1558, 2583, 3831, -3284, 
	-7322, 1701, 1240, -4129, 5814, -12570, 11996, -1112, 
	-10798, 503, -3573, -2246, 1532, 7802, -7393, 7262, 
	7077, 1748, -2865, 3111, -5205, 3372, 1288, -2668, 
	4461, -6547, 2273, -1450, -7129, -11614, -4596, -4793, 
	4180, 418, -2815, 1936, -2174, 3829, 3189, -256, 
	1809, -2198, 4862, 3925, -8384, -7058, -3128, -6405, 
	2403, 7782, -8902, -282, 7007, 3088, 11008, -1609, 
	3019, -6482, -10238, 3039, -11212, -140, -7313, 2056, 
	1252, 3403, -654, 1697, 7528, 2120, -7110, 1307, 
	-5525, -3367, 174, -1738, 6142, 6942, 898, 1060, 
	-3301, 14282, 9646, 3983, -7454, -5484, 8356, 2202, 
	177, -100, -4880, -3987, -4496, -8809, -7663, 2825, 
	-1665, -5819, 5180, -2357, 7883, 1769, 10964, -637, 
	-9407, -2166, 705, 5136, -1101, 9416, 974, 5299, 
	4276, 7044, -7752, -1634, -7856, 7081, -797, 2905, 
	2083, -1649, -8566, -2330, -1560, 5722, 4428, -4398, 
	-6939, -6779, 3481, -10315, -2536, 7409, -2970, 6665, 
	792, -2225, -4661, -2823, -1616, -1649, -8063, -8312, 
	7758, 6067, -844, -1251, 74, 860, 3099, 5883, 
	5731, -5438, -3415, -4129, 7633, 4804, -683, 3212, 
	2574, 2895, 5622, -12532, -8782, -2644, -1186, 3965, 
	-5253, 1275, -8750, -1259, 10021, 3394, 3803, -4585, 
	-6968, -149, -368, -4000, 3750, -4376, 241, 1481, 
	1582, -3140, -7996, -2876, 6328, 8375, -11539, -3316, 
	-842, 6219, -3034, -5219, -4034, -1549, -4227, 4246, 
	8663, 841, -1650, -2260, -3626, 5191, -5852, -7359, 
	793, 5267, -6955, 2272, -5589, 2962, 1536, -2512, 
	-7569, -7349, -1653, 8997, -3247, 6776, 3193, 1680, 
	5323, -3080, -6620, -6834, 3269, 10351, 1077, -4104, 
	-6940, 5899, 4711, -742, 4014, 9674, 2947, 948, 
	616, 11520, 6022, 7677, -667, 1158, 10112, 8544, 
	-3529, -11124, 2731, -8446, 2653, 7370, -454, -3771, 
	-5298, 8856, -2942, -9916, 3280, 3285, 7644, -4554, 
	-6674, 4674, -5719, 7977, 12078, 349, 3584, -774, 
	1619, 10036, -5446, 2304, 4749, 3194, 5196, 6300, 
	385, -2045, 1082, -6158, 5743, 4736, 1513, -5754, 
	-4670, -5813, 4171, -5780, 2411, -5305, -6761, 2402, 
	-5790, -4423, -4201, 5985, 9525, 11090, 6015, 4472, 
	-4060, 2611, -2184, 776, 3354, -7846, 2619, 7692, 
	5562, -2994, 5920, 2295, -8473, -3161, 1809, -1592, 
	4150, -5565, 1455, 1661, -2588, 1106, 5947, -3147, 
	9370, 1241, -1934, -7665, 4502, 930, 5604, 4440, 
	11378, 8434, 853, 5678, -546, -9199, -2745, 3214, 
	-4660, -6791, -7690, 242, 797, 5392, -145, -1819, 
	6294, 1585, 2486, -1226, -7142, -3244, 3714, 1285, 
	903, -2519, 684, -4382, 2818, 6157, 7359, 4484, 
	3680, 2699, -8643, 5055, -2429, -3544, 4974, 2783, 
	1947, -3082, -11794, 4893, -2768, -303, -5977, -4610, 
	-2556, -7391, 5459, 3040, -5071, -1761, 6425, 6362, 
	553, -306, -8835, 1816, 9944, -638, 5923, 6778, 
	-2982, 11404, -4457, 1744, -7340, -10140, 4214, 8009, 
	1288, 2013, -3740, -14611, -4055, 2984, 4301, 8001, 
	6411, -109, -8270, 6361, 276, -55, -4849, -5483, 
	-181, -378, 10856, -1666, -7546, 1032, 3974, 2528, 
	-6161, 14478, 4054, -6434, 63, -941, -4537, -7993, 
	4131, -2908, -855, -12245, 5889, -1997, -6595, 2659, 
	4085, -6104, -9136, 3294, 10566, 5654, -2270, -9890, 
	4446, -2286, 1183, 3343, -2610, -5991, 10920, -550, 
	-2472, -9402, -562, 6316, -7246, 7670, -817, -27773, 
	7619, 5958, 750, -3913, 8915, -4765, -7701, -2232, 
	8920, -3225, -7801, 183, 11239, 101, -10048, 8630, 
	-464, 6536, 3210, -1937, -13195, -5986, 126, 6112, 
	-5411, -2465, 7849, 9536, 6439, 4083, -15164, -11764, 
	-1529, 8952, -3200, -2862, 5555, 3023, -2577, -230, 
	-1519, -4226, -2918, -556, 5639, 3231, -6119, 5817, 
	2035, 6473, 1331, 8914, -12304, 781, -3056, -3454, 
	136, 2596, 4784, 13533, 5212, -1956, -6334, -17775, 
	9652, -456, -2717, -12897, -3235, 1666, 5085, -3903, 
	-4306, -9150, 5369, 4157, -3140, 6152, -193, -6130, 
	6538, -669, -1581, -2384, -18333, 4492, 7450, 3203, 
	-1981, -932, -6718, -1603, -20, 8569, -8588, -23620, 
	4511, 6431, -6246, -5994, 3653, -2770, -3540, -2789, 
	11309, 6325, -3831, 11297, 11732, -3055, -1207, 2327, 
	3523, -4079, -9216, -7741, -15854, -1627, 5327, 2392, 
	-3631, -7378, 10988, 2966, 2342, -6335, -20183, -6268, 
	2865, 10004, -7288, 5992, 10819, 8907, 7227, -8492, 
	9265, -4859, 5928, -8016, 381, -2582, -3046, 4687, 
	-8536, -807, 6721, -3888, -28227, -4407, 2779, 7453, 
	-3360, 5559, 13196, -582, -1682, -1747, -6309, -9864, 
	-2740, 8755, -5009, -12583, 3071, -586, -1297, 5971, 
	-1130, -2898, -10989, 6777, 2201, 2426, -2222, 2618, 
	1539, -3798, -3123, 8932, -30151, -2366, 2079, 738, 
	-4572, -6102, 7641, 7279, -1631, 1289, -8809, -10554, 
	8790, 4066, 6143, 2644, 2519, -2699, -5980, -6498, 
	3320, 3086, -2129, 7519, 9818, 2394, -2424, -3824, 
	4764, -5394, -4627, 906, -23071, 3865, -2502, 3605, 
	-11830, -15966, 11776, -231, -10315, -83, -15213, -17437, 
	-2400, 7123, -9601, 6188, -183, 12517, -2186, 3879, 
	894, -3431, -3458, 1178, 9971, 10498, 5799, 1010, 
	5847, 4587, -6796, -843, -2162, 6038, -2683, 8781, 
	5023, 9189, 3397, 3655, 4011, -2911, -1551, 4570, 
	6559, -3566, 4616, -9516, -9290, 5742, -6367, 2798, 
	423, 3296, -6360, 9653, 1716, -3094, -2914, -3415, 
	-9791, -4454, -503, -5577, 9371, -3648, 7012, -37, 
	3444, -5916, -1826, -270, 610, 2839, 7362, 9701, 
	-1346, 2257, 1952, -3357, -990, 5319, -3821, 5054, 
	789, 8932, 5238, -64, -7849, -3828, 3939, -5466, 
	948, -3245, -163, 6437, -1360, 10808, -6272, -127, 
	-2470, -5567, 918, -6173, 6536, 1454, 428, 9358, 
	4890, -3393, -3192, -3285, -1688, -84, -3148, -6784, 
	5503, -3223, -4443, -918, 8996, -3816, 8082, -655, 
	3180, -1532, -1031, -5515, 8795, -1004, 3319, -4028, 
	-5536, 128, -13517, 2596, -1736, -7163, -3396, 8927, 
	-6086, -11113, 718, 5049, 2860, 5588, 7164, -5262, 
	-7012, 6187, 5865, -11223, 3874, -3802, -311, -3316, 
	4912, 4190, 3533, -6116, 10383, 2102, 1844, -636, 
	-284, -2761, -11750, -97, -4724, 1875, 12254, -2147, 
	-7119, -7591, 3678, -489, 4717, -1998, 5605, -6548, 
	-4139, 5802, -2456, 1689, -12986, -14743, 3139, -4766, 
	-7979, -3706, -2402, 6209, -5647, -1245, -1103, 1397, 
	3920, 617, 11464, 8038, 6789, -9779, 834, 4260, 
	-1539, -1273, -3440, -4640, 9942, 5381, 4955, -7435, 
	480, 5577, 1100, -9544, 4760, -714, 779, -1548, 
	-4967, 9600, 184, 13250, 8702, -178, 1853, -2210, 
	5120, 3272, 5098, -4076, 5731, -5203, -4805, 2681, 
	1929, -5818, 520, 288, -3226, -1599, 757, 3392, 
	-29, 1297, 5717, 470, -10887, -8260, -1189, 480, 
	5383, -5841, 4761, 1756, -4619, 8141, -2828, -1304, 
	-4964, -6876, 2671, 2465, -4050, -2150, 1538, 1441, 
	-2843, -3517, 8131, 6454, 8475, -2553, -3927, 2572, 
	-4254, -88, -1403, -10887, -1667, -12078, -4252, -116, 
	7065, 1792, 2149, 3061, 4603, 8975, 3498, -2465, 
	2529, -5272, 2959, -2074, -2287, 2139, 568, -2297, 
	2904, -7919, -8802, 4219, 7587, 4722, -12884, 399, 
	9973, 7693, 5584, 6676, 7960, -12950, -7008, 5903, 
	5290, 1814, 1851, 3869, -5699, 10573, -7240, 180, 
	-5391, 5987, 3353, 4630, 15617, -10062, -4630, -6954, 
	-1875, -7872, -7954, 5151, 459, -1148, -7502, 10172, 
	4834, 12330, -169, 4776, 1224, 4320, -4425, 2144, 
	9160, -8442, -5796, -4993, -703, 4755, -8635, 891, 
	3784, -1611, 14495, 6912, 8661, -296, -11150, 3630, 
	-5292, -10566, 9115, 3557, 1615, 653, -6874, -2403, 
	-4856, 894, 10135, -2044, -3928, -4103, 8239, -10938, 
	3240, 2710, -3765, -6868, 8789, -11021, -11260, -7894, 
	8741, -6454, 1854, 7745, 7515, -4515, 7594, -2143, 
	11620, -9739, 45, -6735, 8429, -2095, -3130, 5053, 
	4318, -1656, 3190, -3871, 20485, -1785, -9453, 10501, 
	1477, -1435, 2585, 3168, -7109, 12813, -882, -3490, 
	-5482, -2236, 4404, 4977, 11680, 6389, -1311, -10044, 
	10727, -9975, 974, -6121, 3069, -2918, -10210, 7854, 
	10079, -6547, 7960, 646, 14211, 6972, -5672, 7046, 
	2674, -1564, 6762, 8346, 134, 1541, 696, -1238, 
	3382, -6303, 5029, 7712, 11038, 2272, -5419, 1879, 
	-5416, -8841, 1286, 2198, 884, -10045, -1601, 6618, 
	4653, -4642, 10843, -3897, -4723, 93, -4699, 3593, 
	-4724, 7117, 11566, -3030, 9813, -10048, 1683, -4831, 
	6518, 5003, -3285, 3461, 3856, 4979, 4933, 4456, 
	7067, -95, -3031, -6182, 8057, 1318, -6742, 2966, 
	3821, -3133, 5322, -1020, -8728, 9693, -9536, 2090, 
	-987, -755, 897, 6173, 3835, 7365, -676, -2506, 
	-5616, -723, -3411, 3889, 4318, 8741, 2576, -5416, 
	2009, 235, -3846, -5032, 6063, 1853, -2937, 2075, 
	-1827, -5675, -4521, 1487, 3349, 1031, -7693, 8363, 
	2611, 3595, 10486, 4404, 2635, 798, 4082, -8489, 
	6206, -1970, -438, 2733, 4484, 2714, -4088, -4586, 
	3133, 7042, 8907, -3945, -1703, -6175, -5008, 4722, 
	-6311, -11332, 5755, -4908, -640, 4364, -318, -6483, 
	861, 3965, 155, 5523, 6861, -9473, 1045, -1807, 
	-742, 952, 198, 3204, 3680, 3249, 12193, 7487, 
	-5059, 3700, 1393, -10059, -9556, -1399, 1601, -474, 
	10657, -2369, -9987, 4000, -4272, -4799, 1266, 1084, 
	-3091, -7066, 1854, 674, 813, 5560, -9336, -3064, 
	7158, 7495, -7347, -7043, 1132, 5733, 9731, 5575, 
	-3712, -31, 370, 5980, 2373, 6925, 9586, -2200, 
	13417, -8727, -6325, 4872, 8543, 5076, -3897, 2477, 
	3527, -592, 7232, -5059, -4152, 12499, -13049, 8744, 
	451, -10461, 11027, -6413, 2916, -866, -3151, -11980, 
	4226, -3149, -11490, 3489, -3008, -1728, -366, -1694, 
	5870, -1161, -8188, -9548, -2036, 5312, 1051, 3992, 
	7422, 7759, 2923, -3891, -4483, -1473, -2316, -6274, 
	1548, 4113, 1189, 1441, -885, 291, -3119, 3175, 
	-9065, 2167, -10152, 739, 2169, -3982, -3324, -3702, 
	9604, -9228, 2290, 3066, -13080, -14179, -8305, -7317, 
	-143, 6965, -4787, -5661, -1523, -345, 331, -2375, 
	4004, -2555, -7561, -2213, -487, -5583, 3058, 308, 
	-593, -940, -7041, -2490, 4257, 5257, 585, 2588, 
	5495, 5984, 3353, -2608, 3515, 11227, -615, 5069, 
	10666, 4691, 8770, 1236, -10756, 5894, -5364, -132, 
	648, -2002, 12363, -1065, -1992, 2919, -632, 2636, 
	8297, -992, -7570, -2076, 4054, 1645, -5200, -9091, 
	1986, -4079, -5377, -1235, -4395, 12351, -11698, -5809, 
	6311, 891, 802, 4205, 2262, -9182, 350, -8127, 
	-707, -10379, -5866, 5504, 7507, -6822, -10873, 3061, 
	-7418, -6202, -6607, 2123, -5245, 856, -7602, -7407, 
	1830, -9528, -4028, 9175, -7180, -11866, -10699, 5964, 
	-5287, -11211, -3243, -10088, 12805, 5726, -9445, 629, 
	-1099, -6229, -10630, 4067, 9585, -4661, 8033, 9875, 
	-5637, 1752, 930, -1382, 2046, -9796, -5046, -1289, 
	1714, 5910, 2505, 2581, 11264, 2558, -5653, -3922, 
	4206, -769, 7166, -5783, -9810, 6738, -1189, 253, 
	-7854, -10314, 8292, 1656, -4730, 336, -1781, 4904, 
	12255, 1971, -484, 5559, 3078, -8060, -6008, -3667, 
	1767, -3292, -433, -67, 373, -1481, -1732, 5666, 
	-4604, -2770, 9009, -1661, 487, 1025, 7170, -5775, 
	-8283, 2431, -4108, -268, -5485, -3718, 284, -1999, 
	-889, 9136, 321, -1213, 5142, -2156, -170, 6784, 
	-6521, 4738, -246, 7951, 6851, -10072, 1660, 1957, 
	-8409, 3047, 8874, 1477, 1008, 3698, -4741, 1010, 
	-6997, 7451, -399, -3684, 8533, -9938, 3132, -2422, 
	-6660, -8267, -3482, -1179, -4334, 2891, -2110, 3177, 
	771, 4311, -5808, 13637, 12860, 2028, -3816, -7132, 
	-5694, -4884, 8340, 1991, -3529, -4840, 2920, 6619, 
	3885, -3498, 3794, 3351, 5422, 1853, 8487, 3225, 
	4763, -109, -3401, 8991, 6378, -3643, 12844, -4124, 
	2373, -5287, 2036, 812, 2143, -3818, 3855, -4449, 
	718, 5873, 8071, -9219, -4418, -2777, -4189, -4515, 
	2068, -2321, -11384, -1703, 8315, -2944, 9695, 7744, 
	5953, 10493, -6822, 3718, -4994, 6575, 3055, 3421, 
	1778, -4241, 8656, 7292, 4644, -8077, 1631, -2744, 
	-3680, -440, 9318, 11428, 3031, 2396, -3802, -4539, 
	-1981, -1603, -5303, 4801, 5050, -3255, 11, 6062, 
	-8051, 10311, 2511, -2855, -1239, -7636, -4241, 4800, 
	5896, 4417, -7774, 6850, 10611, -2440, -1137, 226, 
	-9246, 104, 9181, 3397, 1185, -3060, 5098, 5015, 
	5332, -7174, -3502, -7533, -2185, -1955, 8218, -4110, 
	-5122, 2212, -2315, 4560, -7332, -2488, 5856, 1192, 
	-3680, -4546, -6047, 5740, 4193, 1015, 5883, -6449, 
	-5645, 5133, 755, -1965, -6451, 2303, -1624, 7048, 
	-4505, -6493, -6100, 3719, -4338, -1721, 10473, -2306, 
	6009, 13871, 3854, 7071, 3015, 5444, 13238, -9685, 
	3389, 3194, 1973, 3637, -1130, 6409, -575, -2172, 
	-2915, 4653, 6857, 8001, -2604, 4990, -8137, 4625, 
	-1339, 7724, 3188, 5190, 6008, 1169, 514, -8393, 
	4257, 12381, 4329, 4535, 7079, 5376, 10989, -7903, 
	4367, 2061, -2395, -6066, 5423, -4321, -5823, -5432, 
	-6915, 6943, 12893, 5421, 3110, -1516, -7248, 3471, 
	7579, 5266, 3092, -607, 3073, 11160, 2120, 1982, 
	-8327, 6700, 8728, 1146, 6473, -6298, 3872, -391, 
	397, 644, -211, -7088, -568, 9846, -5761, 6399, 
	-5249, -4590, 3898, 1413, -8912, -4861, -1828, 4289, 
	-788, -6849, -6236, 5480, -5489, 5281, 3596, 3172, 
	-149, -2328, 6251, 709, 5154, -3763, 12075, 8764, 
	199, -3284, 6799, -2219, 1208, 9903, 1910, -5573, 
	8653, 7462, 98, 3860, 4082, -10994, -6237, -6123, 
	-3012, 6980, -2496, 5477, -600, 10091, 10117, 7216, 
	-5286, -1450, -4912, -12968, -6284, -7906, 14509, -2625, 
	-132, 4523, -537, 1624, -4805, -4589, 4955, 4177, 
	1613, 6234, 6066, 3548, 3938, 1801, -462, 2155, 
	-4976, -99, 555, 5355, 10501, 3538, 11570, 12703, 
	-4383, 8110, 9404, -7431, -6770, -2265, 1920, 8662, 
	-2731, 3434, -1853, 2131, -7626, 13576, -2322, 6803, 
	947, 4047, 1949, -12384, 7538, -441, -6428, -2536, 
	741, 1644, -5441, -523, 1212, 3995, 6232, 6644, 
	3056, -1642, -3085, 3148, 578, -4143, -978, -6326, 
	3273, 4767, -1026, -295, 4526, -7275, 1075, -2977, 
	-5127, 975, -601, -6602, -775, -8076, -1648, 5102, 
	1583, 955, 158, -2077, -3524, -5123, 36, 13401, 
	-1141, 2658, -1837, -970, -8892, 4755, 2759, -1518, 
	3830, 1990, -2657, 10291, -3487, -3967, 10443, -6729, 
	-2759, -2488, -5412, -6763, 7297, 4922, 3652, 4693, 
	4842, 3092, 6707, -1511, 9223, -5559, 9110, 8871, 
	-6244, 8335, -1675, -8619, -6797, 1650, 455, 2571, 
	4015, 1825, 2095, 4302, 2932, 4301, 3881, 2508, 
	-14924, 1377, -2940, 7987, 11865, -196, 5314, 502, 
	-128, -1841, 794, 1766, -585, 1573, 14546, 3969, 
	-3227, -7101, -8116, 4383, -1768, -647, -4327, 778, 
	705, 8110, 2625, -597, 1408, -4457, 7600, 4003, 
	-16420, -5651, -1669, 2483, 1491, -3894, 2801, -3508, 
	5929, 2595, 9711, -12155, -4452, -4498, 4610, 2384, 
	5685, -2439, -1109, -5905, -7011, -273, 5624, 3456, 
	-1733, 789, -6271, 29, 3841, -5655, 2661, -8174, 
	-12808, -5156, 555, -4025, 5552, -2845, -5451, -2210, 
	-5286, 6789, 1794, -23, -2920, 3234, 3631, 3712, 
	-9125, -6253, 6883, -10664, 2443, -7469, -5262, 2325, 
	-9568, 531, -5106, -4777, 3524, 5592, 7218, -6220, 
	-7230, -2522, 3602, 864, -7706, 8867, -5410, 3653, 
	-8521, -1206, -3637, 3115, -5164, 1200, 1561, -7303, 
	-1357, -1072, -3937, -2783, -8180, -2738, -9620, -10313, 
	-7719, -9289, -9608, 4602, 8969, -8042, -4914, 700, 
	-11093, -1225, -2735, -487, 4180, -1392, 1898, -4103, 
	753, 5247, -1967, -6814, -3687, -590, -10728, -14500, 
	-2815, 10277, -1504, 6201, -2650, 12054, 6237, 6937, 
	5449, -1367, 7844, -5814, -10025, 2511, 5247, 9487, 
	4840, -2553, 6531, 1268, -1884, 5972, 1664, 11272, 
	1034, 7258, 8694, 3825, -6732, 5910, -944, -7713, 
	-5399, -2209, -5290, -504, 6141, 16645, 2862, -1057, 
	1691, -2072, 7703, 1469, 13007, -1086, 3153, 12555, 
	724, -9299, 4322, 6972, 7002, -177, -3064, 4528, 
	1398, -6984, 16522, -1419, -5931, -5721, 532, 4822, 
	-1406, -8366, 717, -6546, 2124, 490, -1266, -5288, 
	2780, -9831, -11341, -3748, 5251, 4177, -5897, -5821, 
	-3223, 6240, -3294, -5568, -15384, 7926, 3126, -1296, 
	4445, -6942, 3627, 5040, -12695, 423, -17306, 3331, 
	-2116, 2183, -7332, 5668, -8454, -1893, -10449, 8097, 
	-10427, -4323, 1588, -11331, -2258, -1946, 7880, -1749, 
	-2298, 934, -283, -1961, -3404, 4425, -325, 6844, 
	-846, 5266, -3694, -4346, -4128, -1053, -7554, -6204, 
	2567, -1351, -696, -6158, 2593, 13384, -1287, 1490, 
	1165, 5763, 3874, 5310, 10030, -7151, 14748, 9558, 
	-16661, -3271, -5890, 3227, 5606, 1386, -3746, 7271, 
	-697, 5418, 13854, 5740, -8421, -3039, 5035, 11323, 
	-5330, -918, -8590, -5228, -5910, -9530, -10423, -7393, 
	4559, -12474, -6029, -4965, 6888, 4636, -191, 4058, 
	103, 2895, -3215, -500, -6708, 7623, 3297, 3148, 
	-8619, -3869, -7339, -4232, -4005, 8720, -4206, -3881, 
	3750, -1989, 3511, -944, -7522, 1463, -8263, 7624, 
	2525, 2628, -6197, -6366, 7222, -2153, -4292, -6529, 
	5489, -4859, 8856, 2833, -6796, 2220, 4796, -1289, 
	-8616, 2584, 233, 40, -1516, -5428, -7743, -814, 
	800, -7452, -1710, -6124, 3510, 11853, -5206, 5421, 
	-1747, 1124, 1672, 11249, 17953, -9699, 11772, 7065, 
	-11958, -6382, -2754, 4108, 8173, 12937, -1902, 7619, 
	-956, 8077, 13465, 5853, 630, -2212, -7649, 1435, 
	-42, 4548, 2593, 3910, 5244, 1651, 3554, -2657, 
	8692, -5511, -10308, 1483, 3817, 13659, 2493, 5806, 
	-1698, 1732, 3402, -6761, 14634, -6052, 2686, -3914, 
	1565, 1071, 1365, -5189, -3159, 10523, -17281, 883, 
	-6661, 4664, 4420, 418, 5968, -1495, 3004, 7528, 
	8559, -1495, -4106, 8010, -4791, -4946, -1104, -3301, 
	4933, -5438, -70, -14096, 15872, 3396, 2775, -6612, 
	-3944, 4073, -2635, -9823, 8418, -5429, -6891, 12289, 
	487, 4679, -5494, 7556, -245, 793, -266, -3820, 
	9243, 5592, 1124, 6863, -5038, 3769, -4600, 7951, 
	3906, -8029, -6805, -8614, 5005, 5768, -4860, -5688, 
	-7076, 1057, 239, -5467, 5660, 737, 7137, 14001, 
	9718, -2077, 5153, -19383, -2309, 5116, 2784, 1094, 
	-864, 1615, -2994, -4878, 786, 10311, 1952, -7223, 
	11067, -5209, -4615, 3350, 12257, 8544, 5286, 1138, 
	2596, 4782, -7511, 2880, 4361, 3943, 3861, 9510, 
	1825, -899, -8337, 782, 970, -3038, 7749, 1990, 
	539, 7788, 7159, -478, -2697, -4638, 3744, 6419, 
	-2463, -989, 4765, 579, 8597, 9518, -363, -3365, 
	3668, -4124, -1881, -10687, 94, -2301, 7614, 16493, 
	-1439, 6568, -10428, 2587, 1570, 913, 6220, -2054, 
	1249, -358, 2188, -6404, -7807, -5745, 7817, 2333, 
	-8599, 2299, -4365, 1234, 17989, 4080, 8572, -136, 
	-3084, 53, -4935, 7371, -7223, 2787, 9215, 11801, 
	-3757, 4374, -4, -6562, 3307, 6024, 3868, -2006, 
	-4242, -4498, -1328, 5865, -6027, -3311, 1588, 8148, 
	-4692, 9980, 5445, 4282, 4032, 4844, 13084, 7279, 
	-415, 6885, 6658, 11404, 3236, 7983, -12787, 2996, 
	661, 1336, 2985, -4504, -4691, -1157, 8166, 1016, 
	-11037, -5553, 5525, 6193, -10170, -3465, -36, -117, 
	5006, 4519, 3849, -5034, -331, 5883, 9746, 6752, 
	-7471, -3425, 4996, -1358, 5672, -1471, -9164, 8694, 
	6406, 8062, -1497, -8133, 2562, -3721, 2080, -2822, 
	-11050, 1734, 3060, 1996, -11462, -8684, -1126, -1800, 
	-7581, -691, -3924, -135, 14382, 5569, -4778, -1030, 
	6379, -5444, 6035, -1742, -6409, -6704, -3757, 8498, 
	2304, -4847, -2516, -7183, 643, -686, -1964, 5684, 
	3095, -12076, -334, -3002, -3284, -8333, 2811, -3325, 
	-1068, 1087, 2203, 745, 1541, 14795, 11384, 11643, 
	1285, 12386, 3128, 5872, 9933, -3728, -3111, -3766, 
	-3349, 11663, 8703, 4308, 3508, 3045, 4191, 6740, 
	-3213, 6864, 4050, 3027, -4486, -10910, 5180, 4026, 
	-4026, 6859, -2961, -4697, 4086, -4037, 1526, -2155, 
	-615, 7361, -2210, 2524, -278, 2752, 3951, 11103, 
	6008, 5522, -1240, -7449, -1118, -4040, -3870, -3298, 
	-2317, -2814, -7848, 1564, 7930, -11695, 5984, -5401, 
	4350, 6449, -6914, 5681, 2232, 7232, 3868, 304, 
	-10321, 4353, 2387, 5643, 4403, -9078, 5381, 11277, 
	-671, 7642, 4674, 4002, -4311, -2871, -5800, 4226, 
	4028, 855, 1447, -7325, -2038, -4368, -4924, -4971, 
	-11529, -4805, -2606, -2971, 10732, 6631, -3256, 4982, 
	8596, 10878, -2799, -4424, -1247, 4513, -4091, -1056, 
	-9483, 4755, -1138, 11951, -3165, 3513, -5591, -5937, 
	-1035, -1386, 3540, 6168, -6436, -13342, 5536, 3369, 
	-11883, -7381, -3842, -485, 5539, -10113, -8788, -5358, 
	8197, 7253, 3444, 4299, 3057, -4250, -3044, 3211, 
	3706, 4108, 1808, -7444, -10335, -6091, 865, -7831, 
	-11360, 805, -1208, 1101, 4968, -1426, 5619, -5874, 
	3024, 4336, 1378, 5216, 3912, 5792, -10541, -3709, 
	-5979, -792, -611, 2917, -8737, -8643, -1375, -2329, 
	-7019, -9913, 6877, -827, -1404, -2451, -3872, 2220, 
	-117, -1146, 3152, -7629, -1462, 96, 3752, -6413, 
	-7581, 838, 6033, -1885, 6848, 14658, -2916, 8434, 
	6481, 8506, -1990, -3635, -6423, -6003, 1496, -11379, 
	-12449, -3776, 3845, 9741, 5040, 3779, -8433, -9772, 
	-5217, -4855, -5758, -9560, -2170, 3130, 2870, 4658, 
	-7256, -3052, 7232, 3489, 7451, -6329, -7307, -6750, 
	-876, -3191, -4294, 4110, 1388, -1820, 5371, 5356, 
	-3110, 3564, 2122, -6329, -6942, -9169, 932, 1881, 
	-1160, 3463, 4586, -10044, -3704, -1466, 8462, -950, 
	5282, 6625, -3513, 1120, -5494, 533, -3654, -6586, 
	2029, 7888, -2162, 1405, -3173, -7560, 5760, -7223, 
	1750, 5946, -3127, 11153, 3992, 4165, 4800, 810, 
	-810, -5215, 10439, -6505, -10742, -11532, 5255, 6775, 
	6852, 896, -11726, -2152, 9739, 18776, -1927, 1762, 
	-830, 1513, 8683, 8102, 3680, -66, -4882, 10503, 
	-1151, -7198, -5941, -6453, -701, 7600, -16122, -5570, 
	-6401, 226, -397, 5196, -5841, -11814, -1545, -2822, 
	8421, -1437, -17033, -2969, 5888, -1762, 8249, 277, 
	224, -1831, 3122, 4789, -8015, -3212, -6852, -8737, 
	1891, 3671, 5459, 1237, -1487, -1805, -17008, -1427, 
	2160, -3766, -660, 3978, -1889, 758, 1268, 5705, 
	298, 3757, -3107, -1501, 469, 8118, 6525, -186, 
	4501, 4107, -10657, 1987, 2798, 1713, -9094, -14252, 
	4695, -12708, -4700, -303, 2154, -4793, -17216, 4646, 
	684, -1799, 2448, -5856, -11259, -9367, 2509, 1136, 
	3560, 560, -13693, 364, 773, 4876, -1108, 5121, 
	5458, 7452, 257, 945, -3358, -4150, -357, -3467, 
	2079, -6596, 645, 5095, -36, -191, -15450, 5421, 
	4481, 4992, 1932, 1432, -119, -1134, 1952, 4996, 
	3059, 3385, -10140, 3973, 11212, 346, -200, -1264, 
	-6630, 647, 4689, 5016, -6251, -8247, -10252, 2624, 
	-3332, -7554, -3206, 6644, 4740, -3150, -20497, 426, 
	2495, 3430, 6241, -521, -1610, 6640, -5439, -7062, 
	-3818, -4542, 276, -5347, 3237, -9134, -4468, -2319, 
	-8580, 6092, -10004, 1918, 43, 2906, -6636, 5158, 
	-4122, 421, -5222, -3257, 972, 4645, -2333, -6734, 
	-139, -10793, 1054, 1871, 1783, -8327, -4687, 6266, 
	-4882, 1606, -9785, -3015, 9969, 8047, 7518, -2990, 
	3496, 9763, -2756, 1327, 6330, -5454, -2431, 6028, 
	3791, -1010, 406, -3117, -7010, 9055, 1248, 739, 
	-6111, -6281, -515, -1177, 5403, 4897, 8393, 327, 
	3811, 1609, -12187, 1599, 3710, -8604, 1998, 3628, 
	692, -2652, 8982, 6234, 3487, -6456, -3739, 4348, 
	7412, -3397, 8456, -5239, -5703, 8129, -2756, 3234, 
	-7241, -6789, 4994, -2482, 374, 1156, -5493, 8335, 
	1471, -1962, 8607, -44, 15743, 4525, 9699, 3923, 
	765, -7290, 2806, 9091, 4036, 8435, 286, 9853, 
	4278, -5322, 2684, -6775, 4181, 3879, -6574, 7730, 
	-4392, -2515, 40, 7145, -5985, -3011, 4994, -7601, 
	-9823, -4707, -7766, -9135, -10943, -1114, 8906, -901, 
	-6042, 4569, 6379, 5366, 590, 113, -7305, -3797, 
	-2500, -6633, -2798, -9764, -6786, 7057, 1095, -5135, 
	942, 5993, 6111, -2959, -7892, 5384, 10588, 4021, 
	-5349, 5885, 4893, -13423, -5055, 5591, 8525, 5716, 
	4190, 10256, -1603, 4913, -4004, 2475, -7581, -7422, 
	-11419, 8895, 4119, -13255, 5675, 227, -2201, -7988, 
	3414, -8996, -4909, -4550, 8276, 2670, 3711, 2757, 
	3761, -8189, -7265, 1793, 7239, 4647, 4591, -6255, 
	-7853, -2880, 1921, 8827, -6864, -1823, 1128, -2961, 
	4042, -3056, 1364, 3723, -5122, 1868, -3449, 5470, 
	-7817, -2881, 11328, -4204, -1875, 130, 1241, -4999, 
	1536, -1086, 2967, -1341, -7034, 7286, 943, 10535, 
	-342, 2374, 3207, 4085, 4618, -5866, 946, -4974, 
	-1473, -10688, 2236, -4700, 3583, -5422, -3696, 1724, 
	-5781, -44, -779, -10030, 11909, 6019, -5899, 4884, 
	4373, -2521, -1857, -3651, -3747, 10716, 1818, 3838, 
	6253, 902, -11986, -5584, -871, 6484, -3395, -5712, 
	-623, -1279, -1902, -1399, -6536, 212, 4516, -795, 
	1781, 5409, 3209, 7613, -2170, -7334, 5651, 3655, 
	-3581, 6696, -10634, 6827, 405, 3270, 8419, -5031, 
	-4311, -6789, 4542, -2002, -2714, 8697, -1963, 8221, 
	-8104, 3310, 741, 5395, -1265, 5826, 1171, 9561, 
	4941, 3726, 7637, 559, 5397, -9288, -8756, -4386, 
	-352, 4715, 5429, 3168, -13115, 487, -3402, -1921, 
	-9038, 7527, -3200, 4059, -107, -4490, -9239, -10348, 
	-7433, -1029, -779, -5790, -4266, 7136, -2904, -1627, 
	6915, -4211, 3253, 3394, 8616, 3882, -857, 5201, 
	8692, 5190, -1980, -5024, -13848, 2668, 3391, -2224, 
	-7676, -1846, -9190, 1838, -5631, 1462, -3195, -7155, 
	-2175, -1923, -8397, -3002, -1004, 4119, -3914, -6536, 
	164, -5259, 3947, 6164, 4725, -4894, 1880, -3632, 
