#pragma once
#include "dl_lib_matrix3d.h"

dl_matrix3d_t* model_forward(dl_matrix3du_t *input);

const static fptp_t conv1_filter_item_array[] = {
	0.00519f, 0.17245f, -0.19355f, 0.13735f, 0.12306f, 0.18552f, 0.00130f, -0.08063f, 
	0.02917f, -0.15498f, 0.09772f, -0.09391f, 0.03507f, 0.03884f, -0.03392f, -0.03148f, 
	0.16425f, -0.15748f, 0.03772f, 0.05053f, -0.18851f, 0.05842f, 0.18673f, -0.07776f, 
	-0.11746f, 0.02792f, 0.02026f, 0.16777f, -0.17474f, -0.09928f, -0.04043f, 0.18746f, 
	0.20143f, -0.14068f, -0.09869f, 0.12250f, -0.16285f, 0.03980f, -0.00685f, 0.14954f, 
	0.09102f, -0.03607f, 0.11616f, -0.15418f, 0.01045f, 0.13992f, -0.08987f, 0.01122f, 
	0.07440f, -0.09358f, 0.07501f, 0.02765f, -0.18715f, 0.05283f, 0.00268f, -0.12182f, 
	-0.04947f, -0.13021f, 0.14869f, -0.05955f, 0.03559f, 0.13598f, 0.20529f, 0.03691f, 
	-0.14943f, 0.05990f, -0.08348f, -0.19995f, 0.01327f, -0.12322f, 0.17056f, -0.08811f, 
	0.10169f, 0.12235f, -0.01878f, 0.17811f, 0.21016f, -0.05725f, -0.10465f, -0.14828f, 
	-0.09759f, 0.01990f, -0.00328f, -0.15397f, -0.12374f, -0.08870f, -0.03460f, -0.17999f, 
	0.03860f, -0.20577f, -0.16412f, 0.01118f, 0.12322f, -0.11171f, 0.15374f, 0.08530f, 
	0.01370f, -0.07123f, -0.12037f, 0.02655f, 0.06232f, -0.08090f, 0.02768f, 0.05753f, 
	0.19099f, -0.19983f, -0.07036f, 0.14783f, -0.18967f, 0.09848f, -0.00552f, 0.18844f, 
	0.01451f, -0.07553f, -0.00768f, -0.02603f, -0.12277f, 0.04746f, -0.18481f, 0.18766f, 
	0.02228f, 0.12620f, -0.15746f, 0.06532f, 0.03426f, -0.09794f, -0.10356f, 0.07676f, 
	0.18890f, 0.03637f, 0.14655f, 0.08071f, -0.07134f, 0.02267f, 0.16796f, -0.11364f, 
	-0.11729f, 0.14478f, -0.12812f, 0.01353f, 0.10938f, 0.02556f, 0.13584f, -0.05004f, 
	-0.09456f, 0.07562f, 0.12725f, -0.09994f, 0.15524f, -0.13270f, -0.05040f, -0.05559f, 
	0.06580f, -0.11341f, 0.21263f, -0.16532f, -0.07736f, 0.16731f, -0.14030f, -0.01176f, 
	0.13429f, -0.02764f, -0.01616f, -0.15992f, 0.17714f, 0.01796f, -0.13645f, -0.07997f, 
	-0.00957f, 0.17881f, -0.00305f, -0.03074f, 0.20213f, 0.16198f, 0.06395f, 0.07444f, 
	0.19743f, -0.15049f, -0.16534f, 0.12337f, -0.16249f, 0.18918f, 0.16133f, -0.03085f, 
	-0.11960f, 0.00523f, -0.15286f, 0.03482f, -0.14450f, 0.05827f, 0.16268f, -0.02586f, 
	-0.14464f, 0.12384f, -0.00100f, 0.14728f, -0.02214f, -0.20063f, 0.00222f, -0.07952f, 
	-0.06791f, 0.15417f, -0.05319f, -0.13500f, 0.08925f, 0.07249f, -0.02096f, -0.00784f, 
	-0.10857f, -0.16669f, 0.16971f, 0.12546f, 0.11694f, -0.15467f, -0.03321f, 0.06511f, 
	-0.07200f, 0.05664f, 0.13641f, 0.08098f, 0.20439f, 0.07842f, 0.06215f, 0.20784f, 
	-0.03110f, -0.17622f, 0.17766f, -0.16834f, -0.11685f, 0.02380f, 0.09100f, -0.00058f, 
	-0.16853f, -0.14762f, 0.01865f, -0.20008f, -0.10502f, -0.12125f, 0.03716f, -0.11071f, 
	0.21342f, 0.09646f, 0.19951f, 0.11540f, -0.16386f, -0.10991f, -0.08749f, -0.01433f, 
	-0.11978f, -0.06634f, 0.12872f, -0.09021f, -0.11048f, 0.06223f, -0.11638f, -0.13778f, 
	-0.08301f, -0.01718f, 0.22421f, 0.05467f, 0.16870f, -0.10351f, 0.05021f, 0.00976f, 
	-0.07167f, 0.00041f, -0.03954f, -0.15016f, 0.21873f, 0.04764f, -0.03941f, -0.10521f, 
	-0.00064f, 0.04650f, -0.05861f, 0.14286f, 0.18856f, 0.00810f, 0.02864f, -0.13013f, 
	-0.08448f, 0.17538f, 0.06267f, -0.04575f, -0.14074f, -0.05591f, 0.01990f, -0.14865f, 
	0.01750f, -0.08716f, -0.10790f, -0.09495f, 0.05817f, -0.08236f, -0.01232f, 0.05308f, 
	0.11049f, 0.17154f, 0.18083f, -0.16931f, 0.14366f, -0.18378f, 0.06148f, 0.15769f, 
	-0.00572f, 0.16156f, 0.17071f, -0.04304f, -0.15410f, 0.05293f, 0.05652f, -0.02574f, 
	0.03339f, 0.15691f, -0.14926f, 0.04015f, -0.01065f, -0.01919f, 0.06547f, -0.19957f, 
	0.11854f, 0.05237f, 0.01548f, -0.07359f, 0.08730f, -0.16340f, -0.13076f, -0.12424f, 
	-0.00915f, 0.06378f, -0.02459f, 0.05985f, 0.15582f, -0.11202f, 0.02369f, -0.15521f, 
	0.16156f, -0.03647f, -0.13643f, 0.10864f, 0.20640f, -0.10702f, -0.06247f, -0.13217f, 
	-0.02809f, -0.01648f, 0.15146f, -0.06678f, 0.21263f, 0.00071f, -0.00700f, -0.06045f, 
	0.08299f, -0.00161f, -0.22234f, -0.09194f, -0.11079f, -0.06037f, 0.06164f, -0.04155f, 
	0.15675f, 0.15188f, 0.07614f, 0.01178f, 0.18434f, 0.09349f, 0.13763f, 0.05217f, 
	0.01501f, 0.01210f, 0.08038f, -0.05553f, -0.09600f, 0.09487f, 0.01915f, -0.05388f, 
	0.17664f, -0.10444f, 0.01033f, 0.18092f, -0.16844f, 0.02921f, -0.04781f, -0.18906f, 
	0.05162f, 0.15250f, -0.14019f, 0.07401f, 0.11869f, 0.03826f, -0.16705f, 0.10965f, 
	0.17802f, -0.12442f, 0.17753f, 0.00335f, 0.08661f, 0.18387f, 0.08466f, 0.14771f, 
	-0.06006f, 0.17564f, -0.13948f, -0.20756f, -0.17146f, -0.00697f, -0.17519f, -0.05440f, 
	-0.17747f, -0.16345f, -0.02759f, 0.18301f, -0.09738f, 0.15011f, -0.11607f, 0.01692f, 
	0.11415f, -0.14922f, -0.06853f, 0.02725f, 0.13917f, 0.09416f, 0.16481f, -0.07390f, 
	0.09613f, 0.14067f, 0.01289f, 0.21052f, 0.09651f, 0.04028f, -0.00637f, 0.17888f
};

static dl_matrix3d_t conv1_filter = {
	.w = 3,
	.h = 3,
	.c = 3,
	.n = 16,
	.stride = 9,
	.item = (fptp_t *)(&conv1_filter_item_array[0])
};

const static fptp_t conv1_bias_item_array[] = {
	0.12801f, -0.03605f, 0.15368f, 0.18699f, 0.31148f, -0.05977f, -0.02896f, -0.16645f, 
	0.14534f, 0.28378f, 0.19436f, 0.21144f, 0.10933f, 0.31290f, 0.03036f, 0.00893f
};

static dl_matrix3d_t conv1_bias = {
	.w = 1,
	.h = 1,
	.c = 16,
	.n = 1,
	.stride = 16,
	.item = (fptp_t *)(&conv1_bias_item_array[0])
};

const static fptp_t conv2_filter_item_array[] = {
	0.05699f, -0.05382f, -0.08582f, 0.04319f, 0.00361f, -0.10045f, 0.01296f, 0.04990f, 
	-0.05165f, 0.18679f, -0.00816f, -0.01097f, 0.11966f, -0.02596f, -0.05458f, -0.01413f, 
	-0.00629f, -0.00497f, -0.12449f, 0.01326f, -0.01356f, -0.07325f, -0.00252f, 0.12895f, 
	-0.07802f, -0.04088f, 0.00482f, -0.05699f, 0.12036f, -0.04563f, -0.05121f, 0.09216f, 
	0.03022f, 0.03005f, -0.06251f, -0.01264f, 0.05735f, -0.01267f, -0.05751f, 0.03311f, 
	-0.12082f, -0.09631f, 0.10912f, 0.01861f, 0.11653f, 0.01363f, 0.06139f, 0.05382f, 
	-0.05983f, 0.01428f, -0.13651f, 0.10353f, 0.06439f, 0.00021f, -0.04178f, 0.06797f, 
	-0.02012f, 0.28621f, 0.02973f, 0.01183f, 0.00492f, 0.00810f, 0.06488f, -0.04755f, 
	0.01690f, -0.03120f, -0.25778f, 0.16389f, -0.05482f, 0.04583f, 0.08795f, -0.04432f, 
	-0.05569f, 0.09289f, 0.04437f, -0.04029f, -0.01182f, -0.00869f, 0.05557f, -0.05469f, 
	0.04781f, -0.04374f, -0.16883f, 0.23396f, 0.09071f, 0.05855f, 0.09934f, -0.01322f, 
	-0.02065f, 0.04261f, -0.00424f, 0.00760f, -0.00614f, -0.01366f, 0.07145f, 0.03575f, 
	-0.02560f, 0.07533f, -0.20603f, 0.02046f, 0.01481f, -0.07194f, 0.07958f, 0.07102f, 
	-0.02293f, 0.10942f, 0.04513f, 0.06542f, -0.03725f, -0.04812f, 0.01215f, 0.09145f, 
	-0.04149f, 0.08740f, -0.26015f, -0.04597f, -0.06449f, 0.05251f, -0.02968f, -0.06075f, 
	-0.10918f, -0.02724f, -0.02726f, 0.00637f, -0.07714f, 0.04610f, 0.06756f, 0.06799f, 
	-0.06455f, 0.04535f, -0.15939f, 0.12296f, 0.04527f, 0.11188f, 0.11516f, -0.04369f, 
	-0.02258f, 0.00126f, -0.01219f, -0.03370f, -0.05400f, -0.05081f, 0.00523f, 0.06436f, 
	0.06373f, 0.07156f, -0.19508f, -0.10544f, -0.07631f, -0.06000f, 0.03586f, -0.08071f, 
	0.06895f, 0.09884f, -0.00818f, 0.01189f, -0.02633f, -0.00482f, 0.03147f, -0.04303f, 
	-0.08409f, 0.05909f, -0.10126f, 0.03408f, -0.02576f, -0.09930f, 0.03323f, -0.08212f, 
	-0.06016f, 0.04539f, -0.09326f, 0.07861f, 0.03718f, -0.03859f, 0.02796f, 0.08838f, 
	0.03637f, -0.04065f, -0.15054f, -0.08456f, 0.03301f, -0.14518f, -0.03611f, -0.02205f, 
	0.07600f, 0.07835f, -0.01612f, -0.00884f, -0.06824f, 0.03217f, -0.02506f, 0.10194f, 
	-0.04828f, -0.01481f, -0.10219f, -0.16762f, 0.04320f, -0.15530f, -0.04002f, -0.00697f, 
	0.06246f, 0.08816f, -0.04053f, 0.07636f, -0.00083f, 0.04120f, -0.04940f, 0.05170f, 
	0.03829f, 0.05538f, -0.13912f, 0.09306f, 0.02569f, -0.11106f, -0.07088f, 0.04901f, 
	0.06643f, 0.07629f, 0.02206f, 0.08259f, -0.02050f, -0.01634f, -0.04938f, -0.06258f, 
	0.07894f, -0.00804f, -0.10684f, 0.01523f, -0.08207f, -0.11842f, 0.04513f, -0.02037f, 
	0.06183f, -0.00508f, 0.02729f, 0.08028f, -0.05286f, 0.03198f, -0.10449f, 0.04347f, 
	-0.00608f, -0.01393f, -0.05189f, 0.00380f, -0.05209f, -0.01287f, -0.00713f, 0.01723f, 
	0.09656f, -0.05929f, 0.00446f, 0.05648f, -0.04497f, 0.01656f, -0.01751f, -0.04652f, 
	-0.04620f, 0.07236f, -0.04626f, 0.07273f, -0.05755f, -0.08721f, 0.04489f, -0.03009f, 
	0.08542f, 0.11216f, -0.00390f, -0.05963f, 0.06030f, -0.06106f, -0.04479f, -0.10929f, 
	-0.03367f, 0.06430f, -0.11030f, 0.02029f, -0.09959f, 0.00126f, 0.01736f, 0.06586f, 
	0.08261f, 0.05048f, -0.04784f, -0.06903f, -0.03206f, -0.07382f, -0.07654f, 0.00197f, 
	-0.00775f, -0.01787f, -0.01997f, -0.01870f, 0.01104f, 0.01495f, 0.05019f, -0.00917f, 
	0.06875f, -0.14990f, -0.16972f, -0.00244f, -0.01725f, 0.05749f, -0.08148f, 0.07277f, 
	-0.03723f, -0.04953f, -0.06157f, 0.08025f, 0.07866f, -0.05337f, -0.09049f, 0.00081f, 
	0.09770f, -0.03181f, -0.13514f, 0.04764f, -0.07997f, -0.02586f, -0.04693f, 0.08621f, 
	0.00157f, 0.02643f, 0.04110f, -0.01839f, 0.07641f, 0.05964f, -0.02288f, 0.01940f, 
	-0.03088f, 0.11218f, -0.09229f, -0.06245f, 0.06581f, -0.00668f, 0.07556f, 0.10687f, 
	0.01475f, -0.10935f, -0.12819f, 0.09770f, -0.07162f, 0.02154f, -0.02690f, -0.08282f, 
	-0.06510f, 0.02610f, -0.12826f, 0.02959f, 0.04655f, -0.01497f, -0.05341f, 0.06947f, 
	0.00324f, -0.04020f, -0.24347f, 0.00068f, 0.00738f, 0.13099f, 0.07133f, -0.03138f, 
	0.05920f, 0.03946f, -0.13884f, -0.06383f, -0.01283f, 0.04691f, -0.03788f, -0.04477f, 
	0.08462f, 0.11173f, -0.15528f, 0.04733f, 0.01264f, 0.11489f, 0.11445f, 0.02505f, 
	-0.06100f, 0.02314f, -0.04130f, -0.04761f, -0.05889f, 0.02050f, -0.00699f, -0.01125f, 
	0.06249f, -0.00901f, 0.10568f, 0.08050f, -0.03427f, 0.03862f, -0.02921f, -0.07029f, 
	0.01452f, -0.16087f, -0.11794f, -0.07693f, -0.04647f, -0.02855f, 0.06112f, -0.05434f, 
	0.10392f, 0.07163f, 0.12662f, 0.04886f, -0.02359f, 0.08104f, -0.11603f, 0.04035f, 
	0.12105f, -0.07417f, -0.09033f, 0.07671f, 0.09060f, -0.07420f, -0.07855f, 0.01160f, 
	0.09713f, -0.01143f, -0.06400f, -0.06618f, 0.10012f, -0.01389f, -0.03801f, 0.08070f, 
	-0.03491f, 0.13365f, -0.04404f, 0.06755f, -0.03522f, 0.02973f, -0.07765f, 0.00607f, 
	0.01713f, -0.00980f, 0.08209f, 0.04605f, 0.01571f, 0.04868f, 0.00370f, 0.04531f, 
	-0.04658f, -0.04641f, -0.03229f, -0.08031f, -0.00290f, 0.07339f, -0.00721f, 0.02915f, 
	0.00871f, 0.05570f, 0.09101f, -0.05079f, -0.00846f, 0.06330f, 0.03579f, 0.05697f, 
	0.04173f, -0.02135f, 0.02137f, 0.00633f, -0.04855f, 0.06173f, 0.00638f, 0.00122f, 
	-0.07836f, 0.00670f, 0.15015f, -0.06664f, -0.02079f, 0.04022f, -0.06204f, 0.08234f, 
	-0.01319f, 0.02142f, 0.04207f, -0.06552f, 0.01972f, -0.02663f, 0.08039f, 0.02616f, 
	0.02230f, 0.06357f, 0.07687f, -0.00535f, 0.08212f, -0.02421f, 0.02955f, 0.11389f, 
	-0.00580f, -0.09330f, 0.01490f, 0.08179f, -0.04312f, -0.07418f, 0.02500f, 0.07816f, 
	-0.01699f, -0.01881f, 0.19300f, 0.08565f, 0.01200f, 0.03995f, -0.03948f, -0.03843f, 
	0.05263f, 0.12274f, 0.00947f, 0.04535f, -0.04882f, -0.04194f, 0.05089f, 0.04357f, 
	-0.05987f, 0.00928f, -0.00303f, 0.02105f, 0.00847f, -0.02636f, -0.01485f, 0.06888f, 
	0.03360f, 0.02591f, 0.02915f, 0.02609f, 0.05851f, -0.08649f, -0.01166f, -0.10818f, 
	0.01492f, 0.01337f, -0.06953f, 0.05683f, 0.00451f, 0.05464f, 0.06106f, -0.03174f, 
	0.09890f, 0.03112f, 0.07293f, -0.03313f, -0.05020f, -0.05486f, 0.06577f, 0.00501f, 
	-0.10990f, -0.08744f, 0.07889f, 0.03227f, -0.03578f, -0.05133f, 0.02999f, -0.01960f, 
	-0.01786f, 0.01506f, 0.01223f, -0.07160f, 0.03567f, -0.06481f, 0.07831f, 0.05691f, 
	-0.00938f, -0.05451f, 0.11149f, 0.09783f, -0.01442f, -0.06975f, -0.11975f, 0.08972f, 
	-0.09039f, 0.06729f, 0.07665f, 0.01390f, 0.02547f, -0.06391f, -0.00559f, 0.05420f, 
	0.06972f, 0.02619f, -0.11531f, -0.17076f, 0.08940f, 0.00569f, -0.05863f, 0.00388f, 
	0.14914f, 0.10169f, 0.02657f, -0.03792f, 0.08148f, -0.03092f, 0.00422f, 0.06872f, 
	0.01350f, -0.11304f, -0.01987f, -0.04820f, 0.04363f, 0.06121f, 0.08468f, 0.05342f, 
	-0.02271f, -0.05839f, 0.05610f, -0.08141f, -0.01283f, -0.00366f, 0.05253f, 0.05496f, 
	0.07086f, 0.00024f, 0.09290f, -0.09299f, 0.06405f, 0.10589f, 0.07935f, -0.03158f, 
	0.08800f, -0.02593f, -0.08924f, -0.03385f, 0.06745f, 0.08468f, -0.00148f, -0.02616f, 
	-0.02554f, -0.04640f, -0.01702f, 0.07925f, -0.01907f, -0.04717f, 0.03910f, -0.02591f, 
	0.04300f, 0.19564f, 0.02605f, -0.05977f, 0.10980f, 0.08594f, 0.01351f, -0.07461f, 
	-0.02887f, 0.01912f, -0.09058f, 0.04353f, -0.07193f, -0.00641f, 0.09117f, -0.00069f, 
	0.01758f, 0.05456f, 0.07592f, -0.07521f, 0.06417f, 0.05870f, 0.07179f, -0.05391f, 
	0.00391f, 0.00475f, -0.11919f, 0.12183f, -0.01716f, -0.02140f, -0.00574f, -0.07020f, 
	0.08051f, 0.13382f, 0.06823f, -0.06771f, -0.01676f, 0.10662f, 0.03714f, -0.06294f, 
	-0.01294f, 0.01768f, 0.17414f, 0.08444f, 0.07422f, -0.05466f, 0.08301f, 0.01397f, 
	0.03352f, 0.03726f, 0.09230f, -0.05140f, 0.12606f, 0.00837f, 0.09970f, 0.07503f, 
	0.12189f, 0.08348f, 0.05026f, 0.09120f, -0.01350f, -0.06708f, 0.02343f, -0.01171f, 
	0.10436f, -0.05658f, 0.08153f, -0.02577f, 0.04174f, -0.03372f, 0.03923f, -0.08170f, 
	0.10264f, -0.07042f, -0.04134f, 0.19192f, -0.04942f, 0.05384f, -0.08417f, -0.02024f, 
	0.04671f, -0.11256f, 0.02289f, 0.03351f, -0.02270f, -0.01142f, -0.04703f, -0.00977f, 
	-0.02516f, -0.07687f, -0.07261f, -0.09123f, -0.01010f, 0.07870f, -0.10756f, -0.02960f, 
	0.06760f, -0.02621f, 0.04179f, 0.03170f, -0.02597f, -0.11148f, -0.08228f, 0.07844f, 
	0.03310f, 0.03681f, -0.02603f, -0.00920f, -0.07066f, 0.05706f, -0.08395f, -0.04301f, 
	-0.01771f, -0.08713f, -0.07160f, 0.00475f, 0.01966f, -0.07853f, -0.10776f, 0.04873f, 
	0.00176f, -0.05831f, 0.01936f, 0.01176f, -0.02620f, 0.03167f, -0.00807f, -0.03045f, 
	0.06420f, -0.05743f, -0.05047f, 0.02235f, 0.01003f, 0.00627f, -0.03770f, 0.05165f, 
	0.03255f, -0.07883f, -0.04697f, 0.08160f, 0.02341f, 0.07186f, -0.03318f, 0.04208f, 
	-0.06104f, 0.02019f, 0.03840f, -0.04843f, 0.01650f, -0.03840f, -0.00116f, 0.09977f, 
	-0.03633f, -0.09252f, -0.05380f, 0.10429f, -0.02023f, -0.00467f, 0.00848f, -0.09764f, 
	0.05202f, -0.03844f, -0.03562f, 0.01990f, -0.03421f, 0.03330f, 0.03781f, 0.01196f, 
	0.05523f, 0.03197f, -0.03750f, 0.13150f, 0.00118f, 0.05665f, -0.01106f, -0.00161f, 
	-0.04255f, 0.15657f, -0.06575f, 0.01924f, -0.07823f, -0.01521f, -0.05505f, 0.02710f, 
	0.10001f, 0.00163f, -0.04222f, -0.03625f, -0.01077f, -0.04209f, 0.02088f, -0.09493f, 
	0.06315f, -0.08484f, 0.11639f, -0.06237f, 0.06161f, 0.08317f, 0.02053f, 0.00619f, 
	0.09322f, -0.03863f, -0.09789f, -0.09861f, 0.04599f, -0.04538f, 0.01813f, -0.06948f, 
	0.08149f, -0.16435f, -0.10615f, -0.06231f, 0.01845f, 0.02331f, -0.05206f, 0.02219f, 
	0.02028f, -0.00981f, -0.10051f, -0.13032f, -0.02731f, 0.06268f, 0.09666f, 0.06678f, 
	0.10621f, -0.04221f, -0.04692f, 0.01579f, -0.06108f, 0.01262f, 0.04995f, -0.05352f, 
	0.07347f, 0.00605f, -0.02014f, -0.11275f, -0.07114f, -0.08861f, 0.00495f, 0.10939f, 
	-0.08062f, -0.01008f, -0.09196f, -0.00802f, -0.01898f, 0.05075f, -0.06500f, 0.01283f, 
	0.06790f, 0.06590f, -0.09890f, -0.05462f, -0.08080f, -0.05081f, 0.01814f, 0.06994f, 
	0.01532f, -0.00681f, 0.00129f, 0.01509f, 0.05131f, 0.08020f, -0.01526f, -0.01324f, 
	0.08362f, 0.05105f, 0.01668f, 0.07668f, -0.02653f, 0.07141f, -0.07287f, -0.07796f, 
	-0.03495f, 0.10332f, -0.07586f, -0.01310f, 0.00375f, 0.00667f, 0.00479f, -0.04797f, 
	-0.01594f, 0.05424f, -0.05029f, 0.04421f, -0.02911f, 0.02862f, -0.00357f, -0.03536f, 
	-0.00340f, -0.06191f, -0.10001f, 0.02412f, 0.01396f, -0.09386f, 0.00113f, 0.03564f, 
	0.06926f, -0.04301f, 0.00338f, 0.08940f, 0.08484f, -0.02187f, 0.05076f, -0.07172f, 
	0.05885f, 0.02438f, -0.08727f, 0.07419f, -0.04891f, -0.04292f, 0.01392f, 0.08341f, 
	0.09183f, -0.09338f, 0.08069f, 0.03027f, -0.03789f, -0.02899f, 0.00207f, -0.06808f, 
	0.03286f, 0.09025f, -0.02041f, -0.05391f, 0.00947f, 0.01046f, -0.02779f, -0.07802f, 
	0.03296f, -0.01965f, 0.03714f, -0.14013f, 0.00920f, 0.00518f, 0.00678f, 0.02156f, 
	-0.10274f, 0.00144f, -0.05259f, -0.07786f, 0.08024f, 0.07374f, 0.03489f, 0.08482f, 
	-0.02800f, -0.09825f, -0.04653f, -0.06023f, 0.03809f, 0.01426f, 0.04458f, -0.11120f, 
	-0.04484f, -0.03287f, -0.08631f, 0.01029f, -0.06876f, 0.02360f, -0.06738f, 0.09361f, 
	-0.00754f, -0.09120f, -0.07032f, 0.02958f, -0.02362f, -0.03644f, 0.01258f, -0.10493f, 
	-0.09349f, 0.04774f, -0.01356f, 0.03291f, 0.05296f, 0.07537f, -0.02939f, 0.07751f, 
	0.05518f, 0.01826f, 0.01132f, -0.00115f, -0.03318f, 0.00629f, 0.07629f, -0.01341f, 
	0.03695f, 0.08222f, -0.02980f, 0.00746f, 0.08304f, 0.04985f, -0.02231f, -0.00283f, 
	-0.00903f, 0.09468f, 0.11936f, -0.01751f, -0.01169f, 0.07946f, 0.03005f, 0.09545f, 
	-0.00525f, 0.04976f, 0.12326f, 0.01448f, -0.01766f, 0.06578f, -0.02111f, 0.02522f, 
	0.04845f, 0.01187f, -0.02687f, -0.05334f, -0.07164f, 0.08416f, 0.02982f, 0.02766f, 
	-0.02944f, 0.16027f, 0.15280f, 0.05453f, -0.00139f, 0.09448f, 0.09220f, 0.01554f, 
	-0.06442f, 0.01174f, 0.08779f, -0.03002f, 0.07003f, -0.05162f, -0.03176f, -0.07315f, 
	-0.00181f, 0.03593f, 0.09278f, -0.01476f, 0.01434f, 0.05405f, -0.02185f, -0.06199f, 
	-0.04326f, -0.04152f, -0.02778f, -0.07251f, -0.02719f, 0.08347f, 0.09699f, -0.08968f, 
	0.00068f, -0.03495f, 0.09214f, 0.02886f, 0.00097f, -0.05613f, 0.04081f, 0.00463f, 
	-0.03206f, 0.02340f, 0.04419f, -0.07324f, 0.01132f, 0.02453f, 0.09647f, -0.04353f, 
	0.06158f, 0.04344f, 0.09177f, 0.00395f, 0.04932f, -0.00896f, -0.06704f, -0.07722f, 
	-0.03453f, 0.04230f, 0.10706f, -0.00945f, 0.05972f, -0.06313f, 0.03768f, -0.04215f, 
	0.03272f, -0.05568f, 0.07241f, 0.02275f, -0.00099f, -0.02594f, -0.06987f, -0.06531f, 
	0.00629f, 0.00882f, 0.10843f, -0.02454f, -0.03441f, 0.02598f, -0.07428f, -0.05101f, 
	0.04947f, 0.10434f, 0.15579f, 0.02188f, 0.00861f, -0.06136f, -0.02341f, -0.04513f, 
	-0.01135f, 0.00983f, 0.14059f, 0.09190f, 0.00002f, -0.06236f, -0.08005f, -0.03172f, 
	0.09777f, 0.05124f, 0.16744f, -0.03393f, -0.05204f, -0.00568f, -0.06050f, -0.03294f, 
	0.07578f, -0.07877f, -0.16970f, -0.00118f, 0.06139f, 0.05192f, 0.06948f, -0.01901f, 
	-0.06391f, 0.08178f, 0.04084f, 0.08243f, 0.05311f, -0.02197f, 0.01107f, -0.00903f, 
	0.04551f, -0.07789f, 0.03699f, -0.05810f, 0.02194f, 0.02974f, 0.05601f, 0.02871f, 
	0.03495f, 0.05258f, 0.15504f, 0.00054f, -0.05141f, -0.01935f, 0.01352f, 0.06852f, 
	-0.06346f, 0.02358f, 0.03207f, -0.02772f, 0.03159f, 0.09210f, -0.04238f, -0.00533f, 
	0.05594f, 0.03242f, 0.17481f, 0.03391f, -0.05341f, -0.04610f, -0.02971f, 0.08120f, 
	-0.01034f, 0.01632f, -0.09856f, 0.06434f, 0.05945f, 0.06373f, 0.09855f, 0.02738f, 
	-0.08887f, 0.23769f, -0.10047f, -0.04006f, 0.04767f, 0.10016f, 0.04989f, -0.08046f, 
	-0.05152f, 0.01900f, -0.16727f, 0.01736f, 0.05691f, 0.08397f, 0.05570f, -0.02973f, 
	-0.13809f, 0.17154f, 0.07318f, 0.02268f, 0.04168f, 0.02532f, 0.10415f, -0.03256f, 
	0.04453f, -0.01204f, -0.18044f, 0.12605f, -0.07025f, 0.12929f, 0.07233f, -0.00673f, 
	-0.08026f, 0.12861f, 0.08947f, 0.00604f, 0.01420f, 0.08509f, -0.04714f, 0.02920f, 
	0.07743f, -0.04681f, -0.09211f, -0.01328f, -0.02166f, 0.10827f, 0.00608f, 0.08702f, 
	0.04684f, 0.11016f, -0.11555f, -0.02015f, 0.02293f, 0.04501f, 0.06519f, 0.02935f, 
	0.09171f, 0.00583f, -0.14175f, -0.06152f, -0.08576f, 0.12136f, 0.01668f, -0.01144f, 
	0.01069f, 0.14750f, 0.14933f, 0.05554f, -0.08113f, 0.04929f, 0.03153f, -0.07981f, 
	-0.05636f, 0.04695f, -0.07246f, -0.28045f, -0.07951f, 0.06471f, -0.08306f, 0.03933f, 
	0.02471f, 0.01307f, 0.08470f, -0.04475f, -0.06599f, -0.08730f, -0.06908f, 0.03023f, 
	-0.00178f, 0.00625f, -0.00580f, -0.19584f, -0.01441f, -0.05521f, -0.06555f, 0.06606f, 
	-0.00347f, -0.07067f, 0.05137f, -0.02163f, 0.06393f, -0.04419f, -0.03303f, -0.06404f, 
	-0.08488f, -0.00610f, 0.01715f, -0.06990f, 0.00317f, -0.02107f, -0.07836f, -0.03066f, 
	0.02705f, -0.06872f, -0.09462f, -0.01632f, -0.02376f, -0.02264f, 0.01361f, 0.00336f, 
	-0.00337f, -0.06797f, 0.01165f, -0.14192f, 0.07157f, 0.10028f, -0.07924f, 0.01779f, 
	-0.04638f, -0.05463f, -0.05319f, 0.02207f, 0.04366f, 0.02462f, -0.07620f, 0.08919f, 
	0.01687f, -0.06491f, 0.12730f, -0.12099f, -0.01946f, 0.00876f, -0.03713f, 0.00854f, 
	-0.06805f, 0.12597f, -0.03319f, 0.02825f, 0.05935f, -0.00954f, -0.02596f, 0.03212f, 
	0.07793f, -0.03752f, 0.10318f, -0.09810f, 0.05227f, 0.00293f, -0.06657f, 0.04211f, 
	0.00774f, 0.02228f, 0.03508f, -0.08924f, 0.06251f, -0.03833f, -0.08407f, -0.04236f, 
	0.03240f, -0.08463f, 0.09722f, -0.10350f, -0.04453f, -0.04468f, -0.01692f, -0.04775f, 
	0.02624f, -0.04181f, 0.04714f, 0.04324f, 0.08418f, 0.06065f, 0.00083f, 0.02068f, 
	-0.03591f, -0.03510f, 0.13786f, 0.00512f, 0.03649f, 0.02730f, -0.06190f, 0.11176f, 
	0.02788f, 0.10234f, -0.03045f, -0.02761f, 0.09791f, 0.08196f, -0.02035f, 0.03927f, 
	0.06899f, 0.09315f, 0.02802f, 0.03148f, -0.02337f, 0.00926f, -0.10221f, -0.06816f, 
	-0.07349f, -0.10325f, -0.11504f, 0.02504f, 0.05204f, 0.00019f, -0.06430f, 0.06317f, 
	0.09656f, 0.05250f, 0.10247f, 0.02729f, 0.04195f, -0.11717f, 0.05708f, -0.05070f, 
	-0.06183f, -0.13297f, 0.02151f, 0.02003f, 0.01544f, 0.09400f, 0.00718f, 0.03126f, 
	0.13633f, 0.05046f, 0.16851f, 0.03395f, 0.06180f, -0.08026f, 0.11146f, 0.06149f, 
	-0.05582f, 0.07040f, 0.10280f, -0.03803f, 0.03205f, 0.09350f, 0.13165f, -0.07655f, 
	-0.06693f, -0.09616f, 0.16371f, 0.08668f, 0.03548f, -0.15192f, -0.00821f, -0.05989f, 
	-0.06374f, -0.02530f, -0.10603f, 0.09112f, -0.02201f, -0.05401f, 0.01137f, 0.00208f, 
	-0.05241f, 0.04606f, 0.03506f, 0.11014f, -0.01614f, -0.07235f, -0.04047f, -0.07940f, 
	0.12187f, 0.03815f, -0.04880f, -0.03470f, 0.08014f, -0.01521f, 0.01307f, -0.03373f, 
	0.12708f, -0.03814f, 0.19530f, 0.09524f, 0.07773f, -0.14635f, -0.03287f, -0.01721f, 
	-0.06774f, 0.06329f, 0.01221f, -0.04846f, -0.04732f, -0.05712f, 0.06206f, 0.00857f, 
	0.02969f, -0.02234f, 0.12237f, 0.04201f, 0.01178f, -0.06254f, 0.03745f, -0.02284f, 
	-0.05575f, -0.01698f, 0.01724f, -0.08002f, -0.06815f, 0.09001f, -0.00078f, -0.05364f, 
	0.06185f, -0.09316f, 0.08021f, 0.09677f, 0.03354f, -0.16516f, -0.06631f, -0.00678f, 
	-0.01424f, -0.12458f, -0.06315f, 0.01390f, 0.09588f, 0.00696f, -0.06298f, 0.06397f, 
	0.08484f, 0.05708f, 0.02850f, 0.05173f, 0.06826f, -0.11145f, 0.07026f, -0.02209f, 
	-0.04886f, 0.07537f, 0.03045f, 0.04947f, 0.00340f, -0.04471f, -0.01050f, 0.03452f, 
	-0.05677f, -0.09236f, 0.01574f, 0.15007f, -0.05854f, -0.05627f, -0.00974f, -0.04136f, 
	0.00267f, 0.01911f, 0.00353f, -0.06037f, 0.04926f, 0.04695f, 0.06741f, 0.09065f, 
	-0.07256f, -0.06316f, 0.08450f, 0.17161f, -0.05759f, -0.08480f, -0.01515f, -0.01360f, 
	-0.03678f, -0.04523f, -0.06450f, -0.08551f, -0.01076f, 0.05733f, 0.05867f, 0.10209f, 
	-0.07269f, -0.04155f, -0.20255f, 0.07260f, 0.02231f, 0.00973f, -0.06254f, 0.02429f, 
	-0.06394f, 0.01636f, -0.07968f, -0.00543f, 0.11601f, 0.00669f, 0.00042f, 0.03873f, 
	0.04846f, -0.01011f, -0.10799f, 0.13510f, 0.03342f, 0.01069f, 0.03657f, -0.07711f, 
	-0.02123f, 0.03286f, -0.07249f, 0.04483f, -0.00756f, 0.07180f, 0.08752f, -0.03960f, 
	0.04910f, -0.03534f, -0.13266f, -0.03343f, 0.07233f, 0.13923f, 0.10955f, 0.00763f, 
	-0.09285f, 0.03786f, -0.02325f, 0.04875f, -0.05557f, 0.02211f, 0.08636f, 0.07294f, 
	-0.01122f, 0.04716f, 0.00257f, 0.14377f, -0.01373f, 0.08543f, -0.02446f, -0.02686f, 
	-0.06919f, -0.06705f, 0.02969f, -0.06631f, 0.10971f, 0.03347f, 0.04799f, -0.02160f, 
	-0.03212f, -0.05222f, -0.23304f, 0.10303f, 0.01176f, 0.09652f, 0.07396f, 0.00168f, 
	0.04958f, -0.07462f, -0.07872f, 0.06352f, -0.04661f, -0.00641f, -0.01394f, -0.03995f, 
	0.07697f, -0.02743f, -0.14041f, -0.10752f, -0.04303f, 0.01968f, -0.10564f, -0.08191f, 
	0.15144f, 0.08043f, 0.12787f, 0.01218f, 0.03770f, 0.02034f, -0.09758f, 0.01871f, 
	-0.04138f, 0.01933f, 0.06720f, 0.09883f, -0.00448f, -0.02699f, -0.08603f, -0.07390f, 
	0.04904f, -0.05672f, -0.08640f, 0.00675f, -0.03183f, -0.08333f, -0.01878f, 0.05022f, 
	0.03579f, -0.01691f, -0.06831f, 0.09635f, 0.06645f, -0.02521f, -0.00860f, -0.03878f, 
	0.12464f, -0.08584f, -0.09393f, 0.05132f, -0.07356f, -0.03554f, 0.01377f, -0.03519f, 
	0.08135f, -0.02801f, -0.11072f, 0.09202f, 0.04262f, 0.00386f, 0.00965f, 0.09624f, 
	0.04202f, 0.06639f, -0.08004f, -0.04365f, -0.03192f, -0.06006f, -0.06281f, 0.00500f, 
	0.05590f, -0.13155f, 0.08759f, -0.01495f, 0.07003f, 0.08831f, 0.05276f, -0.00721f, 
	0.14023f, -0.11510f, -0.07883f, -0.08813f, -0.01491f, 0.03854f, 0.00342f, 0.01257f, 
	-0.05217f, -0.00462f, 0.07892f, -0.02110f, -0.01938f, 0.08634f, -0.10368f, 0.06490f, 
	0.01980f, -0.05570f, 0.02235f, -0.01223f, 0.00993f, -0.05404f, -0.00522f, -0.02073f, 
	-0.01083f, -0.01540f, 0.19096f, -0.08642f, 0.07556f, -0.01785f, -0.08308f, 0.04746f, 
	-0.03272f, -0.07605f, 0.08472f, -0.00769f, 0.05320f, 0.06773f, -0.02092f, -0.05691f, 
	-0.05030f, -0.07602f, 0.08280f, 0.11275f, 0.06061f, 0.11619f, 0.02278f, -0.04878f, 
	-0.08210f, -0.08765f, -0.13191f, 0.01643f, 0.04086f, 0.03222f, -0.00751f, -0.00646f, 
	0.06083f, -0.00531f, 0.03121f, 0.01592f, 0.05137f, 0.11227f, -0.03827f, 0.06544f, 
	0.07881f, 0.09514f, 0.08762f, -0.08987f, 0.04194f, -0.04367f, 0.03782f, 0.02368f, 
	0.01165f, -0.06303f, 0.03070f, 0.06290f, -0.01767f, 0.10661f, -0.02936f, 0.01576f, 
	-0.03409f, 0.11420f, 0.04656f, 0.07199f, 0.03023f, 0.01714f, 0.07565f, -0.07480f, 
	0.00948f, -0.04803f, 0.17662f, 0.10665f, 0.04345f, 0.02400f, -0.03013f, -0.06385f, 
	0.09111f, -0.05923f, 0.05921f, -0.08973f, 0.02600f, -0.01280f, -0.02251f, 0.06614f, 
	0.00103f, -0.05411f, 0.07116f, 0.05179f, 0.01916f, 0.08306f, -0.04019f, -0.01354f, 
	0.11621f, -0.01614f, 0.15522f, 0.06639f, 0.05265f, -0.04493f, -0.07184f, 0.04630f, 
	0.08113f, 0.03557f, 0.12612f, 0.06048f, -0.03468f, 0.02673f, -0.04013f, -0.02518f, 
	0.11641f, 0.08731f, 0.01392f, -0.01226f, -0.07666f, -0.02909f, 0.01585f, 0.07540f, 
	0.02591f, 0.01932f, 0.08514f, -0.07456f, -0.04962f, -0.07142f, 0.01314f, 0.01808f, 
	-0.08644f, -0.15824f, -0.03322f, -0.05384f, -0.04235f, -0.00448f, 0.08969f, -0.06910f, 
	-0.08509f, -0.08203f, 0.14320f, -0.01076f, 0.01742f, -0.14173f, 0.00483f, -0.00808f, 
	-0.01677f, -0.15548f, -0.10939f, -0.06711f, -0.02608f, 0.10773f, -0.07573f, 0.09945f, 
	0.05976f, 0.10311f, 0.09756f, -0.17225f, -0.04634f, 0.00144f, -0.02943f, 0.05405f, 
	0.07512f, 0.01279f, -0.12561f, 0.07791f, 0.00043f, -0.01644f, -0.08444f, -0.03628f, 
	-0.01704f, 0.04596f, 0.08708f, -0.18531f, 0.04500f, 0.04885f, 0.10316f, -0.03997f, 
	0.04282f, -0.19484f, 0.03917f, 0.04631f, -0.04305f, 0.04768f, 0.03803f, 0.02582f, 
	0.00281f, -0.05368f, 0.10359f, -0.05897f, -0.02062f, 0.02082f, 0.08142f, 0.04475f, 
	0.00103f, -0.22007f, 0.01303f, -0.03126f, 0.04455f, -0.05166f, -0.04030f, -0.02623f, 
	-0.03094f, 0.09517f, 0.15589f, -0.02039f, 0.02804f, -0.01441f, -0.03809f, 0.10767f, 
	0.00148f, -0.04982f, -0.06323f, -0.03419f, -0.06914f, -0.05195f, -0.06824f, 0.05266f, 
	-0.03412f, -0.06082f, -0.10619f, -0.18702f, -0.01382f, 0.01665f, 0.01087f, -0.03512f, 
	0.00200f, 0.05410f, -0.07232f, -0.04888f, 0.06643f, 0.06066f, -0.03931f, -0.09121f, 
	-0.01125f, -0.14898f, -0.03146f, -0.19648f, -0.06335f, 0.02742f, -0.05801f, -0.02262f, 
	-0.05298f, -0.06648f, -0.09175f, 0.06672f, -0.00411f, 0.06610f, -0.04761f, 0.05942f, 
	0.08033f, 0.08837f, 0.05851f, -0.01627f, 0.08862f, -0.06811f, 0.01824f, -0.05962f, 
	-0.04875f, 0.01640f, -0.03786f, 0.05528f, 0.02925f, -0.00806f, 0.05082f, -0.01773f, 
	-0.06978f, -0.01845f, -0.06833f, 0.12040f, -0.03853f, -0.07433f, -0.05550f, 0.12526f, 
	0.07102f, 0.02696f, -0.04523f, -0.01812f, 0.10373f, -0.00941f, -0.10051f, -0.05344f, 
	0.02610f, 0.00767f, 0.21532f, 0.19670f, 0.08116f, -0.00333f, -0.06733f, -0.03869f, 
	-0.08835f, 0.17776f, -0.09015f, -0.01451f, -0.00913f, 0.01872f, -0.03447f, 0.09909f, 
	-0.03680f, 0.02120f, 0.16715f, 0.19354f, 0.02057f, -0.00939f, 0.09358f, -0.07134f, 
	-0.12536f, 0.13994f, 0.02226f, -0.04401f, 0.03957f, 0.06072f, 0.00138f, 0.11755f, 
	0.08059f, 0.00019f, 0.10919f, 0.09489f, 0.05308f, -0.07217f, -0.01715f, -0.04531f, 
	-0.06153f, 0.20796f, -0.08906f, -0.01696f, 0.12151f, -0.05703f, -0.06873f, -0.00784f, 
	-0.05713f, 0.09413f, 0.09183f, -0.02836f, 0.03645f, 0.00703f, 0.09370f, -0.02456f, 
	0.00861f, -0.02077f, -0.12279f, 0.08704f, 0.10117f, 0.10182f, -0.05052f, -0.01084f, 
	-0.03450f, 0.05763f, 0.01516f, -0.04751f, -0.01106f, 0.09889f, 0.11667f, -0.08729f, 
	-0.09172f, -0.07260f, -0.00187f, 0.00360f, 0.01148f, 0.08718f, 0.07821f, 0.06397f, 
	-0.01586f, -0.01383f, 0.42055f, 0.12575f, -0.02704f, 0.03793f, -0.08646f, -0.02583f, 
	0.08041f, 0.06233f, 0.02934f, 0.03838f, -0.02122f, -0.09573f, -0.08750f, -0.05377f, 
	0.02646f, 0.09804f, 0.19199f, 0.19541f, 0.00722f, 0.10601f, 0.05776f, 0.04349f, 
	-0.00792f, -0.11695f, -0.10301f, 0.08466f, -0.00852f, 0.02981f, -0.01094f, -0.07425f, 
	0.01631f, 0.05189f, -0.00432f, 0.01805f, -0.03381f, 0.07745f, 0.00427f, 0.07503f, 
	0.04991f, 0.07015f, 0.00688f, 0.03705f, -0.10928f, 0.05559f, -0.07567f, 0.05169f, 
	0.03743f, -0.01402f, 0.23969f, 0.00139f, -0.06049f, -0.12772f, -0.09775f, -0.02556f, 
	0.06418f, -0.08126f, 0.06346f, 0.05514f, -0.03118f, -0.07380f, 0.04015f, 0.03141f, 
	0.04796f, -0.03953f, 0.11158f, 0.06569f, -0.00547f, -0.06894f, -0.01567f, 0.08483f, 
	0.13064f, 0.08807f, 0.10681f, -0.06951f, -0.05504f, -0.06964f, -0.04850f, -0.01106f, 
	-0.01678f, 0.01320f, 0.13241f, 0.00961f, -0.00946f, -0.15649f, -0.05047f, -0.05305f, 
	-0.01010f, 0.10679f, -0.01042f, 0.01773f, -0.03306f, -0.08898f, -0.02578f, -0.02738f, 
	-0.09689f, -0.04406f, 0.19471f, -0.01804f, 0.06647f, -0.06191f, -0.02593f, -0.07073f, 
	-0.06517f, -0.00539f, -0.08050f, -0.06576f, 0.07140f, 0.06012f, 0.06820f, 0.10328f, 
	-0.00537f, 0.04180f, 0.18048f, -0.06981f, -0.04898f, 0.04456f, 0.00539f, 0.01363f, 
	-0.00226f, -0.01700f, -0.07147f, 0.06407f, -0.06014f, -0.05798f, 0.01429f, 0.03973f, 
	-0.05997f, -0.05726f, 0.14746f, -0.11916f, -0.06894f, 0.00336f, 0.09095f, -0.06480f, 
	0.05557f, -0.03312f, 0.04505f, -0.09517f, 0.06236f, -0.06118f, 0.06143f, 0.02802f, 
	0.07367f, -0.04419f, 0.02558f, 0.00029f, -0.05817f, 0.06850f, 0.03014f, 0.01832f, 
	0.05349f, 0.03441f, -0.12827f, 0.01443f, -0.02835f, 0.04858f, 0.05628f, 0.01787f, 
	-0.03194f, 0.03618f, -0.00873f, 0.00524f, 0.01761f, -0.00945f, 0.09148f, 0.01176f, 
	-0.06623f, 0.08260f, -0.08281f, 0.04302f, -0.04591f, 0.01771f, -0.06037f, -0.04102f, 
	0.05553f, -0.04962f, 0.08966f, 0.13086f, 0.07244f, -0.02501f, -0.04735f, 0.02738f, 
	0.00421f, 0.15190f, 0.00002f, 0.07122f, 0.04076f, 0.04092f, 0.03008f, 0.02198f
};

static dl_matrix3d_t conv2_filter = {
	.w = 3,
	.h = 3,
	.c = 16,
	.n = 16,
	.stride = 48,
	.item = (fptp_t *)(&conv2_filter_item_array[0])
};

const static fptp_t conv2_bias_item_array[] = {
	-0.02865f, 0.11166f, 0.13625f, -0.08279f, 0.02437f, 0.02698f, -0.13040f, 0.02282f, 
	-0.03573f, -0.03345f, -0.03293f, 0.12869f, 0.04279f, -0.01196f, 0.09156f, 0.05654f
};

static dl_matrix3d_t conv2_bias = {
	.w = 1,
	.h = 1,
	.c = 16,
	.n = 1,
	.stride = 16,
	.item = (fptp_t *)(&conv2_bias_item_array[0])
};

const static fptp_t conv3_filter_item_array[] = {
	-0.03795f, 0.12378f, -0.04687f, -0.08789f, 0.06199f, -0.00431f, -0.08994f, 0.00890f, 
	-0.02275f, -0.02278f, -0.01549f, 0.00534f, -0.05722f, -0.16965f, 0.00027f, 0.00372f, 
	-0.04693f, -0.01008f, 0.11599f, -0.12755f, 0.03046f, -0.02875f, 0.03046f, -0.01057f, 
	0.09802f, -0.03889f, -0.04214f, 0.01754f, -0.03385f, -0.11619f, -0.02773f, 0.01217f, 
	-0.11580f, 0.08596f, -0.03359f, -0.15996f, 0.03094f, -0.04401f, -0.09359f, 0.06502f, 
	0.11190f, -0.04145f, 0.04095f, 0.00489f, 0.01359f, 0.03273f, 0.10327f, 0.01774f, 
	-0.02084f, -0.02973f, -0.03891f, 0.03108f, 0.06476f, 0.04791f, -0.00182f, 0.00017f, 
	-0.11538f, 0.02252f, -0.02509f, 0.03132f, -0.01971f, -0.10573f, 0.01946f, 0.00637f, 
	-0.06647f, 0.07860f, -0.02818f, 0.01904f, 0.08546f, 0.00756f, 0.07406f, 0.10791f, 
	-0.00928f, 0.06488f, -0.09035f, 0.03944f, -0.03080f, -0.03510f, -0.02738f, -0.12015f, 
	-0.02411f, 0.12425f, -0.03340f, -0.04953f, 0.05856f, -0.06206f, 0.04855f, 0.05109f, 
	-0.02531f, -0.08683f, -0.00141f, 0.00716f, 0.00948f, -0.04189f, 0.01079f, 0.01718f, 
	-0.04940f, 0.03793f, -0.10184f, -0.02256f, 0.00442f, -0.00954f, 0.07767f, 0.09629f, 
	-0.07296f, -0.08982f, 0.07234f, 0.00743f, -0.01322f, -0.07648f, -0.08779f, 0.02028f, 
	0.02999f, -0.01439f, -0.02364f, 0.09118f, 0.05731f, 0.04964f, 0.09566f, -0.06448f, 
	0.04925f, -0.04654f, 0.09408f, 0.01495f, -0.02284f, -0.01914f, -0.04918f, 0.12515f, 
	-0.02839f, 0.02871f, -0.06725f, 0.05030f, 0.02076f, 0.09450f, 0.04725f, 0.02134f, 
	0.09561f, 0.02676f, 0.08570f, -0.05685f, -0.01786f, 0.02620f, 0.01549f, 0.10194f, 
	-0.08083f, 0.06049f, 0.08899f, 0.04075f, -0.01570f, 0.08214f, -0.02580f, -0.13782f, 
	-0.06538f, -0.08904f, -0.03087f, 0.01048f, 0.09187f, 0.01341f, 0.01447f, 0.07962f, 
	0.07512f, -0.03887f, 0.04274f, 0.08667f, 0.00515f, -0.01901f, 0.00017f, -0.01536f, 
	-0.02472f, 0.05455f, -0.05576f, 0.06721f, -0.07544f, 0.03862f, -0.00375f, 0.05776f, 
	0.03570f, -0.01109f, -0.00692f, 0.04608f, 0.02913f, 0.01864f, 0.07345f, -0.03377f, 
	0.08582f, 0.00019f, 0.08076f, -0.05895f, -0.08620f, 0.03155f, 0.07285f, -0.03674f, 
	0.01870f, -0.03203f, 0.08027f, 0.05421f, 0.02106f, 0.06115f, -0.00691f, -0.02818f, 
	-0.05291f, -0.09038f, -0.05074f, -0.06501f, 0.03506f, 0.11707f, -0.00791f, -0.05091f, 
	-0.06048f, -0.05047f, 0.00621f, 0.04338f, -0.05937f, 0.04219f, 0.06930f, -0.09882f, 
	0.04716f, 0.03185f, -0.13931f, -0.03357f, -0.06153f, -0.01080f, 0.09696f, 0.03998f, 
	-0.01290f, -0.07837f, -0.07831f, -0.01911f, -0.02121f, 0.05034f, 0.03536f, -0.07520f, 
	-0.04817f, -0.07454f, -0.05081f, 0.04599f, -0.04184f, 0.01649f, 0.04918f, 0.00263f, 
	0.06532f, 0.07192f, 0.01417f, 0.07927f, -0.01646f, 0.02798f, 0.07198f, -0.07354f, 
	-0.06724f, 0.02292f, -0.03596f, -0.03151f, -0.04429f, 0.13236f, -0.00324f, -0.07711f, 
	-0.00076f, 0.09694f, -0.08027f, -0.00201f, -0.09271f, 0.05288f, 0.00775f, -0.06151f, 
	-0.05211f, -0.04006f, -0.04847f, -0.06290f, 0.05497f, 0.04007f, -0.04098f, -0.01701f, 
	0.00284f, -0.04630f, -0.04130f, 0.03478f, -0.01471f, -0.08733f, -0.02625f, 0.05816f, 
	-0.06364f, 0.06848f, -0.09165f, -0.06846f, -0.04444f, 0.06909f, 0.08872f, -0.14530f, 
	-0.06643f, -0.05972f, 0.05867f, 0.08599f, 0.02678f, -0.03256f, -0.05273f, 0.10302f, 
	0.04229f, -0.06828f, -0.03008f, 0.00343f, 0.08891f, 0.07889f, 0.07920f, -0.00854f, 
	0.02610f, 0.01434f, -0.03136f, 0.04216f, -0.02408f, 0.01908f, 0.03464f, 0.10756f, 
	-0.01066f, -0.01759f, 0.00860f, 0.09950f, -0.00510f, 0.07603f, 0.08316f, 0.01275f, 
	-0.01574f, -0.04337f, 0.05517f, 0.07809f, -0.00237f, -0.08375f, 0.04489f, 0.10574f, 
	0.00164f, 0.06080f, 0.07469f, -0.00925f, 0.02149f, -0.00064f, 0.10964f, -0.01606f, 
	-0.02187f, -0.03601f, -0.07250f, 0.04085f, -0.06267f, -0.10336f, 0.07684f, 0.05767f, 
	-0.05420f, -0.06803f, 0.09140f, 0.04232f, -0.10391f, 0.10971f, -0.05534f, -0.00125f, 
	-0.10403f, -0.05802f, -0.06680f, 0.04100f, -0.09966f, -0.07836f, 0.06061f, 0.01222f, 
	-0.08734f, -0.06929f, 0.07115f, -0.07887f, 0.01160f, 0.18263f, -0.05758f, 0.08544f, 
	-0.02583f, -0.00760f, -0.04069f, 0.12003f, -0.08110f, -0.06855f, -0.00907f, 0.00117f, 
	0.02230f, -0.04415f, 0.09630f, -0.03103f, -0.09250f, 0.02830f, 0.07024f, 0.07776f, 
	-0.05172f, -0.11140f, 0.04058f, 0.10935f, 0.04746f, 0.10429f, 0.01239f, 0.08044f, 
	0.06273f, 0.03447f, -0.04330f, -0.05180f, 0.00899f, 0.16025f, 0.00840f, 0.02918f, 
	-0.06555f, -0.07250f, 0.10384f, 0.00548f, 0.06518f, 0.02492f, -0.07982f, -0.03493f, 
	0.00668f, -0.04875f, 0.00550f, 0.06119f, 0.08482f, 0.04037f, -0.01115f, 0.05471f, 
	0.04206f, 0.01812f, 0.04792f, 0.10925f, 0.00234f, -0.01722f, 0.00345f, -0.06158f, 
	0.03411f, 0.04924f, -0.07613f, -0.01697f, -0.01943f, 0.07302f, 0.08494f, 0.13611f, 
	0.02298f, -0.03591f, -0.03968f, -0.03416f, 0.07721f, -0.12087f, 0.01869f, -0.03390f, 
	0.07643f, -0.05962f, 0.06660f, -0.00135f, -0.06595f, -0.05485f, 0.04528f, 0.01873f, 
	0.03488f, -0.04357f, -0.04688f, 0.06856f, -0.04974f, -0.05763f, 0.07107f, -0.08632f, 
	0.04251f, 0.08172f, 0.04236f, 0.00246f, 0.04829f, 0.09780f, -0.03543f, 0.02503f, 
	0.08499f, -0.09553f, -0.03687f, -0.03177f, 0.00137f, 0.03907f, 0.05158f, -0.03311f, 
	-0.02153f, 0.01526f, 0.05950f, -0.07452f, 0.00204f, 0.07253f, 0.00051f, -0.03262f, 
	0.06021f, -0.07032f, 0.01266f, -0.04699f, 0.07969f, -0.01156f, -0.04328f, -0.02038f, 
	0.07053f, 0.03342f, 0.09468f, -0.07412f, -0.09257f, 0.03014f, -0.00185f, 0.03066f, 
	0.09004f, -0.08370f, -0.00088f, 0.04798f, -0.06451f, -0.01400f, 0.00708f, -0.00944f, 
	0.04488f, 0.07252f, 0.06865f, 0.02167f, 0.04339f, -0.00152f, 0.01085f, -0.00483f, 
	0.00487f, 0.02058f, -0.02522f, -0.05691f, 0.05147f, 0.03815f, -0.06817f, -0.18436f, 
	-0.00139f, -0.00768f, -0.00659f, -0.06071f, 0.01484f, 0.05705f, -0.08192f, -0.04603f, 
	-0.02558f, 0.08014f, -0.02644f, -0.06909f, -0.05315f, -0.08448f, 0.08391f, -0.04719f, 
	0.03995f, 0.10513f, 0.06234f, 0.06510f, -0.09141f, -0.01758f, 0.01653f, -0.03874f, 
	0.04658f, -0.07501f, 0.04053f, 0.03284f, -0.02175f, -0.00601f, 0.07612f, -0.08021f, 
	0.02474f, 0.09654f, 0.04487f, 0.02989f, -0.06278f, 0.06418f, 0.00148f, 0.07960f, 
	0.04164f, -0.05414f, 0.00473f, -0.03701f, -0.03370f, 0.05794f, -0.04616f, -0.07906f, 
	-0.05599f, 0.10132f, 0.07501f, -0.07087f, -0.07954f, -0.02050f, 0.05573f, 0.09099f, 
	0.07650f, -0.09321f, 0.02967f, 0.05056f, -0.14307f, 0.00389f, -0.03465f, -0.15944f, 
	-0.04481f, -0.01782f, 0.05081f, -0.01199f, -0.08163f, 0.07250f, 0.01875f, -0.09882f, 
	0.05050f, -0.00417f, -0.08988f, 0.02536f, -0.01039f, -0.06588f, 0.09309f, -0.08354f, 
	0.03852f, -0.04103f, -0.03839f, -0.02789f, -0.04598f, -0.02951f, -0.00198f, 0.02780f, 
	-0.00991f, -0.07009f, 0.04515f, 0.03320f, -0.07559f, 0.03970f, -0.01994f, -0.12017f, 
	-0.01885f, 0.05040f, -0.00494f, 0.04081f, 0.02684f, -0.00282f, -0.03212f, -0.08296f, 
	0.10881f, -0.12208f, 0.00147f, -0.10012f, 0.01215f, 0.05240f, 0.04291f, -0.18302f, 
	0.08364f, 0.03940f, 0.08023f, 0.00088f, 0.03762f, -0.12116f, 0.03184f, 0.08284f, 
	0.09427f, -0.05745f, -0.05324f, -0.06856f, -0.07771f, 0.06291f, -0.05396f, 0.01343f, 
	0.09574f, -0.00643f, 0.07440f, -0.06883f, 0.04584f, -0.01587f, 0.07556f, 0.01896f, 
	0.01490f, -0.07674f, -0.09111f, 0.06604f, 0.04849f, 0.03599f, -0.00737f, -0.00915f, 
	0.09996f, 0.02374f, 0.02751f, 0.08230f, 0.05323f, 0.05080f, 0.03747f, -0.01602f, 
	0.08486f, 0.02539f, 0.02465f, 0.05578f, -0.03754f, -0.03484f, 0.00746f, 0.00946f, 
	0.06039f, -0.03864f, -0.03485f, 0.04099f, 0.07145f, -0.08567f, 0.02258f, 0.00159f, 
	-0.02394f, 0.01460f, -0.00119f, 0.04209f, 0.04489f, -0.07936f, 0.06221f, 0.05860f, 
	-0.06233f, -0.06068f, 0.05725f, 0.00361f, 0.04914f, 0.01479f, -0.03217f, -0.07777f, 
	0.05082f, -0.05486f, 0.02958f, -0.05614f, 0.07746f, -0.10760f, -0.02806f, 0.07466f, 
	-0.00052f, 0.01847f, 0.09326f, 0.00525f, -0.05800f, -0.03065f, 0.03118f, -0.11248f, 
	0.07386f, -0.00210f, -0.05206f, -0.01620f, 0.02697f, -0.06513f, -0.05859f, 0.04067f, 
	-0.05114f, 0.00962f, -0.02042f, -0.02418f, -0.01032f, -0.09441f, 0.02768f, -0.00087f, 
	0.01213f, -0.04654f, 0.01307f, 0.07639f, 0.05248f, -0.01837f, -0.07460f, 0.01317f, 
	-0.05201f, -0.00472f, -0.02610f, -0.07228f, 0.00314f, -0.09424f, 0.01731f, 0.10675f, 
	-0.02094f, -0.09156f, -0.05300f, 0.10662f, 0.01055f, 0.03557f, -0.04900f, 0.09553f, 
	0.05226f, -0.05010f, 0.08317f, -0.08558f, 0.04485f, 0.03775f, -0.08612f, 0.10709f, 
	0.06653f, -0.10162f, 0.01219f, -0.05177f, -0.05843f, 0.00269f, 0.02435f, 0.12838f, 
	0.05759f, 0.01135f, 0.07506f, 0.06113f, 0.06333f, -0.07839f, -0.00690f, 0.09603f, 
	0.04399f, 0.00929f, 0.07488f, 0.12789f, 0.01907f, -0.05930f, 0.05659f, 0.09268f, 
	0.01071f, 0.00598f, 0.06331f, 0.00985f, 0.05264f, -0.03373f, 0.03904f, -0.01968f, 
	-0.08795f, -0.08854f, 0.01684f, 0.01971f, 0.01898f, -0.03226f, 0.02275f, 0.03664f, 
	-0.07499f, 0.03988f, 0.04967f, -0.00159f, -0.02592f, 0.04231f, 0.01385f, 0.05864f, 
	0.02442f, -0.00483f, -0.04260f, 0.03600f, -0.03944f, -0.09202f, 0.05966f, 0.08747f, 
	-0.07545f, 0.01017f, -0.05010f, 0.04140f, 0.09515f, 0.06975f, -0.04564f, 0.05828f, 
	0.05579f, -0.04360f, -0.03601f, 0.09320f, -0.00095f, -0.09059f, 0.05130f, 0.00460f, 
	-0.08775f, -0.01635f, 0.03632f, -0.08616f, 0.06662f, -0.04084f, -0.02698f, 0.05783f, 
	0.03323f, 0.00091f, -0.03266f, -0.04539f, 0.06073f, -0.07662f, -0.11396f, 0.05997f, 
	-0.08724f, 0.00849f, -0.06402f, -0.03157f, 0.03779f, -0.04687f, 0.06530f, 0.06251f, 
	0.08409f, -0.08090f, 0.03919f, -0.07724f, 0.07744f, 0.09285f, 0.05848f, -0.15249f, 
	-0.05497f, 0.00494f, -0.03316f, 0.02386f, 0.05044f, 0.00942f, -0.04988f, 0.01520f, 
	0.12887f, -0.04889f, 0.03247f, 0.10820f, 0.06830f, 0.06948f, 0.06128f, -0.02548f, 
	0.03027f, -0.07367f, 0.00276f, -0.02847f, -0.05629f, -0.02148f, -0.07384f, 0.04257f, 
	0.09504f, -0.01842f, -0.00654f, 0.01469f, 0.06928f, 0.08290f, 0.06276f, 0.02277f, 
	0.01092f, 0.02327f, 0.06353f, -0.07302f, 0.07502f, 0.06740f, -0.11306f, 0.11012f, 
	0.10007f, 0.06558f, 0.11496f, 0.09831f, 0.11459f, -0.02625f, -0.08531f, 0.01906f, 
	0.02297f, -0.04049f, -0.00245f, 0.04617f, -0.01538f, 0.09596f, 0.07324f, -0.06861f, 
	-0.01814f, 0.02037f, 0.05954f, 0.13266f, 0.12280f, -0.02446f, 0.04658f, 0.01792f, 
	0.10542f, -0.00317f, -0.01708f, 0.08342f, -0.03570f, -0.00422f, 0.03413f, -0.08274f, 
	-0.05822f, -0.01055f, -0.04514f, 0.14042f, 0.03126f, -0.04407f, -0.02825f, 0.09212f, 
	-0.05272f, -0.04942f, 0.04146f, 0.08400f, 0.03608f, -0.00453f, -0.06132f, -0.00813f, 
	-0.00627f, -0.03243f, -0.06346f, -0.00015f, 0.01635f, -0.08259f, 0.05935f, 0.04251f, 
	0.04667f, 0.02115f, -0.05037f, 0.06122f, -0.03365f, 0.11432f, -0.04149f, -0.04660f, 
	-0.05190f, -0.00758f, -0.08601f, 0.08312f, 0.03065f, 0.05095f, 0.07194f, -0.00538f, 
	-0.03069f, -0.01055f, 0.09305f, -0.05270f, 0.03921f, 0.07695f, -0.04484f, 0.03530f, 
	-0.01463f, 0.03578f, -0.04881f, -0.02036f, -0.05692f, 0.03139f, 0.01411f, -0.06548f, 
	0.02616f, 0.00535f, 0.09591f, -0.05186f, -0.03616f, 0.02977f, 0.02536f, -0.03978f, 
	0.01178f, 0.01620f, -0.05033f, 0.07677f, -0.01544f, -0.04450f, 0.03083f, -0.01644f, 
	0.03644f, 0.01520f, -0.08617f, 0.03639f, -0.04344f, 0.09127f, -0.05564f, 0.09816f, 
	-0.05045f, -0.01240f, 0.00804f, 0.04170f, -0.05531f, -0.08724f, -0.04213f, 0.01414f, 
	0.03703f, -0.06381f, 0.03823f, -0.08292f, 0.10270f, 0.13424f, 0.03346f, -0.04947f, 
	-0.07744f, 0.00349f, 0.00107f, -0.04401f, -0.04318f, -0.00633f, -0.06719f, -0.11145f, 
	-0.00819f, 0.03676f, 0.02786f, 0.02490f, 0.03765f, 0.03282f, 0.06983f, -0.03759f, 
	-0.06869f, -0.07485f, -0.02846f, 0.12384f, 0.05333f, -0.06896f, 0.00760f, 0.02278f, 
	0.07254f, -0.08292f, -0.06122f, 0.05189f, 0.09651f, 0.07733f, 0.04076f, 0.00057f, 
	-0.00780f, -0.06621f, 0.05546f, 0.12872f, -0.00248f, -0.00537f, -0.01735f, -0.10665f, 
	0.07587f, -0.07843f, -0.06485f, -0.08186f, 0.07847f, 0.12256f, 0.00142f, -0.06464f, 
	-0.01261f, 0.04888f, -0.01287f, -0.02044f, -0.06784f, -0.02289f, -0.05741f, -0.08916f, 
	-0.01677f, -0.03565f, 0.07310f, 0.03941f, 0.07785f, 0.07615f, 0.00956f, 0.04717f, 
	0.01659f, 0.00090f, 0.03018f, 0.06900f, -0.00950f, 0.05499f, 0.02493f, -0.03571f, 
	-0.07330f, -0.09417f, 0.07990f, 0.06402f, 0.09687f, 0.00650f, -0.08598f, 0.00205f, 
	-0.00870f, 0.02248f, 0.03752f, 0.12896f, 0.02047f, -0.08448f, -0.00483f, -0.01567f, 
	0.06326f, 0.06370f, 0.05542f, -0.04783f, 0.04192f, 0.02911f, -0.07853f, 0.05221f, 
	0.06169f, 0.04470f, 0.05878f, 0.08639f, -0.07160f, 0.07238f, 0.02865f, -0.01227f, 
	-0.04097f, -0.02107f, -0.02786f, -0.04740f, 0.03362f, -0.02936f, 0.02670f, -0.14141f, 
	-0.04629f, 0.01889f, 0.08347f, 0.04059f, 0.15972f, 0.01427f, -0.02379f, -0.02873f, 
	0.01449f, -0.00130f, 0.04296f, 0.04383f, 0.04081f, -0.07944f, 0.05938f, 0.06313f, 
	0.04183f, -0.03516f, 0.10974f, -0.01453f, 0.05784f, 0.06544f, -0.02471f, 0.09731f, 
	-0.05230f, 0.01947f, 0.01851f, 0.06895f, 0.11683f, -0.04105f, 0.02928f, -0.03905f, 
	-0.10994f, 0.03112f, 0.10351f, -0.07981f, 0.05384f, 0.07688f, -0.10186f, 0.05297f, 
	0.02759f, 0.01341f, 0.04670f, 0.01012f, -0.00018f, 0.00790f, 0.03837f, 0.00127f, 
	-0.01602f, 0.07916f, 0.02730f, 0.08360f, -0.06510f, -0.00252f, 0.01179f, 0.08206f, 
	0.03382f, -0.01406f, 0.11594f, 0.07774f, 0.03846f, 0.06514f, -0.10431f, 0.01392f, 
	-0.00458f, 0.03553f, 0.02409f, 0.01007f, -0.10339f, -0.01784f, -0.00728f, -0.08649f, 
	-0.07082f, 0.00430f, -0.01863f, 0.07523f, 0.00040f, 0.12094f, -0.07150f, -0.09698f, 
	0.01175f, 0.01980f, 0.02056f, 0.05492f, 0.04537f, 0.06737f, 0.02648f, -0.05717f, 
	-0.07179f, 0.04686f, -0.00933f, 0.01816f, 0.09692f, -0.03141f, 0.01435f, -0.07918f, 
	-0.04060f, -0.04811f, 0.00375f, -0.06290f, -0.09653f, 0.04227f, 0.00430f, -0.16369f, 
	-0.07849f, 0.03350f, 0.01021f, -0.09204f, 0.02244f, -0.01932f, -0.07539f, 0.08006f, 
	-0.02895f, -0.11280f, 0.07832f, 0.04132f, 0.03277f, 0.08147f, -0.00531f, -0.08860f, 
	-0.01261f, 0.01280f, 0.03270f, -0.03515f, 0.06298f, 0.06358f, -0.08314f, 0.07440f, 
	-0.05861f, -0.08136f, -0.04690f, 0.07452f, -0.00381f, 0.00822f, 0.03127f, -0.15208f, 
	0.00375f, 0.01345f, 0.03909f, -0.03949f, 0.09409f, -0.02132f, 0.03918f, 0.17264f, 
	-0.00758f, -0.02152f, -0.01626f, 0.08387f, 0.03758f, 0.04872f, -0.02802f, 0.00519f, 
	0.08683f, 0.07943f, 0.07023f, -0.04268f, 0.02578f, 0.01249f, -0.05194f, -0.11854f, 
	-0.03100f, 0.07152f, -0.01505f, 0.03053f, 0.07247f, 0.02454f, -0.05275f, 0.01619f, 
	0.10753f, 0.07360f, -0.00269f, 0.03290f, 0.06161f, -0.00095f, 0.05988f, -0.03469f, 
	0.03022f, 0.00001f, -0.01527f, -0.03912f, 0.02671f, 0.09528f, 0.03698f, 0.09576f, 
	0.06825f, 0.05234f, -0.05776f, 0.01294f, 0.09187f, -0.08801f, -0.03938f, -0.01190f, 
	0.07213f, -0.05503f, -0.03811f, 0.07444f, 0.04398f, 0.00924f, 0.00962f, 0.09095f, 
	0.05610f, 0.05396f, 0.02052f, 0.01726f, -0.06529f, -0.04285f, 0.08714f, -0.11814f, 
	0.03870f, -0.02895f, 0.02759f, -0.02109f, 0.06970f, 0.00921f, 0.01177f, -0.05891f, 
	0.07096f, 0.05376f, -0.02997f, -0.00114f, -0.08549f, -0.03868f, 0.05328f, -0.00495f, 
	-0.01038f, -0.03572f, 0.02710f, 0.07140f, 0.00673f, 0.06708f, 0.10143f, 0.11195f, 
	-0.02274f, 0.01880f, -0.00984f, -0.05240f, -0.06646f, -0.07705f, -0.06466f, 0.00763f, 
	0.06895f, 0.00369f, -0.01923f, 0.03267f, -0.08025f, -0.00007f, 0.04377f, -0.02567f, 
	0.05599f, 0.04517f, 0.07966f, 0.03728f, -0.12420f, -0.09765f, -0.03888f, 0.00690f, 
	-0.01096f, -0.06850f, -0.04225f, 0.05219f, -0.04679f, -0.04763f, -0.03730f, 0.00128f, 
	0.01052f, 0.02278f, -0.03999f, -0.09875f, -0.06785f, -0.07364f, 0.03337f, -0.03563f, 
	-0.05628f, 0.03672f, 0.02633f, -0.04569f, -0.01743f, 0.11156f, 0.02138f, 0.01129f, 
	0.04868f, -0.07493f, -0.08091f, -0.00532f, -0.01067f, 0.04154f, -0.02846f, 0.10353f, 
	0.02806f, -0.05181f, -0.05585f, -0.01766f, -0.01180f, 0.04318f, -0.07873f, 0.13123f, 
	0.08705f, 0.01557f, -0.00623f, 0.02467f, 0.05644f, 0.14088f, -0.00222f, 0.04117f, 
	-0.10661f, -0.07433f, -0.09718f, 0.11128f, -0.08746f, 0.00668f, -0.02131f, 0.05379f, 
	0.04453f, 0.01315f, 0.07592f, -0.07084f, -0.06274f, 0.12599f, 0.00415f, 0.09089f, 
	-0.00598f, 0.03496f, 0.02336f, 0.05460f, 0.08703f, -0.04134f, 0.02663f, 0.06737f, 
	-0.02412f, 0.00275f, 0.01954f, -0.06487f, -0.04275f, -0.03272f, -0.01492f, 0.08613f, 
	-0.03328f, -0.14151f, 0.02529f, 0.01572f, 0.00879f, -0.12050f, -0.03425f, -0.15472f, 
	-0.03871f, -0.06337f, -0.06568f, -0.04109f, 0.04073f, 0.05375f, -0.06698f, 0.06597f, 
	0.03376f, -0.19199f, -0.05484f, -0.03888f, -0.10710f, 0.03120f, 0.03619f, -0.02483f, 
	0.08470f, 0.06198f, 0.01017f, -0.10132f, -0.06596f, 0.16951f, 0.10531f, 0.03616f, 
	0.09518f, -0.07565f, -0.00294f, -0.07592f, -0.02656f, -0.09470f, 0.00821f, -0.04000f, 
	-0.04731f, 0.00669f, 0.02027f, -0.07481f, -0.01779f, 0.00341f, -0.02367f, 0.11504f, 
	0.03809f, -0.01369f, 0.12783f, 0.10536f, -0.05448f, 0.02752f, -0.00507f, -0.00583f, 
	0.10265f, 0.09763f, -0.13734f, 0.00322f, 0.05593f, -0.05836f, 0.05326f, -0.03889f, 
	0.03305f, -0.04375f, 0.06878f, -0.04634f, 0.08990f, 0.04081f, -0.06583f, 0.05430f, 
	0.01948f, -0.01838f, 0.01978f, 0.04577f, 0.07243f, -0.05930f, 0.08805f, -0.01423f, 
	0.07505f, -0.17208f, -0.01210f, -0.00541f, -0.04549f, 0.04158f, 0.08313f, 0.00252f, 
	0.06385f, -0.01568f, -0.01155f, 0.10718f, 0.08140f, 0.02126f, 0.02072f, 0.01751f, 
	-0.02355f, 0.01237f, 0.01472f, 0.13919f, 0.01377f, -0.03196f, 0.00331f, 0.05075f, 
	0.06575f, -0.01959f, -0.00599f, 0.00819f, 0.03943f, 0.02777f, -0.09427f, -0.00234f, 
	-0.01664f, 0.09454f, 0.00955f, -0.03244f, -0.00109f, -0.03265f, -0.01356f, 0.01373f, 
	0.04591f, 0.03808f, -0.13262f, 0.00419f, -0.07950f, -0.03377f, 0.07466f, -0.05994f, 
	-0.01431f, 0.10671f, -0.01255f, 0.00700f, 0.06722f, 0.06901f, 0.04524f, -0.01381f, 
	-0.00434f, 0.02198f, -0.07481f, 0.06312f, -0.04397f, -0.11297f, 0.01942f, -0.05596f, 
	0.07186f, 0.03896f, -0.02370f, 0.03827f, -0.01750f, 0.03499f, -0.03282f, 0.06995f, 
	-0.03507f, -0.03117f, -0.06485f, -0.02273f, 0.09038f, 0.04322f, -0.06893f, 0.06101f, 
	0.03227f, -0.00464f, 0.00408f, 0.04464f, -0.07466f, 0.10145f, -0.07045f, 0.09751f, 
	-0.08673f, -0.04661f, -0.14618f, -0.01606f, -0.03762f, -0.03624f, 0.05559f, 0.06436f, 
	0.06947f, 0.13775f, -0.00920f, 0.06281f, -0.00016f, 0.06663f, 0.01630f, 0.04741f, 
	0.06903f, -0.03477f, -0.08989f, -0.01314f, -0.01236f, -0.11169f, 0.03708f, -0.00466f, 
	0.07009f, -0.05321f, 0.10740f, -0.00811f, 0.04138f, 0.04729f, 0.03159f, 0.00638f, 
	0.07030f, -0.11089f, -0.04332f, 0.07527f, -0.01527f, 0.11520f, -0.08219f, -0.01327f, 
	0.04373f, 0.11171f, 0.00196f, 0.01723f, -0.06338f, -0.05151f, 0.05706f, -0.06860f, 
	-0.02987f, -0.05678f, -0.04573f, -0.00589f, -0.08682f, -0.00527f, -0.03209f, -0.02012f, 
	0.06957f, 0.10957f, -0.00786f, -0.06058f, -0.04827f, -0.01300f, 0.07314f, -0.04955f, 
	-0.05165f, 0.01582f, -0.06465f, 0.03133f, -0.02320f, -0.03450f, -0.07073f, 0.03280f, 
	0.07986f, 0.07925f, -0.04216f, -0.05724f, -0.03320f, 0.02805f, 0.04244f, -0.10381f, 
	-0.06126f, 0.02890f, -0.07016f, 0.06372f, -0.04821f, 0.00815f, -0.07447f, -0.06026f, 
	0.09453f, -0.02185f, 0.01821f, -0.02827f, -0.02359f, -0.05176f, 0.01310f, 0.04700f, 
	0.03299f, 0.01235f, -0.02317f, -0.06579f, 0.03651f, 0.04883f, 0.06201f, -0.04956f, 
	0.04326f, 0.01846f, -0.00819f, 0.04278f, 0.06548f, 0.00178f, 0.04731f, 0.04365f, 
	-0.06794f, 0.00534f, -0.03095f, -0.04198f, -0.01390f, -0.01180f, -0.03122f, -0.10182f, 
	0.06892f, -0.09877f, 0.00034f, -0.05809f, -0.10666f, -0.00565f, 0.06723f, -0.06983f, 
	0.05652f, 0.05349f, 0.04212f, -0.02474f, 0.04468f, 0.07645f, -0.02089f, -0.03210f, 
	0.05638f, 0.02056f, 0.05109f, 0.04601f, -0.00570f, 0.07228f, 0.05971f, 0.04711f, 
	0.03796f, -0.02355f, 0.03754f, 0.08471f, 0.11261f, -0.07750f, 0.08301f, -0.08489f, 
	0.05518f, -0.00564f, 0.00671f, -0.05186f, 0.02004f, 0.10338f, -0.03943f, 0.06779f, 
	0.02785f, 0.05149f, -0.01683f, -0.04439f, 0.02091f, -0.06109f, -0.00933f, 0.01375f, 
	0.02101f, -0.02817f, 0.04121f, -0.05325f, 0.04695f, 0.04041f, 0.02260f, -0.04705f, 
	-0.06146f, 0.02612f, -0.06581f, 0.00462f, 0.02086f, -0.01959f, 0.06543f, 0.02221f, 
	-0.04228f, -0.03015f, 0.05986f, 0.02363f, 0.00624f, 0.06516f, 0.01571f, 0.00715f, 
	-0.01253f, 0.04081f, -0.05909f, 0.04914f, 0.08297f, -0.03508f, 0.04870f, -0.05448f, 
	-0.07217f, 0.01805f, -0.08699f, -0.03961f, -0.04346f, 0.01822f, 0.03487f, 0.02959f, 
	0.00423f, 0.09578f, -0.05328f, 0.05897f, 0.05822f, -0.13141f, 0.02666f, -0.11849f, 
	0.06291f, 0.06825f, -0.06488f, 0.02189f, 0.03079f, 0.03697f, 0.10148f, -0.08493f, 
	0.01259f, -0.02415f, 0.03446f, -0.07082f, -0.08825f, 0.00436f, 0.03490f, -0.14053f, 
	0.02425f, 0.00974f, -0.11521f, 0.03160f, -0.02648f, 0.05561f, -0.00044f, -0.13454f, 
	-0.02399f, 0.06133f, 0.10773f, 0.06052f, -0.12396f, 0.00704f, 0.06400f, -0.14596f, 
	-0.01461f, -0.05068f, 0.06254f, -0.05072f, -0.14030f, 0.07489f, 0.13097f, 0.00693f, 
	0.02325f, -0.07996f, -0.03503f, -0.01207f, -0.01023f, 0.02769f, -0.04296f, -0.07945f, 
	0.01343f, -0.06731f, 0.01874f, -0.14766f, 0.10526f, 0.04835f, -0.07576f, -0.02732f, 
	0.05329f, -0.02583f, -0.03672f, 0.08301f, 0.11041f, -0.08969f, 0.01514f, 0.12410f, 
	0.09475f, -0.01941f, 0.11913f, -0.20958f, -0.04443f, 0.14601f, 0.05571f, -0.13462f, 
	0.02257f, -0.03451f, 0.05059f, -0.02474f, -0.04700f, -0.02097f, 0.11634f, -0.00341f, 
	-0.05485f, -0.09131f, 0.09665f, -0.12977f, 0.04222f, 0.17150f, 0.03592f, 0.03927f, 
	0.06784f, -0.05335f, 0.03190f, 0.04255f, 0.01099f, -0.09013f, 0.07520f, 0.12016f, 
	-0.10273f, 0.08525f, 0.04480f, -0.07508f, 0.11784f, -0.02987f, 0.02771f, 0.10124f, 
	-0.05400f, 0.00206f, 0.02226f, 0.13635f, 0.11010f, -0.13432f, 0.07857f, -0.01383f, 
	0.05398f, 0.08852f, 0.10503f, 0.01145f, 0.03819f, -0.05430f, 0.04013f, 0.01888f, 
	-0.02295f, -0.02496f, -0.08681f, 0.02915f, -0.05407f, 0.02128f, 0.08034f, -0.11490f, 
	0.00106f, 0.10502f, 0.06100f, -0.06595f, -0.00326f, -0.09442f, 0.06304f, -0.05121f, 
	-0.08648f, 0.03162f, 0.04898f, 0.12849f, 0.01419f, -0.01257f, -0.00631f, 0.01031f, 
	0.00047f, -0.16505f, 0.00738f, 0.05237f, -0.06220f, -0.03202f, 0.04491f, -0.09484f, 
	-0.10034f, 0.05011f, 0.10073f, -0.09091f, -0.08146f, 0.23848f, -0.09502f, 0.08814f, 
	-0.10459f, 0.00823f, -0.13704f, 0.06029f, -0.06530f, -0.01445f, 0.15672f, -0.05154f, 
	-0.10000f, 0.10769f, 0.15310f, 0.03525f, 0.02026f, 0.28902f, 0.00121f, 0.14025f, 
	-0.12472f, -0.01842f, -0.06329f, 0.04679f, -0.01968f, 0.08344f, 0.08377f, -0.03042f, 
	-0.03043f, 0.01069f, 0.03794f, 0.00466f, -0.00797f, 0.16820f, -0.08833f, 0.01878f, 
	-0.04619f, -0.04902f, -0.05380f, 0.03221f, 0.08937f, -0.01709f, -0.03403f, 0.00632f, 
	0.01435f, 0.04188f, -0.00052f, -0.10129f, -0.02575f, 0.10664f, 0.02916f, 0.07572f, 
	0.00077f, -0.00170f, 0.00619f, 0.06673f, 0.01959f, -0.01309f, -0.05128f, 0.01115f, 
	0.12339f, 0.09527f, 0.12547f, 0.03557f, -0.03829f, 0.20250f, 0.07980f, 0.18009f, 
	-0.08861f, -0.05913f, 0.02687f, 0.03065f, -0.06012f, 0.00118f, -0.09231f, 0.02830f, 
	-0.04607f, 0.11140f, 0.01357f, -0.05697f, 0.02394f, 0.17192f, 0.04215f, 0.17616f, 
	-0.04203f, -0.00862f, -0.01797f, 0.07814f, 0.00057f, -0.05743f, 0.01724f, -0.01096f, 
	0.03613f, -0.06781f, 0.02792f, 0.05795f, 0.11178f, 0.13654f, -0.01471f, -0.07300f, 
	-0.10444f, -0.04743f, 0.01255f, 0.05950f, 0.07123f, -0.06809f, 0.03188f, 0.05887f, 
	0.05741f, 0.06972f, 0.00742f, 0.13020f, 0.01500f, 0.09319f, -0.05472f, -0.00438f, 
	-0.09236f, -0.06957f, -0.02497f, 0.12128f, -0.01087f, -0.11519f, -0.09005f, -0.00219f, 
	-0.03019f, 0.04375f, 0.09559f, 0.01794f, -0.00043f, 0.17207f, 0.04579f, -0.08378f, 
	-0.05377f, -0.01471f, 0.01013f, 0.00808f, -0.11500f, -0.04217f, 0.02553f, 0.05754f, 
	0.00010f, 0.02148f, 0.09350f, -0.01425f, -0.10490f, 0.09493f, -0.07116f, 0.07225f, 
	-0.03662f, -0.07667f, -0.05755f, 0.10390f, -0.04372f, 0.01366f, 0.06469f, 0.02080f, 
	-0.08084f, 0.09169f, 0.09362f, 0.01722f, -0.06660f, -0.01030f, 0.05434f, -0.05552f, 
	0.01529f, 0.04897f, -0.02512f, 0.04720f, -0.06796f, -0.06378f, -0.03277f, 0.02542f, 
	-0.03796f, 0.00273f, -0.02237f, 0.03115f, -0.00276f, 0.01280f, 0.04583f, -0.08107f, 
	-0.02243f, 0.03929f, 0.06216f, -0.16627f, -0.05694f, 0.01107f, -0.00205f, 0.02068f, 
	-0.06424f, 0.12289f, 0.06023f, -0.11117f, -0.00964f, 0.04112f, -0.03847f, 0.11507f, 
	0.05162f, -0.02520f, 0.08516f, -0.02624f, -0.03223f, 0.05837f, -0.09905f, -0.01542f, 
	-0.07010f, 0.11909f, -0.03831f, -0.12589f, 0.05243f, -0.06354f, 0.00821f, 0.08139f, 
	0.00956f, -0.02162f, -0.05842f, -0.04905f, 0.02643f, 0.04932f, 0.03492f, 0.06662f, 
	0.00454f, 0.06169f, -0.08119f, -0.03665f, 0.01076f, -0.13321f, 0.13163f, 0.12138f, 
	-0.01687f, 0.03740f, 0.06817f, -0.08980f, 0.02352f, 0.02404f, -0.09404f, 0.06166f, 
	0.02977f, 0.15759f, 0.01895f, -0.00895f, 0.05096f, 0.00737f, 0.07712f, 0.03485f, 
	-0.01231f, -0.03235f, 0.05841f, -0.10808f, 0.01821f, -0.06209f, -0.05383f, 0.10971f, 
	-0.02736f, 0.08562f, 0.02276f, 0.04949f, -0.03485f, -0.00941f, 0.10296f, 0.01351f, 
	0.00301f, 0.01066f, 0.00754f, 0.03728f, 0.08267f, -0.05514f, -0.09987f, 0.03193f, 
	-0.01264f, -0.03380f, 0.01611f, 0.01756f, -0.00829f, -0.09885f, 0.10301f, 0.00646f
};

static dl_matrix3d_t conv3_filter = {
	.w = 3,
	.h = 3,
	.c = 16,
	.n = 16,
	.stride = 48,
	.item = (fptp_t *)(&conv3_filter_item_array[0])
};

const static fptp_t conv3_bias_item_array[] = {
	0.25697f, -0.02659f, 0.04206f, -0.12135f, 0.22602f, 0.02672f, -0.23755f, -0.02542f, 
	0.13221f, 0.05064f, 0.10415f, 0.02950f, 0.01132f, 0.23749f, 0.02748f, -0.00398f
};

static dl_matrix3d_t conv3_bias = {
	.w = 1,
	.h = 1,
	.c = 16,
	.n = 1,
	.stride = 16,
	.item = (fptp_t *)(&conv3_bias_item_array[0])
};

const static fptp_t conv4_filter_item_array[] = {
	0.05349f, -0.07720f, -0.11420f, -0.04699f, 0.00974f, -0.06758f, -0.04866f, 0.07470f, 
	-0.06251f, 0.05900f, 0.02444f, 0.04004f, 0.06331f, 0.01684f, 0.07126f, 0.00508f, 
	0.09740f, -0.05762f, 0.04303f, -0.00310f, -0.00089f, -0.10430f, -0.07159f, 0.10008f, 
	-0.00270f, -0.01715f, 0.09215f, 0.06593f, -0.01390f, -0.05078f, -0.03864f, -0.02134f, 
	-0.00777f, -0.07915f, 0.12780f, 0.03090f, -0.05329f, 0.01923f, -0.09898f, -0.03385f, 
	-0.01659f, 0.06615f, 0.17316f, -0.06397f, 0.00735f, 0.03781f, 0.01748f, 0.00788f, 
	0.04856f, 0.05491f, -0.15116f, 0.08692f, 0.01490f, 0.06168f, 0.02722f, 0.01310f, 
	0.02499f, -0.04961f, -0.04575f, 0.05399f, -0.07186f, -0.04584f, -0.03143f, -0.01031f, 
	-0.07505f, 0.08270f, -0.07806f, 0.01131f, -0.04873f, -0.07202f, -0.02803f, 0.01682f, 
	-0.04760f, 0.07217f, 0.02448f, 0.04592f, -0.02467f, -0.04487f, -0.02700f, 0.01706f, 
	0.03828f, -0.03354f, -0.02571f, 0.06397f, 0.08946f, -0.02038f, -0.06808f, -0.08030f, 
	-0.14405f, 0.03786f, 0.04539f, -0.00875f, -0.07165f, -0.04952f, -0.00621f, 0.04990f, 
	-0.04590f, -0.00286f, -0.04977f, 0.02481f, 0.02251f, -0.13788f, 0.01991f, 0.11844f, 
	0.01754f, -0.07905f, 0.06995f, 0.08811f, 0.01119f, -0.07457f, 0.02579f, 0.05182f, 
	-0.03751f, 0.08142f, 0.02104f, 0.09583f, 0.00717f, -0.11761f, -0.07942f, 0.01290f, 
	-0.06526f, 0.05748f, 0.02128f, 0.02269f, -0.03674f, 0.08963f, 0.02769f, 0.03068f, 
	-0.06736f, 0.05663f, -0.02012f, 0.04075f, 0.03581f, -0.00324f, 0.02977f, -0.08142f, 
	-0.10748f, 0.06424f, 0.11166f, 0.03045f, 0.00734f, 0.07968f, 0.01924f, 0.11005f, 
	-0.08579f, -0.13764f, 0.05805f, 0.02959f, 0.04563f, -0.12261f, -0.08036f, -0.03719f, 
	-0.02882f, 0.02680f, -0.02623f, 0.01724f, 0.07428f, -0.06379f, 0.06636f, -0.01670f, 
	-0.05333f, -0.13296f, -0.03401f, 0.04959f, 0.00385f, -0.03973f, -0.02996f, -0.00354f, 
	-0.10510f, -0.05536f, 0.00088f, 0.02724f, -0.02736f, -0.01504f, 0.03796f, 0.04730f, 
	0.01129f, -0.10544f, -0.02545f, -0.04418f, 0.02942f, -0.11933f, 0.02838f, 0.02556f, 
	-0.01865f, 0.03968f, -0.00571f, 0.06907f, 0.01175f, -0.03958f, 0.08016f, -0.08643f, 
	-0.06417f, -0.11649f, -0.04906f, 0.04867f, 0.09546f, -0.11574f, 0.07294f, -0.01540f, 
	-0.05318f, 0.03642f, 0.13113f, 0.06613f, 0.02611f, -0.00319f, -0.03015f, -0.00427f, 
	0.00249f, -0.18639f, -0.02087f, -0.03193f, 0.00003f, -0.11578f, 0.06297f, -0.01738f, 
	-0.13089f, -0.04442f, 0.12449f, -0.00743f, -0.03826f, -0.02094f, 0.01413f, -0.01539f, 
	-0.05919f, -0.11762f, -0.00466f, 0.05133f, -0.05774f, -0.07120f, -0.00395f, -0.04741f, 
	-0.11116f, 0.01599f, 0.05033f, -0.04631f, 0.05028f, 0.05770f, 0.01714f, 0.03957f, 
	-0.02978f, -0.03603f, -0.07143f, -0.08926f, 0.01944f, 0.02445f, 0.04923f, -0.01190f, 
	0.05107f, 0.03111f, 0.12776f, 0.01493f, -0.03565f, 0.05159f, -0.06369f, -0.00965f, 
	-0.01958f, -0.01663f, -0.12998f, 0.02382f, -0.00608f, -0.02251f, 0.02813f, 0.01921f, 
	-0.08599f, 0.01840f, 0.11300f, 0.04558f, 0.03236f, -0.03617f, -0.03823f, 0.06967f, 
	0.07583f, -0.10591f, -0.07316f, -0.06878f, 0.04142f, -0.07045f, 0.08950f, -0.00838f, 
	0.00484f, -0.06768f, 0.05318f, -0.02723f, 0.01547f, 0.08782f, -0.04221f, 0.01702f, 
	0.05600f, -0.00114f, 0.00675f, 0.03650f, 0.00635f, -0.06820f, -0.05016f, 0.02082f, 
	-0.02639f, -0.03993f, 0.00606f, -0.05748f, 0.01629f, 0.00780f, 0.05886f, 0.05971f, 
	0.00520f, -0.06526f, -0.05263f, 0.05007f, -0.02481f, 0.02219f, 0.01798f, -0.07752f, 
	-0.00726f, -0.03822f, 0.03396f, -0.01671f, -0.06501f, -0.03024f, -0.00871f, 0.04115f, 
	0.06665f, 0.01787f, 0.01347f, 0.02315f, 0.00911f, 0.07866f, 0.04031f, 0.06383f, 
	-0.03727f, -0.05917f, -0.06546f, -0.09681f, -0.06440f, -0.02955f, 0.07027f, 0.02174f, 
	0.07206f, 0.00203f, 0.02692f, -0.03025f, 0.00462f, -0.04310f, -0.04925f, 0.01139f, 
	0.00097f, -0.02269f, 0.04766f, 0.06609f, 0.03313f, 0.08774f, -0.00147f, -0.01262f, 
	-0.05836f, -0.11546f, -0.06386f, 0.09366f, -0.06436f, 0.02163f, 0.04640f, -0.07846f, 
	0.05524f, 0.00518f, -0.06898f, -0.07943f, 0.04129f, 0.06987f, 0.07252f, 0.03305f, 
	0.09414f, -0.04813f, -0.04354f, 0.06533f, -0.05061f, -0.04807f, -0.00042f, -0.02705f, 
	0.08773f, 0.06740f, 0.02267f, -0.09200f, -0.02028f, 0.05517f, -0.07525f, 0.07411f, 
	0.06554f, -0.05651f, 0.04351f, 0.06768f, -0.04445f, 0.02638f, 0.02089f, 0.08499f, 
	0.02343f, 0.05729f, -0.02284f, -0.09265f, 0.02531f, -0.00937f, -0.01990f, -0.04677f, 
	0.02297f, -0.03541f, -0.04112f, -0.00674f, 0.01753f, -0.03075f, -0.03437f, -0.06462f, 
	0.10738f, 0.06036f, -0.07558f, -0.01637f, 0.03769f, -0.03782f, -0.06667f, 0.08080f, 
	0.05616f, -0.06419f, -0.04392f, 0.06145f, 0.03666f, -0.01514f, -0.06110f, -0.09497f, 
	0.00032f, 0.00604f, -0.08391f, -0.02295f, -0.03294f, 0.03540f, 0.06496f, -0.01048f, 
	-0.00593f, 0.00247f, 0.01583f, -0.13742f, -0.09017f, -0.02479f, -0.05002f, -0.03950f, 
	0.09390f, 0.07818f, -0.02752f, -0.07001f, 0.03584f, 0.03094f, -0.01596f, -0.00844f, 
	0.04313f, -0.06634f, 0.06606f, 0.00746f, -0.02528f, 0.09937f, 0.00122f, -0.05531f, 
	-0.02367f, -0.04358f, 0.04458f, -0.10455f, 0.03191f, 0.02069f, 0.08208f, -0.02618f, 
	-0.00388f, 0.03008f, -0.08404f, -0.09777f, -0.04434f, 0.01971f, -0.04175f, -0.01253f, 
	0.07909f, 0.03043f, 0.00444f, -0.04277f, -0.02044f, 0.02587f, -0.07833f, 0.00906f, 
	0.01733f, 0.01102f, -0.05370f, -0.02130f, 0.07941f, -0.01768f, -0.05969f, 0.01926f, 
	0.02674f, -0.03842f, 0.05979f, -0.01531f, -0.05378f, 0.01328f, 0.09023f, -0.01689f, 
	0.06465f, -0.09566f, -0.02452f, -0.01533f, 0.01197f, 0.00503f, -0.06724f, 0.02989f, 
	-0.01999f, -0.01101f, 0.05617f, -0.10630f, -0.05695f, -0.00113f, 0.01044f, 0.06025f, 
	0.01836f, -0.04950f, -0.01418f, -0.03749f, -0.03970f, 0.04900f, 0.04671f, -0.00965f, 
	0.08620f, -0.09046f, 0.00343f, 0.04947f, -0.04004f, -0.06305f, 0.07896f, -0.08120f, 
	0.05533f, -0.00428f, -0.02561f, 0.03289f, -0.00900f, -0.02027f, -0.02517f, -0.02971f, 
	0.07636f, -0.05412f, 0.05778f, -0.06430f, 0.00793f, -0.04531f, 0.08892f, -0.00450f, 
	-0.07324f, -0.03173f, 0.06922f, 0.02437f, 0.05877f, -0.05962f, -0.04281f, 0.04891f, 
	0.09489f, -0.03162f, 0.03089f, -0.09471f, -0.06072f, 0.10883f, 0.09570f, 0.03234f, 
	0.00252f, 0.05401f, 0.09394f, 0.04727f, 0.05000f, 0.08721f, -0.01041f, -0.08447f, 
	0.07183f, 0.05285f, 0.06876f, -0.10625f, -0.06028f, -0.00950f, 0.13588f, -0.02218f, 
	-0.02077f, -0.11430f, -0.02214f, -0.08968f, 0.05529f, -0.04258f, 0.00364f, 0.01739f, 
	0.04637f, -0.03846f, 0.01523f, 0.06272f, 0.09276f, 0.01319f, -0.01680f, -0.02608f, 
	-0.02403f, -0.02717f, -0.06570f, -0.05288f, -0.05972f, -0.04896f, 0.01836f, 0.09684f, 
	0.03719f, -0.02613f, -0.07668f, -0.02037f, 0.02500f, 0.05349f, -0.00624f, -0.02827f, 
	0.00327f, -0.07673f, -0.03435f, 0.04400f, 0.06110f, 0.05492f, -0.05311f, 0.10034f, 
	-0.05324f, 0.05634f, -0.01716f, 0.04239f, 0.03085f, -0.08856f, -0.00971f, -0.09630f, 
	-0.01328f, -0.01567f, 0.02160f, 0.00434f, -0.04032f, -0.03370f, 0.05081f, -0.00493f, 
	-0.01448f, -0.08601f, 0.03107f, -0.04724f, 0.00752f, 0.09090f, 0.08962f, -0.06271f, 
	0.04150f, -0.02657f, 0.01948f, 0.00663f, 0.04417f, -0.00555f, -0.10333f, -0.03004f, 
	0.05566f, 0.02493f, -0.03765f, -0.01109f, -0.05062f, 0.02758f, 0.03792f, -0.04317f, 
	0.01010f, 0.05363f, -0.00927f, 0.01731f, 0.06427f, 0.06730f, -0.10158f, 0.09680f, 
	-0.08001f, -0.01985f, -0.07266f, 0.01771f, -0.03229f, 0.05891f, 0.04689f, -0.10335f, 
	0.04167f, -0.08077f, 0.08426f, 0.06175f, 0.01683f, 0.06188f, -0.05327f, 0.02230f, 
	-0.01821f, -0.03652f, 0.09235f, 0.00759f, -0.03054f, 0.09822f, 0.08122f, 0.01479f, 
	-0.00534f, 0.06065f, -0.08097f, -0.06257f, 0.01807f, -0.03404f, -0.00935f, -0.02784f, 
	0.04118f, -0.06722f, 0.00299f, 0.01970f, 0.01102f, 0.09453f, 0.00164f, -0.05053f, 
	-0.03848f, -0.02040f, 0.01791f, 0.04913f, -0.03623f, 0.02685f, -0.02317f, -0.03571f, 
	0.03622f, 0.02629f, -0.00884f, 0.03401f, 0.02081f, -0.06093f, 0.05757f, -0.08525f, 
	-0.03935f, 0.10528f, 0.10880f, 0.01450f, 0.01100f, -0.03477f, -0.04697f, 0.05112f, 
	-0.09787f, 0.00916f, 0.00848f, 0.06803f, -0.03939f, 0.03253f, 0.08175f, -0.08371f, 
	-0.05221f, -0.00097f, 0.00015f, -0.01038f, 0.00426f, -0.05502f, 0.01351f, -0.03616f, 
	-0.08013f, 0.07420f, 0.05855f, 0.05348f, -0.07636f, -0.05628f, 0.07024f, 0.02518f, 
	-0.06781f, -0.02396f, 0.00748f, -0.03704f, -0.02334f, -0.03874f, 0.03486f, -0.06217f, 
	-0.06392f, -0.07463f, 0.07321f, -0.00238f, -0.11102f, -0.09178f, 0.02985f, -0.04928f, 
	0.00302f, -0.00557f, 0.03244f, 0.09446f, -0.01019f, -0.01443f, -0.00707f, 0.00773f, 
	-0.00554f, -0.06224f, 0.10091f, 0.09478f, 0.01250f, 0.07672f, 0.08100f, -0.04188f, 
	-0.02603f, -0.03877f, 0.09092f, 0.05627f, -0.08038f, 0.05905f, 0.07729f, 0.04174f, 
	-0.11075f, -0.05491f, 0.11195f, -0.03701f, -0.00003f, 0.02529f, 0.09782f, 0.05481f, 
	0.02847f, 0.01589f, 0.10721f, 0.08872f, 0.00980f, -0.04696f, -0.06465f, 0.02407f, 
	-0.02911f, 0.01723f, 0.03666f, -0.02871f, -0.02813f, 0.05734f, -0.08760f, 0.01639f, 
	0.07237f, 0.07561f, 0.12728f, 0.02770f, -0.07738f, 0.01381f, -0.01654f, -0.02311f, 
	0.00475f, -0.03075f, 0.08115f, 0.02886f, 0.04420f, 0.01817f, 0.04936f, -0.06870f, 
	-0.00959f, -0.07028f, 0.15302f, 0.07690f, 0.06047f, -0.04661f, -0.05065f, -0.01798f, 
	-0.06394f, 0.02064f, 0.00635f, -0.03214f, -0.06424f, 0.05755f, -0.01432f, -0.03222f, 
	-0.05389f, -0.12594f, 0.08076f, 0.06634f, 0.00052f, 0.00281f, 0.00075f, -0.06770f, 
	0.03184f, -0.03705f, 0.06709f, 0.01984f, -0.10525f, 0.04405f, -0.02828f, -0.00675f, 
	-0.02764f, -0.04932f, -0.02579f, -0.03980f, -0.03766f, 0.05185f, -0.03560f, 0.08481f, 
	-0.09748f, 0.06437f, -0.02841f, -0.05237f, 0.03275f, -0.06649f, 0.08983f, 0.07384f, 
	-0.05379f, -0.09270f, 0.00268f, 0.03727f, -0.01227f, -0.00453f, -0.02812f, 0.06516f, 
	0.02533f, -0.05860f, 0.05926f, 0.03077f, 0.05593f, -0.01515f, -0.04800f, 0.08786f, 
	-0.00272f, -0.00916f, -0.03027f, -0.01598f, 0.05124f, -0.00286f, -0.08624f, 0.00357f, 
	-0.01203f, -0.00913f, 0.04836f, -0.03032f, 0.03296f, -0.02717f, 0.01159f, -0.07547f, 
	-0.10247f, -0.05647f, 0.04284f, 0.03314f, -0.00868f, -0.00353f, -0.03863f, 0.05028f, 
	0.01210f, 0.09058f, 0.13264f, -0.05303f, -0.01436f, 0.02365f, 0.08733f, -0.00332f, 
	-0.05325f, -0.03353f, 0.02637f, -0.01224f, 0.07890f, -0.05420f, 0.07523f, 0.04070f, 
	-0.09037f, -0.04850f, 0.03261f, -0.03840f, 0.01648f, 0.06994f, 0.02832f, 0.07645f, 
	-0.04483f, -0.10258f, -0.01365f, 0.06147f, 0.06730f, -0.03137f, 0.05890f, 0.00969f, 
	-0.11520f, -0.03273f, 0.04270f, -0.01894f, -0.02202f, 0.00813f, 0.09445f, -0.01448f, 
	0.04179f, -0.03951f, -0.12569f, -0.06165f, -0.02159f, 0.04634f, 0.06291f, 0.03334f, 
	-0.06029f, -0.04903f, 0.02062f, -0.02808f, -0.04407f, -0.04884f, -0.07665f, -0.01673f, 
	0.04894f, -0.05335f, -0.10809f, -0.08287f, 0.04442f, 0.04401f, 0.05325f, 0.06586f, 
	-0.04935f, -0.05425f, -0.07087f, 0.07776f, 0.01439f, 0.09205f, 0.05843f, -0.04696f, 
	-0.04234f, -0.04917f, -0.01469f, -0.00995f, -0.02832f, 0.05385f, -0.05409f, 0.08641f, 
	-0.03216f, -0.05237f, 0.05878f, -0.01831f, 0.00252f, 0.06200f, -0.01413f, 0.05998f, 
	0.09909f, -0.00590f, -0.00359f, -0.03804f, -0.03750f, 0.03752f, -0.08685f, 0.11484f, 
	0.04105f, 0.07902f, 0.00008f, 0.03619f, 0.13411f, 0.07963f, -0.01386f, -0.07495f, 
	0.11396f, -0.03550f, -0.00520f, -0.05737f, -0.02126f, -0.02659f, 0.06968f, 0.00532f, 
	-0.06420f, 0.03482f, 0.05088f, 0.06433f, -0.00033f, -0.05645f, 0.04326f, -0.03698f, 
	0.08069f, -0.01600f, -0.06955f, -0.02828f, -0.04063f, -0.04341f, 0.07306f, 0.09521f, 
	0.06709f, -0.02406f, 0.02123f, 0.06305f, -0.06313f, 0.04797f, 0.06409f, -0.04977f, 
	-0.01709f, -0.08089f, -0.04348f, -0.01890f, 0.05215f, 0.08688f, 0.02955f, 0.08868f, 
	0.03082f, -0.03577f, -0.04721f, -0.04541f, -0.01824f, -0.01358f, 0.04412f, -0.02532f, 
	0.02970f, 0.00248f, -0.10222f, 0.05374f, -0.02142f, 0.02981f, 0.04507f, 0.11543f, 
	0.09142f, 0.05088f, -0.03817f, 0.05800f, -0.00309f, 0.01882f, -0.02828f, -0.06511f, 
	-0.06676f, 0.00474f, -0.08327f, -0.04174f, -0.08300f, -0.02748f, 0.08766f, -0.02726f, 
	-0.07975f, 0.08002f, -0.04485f, 0.00689f, 0.00840f, -0.05169f, -0.06701f, -0.04562f, 
	0.07568f, -0.11349f, -0.05955f, -0.04019f, 0.07393f, -0.06226f, -0.08320f, 0.09546f, 
	0.08941f, -0.07213f, 0.03615f, 0.05179f, -0.05176f, -0.01409f, -0.03606f, -0.04307f, 
	-0.03259f, -0.02445f, 0.00830f, 0.10242f, -0.01948f, 0.06077f, 0.05592f, -0.02651f, 
	-0.05379f, -0.04722f, 0.06975f, -0.05525f, 0.03287f, -0.01978f, -0.07301f, 0.04741f, 
	0.02785f, -0.02870f, -0.05583f, 0.08715f, -0.02279f, 0.01065f, -0.05410f, -0.00764f, 
	-0.07484f, 0.04113f, -0.03247f, 0.03661f, -0.03790f, -0.08730f, 0.03005f, 0.04037f, 
	0.01788f, -0.06659f, -0.00235f, -0.01002f, 0.07196f, 0.07420f, 0.06075f, -0.01760f, 
	-0.02918f, 0.06989f, 0.01855f, 0.01493f, 0.06378f, -0.03047f, -0.02258f, 0.04435f, 
	0.09858f, -0.00851f, 0.08569f, -0.04848f, 0.05485f, 0.07710f, 0.05896f, -0.08004f, 
	-0.05191f, 0.06038f, -0.02210f, 0.04841f, 0.10405f, 0.07922f, 0.06495f, -0.02507f, 
	0.10955f, 0.03723f, 0.10366f, -0.04395f, 0.00832f, -0.03448f, -0.04323f, 0.00493f, 
	0.09218f, -0.01081f, -0.07635f, 0.01681f, 0.00060f, -0.02539f, -0.01288f, -0.08016f, 
	-0.05631f, -0.06021f, 0.07266f, -0.03395f, 0.05244f, 0.04618f, 0.05321f, 0.04185f, 
	0.05066f, 0.03488f, 0.05394f, -0.05621f, -0.04644f, 0.07310f, 0.09222f, -0.01618f, 
	0.04943f, -0.06814f, 0.00266f, 0.01087f, 0.00331f, 0.01988f, -0.02986f, -0.08551f, 
	-0.00185f, -0.04929f, -0.05947f, 0.09499f, -0.11192f, 0.03891f, 0.06063f, -0.07995f, 
	0.07527f, 0.01979f, 0.08652f, 0.05406f, 0.05106f, -0.00598f, -0.06425f, 0.00261f, 
	0.05373f, -0.09309f, -0.05292f, -0.04002f, -0.12609f, -0.02657f, 0.07340f, -0.08379f, 
	-0.08523f, -0.05457f, -0.09425f, 0.05404f, -0.02026f, 0.07976f, 0.00657f, -0.06190f, 
	-0.02953f, 0.03830f, 0.02355f, 0.06274f, -0.10979f, 0.00791f, -0.06261f, -0.04322f, 
	-0.09600f, -0.09582f, -0.07490f, 0.00430f, 0.08185f, -0.05155f, 0.00252f, -0.08766f, 
	0.05346f, 0.05587f, 0.09053f, -0.07282f, -0.12025f, -0.06471f, 0.03723f, -0.00794f, 
	0.02403f, -0.15231f, 0.04307f, -0.07609f, -0.08199f, -0.13752f, -0.07322f, -0.04087f, 
	-0.03622f, -0.09690f, 0.03299f, 0.04823f, -0.17912f, 0.04288f, -0.06735f, -0.06034f, 
	0.08229f, -0.01688f, 0.08526f, -0.10433f, -0.00125f, -0.00887f, 0.09037f, -0.07092f, 
	0.09380f, -0.08799f, 0.10779f, -0.01962f, -0.07537f, -0.02102f, 0.02410f, -0.00814f, 
	0.04149f, -0.09351f, -0.03192f, -0.08329f, -0.10587f, 0.01773f, -0.07789f, -0.08482f, 
	0.01892f, 0.04250f, -0.07480f, 0.01881f, 0.04696f, -0.00931f, -0.10175f, 0.07674f, 
	-0.05543f, -0.07168f, 0.01608f, -0.08696f, -0.07300f, -0.04047f, -0.11198f, 0.02721f, 
	0.08100f, 0.04711f, 0.10160f, -0.04873f, 0.08495f, -0.03052f, -0.09887f, 0.04213f, 
	-0.05638f, -0.06196f, 0.08233f, -0.07297f, 0.04208f, 0.05887f, -0.02684f, -0.01046f, 
	-0.04035f, 0.00303f, 0.08617f, -0.00076f, 0.08704f, -0.05148f, 0.04149f, 0.03049f, 
	-0.02292f, -0.08924f, -0.02232f, 0.06650f, -0.02789f, -0.06287f, -0.05952f, 0.01396f, 
	0.11157f, -0.01602f, 0.06103f, -0.03428f, -0.00625f, -0.09795f, -0.01868f, -0.04725f, 
	0.06448f, -0.08230f, -0.02023f, -0.06224f, -0.08230f, 0.03943f, -0.04950f, 0.06926f, 
	0.04887f, 0.00318f, 0.02365f, 0.07309f, 0.10967f, 0.07953f, -0.07453f, 0.06517f, 
	0.05394f, -0.09873f, -0.03564f, -0.02203f, -0.04187f, 0.10107f, 0.00261f, 0.04670f, 
	0.06818f, -0.02345f, 0.02520f, 0.06830f, -0.00321f, 0.03463f, -0.00479f, -0.02627f, 
	-0.00824f, -0.07290f, 0.01979f, 0.09420f, -0.01078f, 0.02994f, 0.00140f, 0.08268f, 
	0.06934f, 0.00807f, -0.00660f, 0.06300f, 0.06072f, -0.07268f, 0.04381f, 0.03130f, 
	0.07794f, 0.00244f, -0.06822f, 0.07712f, -0.04314f, 0.06751f, -0.02789f, 0.08005f, 
	0.00455f, -0.00903f, -0.04589f, 0.01672f, 0.06723f, 0.04758f, -0.07746f, 0.09029f, 
	0.09881f, -0.00181f, -0.04983f, -0.00657f, 0.01578f, -0.03986f, -0.03546f, 0.04537f, 
	0.00713f, 0.02994f, 0.06380f, -0.03784f, -0.07725f, 0.08764f, 0.02599f, -0.01409f, 
	-0.03547f, 0.03577f, -0.05592f, -0.01607f, -0.05038f, -0.06176f, 0.04215f, -0.01510f, 
	-0.03774f, 0.07459f, 0.07184f, -0.04128f, -0.01870f, -0.01054f, -0.02902f, -0.07594f, 
	0.04618f, 0.04319f, -0.07706f, -0.04071f, -0.02818f, -0.00733f, -0.04541f, 0.02508f, 
	0.03123f, 0.08768f, 0.02069f, -0.06531f, 0.04669f, 0.05822f, -0.00324f, 0.05377f, 
	0.00604f, 0.12427f, 0.10083f, 0.04212f, -0.04522f, -0.02887f, -0.07931f, 0.00990f, 
	-0.00533f, -0.00445f, 0.00920f, 0.05266f, 0.02900f, -0.05859f, -0.08194f, 0.06571f, 
	-0.02908f, 0.09727f, -0.01682f, -0.07316f, -0.04790f, -0.03246f, -0.04806f, -0.00619f, 
	-0.04452f, -0.01779f, 0.03742f, -0.00825f, -0.06089f, -0.06288f, -0.00818f, -0.06983f, 
	-0.02922f, -0.06835f, 0.06938f, 0.03187f, -0.02645f, -0.00084f, -0.04404f, -0.09337f, 
	0.05383f, 0.05878f, -0.05152f, 0.00746f, -0.06357f, -0.00093f, 0.00279f, 0.02420f, 
	0.09676f, -0.02919f, 0.01865f, 0.01077f, 0.05189f, -0.00861f, -0.04981f, -0.00299f, 
	-0.05459f, 0.06047f, -0.10137f, -0.00200f, 0.07767f, 0.10077f, 0.02491f, -0.04127f, 
	-0.03525f, 0.09590f, -0.02195f, -0.03035f, 0.07887f, 0.05219f, 0.05438f, 0.08391f, 
	-0.04777f, 0.00367f, 0.06443f, -0.01564f, -0.02883f, 0.03180f, 0.08732f, -0.08549f, 
	-0.01392f, 0.00065f, 0.01421f, 0.03135f, 0.04514f, -0.05486f, 0.09969f, -0.04609f, 
	0.07864f, 0.01254f, -0.05674f, -0.07834f, 0.08762f, 0.07673f, 0.03573f, -0.03495f, 
	0.08152f, -0.05291f, -0.13602f, -0.08932f, 0.07264f, 0.09070f, 0.08283f, 0.02603f, 
	0.08580f, 0.01196f, -0.11787f, 0.01935f, 0.00614f, 0.09470f, -0.03396f, -0.00042f, 
	-0.01426f, 0.09991f, -0.10565f, -0.07125f, 0.07368f, 0.08628f, 0.08201f, -0.05441f, 
	0.05503f, 0.01368f, -0.00125f, 0.05910f, 0.02310f, 0.07344f, 0.05426f, -0.00553f, 
	0.01442f, -0.06259f, -0.03191f, 0.01094f, 0.04776f, -0.01359f, 0.01847f, 0.00146f, 
	0.07777f, -0.04756f, -0.08747f, -0.05633f, -0.01542f, 0.00224f, -0.04114f, -0.00761f, 
	0.03638f, -0.03780f, -0.05324f, -0.11038f, -0.02081f, 0.06680f, 0.02087f, 0.03543f, 
	0.01105f, 0.08481f, -0.10288f, 0.08187f, -0.00217f, -0.02851f, -0.07945f, -0.07547f, 
	0.10795f, -0.02470f, -0.07943f, -0.05941f, 0.04948f, 0.04933f, -0.00311f, 0.06904f, 
	0.09187f, 0.05646f, -0.15164f, -0.03038f, -0.07133f, -0.05039f, -0.08426f, -0.05370f, 
	-0.02453f, 0.02442f, -0.02705f, -0.09694f, -0.03343f, 0.07401f, -0.03525f, -0.00885f, 
	-0.01103f, 0.00130f, -0.18411f, -0.07259f, -0.06525f, 0.06689f, -0.01262f, -0.01547f, 
	0.04728f, 0.07826f, -0.04134f, -0.02591f, 0.01991f, 0.00222f, -0.03068f, -0.03582f, 
	0.07423f, -0.04818f, -0.06900f, 0.04894f, -0.01055f, 0.00953f, -0.00462f, -0.11428f, 
	-0.04154f, 0.11285f, 0.02416f, -0.15379f, -0.11245f, 0.02161f, -0.08784f, -0.01765f, 
	-0.00468f, 0.00367f, -0.11368f, -0.06163f, -0.07359f, 0.06011f, -0.02216f, -0.02458f, 
	0.09084f, 0.03048f, -0.06737f, -0.09652f, -0.10226f, 0.01958f, 0.04243f, -0.00858f, 
	0.04156f, -0.08103f, -0.17688f, 0.02180f, -0.08515f, -0.03983f, -0.05608f, -0.02065f, 
	-0.08052f, 0.03423f, -0.03499f, -0.08526f, 0.04745f, 0.02306f, -0.06733f, -0.00306f, 
	-0.04926f, -0.03221f, 0.05311f, 0.11553f, 0.08074f, -0.03606f, -0.08199f, 0.11245f, 
	0.00825f, 0.11526f, 0.00840f, 0.04687f, -0.01692f, -0.00019f, 0.12480f, 0.06563f, 
	0.10869f, 0.06888f, -0.00438f, -0.03228f, 0.08054f, -0.02179f, 0.11420f, 0.02880f, 
	-0.05345f, -0.00942f, 0.04735f, -0.15078f, -0.04813f, 0.04239f, -0.04918f, 0.03491f, 
	0.00011f, -0.06530f, -0.08588f, -0.00305f, -0.02561f, -0.03370f, -0.06725f, 0.04227f, 
	-0.08176f, 0.00465f, -0.02355f, -0.08766f, 0.01005f, 0.03149f, 0.00772f, -0.00302f, 
	-0.03095f, 0.05805f, -0.10649f, 0.10334f, -0.05867f, -0.06929f, 0.02735f, -0.03807f, 
	0.04517f, 0.11579f, -0.02112f, 0.01216f, -0.06728f, 0.07161f, 0.03206f, 0.05526f, 
	0.00787f, -0.00934f, -0.06365f, 0.05353f, 0.08412f, -0.06703f, 0.06505f, 0.06891f, 
	-0.06539f, 0.09149f, 0.06566f, -0.07872f, -0.01946f, -0.00132f, 0.07646f, 0.06506f, 
	0.09561f, -0.01767f, -0.09048f, 0.02060f, 0.00009f, 0.00416f, 0.01600f, -0.03341f, 
	-0.02197f, 0.09423f, -0.09887f, -0.08338f, 0.06362f, 0.09412f, 0.10476f, -0.06086f, 
	-0.12128f, -0.03339f, -0.10679f, -0.03464f, -0.06748f, 0.05612f, 0.05804f, -0.01887f, 
	0.06795f, 0.03655f, -0.09438f, -0.03084f, -0.00349f, 0.03154f, 0.03899f, 0.05338f, 
	0.00010f, -0.02434f, -0.10432f, 0.05285f, -0.00906f, -0.09445f, -0.01719f, 0.00275f, 
	-0.05388f, -0.05996f, -0.08162f, -0.12662f, -0.00310f, -0.05482f, 0.00037f, -0.06116f, 
	0.06734f, -0.08145f, -0.06739f, -0.07182f, 0.01208f, -0.04615f, -0.09987f, -0.00196f, 
	-0.05866f, 0.09974f, -0.07742f, 0.05248f, 0.05860f, -0.03738f, -0.04315f, -0.09249f, 
	0.02877f, -0.00968f, -0.02264f, -0.03102f, -0.04145f, -0.01362f, 0.00651f, 0.08059f, 
	-0.10106f, 0.06858f, 0.00022f, 0.07561f, -0.01039f, -0.02654f, 0.08439f, -0.10683f, 
	0.01279f, -0.02952f, 0.03258f, -0.05871f, -0.03076f, -0.04057f, -0.10066f, 0.06064f, 
	-0.08382f, -0.02767f, 0.01298f, 0.08566f, 0.08308f, 0.12019f, 0.03719f, 0.03731f, 
	-0.03365f, 0.01750f, -0.04250f, -0.03172f, 0.00589f, -0.03895f, -0.06401f, 0.08843f, 
	-0.02011f, -0.00949f, -0.00190f, 0.04175f, -0.05202f, 0.08530f, 0.05715f, -0.00349f, 
	0.01035f, 0.02825f, -0.00769f, 0.06657f, 0.07835f, -0.03861f, -0.05577f, 0.10014f, 
	-0.13412f, 0.12830f, -0.02665f, 0.04846f, 0.00973f, 0.06164f, 0.10107f, -0.06781f, 
	-0.07616f, 0.07373f, 0.06983f, -0.04442f, 0.09705f, -0.05527f, -0.00332f, -0.00733f, 
	0.01502f, 0.10748f, -0.05125f, -0.06585f, -0.07908f, 0.08275f, -0.01248f, -0.09298f, 
	-0.04534f, 0.06923f, -0.03420f, -0.00608f, 0.01084f, 0.07387f, -0.03516f, -0.01034f, 
	-0.10708f, 0.05695f, -0.04400f, -0.07074f, 0.00695f, -0.00963f, -0.00610f, 0.02692f, 
	-0.09153f, 0.10652f, 0.00429f, 0.05968f, -0.00968f, 0.02148f, 0.04398f, 0.05592f, 
	-0.04442f, 0.02420f, 0.05920f, -0.02640f, -0.01318f, 0.01632f, -0.00270f, 0.02356f, 
	-0.06388f, 0.00651f, -0.03795f, -0.05064f, 0.01943f, -0.04224f, -0.08268f, 0.00343f, 
	-0.01656f, 0.01259f, 0.11531f, -0.02596f, 0.03908f, 0.03845f, 0.03693f, -0.02507f, 
	0.04139f, -0.03261f, -0.02181f, -0.02965f, 0.05358f, 0.01405f, -0.02868f, -0.02148f, 
	0.06946f, 0.06327f, 0.07049f, 0.03114f, -0.00248f, 0.03570f, -0.02304f, 0.06560f, 
	0.06612f, 0.06446f, 0.04954f, -0.00981f, -0.03870f, -0.00755f, 0.04512f, 0.05021f, 
	-0.05456f, 0.07912f, 0.13812f, -0.01691f, 0.01393f, 0.07688f, -0.00178f, -0.00226f, 
	0.04961f, -0.08422f, 0.07230f, 0.01954f, -0.03834f, 0.06374f, 0.03477f, -0.01767f, 
	0.04161f, -0.00784f, 0.08060f, -0.03659f, -0.08365f, -0.08255f, -0.04580f, -0.09356f, 
	0.00076f, -0.03609f, 0.06615f, 0.00582f, -0.01005f, -0.00042f, -0.09521f, 0.09021f, 
	-0.03823f, 0.06957f, 0.12195f, 0.04219f, -0.04521f, -0.01374f, -0.09381f, -0.01546f, 
	0.08848f, -0.05879f, 0.03382f, 0.01037f, -0.05094f, -0.09086f, 0.02619f, 0.03416f, 
	0.03302f, 0.09914f, 0.08904f, -0.04859f, -0.04127f, -0.01592f, -0.07877f, 0.05413f, 
	-0.01045f, -0.06256f, 0.03040f, -0.07169f, 0.01590f, 0.06679f, -0.00741f, 0.03768f, 
	-0.04654f, -0.01161f, 0.00320f, 0.09817f, -0.08516f, 0.02410f, 0.02481f, -0.09667f, 
	0.09096f, 0.00037f, 0.06443f, 0.06648f, -0.00609f, -0.03490f, -0.08223f, 0.05828f, 
	-0.01165f, -0.05129f, 0.09263f, -0.06336f, -0.00893f, 0.01885f, 0.00411f, 0.06437f, 
	0.07305f, -0.00495f, -0.00780f, 0.08744f, -0.03049f, 0.04559f, -0.04123f, -0.05253f, 
	0.00864f, 0.06422f, 0.12144f, 0.08316f, -0.04453f, -0.10216f, -0.07021f, 0.01716f, 
	0.08740f, -0.01908f, 0.04249f, -0.06391f, -0.02704f, 0.04084f, 0.07449f, 0.06182f, 
	0.01109f, -0.01276f, 0.11698f, -0.01988f, -0.03974f, -0.01456f, 0.02263f, -0.03279f, 
	-0.01747f, 0.01827f, 0.04798f, -0.05160f, 0.02297f, 0.02963f, -0.07525f, 0.04928f, 
	-0.04564f, -0.04358f, -0.06083f, -0.08372f, 0.02170f, -0.03386f, 0.05077f, -0.05607f, 
	-0.10455f, -0.07751f, 0.03387f, 0.03094f, 0.06248f, 0.00411f, 0.05612f, -0.01658f, 
	0.01350f, 0.07614f, 0.06569f, -0.06470f, 0.06362f, 0.06396f, -0.02847f, 0.04703f, 
	-0.08677f, -0.04305f, 0.01083f, 0.01118f, -0.05972f, 0.02909f, 0.07561f, -0.03172f, 
	-0.06996f, 0.04145f, -0.03875f, -0.02569f, -0.03126f, 0.05894f, -0.01848f, 0.01423f, 
	-0.02843f, -0.05041f, 0.10621f, -0.02883f, -0.05305f, 0.01503f, -0.02192f, -0.00053f, 
	-0.00337f, 0.05051f, -0.04284f, 0.04460f, 0.01615f, 0.07334f, -0.06197f, 0.00895f, 
	-0.04122f, -0.04824f, -0.04179f, 0.01507f, -0.07335f, -0.03691f, 0.07867f, 0.06781f, 
	-0.06969f, 0.04066f, 0.01311f, -0.01066f, 0.01154f, 0.08182f, 0.07270f, 0.08452f, 
	0.01066f, -0.02902f, -0.05579f, 0.04171f, -0.05406f, 0.04718f, -0.06234f, 0.00237f, 
	-0.05763f, -0.00994f, 0.01611f, 0.04724f, -0.05182f, -0.01968f, 0.06198f, 0.06201f, 
	-0.00053f, -0.09560f, 0.00707f, 0.08261f, -0.07014f, 0.03415f, 0.00068f, -0.00296f, 
	0.03810f, 0.06409f, -0.02749f, -0.08929f, 0.07614f, 0.09094f, -0.05468f, 0.07539f, 
	0.04038f, 0.07164f, 0.11860f, 0.07114f, 0.00800f, 0.00342f, -0.07457f, 0.05278f, 
	0.00109f, 0.00802f, 0.03875f, -0.01775f, 0.07243f, 0.00467f, 0.06202f, -0.03268f, 
	-0.03193f, 0.06781f, 0.06637f, -0.00841f, -0.02687f, 0.01469f, -0.00831f, -0.01019f, 
	-0.09208f, 0.07056f, 0.04097f, 0.00491f, -0.06544f, -0.05545f, -0.04523f, 0.04756f, 
	0.04585f, -0.04090f, 0.06464f, -0.01827f, -0.03859f, -0.08593f, -0.01568f, -0.04228f, 
	-0.06704f, 0.08491f, -0.03579f, 0.11260f, 0.04237f, -0.06539f, 0.01706f, -0.02321f, 
	-0.08476f, 0.08619f, -0.04445f, -0.05895f, -0.00378f, 0.07205f, -0.01653f, 0.04992f, 
	-0.02509f, -0.04285f, -0.02328f, -0.01710f, 0.06037f, 0.06347f, 0.03747f, -0.01788f, 
	-0.05836f, 0.11621f, 0.02986f, 0.04554f, 0.06587f, -0.03679f, -0.00628f, 0.06194f, 
	0.03398f, 0.03350f, -0.02174f, 0.04942f, -0.03295f, 0.06826f, -0.05942f, -0.01125f, 
	0.05258f, 0.04038f, 0.05552f, -0.00427f, 0.14278f, 0.08921f, 0.05320f, 0.11592f, 
	-0.05598f, 0.08991f, -0.07412f, -0.03536f, 0.00161f, 0.06146f, -0.05802f, -0.03550f, 
	-0.05539f, 0.08846f, -0.16786f, -0.01372f, 0.04377f, 0.07786f, -0.07324f, 0.03870f, 
	-0.09541f, -0.06022f, -0.09171f, 0.00068f, -0.08407f, -0.01389f, 0.08899f, -0.05694f, 
	0.09232f, 0.11205f, -0.11409f, -0.02304f, 0.05693f, -0.06830f, 0.04447f, -0.07233f, 
	-0.06010f, -0.05415f, -0.02767f, -0.04137f, 0.06319f, 0.12616f, -0.06546f, 0.02068f, 
	0.06912f, 0.07817f, -0.06770f, -0.00778f, 0.07902f, 0.03729f, -0.05661f, -0.03058f, 
	-0.09667f, 0.04751f, -0.12852f, -0.05439f, 0.08096f, -0.05292f, -0.00801f, 0.07820f, 
	0.01767f, -0.05332f, -0.17019f, -0.06629f, -0.04170f, 0.01212f, -0.08657f, 0.05789f, 
	-0.05699f, 0.00925f, -0.10394f, -0.02408f, -0.04936f, 0.04178f, -0.10669f, 0.09113f, 
	-0.06864f, -0.08505f, -0.01684f, 0.05206f, 0.09572f, 0.04147f, -0.02832f, -0.03286f, 
	-0.09472f, 0.03721f, -0.06754f, -0.00052f, -0.03844f, 0.03117f, -0.02558f, 0.04672f, 
	0.07086f, 0.00803f, -0.10470f, -0.06145f, 0.08731f, -0.04368f, 0.05949f, 0.06629f, 
	-0.01893f, -0.02173f, -0.09859f, 0.03570f, 0.03437f, -0.11981f, 0.04363f, -0.03956f, 
	-0.07604f, 0.04164f, 0.05742f, 0.04795f, 0.02605f, -0.04181f, 0.01971f, 0.06472f, 
	0.01265f, 0.00197f, 0.06535f, -0.06952f, 0.03421f, -0.13811f, -0.09061f, -0.04378f, 
	0.02241f, 0.02783f, 0.02090f, -0.09309f, 0.05994f, -0.05864f, -0.04876f, 0.03006f, 
	0.06225f, 0.04405f, -0.10340f, -0.06560f, 0.03787f, -0.17455f, 0.00489f, 0.04015f, 
	-0.06181f, -0.01539f, -0.05543f, 0.07334f, 0.06142f, 0.03327f, -0.03903f, -0.05791f, 
	-0.00202f, -0.07755f, 0.02287f, -0.01600f, 0.04526f, -0.00793f, 0.07155f, -0.04871f, 
	0.03053f, 0.00430f, -0.01760f, 0.03506f, -0.07014f, -0.07524f, 0.05435f, -0.07213f, 
	-0.09204f, -0.09292f, 0.03932f, -0.02432f, -0.03064f, 0.02190f, -0.04786f, 0.01364f, 
	0.06220f, -0.02342f, -0.05264f, -0.05950f, 0.03722f, 0.05123f, -0.07386f, 0.03306f, 
	0.05284f, 0.02582f, 0.02975f, 0.05670f, 0.06673f, -0.04547f, 0.01027f, -0.03249f, 
	-0.02901f, -0.08707f, -0.00625f, 0.08667f, 0.10606f, -0.05138f, -0.01335f, 0.02410f, 
	0.04981f, 0.02072f, 0.02647f, -0.02064f, 0.02389f, 0.04267f, 0.06773f, 0.00416f, 
	-0.02187f, -0.06048f, 0.05893f, -0.01743f, -0.07147f, 0.04097f, -0.04498f, 0.09294f, 
	0.03220f, -0.03136f, -0.02577f, -0.10043f, 0.06007f, -0.00864f, 0.07476f, 0.01421f, 
	0.03189f, -0.03369f, 0.05465f, 0.07110f, 0.06162f, -0.02169f, 0.01309f, 0.05237f, 
	0.00926f, 0.05746f, 0.04757f, -0.01002f, 0.06722f, -0.01746f, -0.02870f, 0.00986f, 
	-0.00919f, -0.07808f, -0.02340f, 0.09345f, 0.10531f, -0.01085f, 0.04405f, -0.05032f, 
	0.00620f, -0.06474f, -0.03432f, 0.00171f, -0.05929f, -0.00526f, 0.06224f, 0.08198f, 
	-0.06667f, 0.09013f, -0.00636f, -0.09476f, 0.04069f, -0.03924f, 0.07831f, 0.06740f, 
	-0.06691f, -0.12835f, -0.01198f, 0.02535f, -0.05287f, 0.09850f, 0.05618f, 0.01976f, 
	0.06482f, -0.06068f, 0.08581f, -0.05909f, 0.09484f, -0.03646f, -0.04975f, 0.08065f, 
	-0.05755f, 0.00213f, 0.07480f, 0.06707f, -0.00488f, 0.02661f, -0.06110f, 0.02907f, 
	-0.06273f, 0.03571f, 0.03802f, -0.05793f, -0.02240f, -0.05733f, 0.09908f, 0.10900f, 
	0.02011f, 0.00623f, 0.02476f, 0.06783f, 0.02935f, 0.06329f, -0.03747f, 0.06723f, 
	-0.05514f, -0.07154f, -0.01703f, -0.03346f, 0.04569f, -0.02660f, -0.07108f, 0.01543f, 
	-0.06438f, 0.02711f, -0.04462f, 0.00912f, 0.02439f, -0.03509f, -0.07040f, 0.06490f, 
	-0.07576f, 0.10123f, 0.04486f, -0.00422f, 0.06642f, 0.02593f, -0.06165f, 0.08347f, 
	-0.01856f, 0.03028f, 0.06051f, 0.02510f, -0.04633f, 0.04617f, 0.06544f, -0.06599f, 
	-0.12081f, 0.10655f, 0.00243f, 0.01549f, 0.09916f, -0.05160f, 0.02326f, 0.08596f, 
	-0.01207f, 0.04189f, -0.05943f, -0.00138f, -0.00644f, 0.04324f, -0.08407f, 0.02976f, 
	0.05442f, 0.09123f, 0.08075f, 0.00309f, 0.04858f, -0.02417f, 0.03955f, 0.05192f, 
	-0.00666f, 0.01460f, -0.05967f, -0.04558f, 0.06612f, 0.12399f, -0.03427f, -0.03375f, 
	-0.10357f, 0.01897f, 0.06288f, 0.03518f, -0.04942f, 0.04995f, 0.02347f, -0.03832f, 
	-0.03317f, 0.05893f, 0.01536f, 0.07571f, 0.03058f, 0.07668f, 0.00357f, -0.00052f, 
	-0.10000f, -0.00395f, 0.02152f, 0.06690f, -0.04360f, 0.05959f, -0.01133f, 0.03843f, 
	0.04558f, -0.05228f, -0.02336f, -0.02524f, -0.01832f, -0.07329f, -0.10717f, 0.01750f, 
	-0.00257f, -0.09762f, 0.06744f, -0.05234f, -0.03519f, 0.05031f, -0.08677f, 0.07215f, 
	0.06932f, 0.12771f, -0.05370f, -0.05206f, 0.02635f, 0.06306f, 0.00626f, 0.08730f, 
	0.01257f, -0.05785f, 0.06724f, -0.01373f, 0.07475f, 0.03904f, -0.00815f, 0.02540f, 
	0.04398f, 0.00866f, 0.00043f, -0.09435f, 0.00762f, -0.06744f, -0.11193f, 0.03934f, 
	-0.05153f, -0.08289f, -0.01796f, -0.00203f, 0.07666f, 0.01747f, -0.09445f, 0.03959f, 
	-0.00644f, 0.04483f, -0.04493f, 0.07576f, 0.11603f, 0.02264f, -0.04680f, -0.02562f, 
	0.06198f, -0.03932f, 0.14753f, 0.01272f, 0.08102f, -0.05669f, -0.05350f, -0.04404f, 
	-0.00174f, 0.01369f, -0.02835f, -0.04084f, 0.00635f, -0.06727f, -0.05946f, 0.14578f, 
	-0.01457f, -0.03886f, 0.03710f, 0.08276f, -0.00458f, -0.07461f, -0.02819f, 0.01677f, 
	-0.05866f, 0.09161f, -0.11953f, -0.12090f, -0.06811f, 0.03279f, -0.03261f, 0.07352f, 
	0.02582f, -0.04491f, -0.03076f, -0.03352f, 0.05127f, 0.01449f, -0.06053f, -0.05710f, 
	-0.03344f, -0.07152f, -0.02090f, 0.05500f, 0.12428f, -0.05540f, 0.05957f, 0.08927f, 
	-0.00327f, 0.06659f, 0.13399f, -0.03960f, 0.08538f, 0.00603f, 0.05014f, 0.07761f, 
	0.05447f, 0.00585f, -0.02167f, 0.04666f, 0.06329f, 0.08559f, 0.03350f, 0.07342f, 
	0.06678f, -0.01148f, 0.05240f, 0.02317f, 0.08859f, 0.04972f, -0.00408f, 0.04553f, 
	-0.00930f, -0.02704f, -0.10092f, -0.01779f, -0.03310f, -0.04311f, 0.00822f, 0.05719f, 
	0.03679f, 0.09062f, -0.01953f, -0.03284f, 0.06409f, -0.07684f, 0.03576f, -0.08079f, 
	0.09416f, -0.06967f, 0.06973f, 0.03443f, -0.06910f, -0.03244f, 0.02752f, -0.01314f, 
	0.12144f, 0.08388f, 0.05286f, 0.01566f, -0.03970f, 0.00795f, -0.01814f, 0.03366f, 
	0.10808f, 0.02057f, 0.12379f, -0.06345f, 0.04082f, -0.04989f, -0.08473f, 0.00088f, 
	-0.01929f, 0.07949f, 0.00091f, 0.02899f, -0.04011f, -0.10380f, -0.12240f, -0.09616f, 
	0.07717f, 0.02153f, 0.06313f, 0.02810f, -0.04798f, -0.04885f, 0.05477f, 0.01491f, 
	0.07382f, -0.06943f, 0.07398f, -0.07872f, 0.02294f, -0.08072f, -0.06622f, 0.01465f, 
	-0.10883f, -0.04236f, -0.04375f, -0.02133f, 0.02648f, 0.00391f, -0.03224f, -0.04815f, 
	-0.02906f, -0.02010f, 0.02844f, 0.07125f, 0.02159f, 0.05281f, 0.08345f, 0.07699f, 
	-0.09161f, -0.02716f, 0.02993f, 0.04689f, 0.09781f, 0.00758f, 0.03020f, -0.06592f, 
	0.01326f, -0.09051f, 0.02859f, 0.03963f, 0.04137f, 0.05236f, 0.02896f, 0.07787f, 
	-0.12761f, -0.08589f, -0.01624f, 0.01171f, 0.01113f, -0.02151f, -0.02997f, -0.04719f, 
	-0.11327f, -0.01014f, 0.00610f, -0.00686f, 0.06437f, 0.06085f, 0.01446f, 0.08573f, 
	-0.07214f, -0.07830f, -0.13857f, -0.03982f, 0.01122f, -0.01537f, -0.01246f, -0.00019f, 
	-0.04481f, 0.01682f, 0.03059f, 0.00749f, -0.02595f, -0.00351f, 0.05518f, 0.03489f, 
	-0.05823f, 0.05804f, -0.08572f, 0.00231f, -0.08823f, 0.03858f, -0.05221f, 0.09541f, 
	-0.01941f, -0.06306f, 0.08129f, 0.02199f, -0.03168f, 0.02220f, -0.02743f, -0.07662f, 
	0.05219f, -0.03194f, -0.08393f, -0.01161f, -0.02540f, 0.03690f, 0.03397f, -0.03670f, 
	-0.07052f, 0.06123f, -0.03086f, -0.00231f, 0.07903f, 0.02998f, -0.03430f, -0.03203f, 
	-0.01434f, 0.07137f, 0.09645f, 0.01581f, -0.05257f, -0.00271f, 0.02281f, -0.01389f, 
	0.10945f, -0.02736f, 0.07078f, 0.05867f, 0.01315f, 0.04531f, -0.07377f, -0.00419f, 
	-0.07380f, 0.06492f, 0.02965f, 0.01480f, -0.01841f, 0.00066f, 0.04225f, -0.04975f, 
	-0.02496f, -0.05793f, 0.00205f, -0.06750f, -0.02028f, -0.01880f, 0.07887f, -0.04060f, 
	0.02191f, -0.05829f, -0.00227f, 0.01178f, -0.05099f, 0.00955f, 0.08833f, 0.06385f, 
	-0.03164f, -0.06016f, 0.05163f, -0.04373f, 0.01244f, -0.06701f, 0.10671f, -0.09525f, 
	0.09408f, 0.08347f, 0.01090f, 0.04342f, 0.06213f, 0.06724f, -0.04025f, -0.03283f, 
	-0.04534f, 0.07266f, -0.03918f, 0.03920f, -0.04428f, 0.03542f, -0.04896f, 0.08004f, 
	0.03422f, -0.01703f, -0.04055f, -0.00954f, 0.06968f, 0.06407f, 0.00185f, 0.09272f, 
	-0.09927f, 0.03184f, 0.00499f, 0.05837f, -0.01240f, -0.00297f, -0.03296f, 0.02664f, 
	-0.05114f, 0.07967f, -0.06903f, 0.04125f, -0.05883f, 0.04037f, 0.05520f, -0.02857f, 
	-0.11335f, 0.01636f, 0.06178f, -0.05809f, -0.15493f, -0.05083f, 0.00908f, -0.11055f, 
	0.10206f, 0.05157f, 0.08659f, 0.02482f, -0.03812f, -0.00305f, -0.07095f, 0.04699f, 
	0.06439f, -0.05201f, 0.05903f, -0.00090f, 0.08030f, -0.06186f, -0.03527f, 0.03064f, 
	0.01712f, 0.08192f, 0.08269f, -0.07234f, 0.05035f, -0.06417f, 0.06509f, 0.05967f, 
	-0.12949f, 0.06683f, -0.05502f, -0.04151f, 0.00673f, -0.05684f, 0.05441f, 0.00082f, 
	0.08158f, -0.04058f, -0.06617f, 0.06196f, 0.01948f, 0.07322f, 0.05935f, -0.03106f, 
	-0.00309f, 0.07438f, -0.00708f, -0.06485f, -0.07259f, 0.08209f, 0.02159f, -0.03419f, 
	0.00163f, 0.02562f, -0.03030f, 0.01808f, -0.04949f, -0.11735f, 0.00117f, 0.07785f, 
	-0.02039f, 0.05565f, 0.09356f, -0.04998f, -0.04173f, -0.01815f, -0.01575f, -0.03196f, 
	-0.00377f, 0.05245f, -0.03993f, -0.01708f, -0.03247f, -0.05130f, -0.01736f, 0.02647f, 
	-0.03032f, -0.00264f, -0.04891f, 0.09120f, 0.02943f, -0.00543f, -0.00859f, 0.04553f, 
	-0.05623f, 0.06249f, -0.02766f, 0.09108f, -0.05287f, 0.05815f, 0.06632f, -0.05288f, 
	-0.02347f, 0.08513f, 0.11805f, -0.03044f, -0.00689f, 0.07006f, 0.00026f, 0.00558f, 
	0.02916f, 0.10618f, 0.05116f, 0.03350f, -0.00660f, 0.00980f, -0.02790f, 0.03153f, 
	-0.05927f, -0.05711f, 0.12912f, 0.11038f, 0.00097f, -0.10241f, -0.06993f, -0.07316f, 
	0.00141f, 0.03142f, -0.00682f, -0.06288f, -0.06267f, -0.05580f, 0.02137f, -0.05135f, 
	0.08810f, 0.03259f, 0.04550f, -0.01483f, -0.06777f, -0.00485f, 0.03990f, 0.04638f, 
	0.00009f, 0.12895f, 0.14712f, 0.05265f, -0.07241f, 0.01266f, -0.03374f, 0.06563f, 
	0.06273f, -0.01482f, 0.08020f, -0.00134f, -0.05352f, -0.00288f, -0.00091f, -0.08133f, 
	-0.07476f, -0.01975f, 0.08034f, -0.01107f, 0.03843f, -0.18263f, -0.09228f, -0.01077f, 
	-0.12708f, -0.04463f, 0.10864f, 0.07267f, 0.00824f, -0.02352f, 0.05245f, 0.04925f, 
	-0.00864f, 0.10716f, 0.06878f, -0.04537f, -0.02576f, -0.15539f, -0.10209f, -0.03689f, 
	-0.08308f, 0.06349f, 0.13544f, 0.10931f, -0.06185f, -0.05031f, 0.01626f, 0.00431f, 
	0.00466f, -0.00932f, 0.12530f, -0.06225f, 0.06761f, -0.01797f, -0.01365f, 0.04120f, 
	0.02548f, 0.02385f, 0.11958f, 0.05125f, -0.05647f, 0.05231f, 0.07614f, 0.03079f, 
	-0.00228f, 0.12921f, 0.02157f, -0.06697f, -0.05349f, -0.00145f, -0.05381f, 0.08349f, 
	-0.04076f, 0.02853f, 0.11216f, 0.08913f, 0.01500f, 0.05877f, 0.01888f, -0.00861f, 
	0.05814f, 0.03515f, 0.14662f, 0.04204f, -0.04099f, -0.02711f, -0.04476f, 0.05606f, 
	0.01433f, -0.04543f, 0.10760f, 0.07832f, 0.01720f, 0.04362f, 0.03438f, 0.07422f, 
	0.04176f, -0.00482f, -0.00761f, 0.02180f, 0.04841f, 0.00796f, 0.07570f, 0.02743f, 
	0.07367f, -0.00411f, 0.01937f, -0.00386f, -0.03139f, 0.04197f, -0.07840f, -0.08534f, 
	0.01975f, 0.10355f, 0.05690f, 0.00013f, -0.07936f, -0.01958f, -0.04341f, 0.03659f, 
	0.05106f, 0.01051f, 0.07592f, -0.02024f, 0.04078f, -0.08993f, -0.03303f, 0.06320f, 
	0.03177f, 0.01940f, 0.08650f, 0.08444f, -0.06287f, -0.05356f, 0.04695f, -0.04578f, 
	-0.04449f, -0.03520f, 0.04646f, 0.02326f, -0.02861f, 0.04151f, 0.06148f, -0.03069f, 
	-0.03783f, -0.03480f, 0.06440f, -0.00474f, 0.00575f, -0.01662f, 0.02415f, -0.05900f, 
	-0.02899f, 0.00743f, 0.06512f, 0.00111f, -0.10564f, -0.00900f, 0.06973f, -0.04172f, 
	0.04799f, 0.07721f, 0.08627f, 0.04646f, -0.04064f, -0.01774f, -0.07732f, -0.05233f, 
	0.07036f, -0.06918f, -0.04068f, 0.00521f, -0.04153f, -0.01150f, -0.03124f, 0.02440f, 
	0.02409f, 0.01694f, -0.02580f, 0.01271f, -0.04939f, 0.09585f, 0.06290f, 0.09209f, 
	-0.05964f, 0.02600f, 0.08317f, -0.07016f, 0.04942f, 0.03231f, 0.06414f, -0.06500f, 
	-0.04978f, -0.00700f, -0.06129f, 0.01311f, -0.07957f, 0.07753f, -0.05937f, -0.07193f, 
	-0.04291f, -0.05729f, 0.05746f, 0.02137f, -0.03074f, 0.00192f, 0.03870f, -0.01229f, 
	0.03785f, -0.05880f, -0.04992f, 0.01265f, 0.03139f, 0.00274f, -0.08114f, 0.04503f, 
	0.02838f, 0.06567f, -0.02966f, -0.04653f, -0.03596f, 0.03318f, 0.07012f, 0.00214f, 
	0.07878f, 0.01879f, 0.10734f, 0.03160f, 0.01200f, 0.07122f, 0.08426f, 0.02082f, 
	0.06290f, -0.07763f, 0.10642f, -0.01403f, -0.06016f, -0.00370f, -0.06288f, -0.02588f, 
	-0.03949f, 0.08402f, -0.02384f, 0.12377f, -0.01757f, -0.06474f, 0.08157f, 0.04725f, 
	0.02676f, -0.01716f, 0.10112f, 0.01180f, -0.11592f, -0.01808f, 0.00329f, 0.00067f, 
	0.06149f, -0.07596f, 0.05457f, 0.01420f, 0.02354f, 0.02841f, -0.04437f, 0.08108f, 
	-0.03940f, 0.04538f, 0.12848f, -0.03811f, -0.05662f, 0.07415f, 0.05939f, -0.01966f, 
	0.06511f, 0.02129f, 0.17231f, 0.01409f, 0.02958f, 0.02836f, -0.00236f, 0.02571f, 
	0.07059f, -0.00507f, 0.04132f, -0.08846f, 0.02634f, 0.06338f, -0.06417f, 0.01105f, 
	-0.08478f, -0.00453f, 0.02029f, 0.02504f, -0.05773f, 0.06492f, 0.05397f, -0.00710f, 
	-0.01751f, -0.08701f, -0.00401f, 0.05842f, -0.04319f, -0.03293f, 0.04542f, 0.00243f, 
	0.10856f, 0.02568f, 0.13526f, -0.04032f, -0.08703f, 0.01113f, 0.03063f, -0.00875f, 
	-0.01533f, 0.08294f, 0.04000f, -0.07650f, 0.02766f, 0.06093f, 0.06853f, 0.05491f, 
	-0.05063f, -0.09457f, 0.01242f, 0.10514f, -0.01824f, -0.03108f, -0.04980f, 0.00308f, 
	0.03685f, -0.04638f, 0.01571f, -0.09967f, -0.02034f, -0.05431f, 0.07004f, 0.07295f, 
	0.02681f, 0.03874f, 0.04742f, 0.09201f, -0.03880f, 0.05227f, -0.05705f, -0.02620f, 
	-0.04744f, -0.01890f, 0.01195f, -0.06370f, -0.13693f, -0.06175f, 0.04871f, 0.03379f, 
	-0.01656f, -0.13079f, 0.07081f, 0.10221f, -0.05727f, 0.11068f, 0.06458f, 0.07505f, 
	0.03269f, -0.01793f, -0.00822f, -0.06502f, 0.10265f, 0.02709f, 0.05964f, -0.02453f, 
	0.05546f, 0.05842f, 0.07247f, -0.04795f, -0.00802f, 0.03978f, 0.02430f, -0.03124f, 
	-0.03181f, 0.01448f, -0.09546f, 0.07492f, 0.01149f, -0.08939f, -0.02446f, 0.03867f, 
	-0.02692f, 0.01754f, 0.03825f, -0.03691f, -0.06976f, 0.03859f, 0.08387f, 0.04340f, 
	0.03330f, -0.07235f, 0.13480f, 0.08496f, -0.05846f, 0.07033f, 0.07107f, 0.05365f, 
	-0.11337f, -0.02076f, 0.02038f, 0.02533f, -0.02240f, 0.04292f, -0.01786f, 0.02189f, 
	0.06492f, -0.05008f, 0.05235f, -0.01169f, -0.01269f, -0.01166f, -0.06790f, 0.02498f, 
	-0.00006f, 0.02009f, 0.15497f, 0.05980f, -0.00899f, 0.01981f, -0.08643f, 0.06454f, 
	0.11716f, -0.05548f, -0.02951f, 0.00375f, 0.01952f, -0.10172f, 0.05441f, 0.07110f, 
	-0.02178f, 0.08241f, -0.03495f, -0.05712f, 0.07675f, -0.10385f, -0.01086f, 0.02418f, 
	-0.07599f, -0.04686f, 0.13941f, -0.06578f, 0.04062f, 0.00002f, 0.03603f, -0.04591f, 
	-0.09931f, -0.14574f, -0.03624f, 0.11980f, 0.01068f, 0.07261f, 0.00624f, 0.02976f, 
	0.08592f, 0.09266f, 0.07436f, -0.04995f, -0.05536f, 0.08786f, -0.00123f, 0.07977f, 
	-0.06474f, 0.05865f, -0.00504f, -0.03084f, -0.06630f, -0.03785f, -0.08820f, 0.09447f, 
	-0.01152f, -0.00632f, -0.03236f, 0.06410f, 0.02123f, -0.05771f, -0.08784f, 0.02839f, 
	0.07661f, 0.03162f, -0.02222f, -0.00816f, 0.03731f, -0.03912f, 0.06915f, -0.06275f, 
	-0.04493f, 0.03247f, -0.00039f, 0.01149f, -0.01701f, -0.05686f, 0.01221f, -0.11260f, 
	0.05669f, 0.00117f, -0.02584f, 0.09612f, 0.07402f, 0.08994f, 0.01262f, 0.04182f, 
	0.11217f, -0.04183f, -0.02516f, -0.00635f, 0.11330f, 0.00888f, 0.00590f, 0.01390f, 
	0.06922f, 0.01233f, 0.07409f, 0.01809f, 0.02969f, 0.04383f, -0.03192f, -0.05058f, 
	-0.00614f, 0.02437f, 0.03550f, -0.02224f, 0.04505f, -0.04320f, -0.05210f, 0.00744f, 
	0.05231f, 0.01651f, -0.06998f, -0.15106f, -0.06111f, 0.04812f, -0.14761f, 0.04500f, 
	-0.00994f, -0.04395f, -0.07309f, -0.03579f, -0.06721f, -0.01944f, -0.06005f, -0.00382f, 
	0.03840f, 0.09832f, 0.08899f, 0.08261f, -0.01571f, 0.06368f, 0.07587f, -0.05721f, 
	0.09786f, -0.01271f, 0.04000f, -0.02661f, 0.10117f, -0.07836f, 0.05774f, -0.03058f, 
	0.10300f, 0.01292f, -0.01066f, 0.08182f, 0.09604f, 0.03359f, -0.05282f, -0.02946f, 
	-0.02136f, 0.05784f, -0.04419f, -0.06566f, 0.09445f, 0.00352f, 0.07026f, -0.07716f, 
	0.11501f, -0.15322f, 0.01429f, -0.16025f, 0.01153f, 0.03280f, -0.12963f, 0.08560f, 
	0.08856f, -0.11018f, 0.01338f, -0.04422f, -0.00273f, -0.06070f, -0.02920f, -0.13261f, 
	-0.02285f, -0.01537f, -0.01557f, 0.10775f, 0.07916f, 0.04916f, 0.03862f, -0.04436f, 
	0.04280f, 0.08299f, -0.04111f, 0.01303f, 0.09093f, -0.07028f, 0.01372f, 0.08738f, 
	0.00986f, 0.08955f, 0.11163f, 0.11965f, 0.08753f, 0.08752f, 0.08814f, 0.11139f, 
	-0.03450f, 0.08676f, -0.00095f, 0.02163f, 0.01388f, -0.04409f, 0.07375f, -0.12402f, 
	0.04059f, -0.16775f, 0.01655f, -0.13999f, -0.08626f, 0.05875f, -0.10255f, -0.06387f, 
	-0.02823f, -0.01793f, -0.06257f, -0.07589f, -0.01829f, -0.04377f, -0.04926f, -0.10581f, 
	-0.11509f, -0.11308f, 0.12190f, 0.11433f, -0.07489f, -0.00194f, 0.00530f, -0.02836f, 
	0.03020f, 0.06183f, 0.05607f, 0.00396f, 0.07922f, 0.04604f, -0.00665f, 0.08421f, 
	-0.01611f, 0.05838f, -0.00256f, 0.02026f, -0.06515f, 0.04249f, -0.01307f, 0.04758f, 
	-0.02162f, 0.02917f, -0.04714f, 0.05397f, 0.06293f, -0.04892f, 0.04130f, 0.08651f, 
	0.02942f, -0.04172f, -0.12471f, -0.05462f, 0.07179f, 0.04657f, -0.07725f, 0.07009f, 
	-0.02376f, 0.06859f, 0.07153f, -0.04425f, 0.03233f, 0.05194f, 0.03338f, 0.05995f, 
	-0.09480f, -0.04379f, -0.02014f, 0.04391f, -0.07267f, -0.00811f, -0.07831f, -0.01864f, 
	-0.00373f, 0.02520f, 0.06099f, -0.03185f, 0.07988f, -0.08353f, 0.06726f, -0.05391f, 
	0.01686f, -0.01392f, 0.00415f, -0.05618f, 0.02878f, 0.02065f, -0.09303f, -0.01375f, 
	0.08811f, 0.00418f, -0.01876f, -0.03573f, -0.02675f, 0.00856f, -0.06174f, 0.02217f, 
	0.00681f, 0.02016f, 0.07339f, -0.08686f, -0.01084f, -0.05809f, 0.05530f, -0.05441f, 
	0.05284f, -0.08784f, 0.00984f, 0.04484f, -0.03946f, 0.07236f, -0.03800f, -0.08389f, 
	-0.04882f, 0.02533f, 0.02850f, -0.04754f, 0.07722f, 0.06654f, 0.03340f, -0.06774f, 
	-0.01559f, 0.09805f, 0.10466f, -0.04916f, 0.09133f, -0.01010f, 0.04837f, 0.03316f, 
	-0.03974f, 0.05875f, 0.04584f, -0.09559f, -0.00680f, 0.02001f, -0.08443f, 0.05033f, 
	0.00505f, 0.08115f, -0.02238f, -0.05555f, 0.03956f, -0.00813f, 0.02553f, -0.01644f, 
	0.01328f, -0.06143f, 0.02640f, -0.01223f, 0.05224f, 0.04058f, 0.06143f, 0.03141f, 
	-0.00295f, -0.06860f, 0.00474f, 0.01576f, -0.01646f, 0.04192f, -0.02497f, -0.03555f, 
	0.07205f, 0.07972f, -0.06712f, 0.07911f, 0.02290f, -0.07107f, 0.03731f, -0.03214f, 
	0.01327f, 0.04860f, 0.03030f, 0.04846f, 0.06451f, -0.01789f, 0.03603f, 0.01261f, 
	0.09191f, -0.04682f, -0.10735f, -0.02164f, 0.05899f, 0.05355f, 0.03619f, -0.00402f, 
	-0.06890f, 0.05691f, 0.05116f, -0.01570f, -0.05087f, 0.05549f, -0.02705f, -0.07134f, 
	0.05158f, -0.09820f, -0.10856f, 0.08801f, 0.06472f, 0.03230f, 0.08273f, 0.01595f, 
	-0.07108f, -0.03354f, -0.07335f, 0.07204f, -0.00096f, -0.00077f, 0.05599f, -0.09971f, 
	0.01026f, -0.03366f, -0.05905f, 0.02259f, -0.03931f, 0.01684f, -0.06121f, -0.04952f, 
	0.07243f, -0.03408f, -0.03502f, -0.05785f, -0.03051f, -0.01087f, 0.03565f, -0.08470f, 
	0.03975f, -0.04820f, 0.03751f, -0.03969f, 0.04698f, 0.03633f, -0.01182f, 0.01492f, 
