#pragma once
#include "dl_lib_matrix3d.h"

const static fptp_t pnet_conv2d_kernel1_item_array[] = {
	-0.08165f, 0.48790f, -0.70420f, -2.04208f, -1.44408f, -0.30975f, -0.54092f, 1.07259f, 
	-0.95785f, -0.56484f, -0.26631f, -0.49457f, 0.64414f, -0.06199f, -1.12698f, -0.36787f, 
	0.21499f, -0.22563f, -0.16834f, 2.33295f, -0.13689f, -0.29579f, 0.39337f, 0.18612f, 
	-0.59174f, -0.19869f, -0.28774f, 0.40171f, -0.35233f, -1.33526f, -0.01504f, 0.32513f, 
	-0.05486f, -1.35184f, -0.89004f, -1.24811f, 0.12311f, 0.94492f, 1.95591f, -0.24466f, 
	0.29753f, -0.13129f, 0.52401f, -0.34683f, -0.04921f, -1.07803f, 0.45209f, -0.10275f, 
	0.74754f, 0.93190f, 0.10161f, 0.23039f, -0.11159f, -0.35846f, 0.43709f, -0.56689f, 
	-0.00450f, 0.28890f, 0.57511f, -0.95419f, 0.12457f, 0.78514f, -0.53375f, 0.27220f, 
	0.20784f, -0.68575f, 0.79804f, 0.84212f, -0.96244f, 0.00590f, 0.10301f, -0.25007f, 
	0.56342f, -0.51149f, 0.07586f, -0.64593f, -0.92729f, -0.34283f, -0.52692f, 0.12027f, 
	-0.17934f, -0.60145f, 0.71034f, -0.09928f, -0.09676f, 0.31731f, 0.42203f, 0.24086f, 
	-0.16184f, -0.04998f, 0.83592f, -0.87486f, 0.18164f, -0.53080f, 3.11579f, 1.10868f, 
	-0.68746f, 0.62648f, -1.28072f, -1.54345f, 0.85216f, 0.27104f, 0.26857f, -0.12611f, 
	2.33800f, 0.58550f, -0.12144f, 0.48707f, -0.88302f, 0.83246f, 0.01641f, 1.18798f, 
	-0.22909f, -0.41665f, 0.95477f, 0.21814f, -0.30375f, -0.16538f, -0.38415f, 0.26985f, 
	0.23799f, -0.78996f, 0.16693f, 0.97150f, 0.84461f, 0.53757f, 0.38437f, 1.02017f, 
	2.31394f, -0.58377f, 0.32019f, -0.31627f, 0.11958f, 0.01329f, 0.33756f, 0.27793f, 
	0.37316f, 0.58217f, 1.36715f, 0.96138f, 0.43590f, 0.42564f, -0.42869f, -0.30839f, 
	-0.59691f, 0.05872f, 0.14538f, 0.31793f, 0.61461f, 0.32250f, -0.41082f, 0.27134f, 
	-0.09971f, 1.16689f, 0.25658f, -0.40052f, 1.76039f, 0.58254f, -1.02561f, -0.24878f, 
	-0.33212f, -0.18397f, 0.09497f, 0.15016f, 0.05395f, -0.72253f, -0.43908f, 0.25159f, 
	-0.66814f, -0.26003f, -0.10342f, -0.23095f, -0.13393f, 0.19943f, -0.18393f, -0.40665f, 
	0.47635f, 0.17363f, -0.27906f, 0.34504f, 1.24650f, -2.40236f, -0.36158f, 0.16121f, 
	-1.28260f, 0.22149f, -1.75503f, -1.76092f, -0.77318f, 0.67633f, 0.51744f, 1.13705f, 
	0.33196f, 0.58500f, -1.13745f, 0.13157f, 0.05841f, -0.28732f, -0.12745f, 0.55822f, 
	0.03368f, 1.25914f, 0.31503f, -0.23635f, -0.55693f, 0.41948f, -0.07931f, -0.47039f, 
	-0.21577f, -1.01926f, -1.34526f, -0.72440f, 0.20310f, 0.65926f, -0.77952f, 0.71316f, 
	-0.87359f, -1.62183f, 1.29537f, 0.21342f, -1.09065f, 0.52346f, 0.35970f, 0.56904f, 
	-0.46877f, 0.66304f, 0.23669f, -0.35378f, 0.57821f, -0.10410f, -0.21638f, 0.67422f, 
	-0.31197f, 0.32500f, 0.38908f, 0.29147f, -0.21874f, -0.66698f, 0.27121f, -0.45463f, 
	-0.58077f, 0.25450f, -0.23770f, 0.40015f, -0.04832f, 0.47752f, 1.17316f, -1.68649f, 
	-0.56869f, 0.30196f, -0.49633f, 0.69140f, 0.31466f, -0.23701f, -0.02075f, 0.34077f, 
	-0.20469f, 0.08261f, -0.34796f, -0.65340f, 0.05970f, -0.96441f, 0.11150f, 0.85408f, 
	0.21557f, 0.24061f, -0.21346f, -0.29777f, -0.04424f, 0.50872f
};

static dl_matrix3d_t pnet_conv2d_kernel1 = {
	.w = 3,
	.h = 3,
	.c = 3,
	.n = 10,
	.stride = 9,
	.item = (fptp_t *)(&pnet_conv2d_kernel1_item_array[0])
};

const static fptp_t pnet_conv2d_bias1_item_array[] = {
	-0.08284f, 0.91978f, 1.18867f, 0.08681f, -0.01941f, -0.03146f, 0.13236f, -0.05220f, 
	0.00765f, 0.66732f
};

static dl_matrix3d_t pnet_conv2d_bias1 = {
	.w = 1,
	.h = 1,
	.c = 10,
	.n = 1,
	.stride = 10,
	.item = (fptp_t *)(&pnet_conv2d_bias1_item_array[0])
};

const static fptp_t pnet_conv2d_kernel2_item_array[] = {
	-0.11650f, -0.24365f, -0.10233f, 0.26099f, -0.26618f, -0.11491f, 0.22276f, -0.17731f, 
	0.03153f, 0.20166f, 0.02120f, -0.13969f, -0.67088f, -0.01489f, -0.50734f, 0.20970f, 
	-0.02339f, -0.65530f, -0.02274f, 0.01230f, 0.00261f, 0.15038f, -0.19774f, -0.48171f, 
	-0.05008f, 0.32847f, 0.14624f, -0.27133f, -1.05570f, -0.26273f, -0.28930f, 0.05758f, 
	-0.09179f, -0.59658f, 0.64574f, -0.37810f, -0.08010f, 0.29472f, 0.55911f, -0.30619f, 
	-0.23545f, 0.44372f, 0.02586f, -0.12980f, -1.01223f, 0.52274f, -0.41415f, 0.32960f, 
	0.33855f, -0.38542f, 0.16666f, 0.00980f, 0.02109f, -0.19597f, 0.82381f, -0.40858f, 
	-0.13552f, 0.26035f, 0.10820f, 0.10756f, -1.11454f, 0.12586f, 0.17856f, 0.05865f, 
	0.48105f, 0.06756f, -0.09995f, -1.22188f, 0.04194f, 0.02277f, -0.38974f, -0.78561f, 
	0.29504f, -0.51731f, 0.11851f, 0.04850f, 0.10221f, 0.01170f, 0.15119f, 0.02567f, 
	-0.25043f, 0.43593f, -0.15594f, -1.16750f, 0.20870f, -0.09498f, -0.29468f, 0.11841f, 
	-0.24263f, -0.15002f, 0.04234f, 0.14780f, 0.22653f, -0.45225f, -0.05554f, -0.13680f, 
	0.00574f, 0.03039f, -0.17511f, 0.65927f, 0.29897f, -0.66420f, -0.52069f, 0.08465f, 
	0.25612f, -0.28259f, 0.08322f, 0.53947f, -0.15231f, -0.41360f, 0.29901f, -0.09131f, 
	0.01821f, 0.13733f, -0.15442f, -0.50464f, 0.06459f, 0.19893f, 0.09675f, 0.13743f, 
	-0.24780f, -0.30796f, -0.16494f, -0.03273f, 0.03537f, 0.00209f, 0.22464f, -0.13670f, 
	-0.03461f, -0.09050f, 0.04124f, 0.52408f, -0.37457f, -0.27489f, -0.30040f, 0.22032f, 
	0.16165f, 0.24131f, 0.03603f, 0.24719f, 0.16255f, -0.18244f, 0.08010f, 0.08985f, 
	0.00047f, -1.04431f, 0.19998f, -0.02339f, -0.13687f, 0.02170f, 0.01248f, -0.37446f, 
	0.01341f, 0.15173f, 0.10772f, 0.15584f, -1.17653f, -0.11531f, -0.19837f, 0.11546f, 
	-0.38356f, -0.04645f, -0.00018f, 0.22925f, 0.24824f, -0.19015f, -0.05867f, 0.05081f, 
	0.15541f, -0.25700f, 0.59005f, 0.46843f, -0.37831f, -0.29204f, -0.28404f, -0.07024f, 
	0.29452f, 0.00994f, -0.02755f, -0.18435f, -0.25849f, -0.33808f, -0.77173f, -0.14038f, 
	0.09429f, -0.12930f, -0.18532f, 0.12784f, -0.20215f, 0.16887f, 0.43233f, -0.25743f, 
	0.25232f, 0.77809f, -0.11423f, 0.12252f, -0.53972f, -0.40226f, -0.41638f, -0.06070f, 
	-0.22760f, -0.24967f, 0.53467f, 0.20832f, -0.59245f, -0.75446f, 0.37303f, 0.00525f, 
	-0.11047f, -0.24237f, 0.00941f, 0.07887f, -0.19944f, -0.22744f, 0.21955f, 0.04012f, 
	-0.15845f, 0.12593f, 0.46778f, -0.18125f, -0.21455f, 0.15578f, -0.07517f, -0.01946f, 
	0.17634f, -0.10071f, 0.13458f, -1.23221f, -0.18530f, 0.04139f, -0.41787f, 0.01229f, 
	-0.14125f, 0.12320f, 0.09947f, -0.27312f, 0.09234f, 0.11471f, 0.14016f, -0.01067f, 
	0.19242f, 0.38417f, -0.02422f, -0.42956f, 0.45251f, 0.12821f, -0.17802f, -0.03193f, 
	-0.20263f, -0.20883f, -0.50153f, -0.17413f, 0.29713f, -0.09275f, 0.51414f, 0.04877f, 
	-0.36632f, 0.12272f, -0.01290f, -0.01776f, -0.62577f, -0.52513f, -0.06889f, 0.06289f, 
	0.33595f, 0.95112f, 0.11652f, 0.14429f, 0.02411f, -0.27594f, -0.00309f, 0.07383f, 
	0.07356f, 0.05856f, -0.07969f, -0.16216f, -0.01288f, 0.23018f, -0.01527f, -0.01522f, 
	-0.51247f, -0.24585f, 0.03879f, -0.11399f, 0.11699f, 0.16806f, 0.06006f, 0.05277f, 
	0.33674f, -0.10034f, 0.02958f, 0.23137f, -0.68463f, -0.30340f, -0.23397f, 0.16145f, 
	0.26638f, 0.07168f, 0.01750f, 0.32354f, 0.20942f, -0.54803f, -0.19931f, -0.04335f, 
	0.22890f, 0.39613f, 0.09434f, -0.07439f, -0.48505f, -0.29712f, -0.39084f, -0.00260f, 
	-0.03724f, 0.00175f, 0.24801f, -0.27430f, -0.17706f, -0.25080f, 0.05532f, 0.05781f, 
	-0.57860f, 0.00877f, -0.01104f, -0.07396f, -0.89305f, -0.25545f, 0.15415f, 0.02608f, 
	0.04890f, 0.07046f, -0.26176f, 0.29843f, -0.01497f, -0.32612f, 0.21953f, -0.27019f, 
	0.24030f, -0.12268f, 0.28241f, 0.30240f, -0.19229f, 0.05447f, -0.30784f, 0.34654f, 
	0.07512f, -0.47048f, 0.05541f, 0.11818f, 0.13221f, -0.19198f, 0.43799f, -0.76975f, 
	0.41191f, -0.00733f, 0.60609f, -0.65569f, 1.60321f, -0.17979f, -0.50152f, 0.00288f, 
	-0.28490f, 0.12865f, -0.15693f, 0.10160f, 0.11660f, 0.57482f, 0.13685f, 0.38270f, 
	0.22118f, -0.07022f, 0.17781f, 0.07010f, -1.09883f, 0.14673f, -0.13143f, 0.00389f, 
	-0.38990f, -0.18718f, 0.69438f, 0.07935f, -0.12477f, 0.01071f, -0.15852f, -0.03336f, 
	0.05565f, -0.11468f, 0.23686f, -0.07346f, -0.35998f, -0.06656f, -0.12533f, -0.06973f, 
	-0.47207f, 0.01101f, 0.47269f, -0.08920f, -0.02116f, 0.25433f, -0.08763f, 0.08033f, 
	-0.03300f, 0.10224f, 0.10975f, 0.24562f, 1.39833f, -0.03588f, -0.10794f, -0.04301f, 
	-0.08689f, 0.08275f, -0.58964f, 0.25524f, -0.19061f, 0.51099f, 0.09591f, 0.26080f, 
	0.25608f, 0.16950f, -0.11750f, 0.07928f, -0.03359f, -0.15430f, 0.06100f, 0.03128f, 
	0.15273f, -0.21408f, -0.00556f, 0.24734f, -0.06708f, -0.04935f, 0.07104f, 0.10474f, 
	0.10247f, -0.01677f, -0.03797f, 0.16456f, 0.19889f, 0.26804f, -0.10519f, -0.01639f, 
	-0.22204f, 0.03444f, -0.03857f, -0.02080f, -0.09240f, -0.00556f, -0.02003f, -0.00226f, 
	0.31478f, -0.03721f, 0.02671f, 0.40750f, -0.76093f, -0.16536f, 0.09543f, 0.01941f, 
	0.24703f, -0.16268f, -1.16031f, 0.04000f, 0.23959f, -0.21659f, -0.09879f, -0.02328f, 
	0.24768f, 0.22748f, 0.53135f, -0.02026f, 0.48358f, 0.05645f, -0.58172f, -0.06020f, 
	-0.14372f, -0.30744f, -0.02759f, 0.21685f, 0.07977f, 0.53720f, 0.09535f, 0.23113f, 
	0.31888f, 0.36973f, -0.31901f, -0.23629f, 0.02656f, 0.12675f, 0.13290f, -0.25406f, 
	-0.14198f, 0.13648f, -0.15845f, 0.02388f, -0.27190f, 0.45609f, -0.81919f, 0.01349f, 
	0.03858f, -0.33782f, 0.07187f, 0.14046f, 0.09183f, 0.29715f, -0.24700f, -0.10080f, 
	0.09740f, -0.12399f, -0.00479f, -0.02923f, -0.34647f, 0.04528f, -0.70471f, 0.19096f, 
	0.14222f, -0.39694f, 0.26513f, 0.09551f, 0.05486f, 0.71950f, -0.38542f, 0.26775f, 
	0.24948f, -0.25368f, -0.10437f, 0.40033f, 0.63592f, -0.28177f, -1.05005f, 0.29623f, 
	-0.63136f, -0.17574f, 0.06624f, -0.61684f, -0.10189f, -0.17511f, 0.13320f, -0.31034f, 
	-0.28425f, -0.31068f, -0.35748f, 0.27078f, -0.17650f, -0.00194f, -0.46188f, 0.19299f, 
	-0.01267f, 0.02555f, 0.08437f, -0.22727f, -0.01955f, -0.00893f, -0.74417f, -0.99986f, 
	0.36618f, -0.16184f, 0.03422f, -0.19041f, 0.48915f, -0.02175f, 0.24541f, 0.05730f, 
	0.17511f, 0.02128f, 0.15768f, 0.18685f, -0.31808f, 0.19189f, -0.07050f, -0.00503f, 
	-0.14177f, 0.38056f, -0.16109f, 0.55802f, -0.09968f, -0.34723f, 0.07726f, 0.00746f, 
	0.22057f, 0.04912f, 0.00403f, 0.42508f, 0.03969f, -0.67140f, 0.08107f, -0.07030f, 
	0.30186f, -0.36859f, -0.03053f, -0.57454f, -0.14176f, -0.12720f, -0.60368f, -0.09469f, 
	-0.15740f, -0.15376f, -0.26970f, 0.15286f, -0.20381f, 0.25258f, 0.02446f, 0.28042f, 
	-0.25815f, 0.18864f, -0.30883f, 0.32465f, 0.23523f, 0.21808f, -0.10711f, 0.08268f, 
	0.18060f, 0.52627f, -0.01303f, -0.02711f, 0.27650f, -0.27397f, 0.19218f, 0.02860f, 
	0.07375f, -0.18597f, 0.08887f, -0.51542f, -0.04884f, -0.11319f, -1.52427f, 0.05702f, 
	0.07101f, -0.35986f, -0.05736f, 0.07851f, 0.08571f, 0.07661f, -0.34790f, -0.21444f, 
	0.19139f, 0.07846f, -0.10967f, -0.02932f, 0.27260f, -0.18590f, -0.06328f, -0.00419f, 
	0.02876f, 0.26072f, -0.11292f, -0.29568f, 0.03653f, 0.02749f, 0.07914f, 0.16663f, 
	0.15251f, -0.30609f, 0.15446f, 0.30307f, -0.12821f, 0.32070f, -0.19173f, -0.04044f, 
	0.13734f, -0.18218f, -0.07600f, 0.10000f, 0.18339f, -0.12033f, -0.38666f, 0.15472f, 
	-0.00494f, 0.08223f, -0.35720f, 0.19700f, -0.15178f, 0.32936f, 0.18584f, -0.33128f, 
	-0.03914f, 0.41334f, -0.39728f, 0.06201f, -0.58608f, -0.09231f, -0.17897f, 0.31943f, 
	-0.06501f, 0.07401f, -0.55862f, 0.46055f, -0.05160f, -0.20646f, 0.59664f, -0.09108f, 
	0.07021f, -0.21920f, -0.05213f, -0.48445f, 0.27902f, -0.22136f, -0.17379f, 0.17733f, 
	-0.17180f, 0.30918f, 0.02531f, 0.47814f, -0.11300f, 0.54371f, -0.13929f, 0.25498f, 
	-0.19909f, -0.52366f, 0.08424f, -0.45828f, -0.17975f, 0.11519f, -0.18371f, 0.04348f, 
	-0.16708f, 0.50648f, 0.14465f, -0.23712f, -0.03440f, -0.16691f, 0.07735f, -0.16101f, 
	0.43492f, 0.06588f, -0.00510f, -0.03336f, -0.05112f, 0.43428f, 0.03633f, -0.10689f, 
	-0.30896f, 0.22270f, -0.04658f, -0.44460f, -0.01459f, 0.00416f, 0.38844f, -0.14373f, 
	0.75983f, -0.11574f, -0.22391f, 0.01758f, 0.01048f, -0.51074f, 0.05685f, -0.11637f, 
	0.08432f, 0.09035f, 0.73690f, -0.09726f, 0.13510f, -0.06699f, 0.18082f, 0.15766f, 
	-0.22042f, -0.17329f, -0.02841f, 0.45808f, 0.37034f, 0.25171f, -0.03993f, -0.06593f, 
	-0.78361f, 0.24361f, 0.01195f, -0.02211f, -0.14310f, -0.24105f, 0.43451f, 0.05443f, 
	0.05587f, 0.30103f, 0.08404f, 0.12088f, 0.12548f, -0.26542f, 0.18734f, -0.15781f, 
	0.21618f, -0.18842f, -0.01681f, -0.18693f, 0.19932f, 0.25539f, -0.07647f, 0.07399f, 
	0.09695f, -0.15537f, 0.00694f, -0.10114f, 0.05329f, -0.21477f, -0.12468f, 0.28612f, 
	-0.05779f, 0.06154f, -0.09758f, -0.14728f, 0.10639f, -0.10698f, 0.11174f, -0.48548f, 
	-0.50349f, 0.00165f, 0.02369f, 0.09218f, 0.10343f, -0.18421f, 0.14917f, 0.02447f, 
	0.11874f, -0.19200f, -0.72825f, 0.25286f, 0.13419f, -0.45295f, 0.33634f, -0.18888f, 
	-0.43053f, -0.29974f, 0.20796f, 0.00888f, -0.11529f, 0.27183f, 0.19587f, 0.47752f, 
	0.05521f, 0.18059f, -0.18385f, 0.31940f, 0.11954f, 0.41436f, 0.06259f, -0.99316f, 
	-0.35699f, 0.12886f, -0.00743f, 0.30605f, -1.10645f, -0.05414f, 0.30078f, 0.47229f, 
	0.40552f, -0.29621f, -0.27489f, -0.01702f, 0.36201f, -0.06420f, 0.31509f, -0.60606f, 
	-0.60737f, -0.12395f, 0.05652f, 0.18677f, -0.17026f, 0.13811f, -0.16378f, 0.03375f, 
	-0.50426f, -0.13941f, 0.35122f, 0.26729f, 0.02431f, -0.26763f, -0.34731f, 0.08086f, 
	-0.12028f, -0.39057f, 0.21327f, -0.10312f, -0.30939f, 0.09714f, -0.06575f, 0.05917f, 
	-0.88691f, -0.09180f, 0.21405f, -0.12867f, 0.15703f, -0.23937f, 0.02769f, 0.06258f, 
	-0.00407f, 0.09373f, 0.03598f, 0.21913f, -0.17989f, 0.09172f, -0.02558f, 0.11035f, 
	0.05205f, -0.18573f, -0.33852f, -0.10300f, -0.20798f, 0.19673f, 0.13045f, -0.06975f, 
	-0.29512f, 0.06488f, -0.05223f, -0.31035f, -0.27168f, 0.33317f, -0.09170f, 0.22620f, 
	0.13278f, -0.59227f, 0.42437f, 0.01406f, -0.19220f, 0.26482f, 0.31008f, 0.07826f, 
	-0.23558f, -0.04097f, -0.16885f, 0.05830f, -0.40592f, 0.15191f, -0.00902f, -0.08555f, 
	-0.45950f, -0.08979f, -0.17050f, -0.23686f, -0.00270f, 0.22363f, -0.13671f, -0.08227f, 
	0.27391f, 0.06665f, 0.01048f, -0.08230f, 0.14711f, -0.08569f, 0.06430f, -0.09119f, 
	0.30539f, 0.12602f, -1.82422f, 0.00241f, 0.00081f, -0.02180f, 0.26006f, 0.05253f, 
	-0.27147f, 0.05460f, -0.03629f, -0.06981f, -0.31155f, 0.26497f, 0.16097f, 0.48092f, 
	0.03552f, -0.22369f, -0.37481f, -0.03246f, 0.28794f, -0.26052f, -0.16438f, -0.93883f, 
	-0.34135f, 0.15042f, 0.30191f, -0.22726f, -0.05979f, 0.25228f, 0.00068f, -0.60006f, 
	-0.00728f, 0.34737f, -0.03731f, 0.55965f, -0.04737f, 0.24644f, 0.05661f, 0.05157f, 
	-0.29318f, -1.01033f, -1.15874f, -0.23973f, 0.23452f, -0.08533f, -0.07566f, -0.11681f, 
	0.35141f, 0.20146f, 0.04707f, -0.31481f, 0.56650f, -0.05245f, -0.21897f, 0.04005f, 
	-0.00464f, -0.64261f, -0.47012f, 0.51612f, 0.25298f, 0.55182f, 0.54985f, 0.02785f, 
	0.34568f, -0.05786f, 0.28396f, -0.16798f, 0.18301f, -0.18418f, -0.73807f, 0.43858f, 
	0.56476f, 0.21597f, 0.06786f, -0.24463f, -0.09721f, 0.29985f, 0.06848f, -0.48545f, 
	0.02691f, -0.11634f, -0.18568f, 0.23257f, 0.09669f, 0.15012f, 0.25545f, 0.14788f, 
	0.03614f, 0.13402f, -0.36314f, 0.00660f, 0.15000f, -0.04526f, -0.07829f, -0.64909f, 
	0.25266f, -0.20650f, 0.20987f, -0.00317f, 0.01271f, 0.07212f, 0.20443f, -0.05440f, 
	0.08075f, 0.08189f, -0.42993f, 0.43087f, 0.06703f, -0.09499f, 0.13502f, 0.27225f, 
	-0.08795f, -0.13345f, 0.01011f, -0.20926f, -0.33170f, -0.17882f, 0.13662f, -0.06955f, 
	0.04807f, -0.65791f, -0.27070f, 0.02428f, 0.06894f, 0.09007f, 0.07180f, 0.15632f, 
	0.20606f, -0.21460f, 0.15470f, -0.66631f, -0.10477f, 0.05996f, -0.18782f, 0.11248f, 
	0.05918f, 0.30915f, -0.84487f, -0.07378f, -0.00414f, 0.07361f, 0.03841f, 0.17750f, 
	-0.03478f, 0.00773f, 0.16788f, -0.14499f, -0.00918f, -0.07616f, 0.14023f, 0.07936f, 
	-0.15600f, -0.15120f, 0.30324f, -0.00508f, 0.05136f, -0.19767f, -0.12784f, -0.02797f, 
	0.03637f, 0.27616f, 0.07245f, -0.74536f, 0.14188f, 0.19603f, -0.07672f, 0.07332f, 
	-0.24297f, -0.86027f, -0.85867f, -0.13096f, 0.13130f, 0.04565f, -0.05886f, -0.17258f, 
	0.33094f, 0.06788f, 0.02636f, -0.10755f, 0.03930f, 0.19304f, 0.12025f, 0.00711f, 
	-0.29150f, 0.27861f, 0.15823f, -0.22580f, -0.06730f, 0.15361f, 0.35797f, 0.09999f, 
	0.14577f, 0.16093f, -0.12162f, -0.01219f, -0.15036f, 0.52637f, 0.26030f, -0.11175f, 
	-0.15370f, 0.13566f, -0.29771f, 0.01120f, -0.05212f, -0.22143f, 0.01740f, -0.22587f, 
	0.06928f, -0.00776f, 0.28974f, -0.12071f, 0.40556f, -0.12445f, 0.02053f, 0.05936f, 
	0.31627f, 0.61808f, -0.38959f, 0.08315f, -0.14240f, 0.04554f, 0.07161f, -0.22367f, 
	-0.04394f, -0.04833f, -0.08952f, -0.25121f, 0.22790f, 0.15987f, 0.55064f, 0.13438f, 
	-0.30166f, 0.09560f, -0.11386f, -0.30467f, -0.02692f, 0.11965f, 0.23778f, 0.21300f, 
	-0.15773f, 0.08912f, -0.33261f, 0.55233f, 0.12976f, -0.53463f, -0.36032f, 0.19130f, 
	-0.40329f, -0.18494f, 0.05067f, 0.11718f, 0.11381f, -0.14475f, 0.02165f, -0.20224f, 
	-0.18124f, 0.22801f, 0.18671f, -0.29997f, 0.10954f, -0.92884f, 0.07059f, -0.13832f, 
	-0.03448f, -0.12808f, 0.03029f, 0.11602f, -0.03285f, 0.01438f, -0.17107f, -0.12360f, 
	-0.31446f, -0.26697f, 0.36219f, 0.04591f, -0.02655f, -0.11858f, -0.13331f, -0.09910f, 
	-0.26337f, -0.33545f, -0.07978f, 0.19743f, -0.29950f, -0.25787f, -0.37099f, -0.05710f, 
	0.18440f, 0.65792f, 0.48630f, 0.05306f, -0.09982f, 0.72815f, -0.12279f, 0.21903f, 
	0.51134f, 0.10823f, 0.01003f, 0.19351f, 0.02772f, -0.21777f, -0.16621f, -0.02398f, 
	-0.57298f, -0.30927f, -0.11251f, -0.33411f, -0.06408f, -0.28061f, 0.13215f, 0.01441f, 
	-0.51383f, -0.12871f, 0.13597f, -0.00616f, 0.26706f, -0.06014f, -0.10839f, 0.11488f, 
	0.24850f, 0.03075f, -0.23690f, -0.28366f, 0.11508f, 0.63917f, -0.10551f, -0.00477f, 
	0.09523f, -0.05990f, -0.00116f, 0.17169f, 0.03946f, -0.07804f, -0.10126f, -0.12450f, 
	-0.10146f, 0.11795f, 0.23139f, -0.05220f, 0.32277f, -0.01258f, -0.09541f, -0.23078f, 
	0.83595f, 0.28454f, 0.01357f, 0.00963f, 0.00482f, -0.12097f, 0.22096f, -0.15164f, 
	0.04707f, 0.00510f, -0.44161f, 0.52459f, 0.08717f, 0.12518f, -0.05362f, 0.00133f, 
	0.02689f, 0.20076f, -0.17514f, 0.08030f, 0.33035f, -0.27401f, 0.28142f, -0.49882f, 
	-0.51792f, -0.10694f, 0.04185f, -0.13562f, 0.29870f, -0.26590f, 0.16827f, -0.28581f, 
	-0.46475f, 0.12084f, 0.06087f, -0.08709f, 0.44036f, -0.86007f, 0.50945f, -0.40626f, 
	-0.02244f, 0.26785f, 0.57452f, -0.54649f, 0.07752f, 0.30210f, 0.29976f, -0.41654f, 
	0.50661f, 0.15618f, -0.11016f, -0.02914f, 0.40776f, -0.04046f, 0.18069f, -0.17658f, 
	-0.56245f, -0.04369f, -0.04271f, 0.35606f, 0.22759f, -0.30061f, -0.00698f, 0.21432f, 
	-0.40278f, -0.15539f, 0.16378f, 0.26719f, -0.02925f, -0.01630f, 0.11783f, -0.01981f, 
	-1.15829f, -0.06833f, 0.30406f, -0.21446f, 0.10679f, -0.36570f, 0.02615f, 0.01976f, 
	-0.12058f, -0.15019f, -0.00729f, 0.13339f, -0.22182f, 0.16019f, 0.05580f, 0.01780f, 
	-0.39719f, 0.20497f, 0.24113f, -0.26338f, -0.27397f, 0.54302f, 0.09621f, -0.10390f, 
	-1.79096f, -0.06553f, -0.00666f, -0.11397f, -0.04520f, 0.25969f, -0.08865f, 0.20933f, 
	0.35399f, -0.26299f, 0.28419f, -0.19736f, -0.05101f, 0.32295f, -0.07503f, -0.05564f, 
	0.26749f, -0.06442f, -0.14848f, 0.13477f, 0.08522f, -0.12367f, 0.08810f, -0.24648f, 
	-0.93043f, 0.10845f, 0.17617f, 0.47307f, 0.10285f, -0.00860f, -0.11245f, 0.06465f, 
	-1.34094f, -0.01365f, 0.00551f, -0.04802f, 0.20142f, 0.24335f, -0.09237f, 0.11868f, 
	0.40722f, -0.26534f, -1.46402f, -0.49484f, -0.03446f, -0.00470f, 0.06484f, -0.02793f, 
	-0.04788f, 0.11545f, -0.08810f, 0.12039f, 0.26750f, 0.12899f, 0.32960f, -0.45221f, 
	-0.19600f, 0.01383f, -0.09916f, -0.08326f, 0.25268f, 0.05552f, 0.01684f, -1.13007f
};

static dl_matrix3d_t pnet_conv2d_kernel2 = {
	.w = 3,
	.h = 3,
	.c = 10,
	.n = 16,
	.stride = 30,
	.item = (fptp_t *)(&pnet_conv2d_kernel2_item_array[0])
};

const static fptp_t pnet_conv2d_bias2_item_array[] = {
	1.02054f, 2.48758f, 2.36259f, 0.42110f, 1.02086f, 1.53327f, 2.41072f, 2.39952f, 
	0.73819f, 0.18999f, 0.31878f, 0.36088f, 1.70958f, -0.12023f, 0.59947f, 2.71742f
};

static dl_matrix3d_t pnet_conv2d_bias2 = {
	.w = 1,
	.h = 1,
	.c = 16,
	.n = 1,
	.stride = 16,
	.item = (fptp_t *)(&pnet_conv2d_bias2_item_array[0])
};

const static fptp_t pnet_conv2d_kernel3_item_array[] = {
	0.06602f, -0.01018f, -0.03778f, 0.10769f, 0.18281f, 0.09387f, 0.06543f, 0.03270f, 
	0.04074f, 0.01294f, 0.02550f, -0.06924f, -0.06222f, 0.02970f, 0.13079f, -0.06928f, 
	0.03131f, -0.13346f, -0.03749f, 0.07310f, -0.04762f, -0.03537f, 0.13800f, -0.04394f, 
	-0.02676f, -0.31103f, -0.14545f, -0.06180f, 0.01419f, 0.06023f, 0.14823f, 0.02533f, 
	0.13737f, 0.05392f, -0.00515f, -0.25635f, -0.53170f, 0.08845f, 0.14461f, -0.06256f, 
	-0.02907f, 0.28929f, -0.11274f, 0.04750f, -0.20128f, -0.06262f, -0.14919f, -0.18911f, 
	0.06401f, -0.08395f, -0.01701f, 0.07594f, -0.16611f, -0.14676f, 0.13996f, -0.43517f, 
	0.00574f, 0.47089f, 0.20227f, -0.06989f, 0.20513f, -0.02202f, -0.15804f, -0.05250f, 
	-0.42902f, -0.13181f, -0.17499f, 0.01989f, 0.05545f, 0.09770f, 0.10394f, -0.03076f, 
	0.05980f, 0.13152f, -0.02821f, 0.08374f, 0.18028f, 0.03322f, 0.03576f, 0.18906f, 
	-0.14104f, 0.06621f, -0.02961f, -0.23446f, -0.03321f, 0.20573f, -0.21185f, 0.04715f, 
	0.01202f, 0.08703f, 0.08651f, 0.02315f, 0.13446f, 0.05377f, -0.00987f, -0.02678f, 
	0.05447f, 0.05203f, -0.05924f, 0.05782f, 0.08813f, 0.10607f, -0.22543f, 0.03558f, 
	-0.12038f, 0.01370f, 0.32385f, -0.03898f, -0.15790f, -0.00924f, -0.12324f, -0.03675f, 
	-0.08659f, -0.14670f, -0.08036f, -0.02151f, -0.01980f, -0.01317f, -0.27958f, -0.37405f, 
	-0.14084f, 0.27402f, -0.04575f, -0.00562f, -0.10060f, 0.04874f, 0.11104f, -0.12999f, 
	0.02662f, -0.06637f, -0.16851f, -0.01113f, 0.07664f, 0.15302f, 0.21105f, -0.08219f, 
	0.05675f, -0.01136f, 0.22385f, -0.16010f, -0.08663f, 0.03477f, -0.20379f, 0.22920f, 
	0.25354f, -0.00706f, 0.01251f, -0.32626f, 0.10524f, 0.11958f, 0.08012f, -0.08181f, 
	-0.20341f, 0.09659f, 0.06028f, -0.08112f, 0.04536f, -0.11672f, -0.17307f, 0.09474f, 
	0.10665f, 0.06735f, 0.08496f, 0.01934f, 0.11674f, 0.03520f, -0.18408f, -0.10488f, 
	0.02805f, -0.14677f, 0.16476f, -0.17562f, -0.22441f, 0.04480f, -0.12153f, 0.15520f, 
	0.13445f, 0.08121f, -0.07916f, -0.07330f, -0.06846f, 0.12611f, -0.50212f, 0.05347f, 
	-0.17335f, 0.23883f, 0.17456f, -0.05078f, 0.17475f, 0.06929f, -0.11327f, 0.06276f, 
	0.06848f, 0.05281f, -0.13587f, 0.08435f, 0.10906f, -0.13731f, -0.15256f, 0.00105f, 
	0.25245f, 0.13825f, -0.11580f, -0.20930f, -0.04640f, 0.03088f, -0.26043f, -0.19405f, 
	-0.04060f, 0.02162f, 0.13502f, -0.03281f, -0.15515f, 0.36382f, -0.10616f, 0.35501f, 
	0.59465f, -0.42622f, -0.02564f, 0.09440f, 0.05904f, -0.18416f, 0.17994f, -0.10133f, 
	0.40183f, -0.10125f, -0.01384f, -0.04223f, -0.04341f, 0.01679f, 0.02194f, 0.13265f, 
	-0.16005f, -0.03373f, 0.02081f, 0.02678f, 0.05558f, 0.01030f, 0.15664f, -0.31908f, 
	-0.00486f, 0.01277f, 0.15194f, 0.57985f, 0.03477f, 0.18562f, 0.21655f, -0.00213f, 
	0.08320f, -0.04005f, 0.07738f, 0.22613f, -0.29733f, 0.09857f, 0.25397f, -0.03732f, 
	0.06571f, 0.19094f, 0.10643f, -0.21899f, 0.21712f, -0.11613f, 0.17682f, 0.08428f, 
	-0.08761f, 0.20026f, 0.13022f, -0.13372f, 0.25733f, -0.03629f, -0.09031f, -0.03151f, 
	0.26018f, 0.01063f, 0.06363f, 0.25846f, -0.07685f, 0.13442f, -0.07519f, -0.54826f, 
	0.13209f, -0.01843f, 0.00081f, 0.07650f, 0.03241f, 0.04660f, 0.24604f, -0.43453f, 
	-0.09785f, -0.27856f, -0.06792f, -0.05342f, 0.07087f, -0.11328f, -0.07618f, 0.06533f, 
	-0.03902f, 0.02791f, 0.09453f, -0.04320f, 0.04935f, -0.04356f, -0.03152f, 0.02436f, 
	0.00462f, -0.10079f, 0.02846f, 0.09136f, 0.01208f, 0.00488f, 0.08639f, 0.30118f, 
	0.28986f, -0.15807f, -0.08317f, -0.05401f, 0.00521f, -0.02899f, -0.04197f, -0.01088f, 
	0.01510f, 0.02105f, 0.02548f, 0.07642f, 0.05624f, 0.05750f, -0.04119f, -0.00071f, 
	-0.05021f, 0.07332f, 0.03785f, -0.10345f, 0.12321f, 0.08620f, -0.14236f, 0.03192f, 
	0.09378f, -0.08824f, -0.03397f, -0.06269f, -0.06164f, 0.06516f, -0.00627f, -0.22854f, 
	-0.07193f, 0.20330f, -0.05543f, -0.04631f, -0.07482f, 0.22192f, 0.21922f, -0.00628f, 
	0.00988f, -0.16563f, -0.16768f, 0.05646f, -0.00878f, 0.06281f, -0.04947f, -0.11811f, 
	-0.01968f, -0.10537f, 0.08428f, -0.08798f, -0.07712f, -0.01470f, 0.04911f, 0.06943f, 
	0.00874f, -0.08878f, -0.06806f, -0.15934f, -0.08375f, -0.01367f, -0.14255f, -0.32197f, 
	-0.07073f, 0.15957f, 0.03580f, -0.08192f, -0.04723f, 0.08333f, 0.20861f, -0.02171f, 
	0.15123f, 0.08094f, -0.02906f, 0.23389f, -0.10979f, 0.11448f, -0.02516f, -0.04167f, 
	-0.06248f, 0.13327f, -0.08971f, -0.13149f, -0.01696f, 0.04848f, 0.11852f, 0.04282f, 
	-0.07179f, -0.03607f, -0.16453f, -0.13365f, -0.02311f, -0.28668f, -0.14456f, -0.49129f, 
	-0.18060f, 0.22943f, 0.02674f, -0.08523f, -0.10436f, 0.00550f, 0.14191f, -0.07969f, 
	0.11111f, -0.09563f, -0.03511f, 0.08475f, -0.03652f, 0.02495f, -0.07930f, -0.01103f, 
	0.01447f, -0.03277f, 0.10154f, -0.00998f, -0.03875f, 0.03752f, 0.00180f, -0.11243f, 
	0.10587f, 0.02013f, -0.04008f, -0.13414f, -0.06057f, 0.08360f, -0.11999f, -0.22795f, 
	-0.25310f, 0.20531f, 0.02074f, -0.00355f, 0.02381f, 0.23636f, -0.05499f, 0.02082f, 
	0.02749f, 0.00869f, -0.03761f, 0.09592f, 0.09967f, 0.10333f, -0.08895f, -0.04721f, 
	-0.04548f, 0.02226f, 0.13632f, -0.00105f, -0.17730f, -0.00228f, 0.14346f, -0.07029f, 
	-0.00416f, 0.00366f, -0.02197f, -0.13637f, 0.07452f, -0.16847f, -0.16475f, -0.43320f, 
	-0.18166f, -0.03193f, -0.07022f, 0.04238f, -0.12455f, 0.06116f, 0.10540f, -0.01893f, 
	0.20710f, -0.14632f, 0.12782f, -0.12396f, -0.21258f, -0.17512f, -0.09163f, 0.11852f, 
	-0.14821f, -0.05218f, 0.07301f, 0.04856f, -0.05577f, -0.00974f, -0.34455f, -0.19467f, 
	0.13028f, -0.02803f, 0.09114f, 0.29162f, -0.08706f, 0.00710f, 0.08052f, 0.24454f, 
	-0.02625f, -0.12299f, -0.03728f, 0.01681f, -0.05509f, -0.36691f, 0.24372f, -0.15946f, 
	0.13411f, -0.02926f, -0.00814f, 0.03141f, 0.05623f, -0.03446f, -0.14523f, 0.00951f, 
	-0.28879f, 0.07019f, 0.08523f, -0.03791f, -0.15346f, -0.10351f, -0.00669f, 0.04668f, 
	0.08788f, -0.16538f, -0.02392f, -0.06198f, 0.11775f, -0.01280f, -0.16268f, 0.15923f, 
	0.04925f, -0.14389f, -0.09954f, -0.07026f, 0.06305f, -0.04987f, 0.03610f, -0.01367f, 
	0.00626f, -0.05378f, 0.00908f, -0.09755f, -0.15242f, -0.07824f, 0.02959f, -0.01155f, 
	-0.01223f, -0.00126f, 0.08189f, 0.32377f, -0.07308f, -0.11507f, -0.09801f, -0.07539f, 
	0.00074f, 0.02298f, -0.00954f, 0.15367f, -0.03927f, 0.02541f, 0.13508f, 0.21830f, 
	-0.11527f, 0.16161f, 0.02560f, 0.02031f, 0.11242f, 0.09273f, 0.03300f, -0.06926f, 
	-0.13486f, 0.10916f, -0.01842f, 0.14589f, -0.08673f, 0.01568f, 0.16242f, 0.05457f, 
	0.08676f, 0.02558f, 0.05248f, 0.00387f, -0.03785f, -0.02155f, -0.09545f, -0.05755f, 
	-0.14175f, -0.04629f, -0.08448f, -0.16902f, 0.05854f, -0.14512f, 0.10981f, 0.09373f, 
	-0.33172f, 0.07598f, -0.02341f, -0.11788f, -0.09482f, -0.03958f, 0.10253f, 0.01120f, 
	0.00110f, 0.01301f, -0.19243f, -0.05497f, 0.00721f, 0.12112f, 0.00707f, -0.04675f, 
	0.09277f, 0.28819f, 0.06711f, 0.19544f, -0.10721f, 0.10691f, -0.11797f, -0.12691f, 
	-0.08809f, 0.02573f, -0.04895f, 0.02533f, -0.05062f, -0.09997f, -0.00816f, -0.21198f, 
	-0.10540f, 0.16583f, 0.04399f, -0.04271f, -0.02283f, 0.08790f, -0.01239f, 0.02664f, 
	0.06552f, 0.00477f, 0.01044f, -0.11353f, -0.08963f, 0.03438f, -0.02321f, -0.05754f, 
	-0.08110f, 0.08238f, 0.02060f, -0.15814f, -0.23867f, -0.11609f, -0.07401f, 0.10246f, 
	0.31706f, 0.03444f, 0.02744f, -0.20365f, 0.05256f, 0.16607f, 0.20264f, 0.07182f, 
	-0.10538f, -0.02661f, 0.04644f, -0.07011f, 0.14739f, -0.11440f, -0.13712f, 0.06293f, 
	-0.20105f, 0.05324f, -0.04419f, -0.09236f, -0.03560f, 0.09040f, 0.15872f, -0.11446f, 
	0.05452f, 0.19723f, -0.05233f, 0.16569f, -0.09915f, 0.01717f, -0.03707f, -0.07458f, 
	-0.03429f, 0.03535f, -0.13164f, -0.02342f, -0.07083f, -0.02215f, 0.24165f, -0.20168f, 
	-0.19629f, 0.22350f, 0.03748f, 0.03186f, -0.08148f, 0.18910f, 0.24049f, -0.02090f, 
	0.12542f, 0.10840f, 0.12213f, 0.06627f, -0.10062f, -0.12070f, -0.04233f, 0.01093f, 
	0.05058f, -0.10843f, 0.04910f, 0.08059f, 0.04496f, 0.10092f, 0.15637f, 0.01875f, 
	-0.20751f, 0.00007f, -0.09531f, 0.13426f, 0.00233f, 0.31503f, -0.15099f, -0.24172f, 
	-0.25136f, 0.07577f, 0.06256f, 0.08338f, 0.02168f, -0.07667f, 0.26283f, 0.00569f, 
	0.16296f, -0.07373f, 0.12977f, 0.06064f, -0.02845f, 0.13241f, 0.04404f, 0.10563f, 
	0.03499f, -0.05554f, 0.02356f, -0.08432f, 0.27970f, -0.04058f, 0.02361f, -0.02600f, 
	-0.00306f, 0.06384f, 0.10884f, 0.33063f, 0.04901f, -0.00470f, 0.33153f, 0.23535f, 
	0.10666f, -0.05374f, -0.00217f, 0.17533f, 0.02157f, -0.15857f, -0.09452f, 0.13188f, 
	0.01044f, 0.13426f, 0.12465f, 0.15420f, -0.21028f, -0.03477f, 0.00757f, 0.00381f, 
	0.03715f, 0.16838f, 0.12004f, 0.15086f, 0.30926f, -0.00077f, 0.18843f, 0.17618f, 
	0.16041f, 0.08055f, -0.03770f, 0.16133f, -0.06655f, -0.07386f, -0.02656f, -0.17161f, 
	0.11187f, -0.02427f, -0.00353f, 0.01358f, -0.07333f, 0.35086f, -0.03873f, 0.14139f, 
	-0.07645f, -0.11478f, 0.06698f, -0.05802f, 0.03611f, -0.08199f, -0.12426f, 0.06372f, 
	-0.00745f, -0.08063f, 0.06122f, -0.09472f, 0.04247f, -0.08015f, 0.05360f, 0.02101f, 
	-0.03970f, -0.06398f, -0.00817f, 0.06809f, 0.09626f, 0.14273f, 0.03753f, 0.10655f, 
	0.19615f, -0.06663f, -0.05671f, 0.01440f, -0.10218f, -0.10825f, -0.34186f, 0.01190f, 
	-0.20886f, -0.11955f, -0.08099f, -0.00118f, 0.08589f, 0.07658f, 0.01023f, 0.00563f, 
	0.04987f, 0.10944f, 0.15386f, 0.08722f, 0.00683f, 0.01391f, -0.26868f, -0.03629f, 
	0.07743f, -0.00338f, -0.06087f, -0.10973f, -0.10185f, 0.04548f, 0.11644f, -0.09014f, 
	-0.15875f, 0.36202f, 0.07498f, -0.00539f, -0.01505f, 0.16998f, 0.04975f, 0.05834f, 
	-0.10836f, -0.13078f, -0.22504f, -0.06853f, -0.03915f, -0.03003f, 0.05422f, -0.07375f, 
	-0.12779f, 0.08417f, 0.08181f, 0.10195f, -0.20940f, -0.05481f, -0.03772f, 0.14679f, 
	-0.11335f, 0.00805f, -0.07904f, -0.06897f, -0.05307f, -0.00943f, -0.11124f, -0.13357f, 
	-0.17336f, 0.04613f, -0.02178f, -0.00919f, 0.01205f, 0.10399f, -0.10362f, -0.00016f, 
	-0.05734f, 0.07664f, -0.12947f, 0.05350f, -0.07690f, 0.04680f, 0.17850f, 0.02953f, 
	-0.12660f, 0.15491f, -0.02521f, 0.10618f, -0.01074f, 0.06060f, 0.03535f, -0.16737f, 
	-0.20005f, -0.05972f, -0.07698f, 0.09855f, -0.13604f, -0.21493f, 0.08243f, -0.19236f, 
	0.05718f, 0.02090f, -0.01188f, -0.07463f, -0.12600f, 0.06895f, -0.00508f, -0.07002f, 
	0.02788f, -0.13924f, -0.24223f, 0.07913f, 0.00618f, 0.00619f, 0.10932f, -0.07358f, 
	0.02896f, 0.03606f, -0.00484f, 0.10946f, -0.05771f, 0.06512f, 0.01277f, -0.08485f, 
	0.08471f, 0.05638f, -0.01966f, -0.02299f, -0.04326f, 0.05397f, 0.00034f, -0.29984f, 
	-0.21433f, 0.07456f, 0.05435f, 0.00131f, 0.02516f, 0.19142f, -0.23639f, 0.04023f, 
	-0.00917f, 0.17803f, -0.20483f, 0.08963f, 0.09613f, 0.03034f, 0.01185f, -0.03020f, 
	0.00331f, -0.07259f, 0.00598f, 0.06558f, -0.21536f, 0.01089f, -0.02782f, -0.14432f, 
	-0.09317f, -0.01190f, -0.01478f, -0.11228f, -0.00814f, -0.25492f, -0.01240f, -0.16164f, 
	-0.24145f, 0.03406f, -0.02790f, -0.02333f, -0.09779f, 0.15045f, 0.01540f, -0.09968f, 
	0.20972f, 0.06933f, 0.18536f, -0.04814f, -0.02002f, -0.01750f, 0.04062f, 0.10943f, 
	0.10815f, -0.04179f, -0.00324f, -0.27195f, -0.03791f, -0.15709f, -0.04777f, 0.05557f, 
	-0.13629f, -0.00126f, 0.05268f, 0.05392f, 0.03877f, -0.25742f, -0.13601f, 0.17827f, 
	-0.07966f, -0.30859f, -0.17264f, 0.05565f, -0.06064f, -0.33670f, 0.13893f, -0.06111f, 
	-0.12475f, 0.02105f, 0.24366f, -0.07854f, -0.04873f, -0.09025f, -0.07807f, 0.01624f, 
	0.08482f, -0.14732f, 0.01138f, -0.03248f, -0.24069f, -0.21352f, 0.06261f, 0.05172f, 
	0.02820f, -0.14598f, -0.11727f, -0.01969f, 0.01282f, -0.02872f, -0.18787f, 0.01826f, 
	-0.09792f, -0.09779f, -0.17229f, 0.03224f, -0.03856f, 0.04387f, -0.22556f, 0.09826f, 
	0.22908f, 0.03358f, -0.32128f, 0.02148f, -0.09758f, -0.08424f, 0.19063f, 0.00481f, 
	0.06265f, 0.33424f, -0.13473f, -0.03310f, -0.10249f, 0.01073f, -0.25957f, 0.12111f, 
	-0.06597f, 0.06810f, 0.11155f, 0.02144f, 0.19541f, -0.15032f, -0.04671f, -0.01226f, 
	-0.06306f, 0.06336f, 0.10268f, 0.02872f, 0.02303f, 0.02579f, -0.37349f, 0.03456f, 
	-0.57250f, 0.11499f, 0.16903f, -0.13520f, 0.06229f, -0.04104f, -0.02369f, -0.00172f, 
	-0.04742f, 0.09524f, -0.07704f, -0.19219f, 0.02889f, 0.00817f, -0.07511f, 0.35383f, 
	0.15899f, -0.06307f, 0.00712f, -0.57157f, 0.05971f, -0.37424f, -0.00054f, 0.13182f, 
	0.03387f, -0.03716f, -0.07626f, -0.09727f, 0.10348f, -0.17375f, 0.27906f, 0.08000f, 
	0.07751f, -0.04692f, -0.44921f, 0.11642f, 0.15049f, 0.19319f, -0.09123f, -0.07986f, 
	-0.07376f, 0.14886f, 0.16551f, 0.14848f, -0.06849f, -0.17363f, -0.18665f, -0.21791f, 
	0.08550f, -0.01148f, -0.04753f, -0.01121f, -0.07106f, -0.33066f, -0.02018f, 0.08466f, 
	-0.19602f, 0.12324f, 0.07797f, -0.00784f, -0.02835f, 0.14436f, -0.04469f, 0.05209f, 
	-0.17071f, 0.03485f, 0.30139f, -0.21525f, -0.09182f, -0.48723f, -0.01456f, -0.03302f, 
	-0.02996f, -0.03977f, 0.15401f, -0.22109f, -0.24995f, -0.28066f, -0.25915f, 0.32601f, 
	0.49510f, -0.07851f, 0.01646f, -0.42245f, 0.03449f, 0.26067f, 0.22173f, -0.06392f, 
	0.32373f, -0.01964f, -0.08255f, 0.15683f, 0.03709f, -0.00369f, -0.23081f, 0.07591f, 
	0.13675f, 0.06997f, -0.30256f, 0.11226f, 0.25446f, 0.01662f, -0.03860f, -0.01752f, 
	-0.16415f, 0.09217f, 0.01207f, 0.12359f, -0.08329f, 0.05246f, -0.13506f, -0.16550f, 
	-0.05115f, 0.02999f, 0.04088f, -0.07790f, -0.09332f, -0.15093f, 0.05228f, 0.08865f, 
	0.03748f, -0.04198f, 0.14038f, -0.05025f, 0.14417f, -0.00226f, 0.17286f, -0.00135f, 
	0.06061f, -0.11218f, -0.24749f, 0.25252f, 0.18745f, 0.07758f, -0.05524f, 0.06375f, 
	0.00180f, -0.01619f, 0.07450f, 0.13537f, 0.22784f, 0.05669f, -0.15609f, -0.28936f, 
	-0.18456f, -0.04771f, -0.00301f, 0.36440f, 0.05153f, 0.08079f, -0.04117f, 0.00509f, 
	-0.19271f, 0.06272f, 0.05972f, 0.00527f, -0.02980f, -0.14948f, -0.07403f, 0.01880f, 
	0.14845f, 0.00988f, 0.19000f, 0.25516f, -0.08360f, 0.12076f, -0.07555f, -0.03364f, 
	-0.11566f, -0.04956f, -0.14586f, -0.08570f, 0.14031f, 0.06671f, 0.01042f, 0.11141f, 
	-0.07767f, 0.03436f, 0.03858f, 0.09514f, 0.00224f, -0.01093f, 0.24272f, 0.08853f, 
	0.02038f, 0.08440f, 0.16258f, 0.17480f, 0.04924f, 0.03111f, -0.28856f, 0.28211f, 
	0.10320f, 0.24052f, -0.33883f, -0.02440f, 0.43269f, 0.16141f, -0.00314f, 0.03008f, 
	-0.09554f, 0.18415f, 0.19662f, 0.18503f, 0.03615f, -0.19505f, 0.00351f, -0.12298f, 
	0.44307f, -0.10762f, 0.02870f, 0.24809f, -0.12548f, -0.09976f, 0.01587f, 0.10963f, 
	-0.19814f, -0.16863f, -0.07944f, -0.04176f, 0.01616f, 0.05866f, -0.02440f, -0.06980f, 
	0.01599f, -0.02847f, 0.11334f, -0.00015f, 0.04553f, 0.04647f, -0.06271f, 0.05259f, 
	0.05901f, -0.16435f, 0.09495f, -0.07497f, 0.04391f, -0.05618f, 0.07881f, -0.00319f, 
	-0.03465f, -0.11020f, -0.09189f, -0.01660f, 0.06831f, 0.17575f, 0.00456f, -0.02451f, 
	0.15233f, -0.05457f, -0.12919f, 0.01783f, -0.11455f, 0.01306f, -0.31504f, 0.04523f, 
	-0.11545f, 0.00206f, -0.27497f, 0.04093f, 0.15461f, 0.21142f, 0.04654f, -0.04988f, 
	-0.07060f, 0.22030f, 0.18490f, 0.17973f, -0.22530f, 0.09125f, -0.06563f, -0.03252f, 
	0.17787f, -0.07688f, -0.10828f, -0.06695f, -0.08987f, -0.22831f, -0.13271f, 0.02029f, 
	-0.15981f, 0.17280f, -0.02813f, -0.13589f, 0.01418f, 0.06495f, 0.00382f, -0.07214f, 
	0.01771f, -0.02043f, -0.36938f, -0.01660f, -0.12770f, 0.03047f, 0.10180f, -0.06346f, 
	-0.07341f, 0.04782f, 0.22271f, 0.06632f, -0.40644f, -0.06385f, 0.03003f, -0.02543f, 
	0.17572f, 0.08333f, -0.01156f, -0.15474f, -0.10082f, 0.01004f, -0.04290f, 0.06678f, 
	-0.15999f, -0.11904f, 0.01859f, -0.00431f, 0.00568f, -0.02894f, -0.28259f, -0.01496f, 
	-0.00918f, -0.08886f, -0.29295f, 0.01880f, 0.12175f, 0.05547f, -0.01693f, 0.07281f, 
	-0.05730f, 0.05545f, 0.08863f, 0.11229f, -0.00272f, -0.15515f, 0.12786f, -0.07968f, 
	-0.05624f, -0.08291f, 0.02474f, 0.15691f, -0.07211f, -0.12252f, 0.00045f, 0.04514f, 
	-0.07535f, -0.14381f, -0.04684f, -0.03300f, -0.10039f, 0.12090f, 0.02532f, -0.04548f, 
	0.10145f, -0.04182f, -0.32659f, 0.07977f, 0.06760f, 0.08438f, -0.00697f, -0.03548f, 
	-0.11523f, 0.00067f, -0.08936f, 0.12562f, -0.19115f, -0.01021f, 0.07230f, -0.07813f, 
	-0.03749f, -0.04897f, 0.02241f, -0.14241f, -0.03338f, -0.03547f, -0.02827f, -0.04303f, 
	-0.17428f, -0.09567f, -0.07299f, -0.07458f, -0.00276f, -0.00152f, -0.04754f, -0.01745f, 
	0.02747f, 0.06758f, -0.26812f, -0.07650f, 0.19240f, 0.03272f, -0.02560f, 0.00257f, 
	-0.13469f, 0.02223f, 0.00241f, 0.07322f, -0.17308f, -0.11090f, -0.08838f, -0.01170f, 
	0.13232f, 0.02618f, 0.02199f, -0.28580f, -0.01272f, -0.22469f, -0.06482f, 0.03723f, 
	-0.17356f, 0.00420f, 0.03904f, 0.04462f, -0.01925f, 0.07765f, -0.14008f, -0.01468f, 
	0.27579f, -0.07125f, 0.13287f, 0.17120f, -0.10867f, -0.28912f, -0.13297f, 0.06971f, 
	0.00868f, -0.00173f, -0.25871f, -0.21584f, 0.15510f, 0.16871f, -0.27218f, -0.14903f, 
	0.17798f, -0.19074f, -0.01606f, 0.10743f, -0.08190f, 0.11092f, 0.17484f, -0.26712f, 
	0.15490f, -0.17653f, -0.16379f, -0.04925f, -0.12472f, 0.07253f, -0.18643f, 0.13012f, 
	0.46020f, -0.01577f, 0.01225f, -0.05239f, -0.00381f, -0.07068f, 0.14439f, 0.03257f, 
	0.11713f, 0.14892f, 0.02088f, -0.18872f, -0.01602f, 0.05361f, -0.03788f, -0.09923f, 
	0.08049f, -0.10423f, -0.00637f, 0.11952f, -0.02823f, -0.03276f, 0.18913f, 0.04838f, 
	-0.07772f, -0.17364f, -0.00745f, -0.05376f, 0.02926f, -0.16728f, 0.10720f, -0.04830f, 
	-0.05204f, 0.06519f, 0.05412f, -0.17181f, -0.25578f, -0.02352f, 0.34623f, 0.01963f, 
	0.07264f, -0.10931f, -0.05415f, -0.02111f, 0.13363f, -0.07320f, -0.04781f, 0.50641f, 
	0.09405f, -0.13108f, -0.00682f, 0.14821f, -0.22857f, 0.12244f, 0.20912f, -0.13959f, 
	0.07314f, 0.21125f, 0.01517f, -0.07494f, -0.16871f, 0.04332f, -0.19103f, 0.13066f, 
	-0.33494f, -0.05538f, -0.00500f, -0.07150f, 0.31381f, 0.06630f, 0.08447f, -0.18498f, 
	0.05663f, -0.01448f, -0.00998f, 0.07383f, 0.05665f, 0.04664f, 0.02865f, 0.32398f, 
	-0.07082f, 0.04454f, -0.02310f, -0.05231f, -0.04524f, 0.04033f, -0.16910f, -0.36209f, 
	-0.04398f, 0.02925f, -0.01145f, -0.06258f, 0.27856f, -0.01134f, 0.02668f, -0.17325f, 
	-0.12205f, -0.04401f, -0.00934f, 0.01674f, 0.05675f, -0.13234f, -0.20700f, 0.03743f, 
	0.07088f, -0.05954f, -0.04812f, -0.10699f, -0.15102f, 0.00578f, 0.07014f, 0.00342f, 
	0.07710f, -0.04062f, -0.03570f, -0.12026f, -0.05364f, 0.09215f, -0.29277f, 0.02765f, 
	0.01578f, 0.16251f, -0.07648f, -0.00971f, -0.26123f, 0.02242f, -0.06272f, -0.15592f, 
	0.22077f, -0.02730f, 0.09643f, 0.14106f, 0.06790f, 0.09847f, 0.17619f, -0.07924f, 
	0.12493f, -0.08438f, 0.10769f, -0.05475f, -0.16557f, -0.01512f, -0.11049f, -0.02832f, 
	0.22848f, -0.02022f, -0.04876f, -0.05081f, 0.02834f, 0.09277f, 0.07365f, -0.21935f, 
	0.19580f, 0.02069f, -0.01667f, -0.03080f, -0.07013f, 0.07004f, -0.01445f, 0.16038f, 
	0.18289f, 0.10736f, 0.06283f, -0.08503f, 0.07455f, -0.01875f, -0.03002f, 0.02849f, 
	0.05885f, -0.06366f, 0.06346f, -0.25163f, 0.02368f, 0.03649f, -0.00381f, 0.01369f, 
	0.09672f, -0.08913f, 0.00798f, 0.04395f, -0.10626f, -0.00981f, -0.10027f, -0.06009f, 
	0.24226f, -0.02395f, -0.06925f, -0.00975f, 0.02552f, 0.05031f, 0.00830f, 0.00498f, 
	0.17810f, 0.15624f, 0.01392f, 0.01657f, -0.00803f, 0.11777f, -0.11854f, -0.05707f, 
	-0.04510f, 0.16963f, -0.13403f, 0.10868f, -0.18610f, -0.02172f, -0.09984f, -0.15944f, 
	0.19756f, -0.03186f, 0.01934f, -0.01362f, -0.03218f, 0.09862f, -0.12860f, 0.68581f, 
	-0.03776f, 0.05869f, -0.03145f, -0.06206f, 0.19889f, 0.25965f, 0.23529f, 0.09077f, 
	-0.02414f, -0.02335f, -0.13141f, -0.03541f, -0.11855f, -0.12425f, 0.05695f, -0.00107f, 
	-0.04653f, 0.07719f, -0.09396f, 0.27700f, -0.01085f, -0.04234f, -0.19248f, 0.30822f, 
	0.01181f, 0.05277f, -0.01477f, -0.18877f, 0.23236f, -0.03055f, 0.02424f, 0.49895f, 
	0.49100f, -0.18752f, 0.08402f, 0.05186f, 0.04702f, -0.01394f, -0.04477f, -0.19862f, 
	-0.13004f, -0.33496f, -0.07138f, -0.14624f, 0.22421f, 0.06865f, -0.26496f, -0.15547f, 
	-0.14138f, 0.11274f, -0.07548f, -0.18575f, -0.20313f, 0.03243f, -0.12342f, 0.08435f, 
	-0.09532f, 0.07683f, 0.10512f, -0.00746f, -0.12018f, -0.01742f, -0.30829f, -0.08709f, 
	-0.05074f, 0.01932f, 0.00993f, 0.02035f, 0.03710f, -0.05193f, -0.18559f, -0.45122f, 
	-0.05936f, -0.20656f, 0.02698f, -0.03812f, -0.02696f, -0.01172f, -0.13229f, -0.03632f, 
	-0.01677f, -0.09944f, -0.16812f, -0.04099f, 0.06106f, -0.08248f, 0.05914f, -0.09590f, 
	0.09698f, -0.03504f, 0.00577f, 0.00805f, 0.03932f, 0.03661f, 0.06222f, 0.28489f, 
	0.07499f, 0.05613f, 0.00740f, -0.04387f, 0.26010f, -0.02755f, -0.02005f, -0.00181f, 
	0.09729f, -0.05560f, 0.00464f, 0.08850f, 0.04758f, -0.04766f, -0.02095f, 0.00933f, 
	0.21247f, 0.05287f, -0.10710f, 0.00611f, 0.00982f, 0.03424f, -0.14801f, -0.11982f, 
	0.04782f, 0.01918f, -0.02384f, 0.00699f, -0.07978f, 0.04763f, -0.02547f, -0.08147f, 
	0.03451f, 0.11334f, 0.03577f, 0.01247f, 0.00066f, 0.04333f, 0.05869f, 0.10881f, 
	-0.14989f, -0.03942f, 0.02318f, 0.09374f, 0.05907f, -0.01041f, -0.01166f, 0.05656f, 
	0.06067f, -0.10430f, 0.00337f, -0.07325f, -0.12751f, 0.02923f, 0.11488f, 0.21295f, 
	0.09059f, -0.04005f, 0.04407f, -0.12312f, -0.14524f, 0.05792f, -0.16541f, -0.10059f, 
	-0.30848f, 0.12004f, -0.05269f, -0.06064f, -0.10779f, 0.05081f, 0.03862f, 0.11060f, 
	0.04616f, 0.01060f, -0.10377f, -0.14650f, -0.09023f, -0.21211f, -0.11032f, 0.02644f, 
	-0.03270f, -0.07986f, -0.09405f, -0.08662f, -0.06660f, -0.02161f, -0.00190f, -0.03668f, 
	0.02708f, -0.11254f, 0.00924f, -0.14876f, -0.08810f, 0.03538f, -0.14187f, 0.00543f, 
	0.15940f, 0.29621f, 0.07464f, -0.05670f, -0.02080f, -0.11150f, 0.05067f, -0.17213f, 
	0.15510f, -0.15508f, 0.04727f, 0.01904f, -0.04723f, -0.09486f, -0.02204f, -0.00753f, 
	0.02070f, -0.02296f, -0.12610f, 0.01110f, -0.02326f, 0.00502f, -0.00501f, -0.00188f, 
	-0.02235f, 0.05879f, -0.05005f, -0.02141f, -0.08313f, 0.01823f, -0.08278f, -0.17320f, 
	-0.06189f, 0.14602f, -0.04916f, 0.01654f, -0.22241f, -0.01386f, -0.00965f, 0.08538f, 
	0.06384f, 0.17806f, 0.03028f, -0.06294f, 0.05329f, 0.00115f, 0.00610f, -0.00615f, 
	0.03718f, -0.06866f, -0.05435f, -0.09051f, -0.14520f, 0.02981f, 0.04874f, 0.01429f, 
	-0.05056f, -0.04326f, -0.04729f, -0.00542f, -0.02381f, -0.13928f, -0.17970f, -0.34396f, 
	-0.07299f, 0.04980f, -0.06871f, -0.00033f, -0.18336f, 0.07328f, 0.00146f, -0.15145f, 
	-0.08534f, -0.21493f, -0.17697f, 0.20217f, -0.03017f, 0.13761f, -0.08878f, -0.12772f, 
	-0.06146f, -0.09883f, 0.19898f, -0.02253f, 0.06162f, -0.00286f, 0.05786f, 0.17157f, 
	-0.03443f, -0.01959f, -0.13981f, -0.04583f, 0.22254f, 0.24222f, -0.27531f, -0.12720f, 
	0.09456f, 0.00884f, 0.07088f, -0.06569f, 0.11385f, -0.01578f, -0.13695f, -0.12420f, 
	0.36614f, -0.01616f, -0.08271f, 0.00074f, -0.01517f, -0.01056f, -0.09654f, -0.05239f, 
	-0.52531f, 0.00452f, -0.05737f, -0.10937f, -0.15396f, -0.05428f, 0.00961f, -0.01716f, 
	0.04017f, -0.10815f, -0.01091f, 0.03310f, 0.12947f, -0.15356f, 0.09497f, 0.14684f, 
	0.17033f, -0.18941f, -0.01979f, -0.06911f, 0.03971f, -0.04936f, -0.02255f, -0.07992f, 
	0.04894f, -0.02927f, -0.18474f, -0.04352f, -0.01342f, -0.05911f, 0.02643f, 0.04325f, 
	-0.14721f, -0.22862f, -0.09448f, 0.28129f, 0.06908f, -0.12215f, -0.11329f, 0.32449f, 
	0.00920f, -0.07230f, 0.05655f, 0.07847f, 0.10097f, 0.08774f, -0.06116f, 0.06250f, 
	0.00250f, 0.07988f, -0.06510f, -0.01372f, -0.01021f, -0.02893f, -0.19962f, -0.07286f, 
	-0.09178f, -0.01193f, -0.05525f, 0.01110f, 0.03252f, -0.09035f, -0.03153f, -0.05161f, 
	0.12715f, 0.05646f, 0.01693f, 0.04558f, 0.05075f, -0.04145f, -0.08457f, 0.09061f, 
	-0.25344f, 0.02680f, -0.05671f, 0.05148f, 0.00373f, 0.01336f, 0.09879f, -0.09548f, 
	0.02661f, -0.00701f, 0.00521f, -0.04078f, 0.04998f, 0.13184f, 0.05723f, -0.22149f, 
	-0.14300f, -0.02756f, -0.00286f, -0.02532f, 0.02204f, -0.10930f, 0.01871f, 0.04919f, 
	0.03501f, 0.11713f, -0.10922f, 0.16859f, -0.11321f, 0.10488f, 0.00853f, -0.01739f, 
	-0.01348f, 0.03753f, 0.01429f, -0.21698f, -0.10728f, -0.09489f, 0.07363f, -0.18027f, 
	-0.17789f, 0.06409f, -0.03931f, 0.01041f, -0.07758f, -0.00744f, -0.14644f, 0.00674f, 
	0.15679f, -0.17169f, -0.02883f, 0.00239f, -0.03883f, 0.06965f, 0.00977f, -0.04438f, 
	-0.08245f, -0.10149f, 0.07062f, -0.15537f, 0.02907f, 0.01820f, 0.07335f, 0.22399f, 
	0.35770f, -0.03385f, 0.06471f, -0.03262f, 0.09302f, 0.04922f, 0.09268f, -0.07434f, 
	-0.17509f, -0.12754f, -0.02924f, -0.12380f, 0.03467f, -0.00027f, 0.03925f, 0.09005f, 
	-0.03268f, -0.05172f, 0.03054f, 0.03423f, -0.08854f, -0.08627f, 0.01098f, 0.01948f, 
	0.08419f, -0.11073f, -0.07041f, 0.04931f, 0.17771f, 0.02589f, 0.22135f, 0.07383f, 
	0.25270f, -0.10660f, -0.00325f, 0.15730f, -0.10843f, -0.08065f, -0.00585f, -0.23256f, 
	-0.02140f, 0.00118f, -0.08456f, -0.05211f, 0.04462f, 0.07438f, 0.36313f, -0.05547f, 
	-0.16617f, 0.09136f, 0.10515f, -0.13824f, -0.01247f, -0.09154f, 0.00827f, 0.00603f, 
	0.05524f, 0.06784f, -0.16708f, -0.08117f, -0.10522f, 0.02125f, -0.12294f, 0.26217f, 
	-0.18025f, 0.00382f, 0.00589f, -0.20010f, 0.15686f, 0.07715f, 0.01705f, 0.18349f, 
	0.06348f, 0.11098f, -0.03057f, 0.00527f, -0.09832f, 0.07146f, 0.14950f, -0.04589f, 
	0.09420f, 0.06667f, 0.13528f, 0.11323f, 0.00225f, 0.04366f, 0.09196f, -0.07300f, 
	0.07834f, -0.09225f, 0.08519f, -0.05593f, 0.05599f, -0.08508f, -0.12667f, 0.25945f, 
	-0.03797f, 0.01395f, -0.04637f, -0.15452f, 0.37093f, 0.01675f, 0.02663f, 0.24433f, 
	0.02699f, -0.18394f, 0.00327f, 0.11667f, -0.22307f, 0.25595f, 0.08729f, 0.09897f, 
	-0.14362f, -0.21755f, 0.07803f, 0.04682f, 0.01347f, -0.08681f, -0.06101f, -0.03097f, 
	0.04295f, -0.02637f, -0.28108f, 0.02108f, -0.02888f, 0.16493f, 0.05390f, 0.15767f, 
	-0.26757f, 0.01521f, -0.04727f, -0.15973f, -0.14862f, -0.03238f, -0.02764f, -0.14434f, 
	-0.04511f, 0.12332f, 0.02364f, 0.01198f, 0.08012f, -0.00969f, 0.03414f, -0.02856f, 
	-0.09262f, -0.18845f, 0.11904f, -0.06163f, -0.00810f, -0.05011f, -0.18156f, -0.04164f, 
	-0.02407f, -0.05514f, -0.10242f, -0.07991f, -0.00144f, -0.03706f, 0.05108f, -0.11382f, 
	0.05644f, -0.04802f, -0.03583f, -0.01525f, 0.09724f, 0.02632f, -0.02968f, 0.06543f, 
	0.06149f, 0.08542f, 0.00706f, -0.05270f, 0.12762f, 0.01992f, -0.26401f, -0.07298f, 
	0.06234f, -0.13456f, -0.07613f, 0.01791f, 0.00241f, -0.10625f, -0.01512f, -0.04221f, 
	0.03342f, -0.02381f, -0.07942f, 0.10768f, 0.03042f, 0.00247f, -0.01883f, 0.18158f, 
	0.15116f, -0.03741f, -0.04074f, -0.03273f, -0.03163f, -0.01376f, -0.10875f, -0.10094f, 
	0.02360f, 0.09494f, 0.01208f, -0.06048f, -0.04268f, 0.02507f, -0.19138f, -0.01193f, 
	-0.04955f, 0.01345f, -0.13292f, -0.05121f, 0.17605f, -0.04820f, -0.04658f, -0.00596f, 
	0.03775f, -0.17886f, 0.14295f, -0.01792f, -0.11373f, 0.01767f, 0.01820f, 0.21272f, 
	-0.02599f, -0.01412f, 0.00869f, -0.03520f, -0.08786f, 0.02699f, -0.14538f, -0.06610f, 
	-0.09473f, -0.03227f, -0.05022f, -0.07229f, -0.18058f, 0.02704f, -0.35575f, -0.02139f, 
	-0.17722f, -0.24498f, 0.03180f, -0.11275f, -0.08218f, -0.21738f, 0.08161f, 0.04050f, 
	0.12106f, 0.10456f, -0.10835f, 0.03343f, -0.08209f, -0.04410f, 0.01548f, -0.03568f, 
	-0.19516f, -0.09372f, -0.05249f, -0.07709f, -0.03177f, -0.07208f, 0.00143f, 0.01340f, 
	-0.10364f, 0.12072f, -0.05283f, -0.07023f, -0.12775f, -0.17432f, 0.01518f, -0.20065f, 
	0.14572f, 0.02186f, -0.20740f, 0.04445f, 0.05484f, -0.01376f, 0.11076f, 0.02219f, 
	0.03919f, 0.03902f, -0.04732f, 0.17362f, -0.00822f, 0.06760f, 0.05537f, -0.12034f, 
	-0.04833f, -0.00405f, 0.00551f, -0.03468f, -0.07418f, -0.01722f, 0.01423f, -0.11085f, 
	-0.10582f, 0.00207f, -0.04008f, -0.02720f, -0.21801f, -0.10097f, -0.15970f, -0.03258f, 
	0.06136f, 0.03335f, -0.09566f, -0.00577f, 0.04108f, -0.03437f, 0.10734f, -0.02943f, 
	-0.05582f, 0.04027f, -0.13601f, 0.05054f, -0.00536f, 0.06477f, -0.13532f, -0.09277f, 
	0.15539f, 0.01601f, -0.05871f, -0.02183f, -0.13244f, -0.06943f, 0.01761f, -0.22465f, 
	-0.02197f, 0.05476f, 0.01481f, -0.04121f, -0.04739f, -0.03858f, 0.01217f, -0.13905f, 
	-0.16160f, 0.08323f, -0.14675f, 0.14224f, -0.14267f, 0.10486f, 0.18412f, -0.05246f, 
	0.02116f, 0.19163f, -0.08164f, -0.40752f, -0.05433f, -0.06651f, 0.13229f, 0.09827f, 
	0.14765f, 0.04331f, -0.08751f, -0.07705f, 0.08515f, 0.00832f, -0.03831f, 0.09281f, 
	-0.09146f, -0.08006f, -0.01079f, 0.01947f, -0.10522f, 0.07023f, 0.05524f, -0.03983f, 
	0.20027f, -0.03215f, 0.46623f, 0.03358f, -0.01873f, -0.01248f, -0.04138f, -0.05781f, 
	-0.03066f, -0.13041f, -0.00465f, -0.13798f, 0.02817f, -0.25248f, -0.03314f, 0.08758f, 
	0.16504f, -0.16426f, -0.13409f, -0.02202f, 0.05475f, -0.26978f, -0.01795f, -0.06204f, 
	0.12508f, -0.13058f, -0.19249f, 0.02874f, 0.00565f, -0.03073f, -0.05612f, 0.07478f, 
	0.10318f, 0.09078f, 0.04581f, 0.10094f, -0.11276f, 0.06843f, 0.16313f, 0.00745f, 
	0.12401f, -0.11994f, -0.11231f, -0.03305f, -0.09812f, -0.02497f, -0.02906f, 0.07313f, 
	0.06027f, 0.05992f, 0.02926f, 0.12939f, 0.02535f, 0.06128f, -0.09401f, -0.13032f, 
	0.02843f, 0.10172f, 0.11237f, 0.08722f, -0.05434f, -0.06412f, -0.07669f, -0.00907f, 
	-0.05233f, 0.06958f, -0.09012f, 0.01586f, -0.00464f, -0.04755f, -0.10042f, -0.10898f, 
	-0.08000f, 0.25023f, 0.04212f, 0.05593f, -0.19370f, 0.05441f, -0.10342f, -0.07798f, 
	-0.14905f, 0.03318f, -0.07642f, -0.07648f, 0.00841f, 0.07032f, -0.04276f, 0.02222f, 
	-0.12165f, 0.07947f, 0.00528f, -0.04246f, 0.03162f, -0.00103f, -0.00419f, 0.06931f, 
	-0.05357f, -0.08968f, -0.23143f, 0.07617f, 0.10364f, 0.11369f, 0.07691f, 0.01092f, 
	-0.14495f, 0.11465f, -0.00812f, 0.23595f, -0.21203f, -0.00848f, 0.08615f, -0.02617f, 
	-0.22273f, -0.05712f, -0.02058f, -0.15597f, -0.07380f, -0.10282f, 0.02901f, -0.07313f, 
	-0.10059f, -0.07265f, -0.05761f, -0.04345f, -0.05853f, -0.08135f, -0.37379f, -0.00992f, 
	0.23495f, -0.00424f, 0.13194f, 0.02714f, -0.12554f, -0.23725f, -0.12423f, -0.05139f, 
	-0.26421f, -0.16741f, 0.11886f, -0.26285f, -0.03944f, -0.28493f, -0.07756f, 0.25954f, 
	0.27557f, -0.02538f, -0.02166f, -0.11714f, 0.05700f, 0.26749f, 0.06487f, 0.03078f, 
	-0.20231f, -0.08084f, -0.13005f, -0.07650f, 0.18133f, 0.27108f, -0.09336f, 0.03113f, 
	-0.15350f, -0.24656f, -0.44729f, -0.03436f, -0.10242f, 0.02503f, 0.11000f, 0.00868f, 
	0.00223f, 0.25783f, -0.03704f, 0.12816f, -0.06024f, 0.05197f, 0.22236f, -0.01048f, 
	-0.13168f, -0.04635f, 0.01580f, 0.05382f, -0.14472f, -0.08449f, -0.05242f, 0.08064f, 
	-0.13687f, -0.17405f, -0.03617f, -0.11751f, 0.00387f, 0.04434f, -0.00720f, -0.16004f, 
	-0.06134f, -0.14801f, 0.10952f, 0.07165f, 0.01218f, -0.02082f, -0.03268f, 0.07079f, 
	-0.03125f, -0.03182f, -0.12195f, 0.14285f, -0.17559f, 0.08772f, -0.20360f, -0.29194f, 
	-0.25643f, 0.02734f, -0.04269f, 0.10990f, 0.09793f, 0.17918f, 0.10482f, -0.13586f, 
	0.21049f, 0.28448f, 0.12295f, -0.00889f, -0.26025f, -0.03062f, 0.11851f, -0.12378f, 
	0.07013f, -0.13849f, 0.30256f, -0.01864f, -0.01497f, 0.09327f, 0.07993f, -0.04968f, 
	0.06392f, -0.19501f, -0.03546f, -0.11783f, 0.18735f, 0.15196f, 0.04947f, 0.30548f, 
	-0.03616f, 0.04766f, 0.03190f, -0.21714f, 0.10210f, 0.19374f, -0.04308f, -0.19791f, 
	-0.12194f, -0.09064f, 0.02141f, 0.11818f, 0.07902f, 0.34523f, 0.12185f, 0.19025f, 
	-0.11985f, -0.37111f, -0.06659f, -0.19269f, 0.04303f, -0.01203f, 0.15968f, -0.16364f, 
	-0.01180f, -0.02134f, -0.24606f, -0.03228f, -0.21303f, 0.07058f, -0.14316f, -0.06549f, 
	-0.28359f, 0.00833f, 0.00751f, -0.24360f, -0.06686f, -0.06071f, -0.03152f, 0.00319f, 
	0.05505f, 0.11158f, 0.07671f, -0.00912f, -0.03761f, -0.17468f, 0.02280f, -0.29810f, 
	0.07108f, -0.09992f, 0.31197f, -0.01129f, -0.05122f, -0.03314f, -0.11965f, -0.04431f, 
	-0.00528f, -0.11418f, -0.21144f, -0.04868f, -0.01234f, -0.07114f, 0.18108f, -0.00340f, 
	-0.01066f, -0.05801f, -0.11503f, -0.01585f, 0.02802f, 0.01513f, -0.10534f, 0.02755f, 
	-0.07369f, -0.02543f, -0.10793f, -0.00113f, 0.05978f, 0.11499f, -0.19786f, 0.04205f, 
	-0.09396f, 0.01759f, 0.00838f, 0.00307f, -0.16401f, -0.05314f, -0.06088f, -0.04581f, 
	0.02422f, 0.19727f, 0.05175f, 0.19226f, -0.02745f, -0.04410f, 0.16373f, 0.10410f, 
	0.11320f, 0.02063f, -0.02514f, 0.00516f, -0.05338f, -0.02236f, -0.24530f, 0.00987f, 
	-0.00816f, 0.02524f, 0.00448f, 0.02748f, -0.07246f, 0.01027f, -0.28181f, -0.05934f, 
	-0.06053f, 0.06746f, -0.22732f, -0.06608f, 0.02969f, -0.01998f, -0.03927f, -0.02841f, 
	0.00847f, 0.05186f, -0.06669f, 0.10603f, -0.27616f, -0.04860f, 0.05553f, 0.06123f, 
	-0.03171f, 0.04047f, 0.08721f, -0.15434f, -0.02129f, -0.07162f, 0.03318f, -0.02860f, 
	-0.05214f, -0.14897f, 0.02002f, -0.00407f, -0.01462f, -0.13137f, -0.24282f, -0.02745f, 
	-0.12708f, -0.04402f, -0.04358f, -0.00640f, -0.08549f, -0.12055f, 0.00904f, 0.04355f, 
	-0.11622f, -0.07979f, -0.09127f, -0.00550f, -0.03022f, -0.01659f, 0.14231f, 0.07220f, 
	0.01631f, -0.02897f, -0.00302f, -0.01162f, 0.03496f, -0.21764f, 0.01688f, -0.04138f, 
	0.05407f, -0.00127f, -0.01229f, -0.05485f, -0.06694f, -0.24659f, -0.00410f, -0.15764f, 
	0.15414f, -0.11114f, -0.27377f, -0.00211f, 0.09247f, 0.05868f, 0.07160f, 0.03005f, 
	-0.07293f, -0.00889f, -0.07156f, 0.12342f, -0.13398f, -0.06510f, 0.02400f, -0.08859f, 
	-0.18469f, -0.08058f, -0.01425f, -0.03249f, -0.03908f, -0.08978f, -0.02017f, 0.06659f, 
	-0.01789f, -0.07190f, -0.13978f, -0.07405f, -0.17110f, -0.20452f, 0.00186f, -0.00127f, 
	0.03728f, -0.08793f, -0.22502f, -0.04374f, -0.11921f, -0.09887f, -0.04642f, -0.04520f, 
	-0.12814f, -0.02201f, -0.05471f, 0.11717f, -0.04589f, -0.19094f, -0.07282f, 0.04757f, 
	-0.17812f, 0.01463f, -0.03082f, -0.13038f, -0.01398f, -0.11385f, -0.03273f, -0.00362f, 
	-0.01243f, 0.05295f, 0.03731f, -0.02400f, -0.05953f, -0.02617f, 0.01892f, -0.07124f, 
	-0.01837f, -0.09732f, 0.25432f, 0.00808f, 0.14222f, -0.07023f, -0.00459f, -0.03363f, 
	-0.24959f, 0.04475f, -0.02762f, -0.15385f, -0.10821f, 0.16161f, -0.27278f, -0.10950f, 
	-0.00596f, -0.01228f, -0.15353f, 0.06360f, -0.09218f, 0.09315f, 0.08909f, -0.14651f, 
	-0.13223f, 0.06555f, -0.00655f, -0.16824f, 0.08427f, 0.12499f, -0.00375f, 0.02553f, 
	0.39040f, -0.07401f, 0.03109f, -0.06238f, 0.08476f, 0.09744f, 0.16890f, 0.03963f, 
	0.15825f, 0.13572f, 0.01365f, -0.18466f, -0.00696f, 0.07590f, -0.12992f, 0.10590f, 
	-0.03220f, -0.06700f, -0.02209f, 0.11767f, -0.05595f, 0.00964f, 0.22792f, 0.03412f, 
	-0.01748f, -0.16333f, 0.00456f, -0.00621f, 0.02892f, -0.23017f, 0.06827f, -0.11028f, 
	-0.18884f, -0.22970f, -0.08280f, 0.51236f, 0.12668f, -0.01714f, 0.26579f, -0.08157f, 
	-0.08725f, -0.32356f, -0.12570f, -0.07997f, -0.00398f, -0.13668f, 0.23715f, 0.29266f, 
	0.14614f, -0.16926f, -0.07967f, -0.06858f, -0.28570f, -0.11603f, 0.13788f, 0.16352f, 
	0.08278f, -0.13687f, -0.04455f, -0.03139f, -0.13809f, -0.04838f, -0.28225f, 0.27774f, 
	-0.23080f, 0.04677f, 0.07340f, 0.36617f, 0.26029f, 0.08649f, 0.25726f, 0.20920f, 
	-0.14845f, 0.04591f, 0.33938f, -0.28420f, -0.17269f, 0.07579f, 0.14046f, -0.22949f, 
	0.00885f, -0.03078f, 0.08224f, -0.06205f, -0.18597f, 0.21540f, 0.01710f, -0.09192f, 
	-0.34764f, 0.12056f, -0.21400f, -0.02208f, -0.67673f, -0.05515f, 0.09315f, 0.36470f, 
	0.03387f, -0.14570f, 0.08610f, 0.00250f, 0.13862f, -0.15773f, -0.32318f, -0.03668f, 
	0.04232f, -0.05713f, -0.20977f, -0.07857f, -0.26580f, -0.01855f, -0.06336f, -0.01337f, 
	-0.09312f, -0.03453f, -0.07049f, 0.05574f, -0.06528f, -0.12842f, -0.30852f, 0.10918f, 
	0.10709f, 0.18183f, 0.01234f, -0.04527f, -0.14974f, 0.08520f, -0.00498f, -0.20658f, 
	0.26239f, 0.05624f, 0.10491f, -0.17604f, -0.10229f, -0.13902f, 0.16807f, 0.03750f, 
	0.20271f, -0.02663f, 0.42035f, -0.01302f, -0.20970f, -0.03716f, -0.20714f, -0.00081f, 
	-0.03171f, 0.00211f, -0.13793f, -0.09213f, -0.12158f, 0.02889f, 0.14977f, -0.00912f, 
	-0.00509f, 0.09356f, -0.07336f, -0.03233f, -0.03535f, 0.00277f, 0.06908f, 0.14802f, 
	0.08847f, -0.08687f, 0.12804f, 0.01007f, 0.01798f, -0.06400f, -0.11602f, 0.06102f, 
	-0.01149f, -0.00817f, -0.02262f, -0.28086f, 0.15482f, -0.03697f, -0.01051f, 0.04450f, 
	-0.10275f, -0.13083f, -0.06131f, -0.09993f, -0.16669f, 0.07238f, -0.26756f, 0.11295f, 
	0.11244f, 0.29590f, -0.00383f, -0.07267f, 0.01254f, 0.02296f, -0.07045f, 0.02815f, 
	0.24961f, 0.26071f, -0.00589f, -0.05167f, -0.03799f, 0.01685f, -0.13906f, -0.05580f, 
	0.06651f, 0.06630f, 0.14675f, 0.24012f, 0.09055f, -0.02024f, 0.01730f, -0.24670f, 
	0.13618f, 0.03934f, 0.10195f, 0.07687f, 0.10982f, -0.06784f, 0.27320f, 0.10160f, 
	0.03883f, -0.20014f, -0.03584f, 0.08928f, 0.28045f, 0.29092f, -0.05289f, 0.29476f, 
	-0.06133f, -0.00312f, 0.05161f, -0.09749f, -0.09761f, 0.03499f, -0.42230f, -0.09900f, 
	0.05602f, -0.06755f, 0.13084f, 0.15547f, -0.01510f, 0.01639f, -0.13993f, -0.01923f, 
	-0.10762f, -0.04181f, 0.09403f, 0.00160f, 0.03899f, -0.30085f, -0.20989f, -0.46214f, 
	0.19497f, 0.13465f, -0.01296f, -0.09073f, 0.83766f, -0.17978f, 0.10789f, -0.04346f, 
	-0.12258f, 0.28550f, 0.09972f, 0.13468f, 0.01091f, -0.04824f, -0.11316f, 0.03143f, 
	-0.00220f, 0.11168f, 0.73411f, -0.15868f, 0.10459f, 0.03817f, -0.01510f, -0.01229f, 
	0.04234f, 0.04266f, 0.10502f, -0.05728f, -0.11183f, 0.06657f, -0.14437f, -0.08798f, 
	-0.08818f, -0.04435f, -0.03074f, 0.02883f, -0.32166f, -0.04271f, 0.21580f, -0.21595f, 
	-0.06941f, -0.10976f, -0.07941f, -0.12917f, 0.02850f, 0.07350f, -0.14105f, -0.07349f, 
	0.00306f, 0.00387f, 0.00316f, -0.04362f, 0.02665f, -0.07424f, 0.09736f, 0.03485f, 
	0.01332f, -0.05921f, -0.00145f, -0.01347f, 0.03437f, 0.07091f, 0.09455f, 0.02440f, 
	-0.14808f, -0.05481f, -0.06386f, -0.05550f, 0.25773f, 0.09324f, -0.01365f, 0.08349f, 
	-0.02968f, 0.05504f, 0.22108f, 0.04773f, -0.00637f, -0.07518f, -0.06524f, 0.02100f, 
	-0.05694f, 0.07182f, -0.30391f, -0.11259f, 0.05235f, 0.10956f, -0.16628f, 0.04853f, 
	-0.02630f, -0.03400f, -0.04032f, 0.14162f, -0.11900f, -0.00403f, -0.18850f, 0.06870f, 
	0.00859f, 0.20022f, 0.02273f, -0.01301f, -0.20445f, -0.03224f, 0.11707f, 0.03068f, 
	0.09656f, -0.05035f, 0.09737f, 0.11692f, 0.02273f, -0.13103f, -0.08163f, 0.05997f, 
	-0.17152f, -0.00904f, 0.16862f, -0.09992f, -0.00902f, 0.06856f, 0.06803f, 0.20546f, 
	0.11838f, 0.03697f, -0.02470f, -0.04534f, -0.02200f, -0.05753f, -0.15052f, 0.04435f, 
	-0.10141f, 0.01886f, 0.09969f, 0.02707f, -0.40454f, -0.11672f, 0.10922f, 0.13377f, 
	-0.01409f, 0.00882f, -0.04142f, -0.06707f, 0.03356f, 0.03710f, -0.08732f, 0.04549f, 
	-0.11395f, -0.03544f, 0.14720f, -0.08576f, 0.11800f, -0.05561f, -0.04847f, 0.00105f, 
	-0.05636f, -0.14119f, -0.10065f, -0.06603f, -0.07629f, 0.11964f, -0.28686f, 0.04372f, 
	0.13441f, 0.27340f, -0.01811f, -0.18581f, -0.08170f, -0.16055f, -0.12369f, -0.26006f, 
	0.07685f, -0.02730f, 0.08096f, 0.08820f, 0.02814f, -0.14921f, -0.01791f, 0.02007f, 
	-0.03941f, 0.10804f, -0.03867f, 0.02183f, -0.11044f, 0.07366f, -0.20015f, -0.14264f, 
	0.05072f, 0.06701f, -0.00017f, -0.03290f, -0.20086f, 0.10073f, -0.07965f, 0.00773f, 
	-0.02883f, 0.14047f, 0.06180f, 0.03757f, -0.32491f, -0.13892f, -0.06052f, 0.08526f, 
	0.25721f, 0.03435f, 0.02555f, 0.05625f, 0.05805f, -0.08393f, -0.08266f, 0.03027f, 
	-0.02583f, 0.06451f, 0.11934f, -0.13537f, -0.09482f, -0.01502f, 0.08056f, 0.02348f, 
	-0.05654f, -0.07877f, -0.03772f, -0.05160f, -0.00739f, 0.10194f, -0.19155f, -0.12944f, 
	-0.14715f, -0.00798f, -0.10451f, -0.01232f, -0.36009f, -0.15239f, 0.11722f, -0.20820f, 
	-0.10941f, 0.21544f, -0.10320f, 0.05952f, -0.06113f, 0.16206f, -0.14347f, -0.06019f, 
	-0.05281f, -0.15695f, -0.01847f, 0.31404f, 0.11249f, -0.03462f, 0.06927f, -0.13797f, 
	0.01903f, -0.01968f, 0.17313f, -0.15498f, 0.00890f, -0.02645f, 0.21528f, -0.27276f, 
	-0.02923f, -0.18195f, -0.07932f, -0.02097f, 0.13378f, 0.05248f, 0.00763f, 0.17067f, 
	0.25344f, -0.08710f, -0.20599f, -0.08008f, 0.14223f, 0.03450f, -0.01657f, -0.02863f, 
	-0.36862f, 0.09160f, -0.05454f, -0.00707f, -0.10837f, -0.11727f, -0.10174f, 0.14545f, 
	0.04827f, -0.06486f, -0.00329f, 0.07037f, 0.09875f, -0.04179f, 0.23652f, 0.07678f, 
	0.07811f, -0.20355f, -0.06448f, -0.04294f, 0.25788f, 0.04998f, -0.06614f, -0.03328f, 
	-0.08943f, -0.15894f, 0.03345f, 0.16392f, -0.01984f, 0.01830f, 0.06359f, -0.02622f, 
	-0.06457f, -0.19117f, -0.07748f, 0.13317f, 0.05291f, -0.10936f, 0.04069f, -0.06559f, 
	0.06147f, 0.04096f, 0.01701f, -0.02661f, -0.00599f, 0.00822f, -0.11338f, -0.03553f, 
	0.06459f, -0.06178f, 0.04274f, 0.06314f, 0.05476f, -0.18554f, -0.29160f, -0.01080f, 
	-0.06645f, 0.06906f, -0.24515f, 0.18584f, 0.24689f, 0.11194f, 0.08751f, 0.03583f, 
	-0.03032f, 0.09937f, -0.00524f, 0.12461f, 0.12429f, -0.01810f, -0.03438f, -0.29234f, 
	-0.03293f, -0.06973f, 0.04081f, -0.02555f, -0.22076f, 0.07818f, 0.15795f, 0.08567f, 
	0.09277f, 0.10988f, -0.08453f, -0.18969f, 0.11404f, -0.13345f, -0.05785f, -0.29803f, 
	-0.01452f, -0.11576f, 0.00031f, 0.00459f, 0.10490f, -0.15280f, -0.01243f, -0.06387f, 
	0.07503f, 0.05516f, -0.06824f, -0.00329f, -0.14902f, 0.03967f, 0.05587f, 0.01623f, 
	0.01912f, 0.00667f, -0.08513f, 0.02166f, -0.14455f, -0.12425f, 0.02598f, 0.04478f, 
	-0.06154f, -0.05479f, 0.03844f, 0.00503f, -0.07260f, -0.23589f, 0.05785f, -0.16743f, 
	0.05419f, 0.13345f, -0.09532f, -0.01437f, 0.08772f, 0.06514f, 0.02928f, 0.00234f, 
	0.12228f, 0.11271f, 0.08168f, -0.08002f, 0.00265f, 0.04128f, -0.04378f, 0.20072f, 
	0.03983f, 0.06628f, 0.08132f, -0.09959f, 0.17598f, 0.13143f, 0.02342f, 0.04781f, 
	0.16534f, -0.06992f, 0.08237f, -0.07225f, -0.15084f, -0.07016f, 0.05072f, 0.17934f, 
	0.07203f, 0.14318f, 0.17482f, 0.14006f, 0.08296f, -0.17143f, 0.08562f, 0.07908f, 
	0.10376f, 0.02419f, -0.24517f, -0.04385f, 0.10391f, 0.01035f, 0.08514f, 0.19430f, 
	0.08294f, -0.07115f, -0.07261f, -0.01920f, -0.25050f, 0.06152f, 0.18665f, 0.02043f, 
	-0.09579f, 0.21338f, -0.06074f, -0.07617f, -0.16188f, -0.24413f, 0.06056f, -0.19406f, 
	-0.14242f, 0.05521f, 0.03882f, -0.04690f, 0.05862f, -0.04995f, -0.12377f, 0.02600f, 
	0.14454f, 0.04342f, 0.15708f, 0.00115f, 0.10260f, 0.13867f, -0.00260f, -0.02353f, 
	0.11477f, 0.03063f, -0.03474f, 0.10215f, 0.23750f, 0.02325f, 0.13886f, -0.03698f, 
	-0.05218f, 0.15137f, -0.04394f, -0.05602f, -0.07441f, 0.01958f, 0.06722f, 0.04373f, 
	-0.04280f, 0.04144f, 0.21042f, 0.02565f, -0.10408f, -0.10192f, -0.04964f, -0.00424f, 
	0.36245f, 0.18607f, 0.25839f, 0.13077f, -0.08056f, 0.05829f, -0.11076f, -0.15666f, 
	0.07905f, 0.01034f, -0.04890f, 0.01688f, 0.05076f, -0.33647f, -0.14132f, -0.06247f, 
	-0.02672f, 0.09774f, -0.08142f, -0.00809f, 0.33682f, 0.15046f, 0.08127f, -0.10355f, 
	0.14445f, 0.17144f, -0.03621f, 0.10417f, -0.20839f, -0.09594f, 0.00550f, 0.10560f, 
	-0.11537f, 0.24623f, -0.01140f, 0.24324f, 0.11527f, 0.11815f, 0.16096f, -0.04684f, 
	0.12157f, 0.01413f, -0.01217f, 0.14521f, -0.17735f, 0.05953f, 0.19452f, 0.05811f, 
	-0.00883f, 0.01649f, 0.06555f, -0.10834f, 0.01174f, -0.06472f, -0.15753f, 0.04884f, 
	0.05332f, -0.16689f, -0.02134f, 0.01335f, -0.03385f, 0.07752f, -0.18557f, -0.07730f, 
	0.03616f, -0.10896f, -0.08432f, -0.07829f, -0.00163f, -0.07262f, 0.15290f, -0.04479f, 
	-0.04323f, -0.06077f, -0.04316f, -0.08699f, 0.10939f, 0.00491f, -0.05558f, -0.05358f, 
	-0.04106f, 0.03333f, -0.08179f, -0.06999f, 0.18748f, 0.03897f, -0.10308f, -0.02349f, 
	0.00946f, 0.07854f, 0.12258f, 0.19163f, 0.08124f, -0.00055f, -0.07859f, 0.05350f, 
	0.05883f, 0.10067f, -0.05803f, 0.09688f, 0.06471f, -0.01545f, -0.08056f, 0.04194f, 
	-0.04818f, -0.02214f, -0.03889f, 0.07323f, -0.15292f, -0.08649f, 0.01813f, 0.06141f, 
	-0.07791f, 0.19420f, 0.00884f, -0.04704f, -0.13430f, -0.14603f, -0.10154f, -0.10297f, 
	0.07201f, -0.12330f, -0.04416f, 0.11124f, -0.03559f, -0.07881f, 0.05396f, 0.06760f, 
	-0.06330f, 0.08340f, -0.00779f, -0.05011f, -0.05496f, -0.03269f, 0.01189f, -0.02899f, 
	0.12685f, 0.01128f, -0.02270f, -0.06281f, -0.07084f, -0.07258f, -0.12702f, 0.07827f, 
	0.08752f, -0.02763f, -0.01842f, 0.02420f, -0.23723f, -0.24290f, -0.02963f, -0.03560f, 
	-0.20391f, 0.03815f, -0.03177f, 0.13932f, 0.11121f, 0.01010f, 0.13484f, -0.00697f, 
	0.02411f, 0.15341f, 0.09859f, 0.06337f, 0.07541f, -0.02192f, -0.09024f, 0.05877f, 
	-0.04197f, -0.08162f, -0.13419f, -0.04365f, -0.15759f, 0.07571f, 0.00974f, 0.00329f, 
	-0.09120f, 0.00020f, -0.04356f, -0.09873f, -0.13754f, -0.07858f, 0.00303f, -0.25677f, 
	0.05830f, -0.01070f, -0.26637f, 0.09574f, 0.05280f, -0.07464f, 0.07339f, 0.06377f, 
	0.01315f, 0.18586f, -0.23906f, 0.14717f, -0.09514f, 0.02142f, -0.01847f, 0.00834f, 
	0.04406f, -0.00185f, -0.00722f, -0.00569f, -0.04818f, 0.00936f, 0.07849f, 0.05435f, 
	-0.08702f, 0.02962f, -0.02706f, 0.00410f, -0.22506f, -0.27265f, -0.15421f, -0.01826f, 
	0.14356f, 0.00562f, 0.04883f, 0.08596f, -0.03493f, -0.01390f, 0.05928f, -0.01014f, 
	-0.06404f, 0.07124f, -0.03639f, 0.02800f, -0.07662f, 0.03087f, 0.06234f, 0.07979f, 
	-0.06979f, -0.05868f, -0.06568f, -0.00783f, -0.09929f, -0.02183f, -0.03487f, -0.05013f, 
	-0.03237f, -0.05901f, -0.03618f, -0.04103f, -0.22694f, -0.34092f, 0.13009f, -0.17974f, 
	-0.07196f, 0.16429f, -0.10592f, 0.01055f, 0.04992f, 0.08667f, -0.20464f, -0.05036f, 
	-0.06295f, -0.00651f, -0.14039f, -0.09951f, 0.01185f, -0.17193f, 0.11980f, -0.06409f, 
	-0.03930f, -0.04052f, -0.02130f, -0.05183f, 0.20473f, -0.08204f, -0.24810f, -0.01897f, 
	0.00861f, -0.22213f, -0.17112f, 0.00816f, -0.05860f, 0.38973f, 0.02624f, 0.04959f, 
	0.34655f, -0.13762f, 0.20764f, -0.04264f, -0.03036f, -0.07060f, -0.05393f, -0.13333f, 
	-0.02835f, -0.03284f, -0.29348f, -0.23832f, -0.05759f, -0.30040f, 0.02261f, 0.16141f, 
	0.12419f, -0.17085f, -0.10149f, 0.10773f, 0.01269f, 0.02980f, 0.11991f, -0.10015f, 
	-0.00670f, -0.10480f, -0.27307f, -0.06039f, 0.22284f, 0.24340f, 0.00879f, -0.06453f, 
	-0.07408f, -0.23397f, 0.02613f, 0.31381f, 0.11124f, 0.05087f, 0.19626f, -0.04061f, 
	0.09104f, -0.10895f, -0.10686f, -0.04986f, -0.16727f, -0.03769f, -0.05268f, -0.01284f, 
	0.21472f, -0.07380f, 0.04468f, 0.02838f, 0.07541f, -0.22834f, -0.07467f, 0.11306f, 
	-0.00781f, 0.01014f, 0.02166f, 0.00033f, -0.17979f, -0.05429f, -0.05361f, 0.03289f, 
	0.04183f, 0.04982f, -0.19231f, 0.02839f, 0.19568f, 0.04603f, -0.05629f, -0.00541f, 
	-0.16691f, -0.01570f, -0.02400f, 0.05274f, 0.15754f, -0.12801f, -0.01971f, -0.30918f, 
	0.30103f, -0.03937f, 0.06945f, -0.11566f, -0.01834f, -0.00425f, -0.08456f, 0.20737f, 
	-0.12952f, 0.09909f, -0.02307f, 0.01664f, -0.11048f, 0.22947f, -0.23604f, 0.25593f, 
	-0.07076f, -0.66536f, -0.32525f, 0.03567f, 0.19874f, -0.02421f, 0.07349f, -0.03756f, 
	-0.15636f, 0.23958f, -0.14056f, 0.18334f, -0.20987f, 0.05444f, -0.25968f, -0.10516f, 
	-0.28253f, -0.02077f, -0.08746f, -0.06760f, -0.10564f, 0.04859f, -0.04251f, 0.05510f, 
	-0.03083f, 0.04661f, 0.05300f, -0.06630f, -0.17595f, -0.28116f, -0.07120f, -0.14393f, 
	0.08626f, -0.11981f, -0.01651f, -0.06379f, -0.02000f, -0.06118f, -0.05483f, 0.02280f, 
	-0.20610f, 0.13208f, 0.18001f, -0.12691f, 0.17946f, -0.30269f, -0.04211f, 0.23136f, 
	0.14865f, -0.00881f, -0.03529f, -0.11961f, 0.16738f, 0.16297f, -0.00328f, 0.03839f, 
	0.01698f, -0.18565f, -0.15712f, -0.05835f, -0.04012f, 0.25710f, -0.20901f, 0.14343f, 
	-0.15406f, -0.00698f, -0.19989f, 0.22466f, 0.23235f, 0.12618f, -0.00314f, 0.05007f, 
	-0.07207f, 0.06366f, -0.14338f, 0.11647f, -0.25806f, 0.09068f, -0.11564f, -0.25807f, 
	0.02673f, 0.08547f, 0.10427f, 0.00198f, -0.13729f, -0.12983f, -0.09298f, 0.04161f, 
	0.11380f, -0.03606f, 0.17769f, -0.02403f, -0.15823f, -0.37878f, -0.06096f, 0.09394f, 
	0.03791f, -0.18447f, 0.31636f, 0.09846f, -0.15949f, 0.04174f, 0.05681f, -0.06334f, 
	0.00065f, -0.07576f, 0.14342f, -0.09381f, -0.27351f, 0.01560f, -0.09021f, 0.10538f, 
	-0.17794f, 0.04003f, 0.04894f, 0.05852f, -0.00586f, 0.03199f, 0.09743f, -0.04010f, 
	0.01872f, 0.23158f, 0.16748f, 0.08027f, 0.16061f, 0.15854f, -0.01371f, -0.22435f, 
	-0.04981f, 0.26676f, 0.09350f, 0.20344f, 0.10730f, 0.04190f, -0.01667f, 0.08913f, 
	0.20208f, 0.14665f, 0.16836f, 0.12937f, -0.02428f, 0.30794f, -0.10570f, -0.22531f, 
	0.04109f, -0.02396f, 0.03081f, 0.10115f, -0.06280f, -0.22155f, 0.13414f, 0.26949f, 
	0.08695f, 0.27410f, 0.07655f, -0.11478f, -0.12674f, -0.22248f, -0.10181f, 0.34933f, 
	-0.23431f, 0.24569f, -0.20915f, 0.01353f, 0.36173f, 0.08214f, -0.02607f, 0.10153f, 
	-0.02853f, 0.24394f, 0.26769f, 0.28485f, 0.04243f, -0.26126f, -0.09152f, -0.29981f, 
	0.51631f, 0.02418f, 0.07753f, 0.10110f, -0.07771f, -0.05623f, -0.10753f, 0.05371f, 
	-0.01291f, 0.16088f, -0.10327f, 0.03060f, -0.16302f, -0.23381f, -0.20312f, 0.21286f, 
	0.06812f, -0.01792f, 0.05508f, -0.10053f, -0.03658f, -0.04856f, -0.15920f, -0.01359f, 
	0.03954f, -0.12624f, -0.11216f, -0.13013f, -0.01379f, -0.01853f, 0.06235f, -0.00131f, 
	-0.07072f, -0.08034f, -0.06614f, -0.03207f, 0.03634f, -0.09712f, -0.19863f, 0.04437f, 
	-0.00180f, 0.02960f, -0.13899f, -0.09373f, 0.07022f, 0.19242f, -0.11777f, 0.01514f, 
	0.17514f, -0.00821f, -0.20217f, 0.08862f, 0.19863f, -0.08650f, 0.05928f, 0.03524f, 
	-0.03331f, 0.30668f, 0.02728f, 0.20982f, -0.06417f, 0.10500f, 0.04791f, 0.10609f, 
	0.11712f, -0.00157f, -0.07438f, 0.03580f, -0.06632f, 0.10138f, 0.01465f, 0.06373f, 
	0.04466f, -0.04038f, 0.05754f, -0.07950f, -0.08575f, -0.14745f, -0.03817f, -0.26155f, 
	0.07851f, -0.09780f, -0.13780f, 0.00051f, -0.02523f, 0.07450f, 0.02358f, -0.04303f, 
	-0.08270f, -0.09595f, 0.13072f, -0.06841f, -0.15108f, -0.11514f, 0.00393f, 0.08812f, 
	-0.05987f, 0.01862f, 0.03169f, -0.12161f, 0.01641f, -0.17763f, 0.01421f, 0.06682f, 
	0.00026f, -0.05707f, 0.04813f, 0.06883f, -0.05104f, -0.27053f, 0.07509f, -0.02312f, 
	0.09574f, -0.22090f, -0.15774f, 0.12654f, 0.12150f, 0.03904f, -0.00106f, -0.02003f, 
	-0.19526f, 0.22744f, -0.13292f, -0.07928f, -0.04540f, 0.02470f, 0.06442f, 0.18485f, 
	-0.08896f, -0.04277f, -0.09797f, -0.00146f, -0.01625f, 0.17160f, 0.02080f, 0.01900f, 
	-0.03200f, -0.07615f, -0.01613f, -0.12313f, 0.03681f, -0.02899f, 0.15817f, -0.39519f, 
	0.12579f, -0.02167f, -0.21766f, 0.06272f, -0.00556f, -0.04778f, 0.02382f, 0.08340f, 
	-0.12333f, 0.08612f, -0.06389f, 0.12834f, -0.03696f, -0.10514f, 0.00031f, -0.04881f, 
	-0.14230f, -0.02583f, 0.02925f, -0.02919f, 0.03181f, -0.08837f, 0.04887f, 0.00962f, 
	0.09427f, -0.08263f, -0.06197f, -0.01131f, -0.15289f, -0.27964f, -0.13207f, 0.06853f, 
	0.08987f, -0.05203f, -0.28603f, -0.05340f, -0.03970f, -0.00952f, 0.03164f, 0.00184f, 
	-0.05221f, 0.00839f, -0.01778f, 0.03290f, -0.12043f, -0.18296f, 0.04350f, 0.11263f, 
	-0.20321f, -0.02180f, -0.04350f, 0.05605f, -0.01572f, -0.12799f, -0.10236f, 0.08720f, 
	-0.04437f, -0.12734f, -0.07939f, -0.03551f, -0.10877f, -0.29950f, 0.04720f, -0.13040f, 
	-0.24641f, 0.06691f, 0.09264f, 0.18713f, 0.18725f, -0.03687f, -0.18747f, -0.12151f, 
	0.12460f, -0.16860f, -0.25015f, -0.00306f, -0.24599f, 0.22311f, -0.17881f, -0.21578f, 
	0.02093f, -0.09021f, 0.05009f, 0.16273f, -0.32967f, -0.10632f, -0.03541f, -0.05563f, 
	-0.16183f, 0.01413f, -0.11175f, -0.00872f, 0.01277f, -0.00633f, 0.03599f, 0.15185f
};

static dl_matrix3d_t pnet_conv2d_kernel3 = {
	.w = 3,
	.h = 3,
	.c = 16,
	.n = 32,
	.stride = 48,
	.item = (fptp_t *)(&pnet_conv2d_kernel3_item_array[0])
};

const static fptp_t pnet_conv2d_bias3_item_array[] = {
	-0.08974f, 1.73151f, 1.29424f, -1.77720f, 0.39660f, 0.53424f, 1.34531f, 0.77188f, 
	0.78774f, 0.31240f, -0.37926f, -0.29495f, 1.86339f, 0.81490f, 1.50002f, -1.51548f, 
	-0.71558f, -0.48414f, -0.61390f, 1.46996f, 1.37190f, 0.79905f, 0.91941f, 0.88396f, 
	0.85123f, 0.99624f, -0.31870f, -0.21598f, 0.91254f, 0.59720f, 0.77093f, 0.38524f
};

static dl_matrix3d_t pnet_conv2d_bias3 = {
	.w = 1,
	.h = 1,
	.c = 32,
	.n = 1,
	.stride = 32,
	.item = (fptp_t *)(&pnet_conv2d_bias3_item_array[0])
};

const static fptp_t pnet_conv2d_kernel4_item_array[] = {
	0.07251f, -0.34288f, 0.11779f, -0.28878f, -0.55614f, 0.17928f, 0.05156f, -0.34318f, 
	0.18582f, -0.24321f, -0.03732f, 0.41308f, 0.13541f, -0.24898f, -0.06048f, -0.23537f, 
	-0.45543f, 0.20442f, 0.31324f, -0.11679f, 0.18699f, -0.47873f, -0.30601f, 0.24354f, 
	0.01878f, -0.50504f, 0.12327f, 0.01833f, 0.36006f, -0.20334f, 0.20265f, -0.36946f, 
	0.36845f, -0.13615f, -0.00188f, -0.22655f, -0.29688f, 0.10404f, 0.18122f, -0.25883f, 
	-0.36095f, 0.20618f, -0.07978f, 0.42957f, -0.14076f, 0.45767f, -0.18155f, 0.31827f, 
	-0.29624f, 0.55430f, 0.24763f, -0.33139f, 0.25886f, -0.41696f, -0.01612f, 0.14995f, 
	-0.35673f, 0.57752f, -0.20573f, 0.30291f, 0.11428f, -0.21097f, 0.63437f, -0.04137f
};

static dl_matrix3d_t pnet_conv2d_kernel4 = {
	.w = 1,
	.h = 1,
	.c = 32,
	.n = 2,
	.stride = 32,
	.item = (fptp_t *)(&pnet_conv2d_kernel4_item_array[0])
};

const static fptp_t pnet_conv2d_bias4_item_array[] = {
	0.00053f, -0.00051f
};

static dl_matrix3d_t pnet_conv2d_bias4 = {
	.w = 1,
	.h = 1,
	.c = 2,
	.n = 1,
	.stride = 2,
	.item = (fptp_t *)(&pnet_conv2d_bias4_item_array[0])
};

const static fptp_t pnet_conv2d_kernel5_item_array[] = {
	-0.00587f, -0.00864f, 0.00461f, 0.00595f, 0.01557f, 0.00946f, 0.01849f, 0.01557f, 
	0.00500f, 0.00507f, -0.00893f, -0.00787f, -0.00394f, -0.00758f, 0.01002f, 0.00907f, 
	0.00290f, 0.00078f, 0.00412f, 0.00235f, 0.03431f, 0.00179f, 0.00694f, -0.03492f, 
	-0.00252f, -0.05529f, 0.00871f, -0.04542f, -0.01884f, 0.04063f, -0.09926f, -0.03915f, 
	-0.01438f, -0.00600f, 0.01448f, 0.03935f, -0.01014f, -0.01682f, 0.00439f, -0.00009f, 
	0.00202f, -0.00397f, 0.01649f, 0.01936f, 0.00658f, 0.01091f, -0.00560f, -0.01181f, 
	-0.00612f, 0.00068f, 0.00500f, 0.00948f, -0.00923f, 0.07572f, 0.00974f, 0.11779f, 
	-0.00049f, 0.00019f, 0.00133f, 0.00141f, 0.00274f, 0.00705f, 0.00136f, 0.00531f, 
	-0.00861f, -0.00615f, 0.00944f, 0.00615f, 0.19816f, 0.19220f, 0.07127f, -0.05795f, 
	-0.04481f, -0.12690f, 0.13619f, -0.04887f, -0.04805f, -0.01519f, -0.00453f, 0.02546f, 
	0.00238f, 0.00565f, -0.00497f, -0.00731f, -0.00088f, -0.00434f, 0.00216f, 0.00833f, 
	-0.01091f, -0.01999f, 0.00808f, 0.00543f, 0.00615f, 0.00948f, -0.00436f, -0.00597f, 
	-0.00487f, -0.00395f, 0.00437f, 0.01084f, 0.00258f, 0.00774f, 0.02382f, 0.02189f, 
	-0.03901f, -0.09413f, -0.14025f, -0.13117f, -0.15893f, 0.09157f, -0.05461f, 0.15697f, 
	0.00394f, 0.00404f, -0.00135f, 0.00324f, 0.00706f, 0.00458f, -0.00403f, -0.00725f, 
	0.00511f, 0.00309f, -0.00118f, -0.00416f, 0.03015f, -0.02315f, 0.04691f, 0.01848f
};

static dl_matrix3d_t pnet_conv2d_kernel5 = {
	.w = 1,
	.h = 1,
	.c = 32,
	.n = 4,
	.stride = 32,
	.item = (fptp_t *)(&pnet_conv2d_kernel5_item_array[0])
};

const static fptp_t pnet_conv2d_bias5_item_array[] = {
	0.02156f, -0.04285f, -0.06107f, -0.01219f
};

static dl_matrix3d_t pnet_conv2d_bias5 = {
	.w = 1,
	.h = 1,
	.c = 4,
	.n = 1,
	.stride = 4,
	.item = (fptp_t *)(&pnet_conv2d_bias5_item_array[0])
};

