#pragma once
#include "dl_lib_matrix3d.h"

const static fptp_t conv2d_bias_item_array[] = {
	-0.057839f, -0.135115f, -0.005233f, -0.050730f, -0.087844f, -0.131561f, -0.001457f, -0.062085f, 
	-0.047875f, -0.042277f, -0.054488f, -0.040071f, 0.049231f, -0.016411f, -0.015883f, -0.144472f, 
	-0.009782f, -0.052197f, -0.103218f, 0.022279f, -0.018237f, -0.021717f, -0.073624f, -0.142960f, 
	-0.048414f, -0.010029f, -0.058405f, -0.005098f, -0.049927f, 0.004878f, -0.040188f, -0.033538f, 
	
};

const static dl_matrix3d_t conv2d_bias = {
	.w = 1,
	.h = 1,
	.c = 32,
	.n = 1,
	.stride = 32,
	.item = (fptp_t *)(&conv2d_bias_item_array[0])
};

const static fptp_t conv2d_kernel_item_array[] = {
	-0.118731f, -0.016484f, 0.051803f, -0.133910f, 0.053173f, -0.078329f, 0.085635f, 0.034967f, 
	0.021507f, 0.059115f, 0.098237f, -0.079803f, -0.031360f, 0.043397f, -0.075285f, -0.035941f, 
	-0.086123f, 0.031641f, 0.017943f, -0.011425f, -0.133372f, 0.042829f, 0.111033f, -0.065034f, 
	-0.142599f, 0.052868f, 0.068183f, 0.003553f, 0.083960f, -0.055842f, 0.020519f, 0.072322f, 
	-0.045667f, -0.065434f, 0.057475f, -0.080030f, 0.067491f, 0.035030f, 0.037779f, 0.095942f, 
	-0.071331f, 0.101810f, -0.039531f, -0.115198f, -0.001527f, 0.027457f, 0.056456f, -0.011115f, 
	-0.033064f, -0.104528f, -0.075338f, -0.135288f, -0.065884f, 0.035661f, -0.039919f, -0.033063f, 
	-0.030819f, 0.101456f, 0.078966f, 0.035760f, -0.077187f, 0.065687f, 0.000744f, 0.004865f, 
	-0.034613f, 0.081358f, -0.022830f, -0.037224f, -0.073388f, -0.093086f, -0.053019f, -0.120008f, 
	-0.003943f, -0.023737f, 0.006053f, 0.051664f, 0.066407f, -0.128305f, -0.069885f, -0.052956f, 
	0.147991f, -0.006188f, -0.079739f, -0.195505f, 0.023032f, 0.168996f, 0.032622f, -0.062059f, 
	-0.297182f, 0.011613f, 0.153493f, 0.062586f, -0.086223f, -0.180658f, -0.036482f, 0.136786f, 
	0.208704f, -0.033210f, 0.059983f, 0.026159f, -0.080488f, -0.140736f, -0.129027f, 0.081716f, 
	-0.004684f, 0.086399f, 0.130115f, 0.144825f, 0.041792f, -0.077045f, 0.093009f, -0.063546f, 
	-0.104159f, -0.088099f, 0.029354f, -0.157930f, 0.021260f, 0.030465f, 0.067886f, 0.006527f, 
	0.012776f, 0.077510f, -0.058582f, 0.028460f, -0.057514f, -0.025893f, -0.026738f, 0.056004f, 
	0.044714f, 0.044053f, 0.028027f, -0.038901f, -0.060491f, -0.005856f, 0.085620f, -0.147290f, 
	0.019031f, 0.027025f, 0.081171f, 0.024365f, -0.063771f, 0.039645f, 0.067781f, 0.008792f, 
	-0.009522f, 0.081554f, 0.010879f, -0.018724f, 0.004892f, -0.008140f, 0.077382f, -0.129739f, 
	-0.148039f, -0.045359f, 0.095067f, 0.021167f, -0.163338f, -0.196219f, -0.045417f, 0.167005f, 
	-0.108493f, -0.223792f, -0.108620f, -0.060982f, 0.082865f, -0.052141f, -0.106456f, -0.142361f, 
	0.031819f, 0.173269f, -0.074489f, -0.045670f, -0.047757f, 0.038347f, 0.029508f, -0.034230f, 
	-0.019892f, 0.026762f, -0.060076f, -0.094592f, -0.068167f, -0.012682f, 0.161989f, -0.044868f, 
	-0.251039f, -0.038232f, 0.003874f, 0.156348f, -0.085238f, -0.095832f, 0.007186f, 0.039686f, 
	0.029015f, 0.156742f, 0.064987f, -0.047801f, 0.008410f, -0.046077f, 0.026329f, 0.061376f, 
	0.038318f, -0.087724f, -0.168446f, -0.060169f, -0.023497f, -0.092625f, -0.273708f, -0.129085f, 
	-0.051777f, 0.035371f, -0.194391f, -0.124698f, -0.042745f, 0.122967f, 0.098371f, -0.251083f, 
	0.018688f, 0.106230f, 0.147985f, 0.019049f, -0.025922f, 0.077006f, 0.122096f, 0.123269f, 
	-0.090022f, -0.006662f, 0.088455f, 0.138190f, 0.188501f, 0.090821f, 0.058073f, -0.048580f, 
	-0.006873f, -0.172495f, -0.161920f, -0.043320f, -0.108588f, -0.336478f, -0.192072f, -0.038639f, 
	-0.010428f, -0.092898f, -0.104041f, 0.037258f, 0.140738f, 0.082425f, 0.221596f, 0.197016f, 
	0.141628f, -0.020343f, -0.144290f, -0.076566f, -0.073092f, 0.081151f, 0.044636f, -0.105446f, 
	-0.162221f, -0.140335f, 0.061273f, 0.129814f, -0.206791f, -0.064042f, -0.136636f, 0.110449f, 
	0.082637f, -0.005949f, -0.040262f, -0.065208f, 0.044250f, 0.014902f, 0.122626f, -0.049063f, 
	-0.080478f, 0.100592f, 0.000805f, -0.038281f, -0.082616f, -0.248400f, -0.173514f, 0.004090f, 
	0.042421f, -0.101165f, -0.035845f, 0.146341f, 0.065779f, 0.141807f, 0.016851f, -0.021873f, 
	0.140512f, -0.074575f, -0.001432f, -0.042854f, -0.068929f, 0.016518f, -0.151040f, 0.068259f, 
	0.006223f, 0.146741f, 0.129698f, -0.024965f, 0.069636f, 0.122749f, 0.049880f, 0.069457f, 
	0.182939f, -0.027871f, -0.068221f, -0.045633f, 0.051159f, 0.141114f, -0.138582f, -0.234464f, 
	-0.217832f, -0.118755f, 0.051072f, -0.109527f, -0.168988f, -0.208915f, -0.129458f, -0.147412f, 
	0.096350f, -0.032344f, -0.151356f, -0.116456f, 0.018013f, 0.034049f, 0.114502f, 0.074087f, 
	0.085303f, 0.039990f, -0.001959f, 0.005018f, 0.026090f, 0.094974f, 0.006073f, -0.127513f, 
	-0.074302f, 0.014468f, 0.148154f, 0.175921f, -0.244256f, -0.145165f, -0.259617f, -0.012484f, 
	0.124052f, -0.091869f, -0.162053f, -0.223480f, -0.096261f, 0.040693f, -0.059558f, 0.114298f, 
	0.157372f, 0.134342f, 0.120951f, 0.039691f, 0.101844f, 0.080555f, 0.065941f, 0.028004f, 
	-0.021953f, 0.042281f, -0.121695f, -0.151944f, -0.208090f, 0.020500f, -0.190580f, -0.364724f, 
	-0.235037f, -0.086747f, -0.032362f, -0.086098f, 0.058532f, 0.157778f, 0.123759f, -0.068667f, 
	-0.055631f, 0.044601f, 0.063860f, -0.028455f, -0.030502f, -0.060328f, 0.000582f, 0.112671f, 
	0.057677f, -0.126393f, -0.069968f, -0.019239f, 0.044983f, -0.132348f, -0.096299f, -0.023765f, 
	0.056438f, 0.027338f, -0.114241f, 0.065236f, -0.004685f, -0.000677f, 0.059514f, 0.053950f, 
	0.024955f, -0.013058f, 0.017888f, -0.048924f, -0.088171f, -0.041721f, -0.116543f, -0.008986f, 
	-0.028545f, -0.148261f, -0.003387f, -0.040706f, -0.078721f, -0.036880f, 0.028312f, -0.018723f, 
	-0.019185f, 0.016050f, 0.040981f, 0.034807f, 0.097797f, 0.071201f, -0.103423f, 0.089603f, 
	0.113498f, -0.149645f, -0.184589f, -0.014811f, 0.077084f, 0.077740f, 0.048242f, 0.012754f, 
	0.134058f, 0.019102f, -0.082853f, 0.003509f, 0.099118f, 0.060793f, -0.174359f, 0.001960f, 
	0.029838f, -0.062132f, -0.152055f, -0.011961f, 0.044571f, -0.066352f, -0.050034f, 0.085790f, 
	-0.013387f, 0.054231f, -0.138526f, -0.040253f, -0.044051f, 0.083172f, 0.055574f, -0.077814f, 
	-0.047548f, 0.057321f, 0.087915f, 0.098524f, -0.120162f, -0.007029f, -0.041720f, 0.105142f, 
	0.042892f, 0.029152f, -0.011622f, 0.091884f, 0.047840f, 0.090818f, -0.016318f, -0.010247f, 
	-0.037947f, 0.060057f, 0.072775f, 0.046958f, 0.143438f, 0.133033f, 0.012068f, -0.047587f, 
	-0.097871f, 0.016744f, 0.176874f, 0.130604f, 0.067073f, -0.167172f, -0.175961f, -0.064665f, 
	0.152044f, 0.167087f, -0.126510f, -0.209058f, -0.323931f, -0.125563f, -0.012026f, 0.138539f, 
	-0.021847f, -0.080336f, -0.181700f, 0.002649f, 0.041635f, -0.010877f, -0.118191f, -0.130549f, 
	-0.113214f, -0.026113f, -0.115040f, -0.117843f, 0.055003f, -0.016402f, -0.143096f, -0.133161f, 
	0.100026f, 0.099840f, 0.014823f, -0.172850f, -0.016390f, 0.100548f, -0.061593f, -0.006571f, 
	-0.056450f, 0.148836f, 0.061846f, 0.079930f, 0.095828f, -0.027100f, 0.038920f, 0.029262f, 
	0.086053f, -0.029265f, 0.067316f, 0.065200f, 0.090707f, 0.125253f, 0.062804f, 0.125998f, 
	0.150839f, -0.008481f, 0.089597f, 0.018744f, 0.033952f, -0.131531f, -0.152387f, -0.110874f, 
	-0.136747f, -0.151256f, -0.235608f, -0.193021f, -0.025807f, 0.033770f, 0.075191f, 0.000745f, 
	-0.149707f, -0.066811f, 0.064770f, -0.130344f, -0.280597f, -0.092477f, 0.173861f, 0.141960f, 
	-0.146376f, -0.100401f, 0.158041f, 0.159594f, -0.103901f, -0.024174f, 0.126936f, 0.088367f, 
	-0.031453f, -0.025781f, 0.080272f, 0.024384f, -0.032356f, -0.113012f, -0.128114f, 0.052184f, 
	-0.018532f, -0.046260f, 0.067832f, 0.085080f, -0.027237f, 0.000623f, 0.069307f, -0.074839f, 
	0.038282f, 0.036501f, -0.068013f, -0.098436f, -0.079067f, -0.079780f, 0.046351f, 0.143033f, 
	-0.085734f, 0.033183f, 0.144571f, -0.107050f, 0.068335f, 0.071689f, -0.052744f, -0.088047f, 
	0.116372f, -0.078614f, 0.029932f, 0.126002f, -0.077587f, -0.026579f, -0.118110f, 0.061398f, 
	0.075247f, -0.092979f, -0.240701f, -0.013831f, 0.174144f, 0.125076f, -0.142128f, -0.035960f, 
	0.094881f, 0.104931f, -0.016373f, -0.157084f, -0.024657f, 0.035071f, 0.034512f, -0.096916f, 
	-0.145638f, -0.027828f, -0.027329f, -0.135496f, 0.006797f, 0.092509f, 0.043085f, -0.143302f, 
	-0.125943f, -0.291185f, -0.122311f, 0.113577f, 0.046415f, -0.165111f, -0.130042f, -0.214697f, 
	0.135971f, 0.188537f, 0.012244f, 0.149073f, -0.031338f, -0.011494f, 0.074744f, 0.150889f, 
	0.050453f, 0.202264f, -0.055995f, 0.026820f, -0.084804f, -0.192713f, -0.081153f, 0.072405f, 
	0.105223f, 0.072882f, -0.159831f, -0.254103f, 0.041105f, 0.092481f, 0.135521f, 0.023351f, 
	-0.219140f, -0.114672f, 0.057781f, 0.223959f, 0.058285f, -0.154550f, -0.121401f, -0.066279f, 
	0.118237f, 0.186820f, 0.050527f, 0.030186f, -0.007993f, 0.012346f, 0.161795f, 0.129283f, 
	0.051099f, 0.153319f, 0.097537f, 0.102006f, 0.073384f, 0.136831f, 0.017584f, -0.048308f, 
	-0.039218f, -0.096733f, -0.141426f, -0.129289f, -0.071233f, -0.291841f, -0.199530f, -0.096249f, 
	-0.048128f, -0.090347f, 0.024613f, 0.035673f, -0.026048f, 0.092196f, 0.007473f, 0.020131f, 
	-0.005233f, -0.017861f, -0.111763f, 0.001597f, 0.037113f, -0.002628f, -0.056024f, -0.120894f, 
	-0.052903f, 0.021013f, 0.049708f, -0.017376f, 0.128248f, 0.132002f, -0.059280f, 0.029819f, 
	0.011075f, -0.065319f, -0.086778f, -0.170096f, -0.198435f, 0.163730f, 0.078991f, 0.056908f, 
	0.026906f, -0.081551f, 0.074136f, 0.121428f, 0.060921f, -0.162703f, -0.196946f, 0.200661f, 
	0.070576f, -0.042540f, -0.312623f, -0.101802f, 0.175326f, -0.032068f, -0.202579f, -0.434759f, 
	-0.044902f, 0.003364f, -0.193081f, -0.240849f, -0.045874f, 0.134394f, -0.080120f, 0.053888f, 
	-0.079151f, -0.108340f, -0.016386f, 0.059581f, 0.082729f, -0.063852f, -0.082248f, -0.129178f, 
	-0.099156f, 0.047228f, 0.145321f, 0.224898f, 0.051829f, -0.081795f, 0.028213f, -0.130270f, 
	-0.023985f, 0.034767f, -0.003931f, -0.018900f, -0.149431f, -0.049295f, 0.057710f, 0.055902f, 
	0.053318f, 0.062949f, -0.112066f, -0.132719f, -0.061774f, -0.177300f, -0.218792f, -0.146256f, 
	-0.038689f, 0.089884f, -0.089511f, -0.004508f, 0.058892f, 0.175597f, 0.094633f, 0.138029f, 
	0.116073f, 0.170040f, 0.060112f, -0.052873f, 0.029627f, 0.018865f, -0.089286f, -0.121286f, 
	
};

const static dl_matrix3d_t conv2d_kernel = {
	.w = 5,
	.h = 5,
	.c = 1,
	.n = 32,
	.stride = 5,
	.item = (fptp_t *)(&conv2d_kernel_item_array[0])
};