#define bn1_bias { 0.01837722770869732, -0.052562516182661057, -0.009563841857016087, -0.03490620478987694, -0.08554098755121231, -0.03623543679714203, -0.016225021332502365, -0.014008844271302223, -0.01820242591202259, -0.03820958361029625, 0.006503493525087833, -0.02331547625362873, 0.005554412491619587, 0.012715335935354233, -0.008162730373442173, -0.000805433199275285, -0.01737656444311142, 0.008931012824177742, 0.04543277248740196, 0.029440097510814667, 0.014890829101204872, -0.01932922936975956, -0.0017447762656956911, 0.010069441981613636, -0.01897951401770115, 0.006007264833897352, -0.009608383290469646, -0.005087039899080992, 0.0044954209588468075, -0.019324427470564842, -0.0024371263571083546, -0.023428743705153465, }
#define bn1_weight { 1.007401466369629, 0.9990004897117615, 1.014615535736084, 1.0036472082138062, 1.010165810585022, 0.9651050567626953, 1.0061161518096924, 1.012251377105713, 0.9801761507987976, 0.9716246724128723, 0.9936235547065735, 0.9688354730606079, 0.9822390079498291, 1.0155075788497925, 1.0141295194625854, 1.0004948377609253, 0.9539321660995483, 0.9986288547515869, 1.0186901092529297, 1.0388964414596558, 0.9753934741020203, 0.9771031141281128, 1.0036695003509521, 0.9735408425331116, 0.9937787055969238, 1.010102391242981, 0.9850820899009705, 0.9426805377006531, 1.0017472505569458, 0.9897998571395874, 1.010255217552185, 1.0152126550674438, }
#define bn1_running_mean { 0.21842706203460693, -2.022012233734131, 2.0192301273345947, -1.5763319730758667, -2.477728843688965, -1.569932460784912, 0.6674968600273132, 1.1229052543640137, 0.23158332705497742, -1.5710372924804688, -0.6673752069473267, 0.5898447632789612, -0.6721250414848328, 2.0149827003479004, 0.6737319827079773, 1.769138216972351, -1.123659372329712, 2.4677188396453857, 2.9162213802337646, 2.0112032890319824, -0.22392213344573975, 0.23771996796131134, -0.2205834984779358, -1.124713659286499, -2.0169389247894287, 1.5694165229797363, -1.118927240371704, 0.22681507468223572, 0.6772736310958862, 0.6752933859825134, 0.21775603294372559, 1.1199238300323486, }
#define bn1_running_var { 0.1726590663369515, 0.6379450357268052, 0.6455208781387374, 0.5014429728373253, 0.7777416801780143, 0.5165888418784018, 0.25420743245334765, 0.3732194351615452, 0.13180827804331816, 0.5158323680157891, 0.23903475114181097, 0.20977118145564655, 0.31225380736535, 0.6472170501328602, 0.2428411308061913, 0.5901683899244637, 0.37162435643961256, 0.7829754657872233, 0.9302559725419239, 0.6542128551683141, 0.11618679260620308, 0.1924751370028786, 0.13000218205042022, 0.3935086812657652, 0.6439879005610515, 0.505185919851097, 0.40459361220770174, 0.1455805615844257, 0.2404837748150923, 0.2643953781525791, 0.1890148816159913, 0.3746597017566225, }
#define bn1_thresh {\
 14108, \
-130314, \
132731, \
-102163, \
-158064, \
-101615, \
44013, \
73929, \
15337, \
-101630, \
-43839, \
38986, \
-44164, \
131522, \
44281, \
115973, \
-73196, \
161265, \
188398, \
130591, \
-14791, \
15828, \
-14441, \
-73975, \
-131376, \
102656, \
-73071, \
14916, \
44315, \
44594, \
14300, \
73961, \
} 
#define bn1_sign {\
0xffffffff, \
} 
#define bn1_offset {\
11232, \
41850, \
41695, \
32743, \
50457, \
35079, \
16558, \
24163, \
8812, \
34792, \
15765, \
14189, \
20833, \
41768, \
15693, \
38658, \
25530, \
51383, \
59846, \
41269, \
7806, \
12909, \
8488, \
26489, \
42468, \
32776, \
26916, \
10120, \
15732, \
17505, \
12261, \
24185, \
} 
