#define bn2_bias { -0.10873889178037643, -0.021716240793466568, -0.02722516655921936, 0.020698798820376396, -0.01559752132743597, -0.05880304425954819, -0.015485097654163837, -0.016431162133812904, 0.0021289729047566652, -0.059916749596595764, -0.00699816457927227, -0.01365375705063343, -0.08005071431398392, 0.004765043035149574, -0.02529359795153141, -0.004658063407987356, -0.03828979283571243, -0.06758366525173187, -0.07919718325138092, -0.0458945631980896, 0.0003096160071436316, -0.031206456944346428, 0.006489822641015053, -0.02732187882065773, -0.009798374027013779, -0.032511480152606964, -0.07500233501195908, -0.03222398832440376, -0.036801330745220184, -0.015424315817654133, -0.03478053957223892, -0.01918639987707138, }
#define bn2_weight { 1.0343462228775024, 0.991179347038269, 0.9734625816345215, 0.979900062084198, 0.9884292483329773, 0.986822783946991, 0.977171778678894, 0.9950153231620789, 0.9994405508041382, 0.9870681762695312, 0.989196240901947, 0.9947379231452942, 0.9938023686408997, 0.9811177253723145, 0.9999839067459106, 0.9952935576438904, 0.9800183176994324, 1.0035529136657715, 0.9716475605964661, 0.9929498434066772, 0.9907472729682922, 1.0070929527282715, 1.0065151453018188, 0.9932962656021118, 0.9841587543487549, 0.99056077003479, 0.9845854043960571, 1.007638931274414, 0.9730026125907898, 1.0134382247924805, 0.9945012927055359, 1.006493091583252, }
#define bn2_running_mean { -14.015262603759766, -13.884926795959473, -0.9702942371368408, -5.6071696281433105, 7.744136333465576, -11.075424194335938, -20.54128074645996, 16.85539436340332, 3.0066189765930176, -21.164152145385742, 4.162590980529785, 1.989417314529419, -22.196496963500977, -20.118371963500977, 16.690507888793945, -13.008858680725098, -25.029804229736328, -16.170724868774414, -15.911380767822266, -9.17575454711914, 9.262080192565918, 3.300839900970459, 8.840886116027832, -23.821290969848633, 3.873027801513672, -21.456274032592773, -25.970766067504883, 3.6363558769226074, -31.02410125732422, 2.701796054840088, 2.788949966430664, -7.305928707122803, }
#define bn2_running_var { 6.7336972065922565, 6.987054298121103, 5.065314181827236, 5.19168308228928, 4.160691720233586, 6.347672776420794, 10.391493957438481, 9.484201244289764, 4.484865593740898, 11.199685392048268, 5.564526306720858, 3.6836031997575636, 9.966768360788626, 9.69959237726804, 9.395383114964133, 7.469950687189506, 12.671915338830678, 7.977603078550991, 7.87731342546293, 5.142562547450771, 5.939254340947595, 4.412190214094533, 4.609234720455442, 12.565755393853728, 4.292902771544287, 9.77550749961351, 11.523295814806929, 4.389997878714985, 14.132381704669754, 5.127728178023889, 3.6207603128238026, 6.727539275135176, }
#define bn2_thresh {\
 -872111, \
-899930, \
-54305, \
-374658, \
511822, \
-701050, \
-1335401, \
1114899, \
196415, \
-1342459, \
275379, \
133692, \
-1402055, \
-1321564, \
1109403, \
-850257, \
-1607906, \
-1024555, \
-1000689, \
-585764, \
606878, \
225283, \
577448, \
-1538500, \
256623, \
-1385131, \
-1644492, \
247512, \
-1998165, \
182179, \
191075, \
-470396, \
} 
#define bn2_sign {\
0xffffffff, \
} 
#define bn2_offset {\
426645, \
461978, \
341009, \
347221, \
275867, \
421556, \
696926, \
624670, \
294084, \
743598, \
368659, \
242685, \
657255, \
647906, \
615745, \
491865, \
847399, \
520969, \
531311, \
339415, \
392870, \
287120, \
300115, \
829067, \
285868, \
646752, \
767013, \
285521, \
951877, \
331594, \
238602, \
438051, \
} 
