#define bn4_bias { 0.003663657233119011, -0.004353214520961046, 0.032880306243896484, -0.007009420078247786, 0.001646977849304676, 0.008283709175884724, 0.01457384042441845, 0.006669122260063887, 0.008640725165605545, -0.014375079423189163, 0.011565190739929676, 0.013311649672687054, -0.012986341491341591, -0.031033877283334732, 0.02109607122838497, -0.011294427327811718, 0.019655166193842888, 0.023214465007185936, 0.013440804556012154, -9.332509944215417e-05, -0.012897014617919922, 0.03912198171019554, 0.010484499856829643, 0.015762964263558388, 0.02397742308676243, 0.01913379319012165, -0.00503126997500658, 0.031353313475847244, 0.029148243367671967, 0.041125621646642685, 0.020069072023034096, 0.0345948152244091, 0.003152750665321946, -0.011236072517931461, 0.011422334238886833, 0.01917068473994732, 0.00334967952221632, 0.02424059808254242, -0.0021373091731220484, 0.03744916245341301, 0.014112991280853748, 0.004397992976009846, 0.005991810001432896, 0.013419801369309425, 0.015062497928738594, 0.019750040024518967, 0.02080625854432583, -0.010829320177435875, -0.0034443996846675873, 0.00702559994533658, 0.025719212368130684, 0.03075025975704193, -0.0005726944655179977, 0.022620899602770805, 0.00012621945643331856, 0.02010328508913517, 0.02295629493892193, 0.007403372321277857, 0.0014536109520122409, 0.033455826342105865, -0.008539476431906223, 0.009361411444842815, 0.004244768992066383, 0.01474716980010271, }
#define bn4_weight { 0.9959014058113098, 0.9794086217880249, 0.9956481456756592, 1.0112186670303345, 0.9827157258987427, 0.9981945157051086, 0.9797535538673401, 0.9846072793006897, 0.9725940227508545, 0.999237060546875, 0.9827357530593872, 1.0113459825515747, 1.0079721212387085, 0.9864966869354248, 0.975333034992218, 0.9909830689430237, 0.9870898127555847, 0.9968807697296143, 0.9937685132026672, 0.9976911544799805, 1.0003817081451416, 0.9927542209625244, 0.9929761290550232, 0.9826065897941589, 0.9898112416267395, 0.9756189584732056, 0.9963870644569397, 0.9679819345474243, 0.9836467504501343, 0.9968087673187256, 1.0019068717956543, 0.996243953704834, 1.0056108236312866, 0.9908559918403625, 0.9816944599151611, 0.9954730272293091, 0.999762237071991, 1.0106661319732666, 1.0054285526275635, 0.9880972504615784, 0.9936785101890564, 0.9993245005607605, 1.0024430751800537, 0.992493748664856, 0.9842414855957031, 1.0087064504623413, 1.00583016872406, 1.0003511905670166, 0.9780213832855225, 1.0110821723937988, 1.013352870941162, 0.9716002345085144, 0.9992319941520691, 0.9731698632240295, 0.9850075244903564, 1.0043972730636597, 1.0027718544006348, 0.9972550868988037, 0.997384250164032, 1.0101542472839355, 0.9997495412826538, 0.9830068349838257, 1.005069375038147, 0.9858002662658691, }
#define bn4_running_mean { -4.051517486572266, -0.20618920028209686, -2.925143241882324, 0.8718727827072144, -0.2228451371192932, -2.0467286109924316, 2.5850281715393066, -0.7878429889678955, -1.3659824132919312, -1.8966702222824097, -3.8409016132354736, 4.261216640472412, -2.459866523742676, -5.091838836669922, 2.551589250564575, -5.147226333618164, -3.6086997985839844, -2.458498477935791, -1.6044888496398926, -1.3991118669509888, 0.7239015102386475, -0.6486765742301941, 1.4724619388580322, -1.4453686475753784, 1.3710253238677979, -1.531144618988037, -2.2709670066833496, 0.33436673879623413, 0.28791090846061707, 0.26286011934280396, -2.263429641723633, 2.1555886268615723, -0.4285343289375305, -4.981443881988525, -1.0605946779251099, -0.20490334928035736, 1.8644390106201172, -1.5372705459594727, 0.436597615480423, 0.28006958961486816, 4.50658655166626, 4.428803443908691, 0.10355453938245773, -2.1606485843658447, 2.716939687728882, 2.6398980617523193, 0.3863183856010437, -2.831266164779663, -2.846491813659668, -0.19887153804302216, -4.862770080566406, 0.3466236889362335, -0.2926909327507019, 2.94156551361084, -1.1729583740234375, -0.6898678541183472, -3.7595670223236084, 1.9110325574874878, -2.107355833053589, -0.15577836334705353, -0.1948770135641098, -1.2529957294464111, 0.008328701369464397, -1.1676304340362549, }
#define bn4_running_var { 6.3831770569850494, 4.00810517251913, 5.893044862605879, 3.847741140600651, 3.8758286851357346, 3.6658059468207114, 6.927397374274376, 6.745840698514629, 6.001832999936841, 7.589363746562469, 4.30352401933408, 5.656327895160283, 5.744308308394888, 13.438259653309487, 3.764433866291079, 11.248521495727505, 5.169711026171212, 4.263713701910619, 4.915949666820134, 4.903309128989188, 7.2149344264571225, 7.234132700872848, 7.0044898211810755, 4.336659964092762, 3.51475412390592, 7.50356970712003, 8.092139831390783, 3.1245484598094735, 6.64347250530255, 7.859536383547483, 4.498424678146889, 8.98722993023143, 4.163341237883525, 9.476302455469595, 6.506130262110407, 6.603910744057533, 5.900929471526472, 4.208123053909049, 6.942186027353265, 5.183950657692135, 7.208947862952782, 4.351795238249876, 5.3155467552961335, 9.52275973029139, 10.455879156510315, 3.8132651139761804, 4.879590733985912, 4.266399383120275, 6.643614044664462, 3.7830317059125282, 4.790174544943066, 5.144285620500487, 7.896326645175255, 9.296882385763872, 4.364888304234974, 4.259681221581853, 5.107076798811144, 3.923949889614552, 7.465661084489892, 8.445100652841331, 4.1977061683502415, 4.307932106878611, 6.6147909136863206, 3.5076989918038937, }
#define bn4_thresh {\
 -267059, \
-12345, \
-204456, \
58886, \
-15030, \
-136128, \
162659, \
-54626, \
-93015, \
-117144, \
-255036, \
274383, \
-156359, \
-305993, \
161884, \
-328926, \
-243246, \
-167627, \
-109509, \
-91662, \
53537, \
-61194, \
91652, \
-99282, \
84271, \
-109989, \
-146152, \
15280, \
5966, \
-4024, \
-154241, \
120815, \
-28939, \
-319421, \
-74468, \
-21763, \
120892, \
-107361, \
29580, \
5478, \
288633, \
288990, \
4704, \
-150038, \
167570, \
168115, \
18702, \
-182523, \
-185014, \
-14755, \
-326654, \
12046, \
-18885, \
178615, \
-76907, \
-50798, \
-254049, \
123332, \
-138820, \
-28539, \
-10421, \
-84804, \
-1285, \
-79960, \
} 
#define bn4_sign {\
0xffffffff, \
0xffffffff, \
} 
#define bn4_offset {\
420049, \
268197, \
387894, \
249367, \
258473, \
240676, \
463375, \
449006, \
404419, \
497756, \
286990, \
366534, \
373481, \
892744, \
252945, \
743890, \
343233, \
280301, \
324191, \
322086, \
472657, \
477556, \
462293, \
289238, \
232713, \
504043, \
532249, \
211543, \
442624, \
516731, \
294247, \
591207, \
271326, \
626770, \
434336, \
434762, \
386815, \
272873, \
452506, \
343827, \
475451, \
285392, \
347510, \
628803, \
696207, \
247749, \
317935, \
279504, \
445180, \
245207, \
309792, \
346990, \
517891, \
626078, \
290411, \
277940, \
333772, \
257867, \
490552, \
547894, \
275169, \
287205, \
431320, \
233191, \
} 
