#pragma once
#include "dl_lib_matrix3dq.h"
#include "mtmn.h"

mtmn_net_t *pnet_lite_q_custom(dl_matrix3du_t *in, dl_conv_mode mode);
mtmn_net_t *rnet_lite_q_with_score_verify_custom(dl_matrix3du_t *in, float threshold, dl_conv_mode mode);
mtmn_net_t *onet_lite_q_with_score_verify_custom(dl_matrix3du_t *in, float threshold, dl_conv_mode mode);

const static qtp_t pnet_conv2d_kernel1_item_array[] = {
	-189, 6675, -17101, -18564, -24098, 20946, -500, 934, 
	-4066, 13532, -7623, -10984, -9715, -16706, -5191, 20000, 
	9972, 2669, -20761, -4958, 9162, 6764, -10398, 18876, 
	-2239, 15135, 22840, -23400, -14725, -13004, -9833, 12226, 
	-11187, -11612, 4268, 25077, -15880, 21683, 15915, 21794, 
	1327, -910, -17623, -23552, 10011, -6386, 11256, 14790, 
	-16350, -12932, 16133, -23625, -18227, 3408, 16913, 7621, 
	9914, -19557, 963, 22257, 11414, 24221, 2320, -14852, 
	13848, 20900, -17483, 5845, 5020, 10144, -19439, -15781, 
	4700, -3184, 21951, -13031, 15649, -21935, -14942, -9244, 
	-23508, 22412, 9247, -14525, 4721, 9432, -10999, -11547, 
	12595, -453, 19180, 12756, 23730, -4249, -24966, -6349, 
	9700, 5280, -18996, -25162, 18058, 16997, -4151, -16363, 
	-24029, -14941, -19677, -19457, -1390, 1138, -6315, 14968, 
	9899, -20675, 17287, 11936, -16433, 3787, 3680, -12287, 
	-15350, 1511, -5366, -21272, -24197, -1295, -10330, 5983, 
	-8824, 22888, -12308, 5392, -6278, -14951, 18057, -2593, 
	-22660, 13833, 5105, -164, 15735, 16019, -23607, -10228, 
	701, -11959, 13638, 16039, -12538, -19739, 23949, -21290, 
	-4859, -2176, 17176, -24328, 23894, -19330, -5333, -1824, 
	-5117, -4953, -22635, -10289, 2707, 326, -22764, 7041, 
	-22704, -11261, -6066, -21780, 22778, -5281, -11459, 15960, 
	12121, -1702, 20171, -5305, -3947, 9135, 18013, 9502, 
	-2911, 8908, 22183, -20384, -20787, 13668, -15032, 21277, 
	-17793, 16260, -188, -13886, -14647, -5760, 20028, -550, 
	9121, 1125, -19068, -4986, -14699, 17656, -177, 17259, 
	1061, 3194, -17782, -17317, 3165, 8620, -9067, 3219, 
	-19731, 12496, 15430, -20471, -8463, -17831, 9112, 20806, 
	8329, -13221, -17967, -15947, -1811, -3735, -10691, 714, 
	3149, 18924, 20369, -7160, 11313, 24953, 276, 7419, 
	-21860, 22594, -8120, 40, 20859, 14503, 18237, -9329, 
	9150, -4289, -12115, 7452, 12986, -7374, 13358, -20859, 
	-25002, -8424, -13285, -16834, 20736, -24395, -14976, 19361, 
	348, 11386, -7049, 3334, -14532, 6858, -11935, 7227, 
	-5768, 5450, -20390, 8531, 22119, 20927, -5673, -11858, 
	804, -1122, -14156, 20106, 7975, -16381, -8456, -15549, 
	-23849, -16973, -15363, -22490, 4108, -520, -2870, 7430, 
	17444, -18778, 4200, 16799, -12170, -3175, 10430, 5812, 
	8761, 3150, 10334, 10744, -13171, 4532, -20679, 1977, 
	4954, -9204, -19830, -8482, 9985, 249, -13103, -3889, 
	2107, -18729, 9575, 1982, 17467, 16012, 20711, 3380, 
	19049, 22678, -20904, 19543, -15810, 22730, -17436, 14135, 
	11780, 25215, 12188, -21691, -5783, 7237, 14826, 9869, 
	-15180, -12271, 22056, 13751, 25165, -8852, -8843, 19710, 
	-17067, -4076, 4480, 19914, -19070, 12299, 20208, -14321, 
	-4539, -24885, -16382, 10732, 13648, -12307, -17619, -22527, 
	20747, 9820, -20257, 17516, -8572, 23666, -24369, 5697, 
	-17214, 20653, 18057, 15681, 17933, -6459, 2898, 19496, 
	8345, -14154, -11910, 19477, -8828, -2871, 11099, -6024, 
	16131, 25217, -19410, 23183, 22430, 12104, -14597, 22474, 
	-14219, 1875, 13083, 16934, 10315, -19149, -17839, 12095, 
	-9194, -4867, -4514, -3953, 1351, 9088, 24142, -8431, 
	12513, 14180, 2414, -18746, 21418, -15575, -17913, 19155, 
	-6847, -23054, -14332, 23329, -10763, 1042, 1293, 9377, 
	21410, -24510, 20920, -9038, -23875, 12744, 12532, 7388, 
	1356, 1654, -5117, 13582, 5508, 20967, -16650, -22901, 
	1150, 11962, -16812, 16962, 25073, -19229, -10091, 21052, 
	-24248, -22746, -20226, -7255, -19557, 11770, 5442, 24882, 
	-17807, 13541, 8844, 13163, -24768, -7782, -14288, -19806, 
	14505, -12494, 3514, -24747, -2570, -9825, 11073, 12136, 
	8041, -2841, -20777, -16878, -21545, 19413, 15611, -2743, 
	21354, -7799, 22319, 10323, 12504, 17791, -7258, 13958, 
	-21137, -13595, -5485, 23069, -7454, -17672, 12642, 15596, 
	811, -13648, 7965, 3352, -23365, 8442, 21171, 14931, 
	-6999, -9404, 8841, 24636, -12324, -12804, -19120, -2510, 
	-69, -16511, 6350, -18273, -19024, 2230, 23182, -122, 
	7677, -12221, -9047, 8947, -14833, -20449, 14619, -6788, 
	-6430, -6084, 25182, 4766, -13180, 24753, 16029, -12223, 
	24856, -14892, -17054, -2177, -16324, 5589, -23932, 1206, 
	3466, -15959, -8599, 1171, -5314, 23785, -5784, -24182, 
	-24559, 20741, 4836, 12694, -9302, -5634, -5618, -4529, 
	-8466, -12738, 21394, 24556, 20062, -16736, -22880, -22242, 
	19765, -23393, 5099, 14591, -7181, 19584, -1877, 6321, 
	-22794, 12678, 10340, 9579, -7652, -20887, -3776, 20877, 
	-1910, 23552, 11151, 23887, 21029, 23359, 13216, 21940, 
	-21279, -2206, 21463, 10996, -10839, -11127, 23897, -11669, 
	12721, -9518, -2425, 3391, -21825, -11517, 8948, 22774, 
	-12424, 3571, -17349, -19650, -11670, 23863, 15842, 10932, 
	-7181, 2343, 8052, -4166, -10034, 24123, 5970, 6553, 
	-14936, -17182, 9404, 1786, -22993, -23578, -14668, -24611, 
	7976, 3619, 22116, -6146, -16355, -1586, -19003, 20747, 
	-20067, 23226, -3466, -10306, -6324, 20305, -21183, -19549, 
	-4431, -6068, -12042, 19586, 21190, -5470, -24401, -11374, 
	2679, 8175, 13722, 9021, -7768, -17359, 18548, -3635, 
	4078, 23722, 9896, 19368, 11256, 23892, 17274, -20898, 
	17708, -16795, 10133, 3666, -3758, 17246, 2189, -6825, 
	12499, -18703, -2730, -15560, -11806, -1000, -3998, -23561, 
	22113, 7546, 5798, -1355, 16235, 8783, -22562, -11980, 
	20458, -2728, 24635, -14926, -12035, 6839, 23677, 5745, 
	-21966, -18689, 3245, -6291, -14412, 16160, 17146, -20208, 
	-15991, -23144, -4041, 21490, 1260, 5984, -3204, 21529, 
	15266, -13078, 7386, -13232, -5705, 1537, -20284, 21472, 
	11872, 21252, -4913, -17935, -2765, 2297, 19999, 10, 
	-3261, 21676, 2353, 20023, -20016, -7938, -17633, -7138, 
	18980, -18449, 16731, 5729, -10920, -17673, 15645, -17522, 
	-19353, -14952, -22742, -22099, -22475, 19041, -5434, -16082, 
	3884, -7373, 25183, 22802, 13828, 15493, -10496, 21885, 
	25124, 15119, 8273, -24208, 9074, 13131, 2636, 1455, 
	23935, -10782, -7375, -10381, 72, 4461, -4062, -14612, 
	-13968, 6707, 20109, -24573, -16139, 22675, -21, -4461, 
	4493, -10581, -9234, -17700, 1311, -17486, 25083, 8146, 
	11222, 2980, -11827, 11445, 5912, -17540, 13707, -5106, 
	-9940, -4275, -21125, -8715, 24980, 950, 4162, -7215, 
	2530, 20953, -157, 10208, 6832, -7710, 15990, 10915, 
	-3685, -9383, -1660, -9529, 3228, -10102, 10914, -21954, 
	-4561, 4936, 16649, 9528, -10650, 24956, -8529, 18614, 
	404, 16484, 917, -23485, 10990, -13409, 5104, 6597, 
	1161, -11601, 1429, 17465, 15295, -6189, 10992, -1681
};

static dl_matrix3dq_t pnet_conv2d_kernel1 = {
	.w = 3,
	.h = 3,
	.c = 3,
	.n = 32,
	.stride = 9,
	.exponent = -17,
	.item = (qtp_t *)(&pnet_conv2d_kernel1_item_array[0])
};

const static qtp_t pnet_conv2d_bias1_item_array[] = {
	0, 0, 0, 0, 0, 0, 0, 0, 
	0, 0, 0, 0, 0, 0, 0, 0, 
	0, 0, 0, 0, 0, 0, 0, 0, 
	0, 0, 0, 0, 0, 0, 0, 0
};

static dl_matrix3dq_t pnet_conv2d_bias1 = {
	.w = 1,
	.h = 1,
	.c = 32,
	.n = 1,
	.stride = 32,
	.exponent = -10,
	.item = (qtp_t *)(&pnet_conv2d_bias1_item_array[0])
};

const static qtp_t pnet_conv2d_kernel2_item_array[] = {
	30410, 1582, -22480, 27483, 25852, -16695, 13617, -24123, 
	20539, -4888, 18486, -30388, 30824, -30252, 2664, -5940, 
	-7544, -2254, -17813, 5623, 14843, 22532, 12877, -3053, 
	11865, -19376, -308, -26301, 3920, -4342, -8258, -15698, 
	-13529, 23673, 16595, -13235, 20742, 4985, -30854, 30548, 
	-29168, 11967, -16876, 23264, 2670, 4378, -9934, -190, 
	5129, 17593, 21324, -25698, 12897, 25370, -19836, 30222, 
	-3452, -12388, -6176, -14412, -11903, 12142, 156, 7321, 
	4126, -1926, 3244, -1962, -23975, 11253, 19761, 20887, 
	-12271, -12190, -22079, 21718, -30737, -2621, 5799, 17904, 
	-2180, 13655, -2443, 28223, -5818, -10587, 12110, -7300, 
	13429, -7195, -20939, 10319, -20629, 17618, -2200, -26416, 
	-13203, -915, 28996, 8120, 30358, 15792, 4210, 23396, 
	-26021, -29282, 15702, -30721, 20127, 6858, 24115, -2627, 
	-8469, -17876, 12529, -23598, 4606, -27154, 29658, 15317, 
	-22645, -11174, -3114, 9444, -22256, -19948, -14922, 14930, 
	-4265, 30029, 17169, 14243, 21720, 7463, -28511, -30461, 
	6902, -13077, 10278, -18799, 15783, -20058, 20926, -25643, 
	15666, -19301, 24423, 18961, -29761, 11965, -3621, -30719, 
	12383, 19186, 24356, -29797, -4974, -23779, 23561, -23918, 
	-5835, -12378, 28753, 10305, -11469, -27092, -27950, 27428, 
	5470, -25258, 6648, 9525, 16729, -10378, -9936, -21482, 
	17279, -2165, -9807, -7964, -13654, -17042, 22787, 25236, 
	-2628, 657, 14351, -28596, 2026, 5776, 13666, 18994, 
	-2476, 4648, 18013, 21735, 28106, 10845, 15067, 9694, 
	22361, -29129, 4115, 3958, -17376, -16819, 5790, -24094, 
	5230, 8881, -10478, -7384, 21393, -2794, -12904, -19610, 
	11267, 20076, -2775, 454, -27066, -21417, -2859, -29602, 
	6714, -18329, -24545, -27387, -3986, 27139, 18945, -29741, 
	-20237, -18796, 1388, 6801, 27246, -23249, 1688, -6646, 
	-21282, -17928, 4494, -19674, 19540, 26027, -29089, -29595, 
	21819, -12250, 22799, -11960, -28074, -23413, -30773, 15356, 
	-30889, -28473, -17241, 9265, -3468, -22425, 11727, 18928, 
	-12147, -24697, 28130, 6686, -8970, 18069, 111, -20824, 
	26722, -29179, -1562, -17698, 19619, 26566, 7416, 3093, 
	-1903, -28350, -24233, -30012, -29132, 28136, -17013, -29245, 
	-25968, -9716, -10252, -18733, 27080, -10594, -19701, -30454, 
	-3313, -8653, 11128, 29339, -28743, 26506, 19890, 25850, 
	11618, 13599, 9485, -21594, 23119, 7739, -13852, 6526, 
	-24417, 9735, -842, -20076, 7179, 27016, -13674, 573, 
	-26457, 12822, -22007, 24960, 18134, 13133, -20493, -19188, 
	15666, 12217, -28267, 15547, -22469, -28790, -3578, 20947, 
	-24737, -27638, -21753, -3674, -10545, -11178, 28742, -19339, 
	19751, 30572, 22106, 15501, -12901, 18218, 2946, -16811, 
	-5181, -355, 8410, -25135, -857, -28116, 12604, 4489, 
	25227, -26835, 25566, -30475, 8097, -9177, 15887, -6176, 
	15878, -5868, -1926, -16850, 8147, -25228, -13461, 16299, 
	327, -11793, 17618, -21367, 6401, 5521, -14679, -29339, 
	455, -15689, 24351, -5543, -26895, 15996, 29643, 13301, 
	15555, 15396, -28755, 14079, 3232, -3851, 21014, -8291, 
	-13198, -14180, 19586, -28868, 12615, 1890, 29617, 17031, 
	24727, -3440, -10709, 9043, 2684, 26832, -14429, 21252, 
	-13781, -22543, -9531, -30072, 13618, 27787, -13747, 7661, 
	17413, 7208, -22133, 11784, 10137, -16671, 4511, 20920, 
	-4270, 1532, 22883, -11474, 13860, -7942, -2948, 16396, 
	-29431, -19990, -2127, -2778, 10967, -30867, 21060, -16481, 
	12799, -12693, 927, -5646, -20757, -20436, -26947, -6537, 
	30344, -25666, -6149, 19000, 30717, 28537, -12293, -22796, 
	25003, -1301, 5523, -9150, 8506, 2232, -10575, 14649, 
	5345, 27107, 27042, -27611, -7053, 172, -28369, -27262, 
	24344, 26046, -22146, -12436, -1339, -7613, -2729, 15276, 
	-20977, -24203, -17228, -27657, 26373, 25911, -23078, -21460, 
	24595, -22063, -30459, 20319, -15580, 26982, 27413, 29359, 
	-17617, 7566, -19088, -12810, 20983, 1390, -30609, -12511, 
	27134, 4981, 537, -19706, 25305, 28727, -17065, 22805, 
	-18718, 19473, -13939, 23945, 13651, -6608, 8035, -9687, 
	667, 29963, 7315, -7974, -11440, 26618, 27948, 10336, 
	-5345, -1687, 29096, 2674, -17015, -18122, 12539, -2674, 
	-29720, -17643, -7437, 24075, 20437, -12774, -28806, 2283, 
	-12179, 13875, 17744, 25288, 25295, 14572, -9316, -25799, 
	20922, -22450, -4697, -26520, -19448, 29766, 11685, -11557, 
	2497, 26446, 24435, 11634, 21636, -24254, -24925, 30412, 
	-14734, -30755, -10910, 16512, -27844, 24782, -17130, -11637, 
	-17844, 17399, 26374, -1099, -16949, -25959, -5158, -8674, 
	11546, -2145, 16343, 1997, 44, 20462, 23993, 10454, 
	2515, 14938, 8238, -21736, 13718, -26853, 23274, -24895, 
	-27141, 21064, -3581, 1571, 10376, 24338, -26877, -11435, 
	-28609, 19423, 153, 11845, 7430, 6340, 12888, 3098, 
	12357, -24595, -3267, -24982, 28575, 22029, -28365, 11916, 
	5388, 22013, -11914, -16138, 30012, -11174, -13438, -8270, 
	-12545, -28945, -5102, 28318, 448, 12894, 24922, 23424, 
	-1991, -6675, -10272, 24527, -2891, -30219, 23162, 5586, 
	14561, -10085, -18695, -3400, 21402, -23955, 24891, -20349, 
	6762, 10756, -28672, 14569, -30683, -22479, 26007, 6111, 
	-5572, 22451, 12975, 28941, -14877, 13375, 18529, -13001, 
	-28289, -7612, -4563, 29437, 11499, -23223, -25904, 13206, 
	-3875, 30753, -5249, -11773, -26699, -7217, 5141, -11565, 
	-15518, -19133, -6973, -3340, -17306, 15034, 6986, 24837, 
	-5446, -10146, -8921, 6052, 29808, 2812, 28095, 16929, 
	-5724, 26879, -3351, 27825, 30408, 6018, -28785, 12617, 
	20160, -2253, 7173, 9235, 23103, -11, -22258, 5657, 
	-27047, 5787, -27590, 15750, 7342, -24512, 17340, 185, 
	-1317, -7643, -26182, -15989, -19147, 16405, -24147, 7049, 
	-15176, -2867, 9955, 509, 7722, 16735, -15844, -23567, 
	11451, -16179, 5724, -23998, 11893, 17278, -280, 14485, 
	19116, -18230, 25458, 22529, -3392, -6556, 11634, 27530, 
	-8266, 24955, -14077, -10374, 25975, -16876, -6436, -6444, 
	-9012, -12206, 26193, -21383, -13369, -25923, -17429, -20266, 
	-25545, 146, 1578, 7916, -21851, -3927, 21326, -19814, 
	14918, 29563, 29626, -20817, 24092, -11774, -11525, -14194, 
	9457, 16144, -29012, 30839, 22899, 20428, -668, -5870, 
	505, -28288, -18021, -5372, 10494, -13129, -17617, -2243, 
	-5404, 15370, 1098, 16741, 17122, -20102, -29727, -22124, 
	-20021, 13744, -14708, -23195, 28153, 12630, 5732, -5794, 
	-148, -6283, 18014, -26288, 30168, -27109, 10637, -4774, 
	21442, -11185, 13666, -23135, -17799, -17530, -12857, 13967, 
	-12357, 25450, 808, -112, 17387, 25590, -14226, 23491, 
	-9925, -269, -13869, -69, 6138, 13724, 24888, -18459, 
	9546, -12909, 1546, -8917, 24320, 13451, 1302, 24628, 
	4615, 24385, 10504, 26602, 23802, -24738, 22902, 29512, 
	-10135, -27810, 4636, 15547, -29189, 8888, -230, 1340, 
	-4622, -9575, -21777, -6227, -23738, 29992, -9384, 13563, 
	25451, -22612, -15914, -10719, 29505, -16951, -17908, 12364, 
	7172, 15494, 2801, -29314, 25147, 30223, 15876, 1955, 
	-18021, 7792, -2334, -12507, -26707, -9479, 839, -26669, 
	28660, 22765, -14237, -43, 7088, 19777, 5534, -21162, 
	16724, -1373, 22727, 4753, -18549, 24674, -29700, 14856, 
	-18407, 16842, -30626, -4081, -3987, -12467, -18147, 12565, 
	-9063, -21459, -11774, -15780, 10938, 24161, 2568, 531, 
	-97, 20896, -24195, 26758, 15874, 18847, 19247, 9919, 
	-24830, 26224, -15082, -16527, -15167, -6868, -13842, 24583, 
	137, -21756, -24157, -27898, 27938, 12204, 17164, -14431, 
	10356, -18241, 28388, 13698, 20944, 12275, 9479, 13022, 
	12054, -12141, 25172, 12422, -18151, -30576, 23277, -14971, 
	20831, 26713, -6148, 17268, 10574, -9661, -8120, -8018, 
	-22712, 21844, 3743, -29544, -13986, -12596, 1161, 9620, 
	2988, -23779, -30261, -328, 24442, -17385, -29399, -27154, 
	27866, -8752, -21719, -11393, 16637, -4830, 4715, 14256, 
	-2556, -8455, -18510, -17434, -10834, 29553, 17268, 10695, 
	-10092, 24422, -8034, 8628, 3376, 15251, 29139, 26306, 
	-12125, -19790, -6571, -2764, 30638, 2656, 15290, -19535, 
	5102, 28428, -17832, -4095, -27524, 2071, -12673, 21578, 
	4851, 15469, -28738, -5433, -1858, 26056, 17456, 16212, 
	-22421, 15775, -8287, 14750, 1901, 8908, 25715, -16369, 
	8609, -30234, 28939, 8825, -3123, 23349, 1074, 12921, 
	7163, -19570, -10566, -23452, 8920, -16038, 17137, 28887, 
	26456, -458, 23329, -15321, -15725, 11248, -25821, 16408, 
	14990, 7741, -10915, -19347, -12221, 10910, 26624, 15497, 
	-23456, 9995, -10207, 3932, -16623, -2418, -27009, -23954, 
	-19709, -11571, -14858, 14943, -4591, -16468, 15975, -22192, 
	8066, -8151, -1186, -9642, -9674, 4945, 2099, -892, 
	-14652, 6085, 11827, -23495, -21551, -1711, 30189, -7740, 
	27081, -15783, 11804, -3856, 1430, 21465, 20753, -9886, 
	26970, -1302, -28143, -15549, 8305, 1210, -3385, 3724, 
	-3096, 1043, -7320, 30305, 2935, 11813, 6066, -14323, 
	-17683, 8263, 4024, -6088, -8689, 8381, -26757, 23786, 
	22686, 18882, -12869, 6221, -2789, 22926, 25643, -4762, 
	9143, -24607, -836, 26433, -4457, -18186, -28795, -2765, 
	-20843, -8452, -16452, 20162, -613, 7774, 20094, -25762, 
	-25978, -30774, 19410, 22313, 19399, 25004, -1564, 7676, 
	5397, 29904, -3944, -12355, -17508, -19289, -9047, 24911, 
	21730, -7839, 23529, 26031, 14369, 11763, -2599, 21076, 
	802, 29578, -7812, -8922, -23784, -11724, 5392, -857, 
	-4265, -7159, 1302, 12029, -10968, 14415, -29283, -30747, 
	8556, 16003, -15158, -12762, 24633, -14979, 25691, -12088, 
	30231, -1200, 16889, -26832, 682, -2455, 19916, -27722, 
	19646, 25712, 14413, 15033, -10570, -4212, 18842, -12035, 
	-12495, -23683, -10912, -26157, 16164, -20250, -20798, 15465, 
	-901, -23468, -5050, 10161, -20893, -30552, 18638, 5315, 
	-5724, -27001, 29830, 1764, -17560, 11797, 11560, 4560, 
	-26331, 20433, 20357, -12919, 26489, 30069, 25806, 24654, 
	27427, 3056, 5549, -1088, 23033, -26428, 5548, -23816, 
	-25635, 6148, 17980, 8863, 16260, -26577, -18937, -22860, 
	30600, 17990, -3047, 5128, 8799, -3431, 8565, -29272, 
	-14009, -12270, -623, -19995, 11323, -20786, -15860, -15375, 
	-8943, 21053, 27536, -20326, 3658, -20388, -3566, -12758, 
	-2046, 18585, 23552, 4082, 12305, 22331, -15366, -13792, 
	8420, -436, -10276, 5733, 17717, 8146, 4050, -12317, 
	-22183, -13396, 11838, 5406, -3136, 7726, -23362, -20681, 
	-24116, 27745, 22968, -16556, 25142, 13238, -15368, 4485, 
	-14072, -15599, 11218, -7300, -4671, -1796, 27059, -25351, 
	-30834, -21270, 24692, -20860, 24717, 8242, -16915, 11328, 
	-19017, -7812, -1963, -16145, 27578, -29610, -15228, -3901, 
	-23856, -2581, -8450, -2057, -27610, 25887, -9066, 12510, 
	-8179, -5002, -25194, -8188, -20470, 3061, -20525, 30386, 
	15587, -12746, 548, 16530, 7306, -4100, 4333, -12869, 
	6883, -338, 21501, 13283, 11930, -14986, 6617, 21533, 
	11316, 26084, 3350, -2087, -26240, 29571, 23440, -8119, 
	-3244, -5162, 4053, 7473, -26455, -24286, -3804, -4246, 
	-2421, -20195, -12520, 18896, -6754, -23707, 7649, 18832, 
	-29272, 22624, 26591, -17529, 5149, -17598, 12382, 1769, 
	3825, -5989, -6212, 17778, 334, -25760, 7908, -3417, 
	-18934, -4820, 3435, -15210, -26920, 29961, -21299, 9863, 
	-6141, 6342, -992, 18118, -30620, 9065, 8196, 6181, 
	-18244, 7517, -1890, -243, 29935, 13866, -1979, -26341, 
	17397, -15272, 15034, -16094, -27390, 14603, 16304, -2754, 
	13012, 4269, 22945, -27907, -3501, 16766, -19017, -25647, 
	-19834, 4157, -27432, -381, -10201, 18376, 12301, 30130, 
	7755, -3346, 994, 29988, 4126, -7999, -21355, -6787, 
	-10416, -14852, 29853, -3392, -26249, -17806, 28073, 29742, 
	24473, -15313, -28765, -4870, -28198, 13129, -20459, -26062, 
	21261, -23249, -21453, 1467, 20528, -1055, -30676, 21650, 
	-27682, 10019, -3296, -19163, -8700, 1022, 18575, 27290, 
	-27239, 6057, -30354, -6435, -11827, -30660, 5463, 9131, 
	-15316, 29397, 4253, 28634, -28336, -25168, 22046, 24099, 
	11052, 12191, -20848, -14566, -4651, -18962, 933, -8685, 
	22579, -8610, 2041, 9569, -886, -28505, 24785, -14044, 
	26853, 11475, -18479, -26167, -15802, -6176, 29968, -19955, 
	-12213, -3847, 16226, 13590, -18636, 28313, 6134, -9301, 
	14091, 13303, -21618, 14441, -20297, -18063, 18835, 19366, 
	24543, -14565, 8992, -5893, -11493, 20031, 2260, -13546, 
	-10085, -26948, 129, -22366, 15398, 3284, -10427, -8306, 
	-15911, 20946, -7953, -9636, 8201, 12755, 16495, 5136, 
	-23822, -15360, -27102, 28836, -10002, 16987, 25035, 15074, 
	17888, -20702, -27396, -27612, -4235, 6944, -6917, -3581, 
	25728, -29936, 29806, 2116, 12210, 9764, -1619, 12505, 
	6786, 6722, -19053, -15533, 13281, -3746, -13456, 8388, 
	-24864, -19175, -26002, 3089, 288, 2754, -26594, 19702, 
	9626, -12401, 20650, -2197, 26987, 1516, -24900, 28372, 
	13519, -1523, -22547, -20517, 11604, -27318, 25729, -23309, 
	-11371, 19305, -24163, -18671, -787, -21980, 26172, 6132, 
	-30555, 26498, -13154, -21425, -21497, 8988, -11221, -9832, 
	-28617, 27015, 8197, -20159, 22650, 10394, -12238, 13906, 
	14972, 19635, -18580, 30449, 2597, 1124, -10545, -4176, 
	-23050, 7299, 20524, -2455, 14672, 18625, -3538, -16589, 
	-497, 9000, 2412, 22056, -1988, 20528, -7252, 3014, 
	-24884, -15663, -25130, 25313, -5722, 23878, 4856, -1400, 
	364, 8320, -13964, 98, 15345, 20948, -12175, -22084, 
	-25944, -8203, -23006, -23648, -14870, 25054, 15584, -12805, 
	2122, -22394, -15205, 3270, -9364, 1984, -11696, -18720, 
	20663, -3059, 8226, 15805, -11300, -7347, 6659, 18573, 
	-7706, 18902, 3064, 16067, -24237, -28979, 29372, -9520, 
	21301, 14485, 17974, 17709, 20956, -5232, -30720, 4819, 
	6182, -15533, -15452, -1261, 20695, 12256, -14269, -6111, 
	9871, -21492, -6410, -29140, -3508, -5090, 28917, 16691, 
	7734, 23666, 11515, -19553, -3872, -30840, 685, 573, 
	-8080, -3869, 10576, -882, 309, 19927, -21966, 13401, 
	-3169, 10865, 13858, -25135, -12584, 23329, -11605, -5146, 
	-13266, -10372, 4027, -16137, 1916, 1463, 11190, -5548, 
	23774, -25026, 26694, -15751, -11, -14150, -19449, -24822, 
	-27090, -6611, 30145, 4311, 12761, -8027, 3114, -13643, 
	7339, 961, -6208, -1947, -15281, -381, 6136, -29111, 
	30538, 2119, -28459, 9817, -26701, -3506, 14241, 28261, 
	-2281, 3543, -29927, -61, -24244, 11181, -5822, -30121, 
	2527, 16723, -17319, 30026, 23697, -10374, -15020, -4319, 
	-12515, 16171, -7417, -4054, -1231, -20185, 19074, -26013, 
	7302, -3575, -29482, 22464, 26933, 9168, -28195, 21303, 
	-1667, -26991, -7225, 13182, 22940, -15613, -3973, -20673, 
	-29022, -3053, -28366, -15306, 14327, -16808, 17027, 12971, 
	-3953, 26021, 28582, -26273, 8122, 1989, -18178, 12745, 
	-30566, -27739, -30157, 6472, -10175, -13880, 19078, -11911, 
	916, 7698, -29881, 7966, 8819, -24253, -15850, 21392, 
	27957, -9639, -13324, -6126, -13390, 11263, -25994, -22226, 
	658, -4778, -2616, 7914, -28761, 10524, 9027, 5302, 
	17996, 8457, -21497, -4138, 1702, 320, 16205, -25212, 
	9912, -2820, -1016, 26429, -1920, -27838, 25628, 28352, 
	-26330, 6768, 207, 6962, 18944, -14508, 28494, 1501, 
	25323, -2766, -890, 10624, -16599, 13340, -29210, -13, 
	29740, -25457, 24951, -27097, -10171, 25442, 10572, 5399, 
	9752, -14101, 29990, 17543, 22433, -26084, -9045, -24284, 
	10647, -540, 14171, 11518, -28152, -5448, 22114, -9747, 
	-27728, -14203, 22877, 125, -22405, 15739, -18340, -24199, 
	-8691, -27329, 23462, -21541, -28314, -20195, -12886, 10367, 
	17324, -16339, 20718, 19452, 13492, -14111, -3090, 25883, 
	7541, -8366, 2194, 9897, 24977, 9473, 6066, -9736, 
	-14935, -9761, 10469, -23237, 3756, 30423, -2227, -27845, 
	2337, -4819, 7669, 1953, -6067, 23234, 14650, 25362, 
	20793, 14794, 3257, -5394, -4358, -7471, -7387, 12204, 
	-13239, -17387, -7765, 25985, -12078, 28842, 15074, -9211, 
	23812, 8633, -5340, 12788, 29476, -11507, -28683, -13515, 
	-10702, 23519, 5202, -28503, 27532, -26216, -20964, 2759, 
	6299, 2522, 21625, 9711, 14582, 21992, -11849, 12082, 
	15450, -18581, -14874, 17924, 24686, -12111, -3718, -1244, 
	4872, -18145, 29938, 4358, -6404, 30038, 21523, 14775, 
	6359, 7473, 9188, 1055, 27913, -14333, -24586, -7693, 
	-24589, 5903, 17434, 20795, 28042, -12253, 10387, 30858, 
	-16466, -18129, -10700, -646, -14794, 12063, -13244, -21819, 
	8039, -24661, -17753, 22760, -29881, 26707, 9829, 21216, 
	8372, 17050, 16405, -24461, 16009, 2275, 18608, 10356, 
	27, 20914, -10532, -27539, 4175, -2988, 18967, 30808, 
	7063, -25365, 21650, 9055, -23755, 23449, 9710, 23270, 
	-27874, 20351, 28189, -11352, 8891, -29008, 168, 9731, 
	21056, 665, -7182, 13230, -13629, 23323, 12655, -6716, 
	-20449, 18241, -4422, -367, -23941, 17730, 18906, 11344, 
	509, -11612, -21355, -10584, -16690, 16408, 16771, -25519, 
	2947, -12480, -18948, -26829, 8210, -28357, 8870, 7834, 
	13096, 17500, 26284, -9930, -22966, 30148, 25400, -14579, 
	27960, -30394, -27030, 16487, 17868, -25877, 29806, -8435, 
	26381, 11845, -11119, 18085, 2404, 17006, 6136, 28264, 
	-12280, 20454, -2909, -21245, 6200, 14433, -30749, -5478, 
	30883, 1051, 19263, 18877, -9797, 2540, 3199, -12539, 
	-12637, 23188, -14752, -29658, -19706, -14240, -1731, 9314, 
	-8949, 11936, 9250, 10189, 16364, -27033, 22442, 19474, 
	-8317, -18285, -11142, 30786, -164, -17785, -10363, -6072, 
	26612, -19779, 6381, 20346, -4136, -4632, 3563, -2642, 
	20067, 10534, 4799, -19519, 21329, -27266, -27529, -12640, 
	16987, -7714, 716, 5480, 11579, -17636, 9988, 2487, 
	25381, 2196, -12730, 5317, -13764, -29498, -26817, -13376, 
	-24761, 3304, -6542, 23127, -21727, -9901, 20840, -1054, 
	-391, 18973, -19899, -19079, -12939, -25776, 28803, -16799, 
	11251, -27714, 14526, -16886, -27015, 9942, -6758, 1685, 
	-11688, 7092, -25512, 15635, -11721, 5886, -20591, -6439, 
	-3417, 1785, -7614, 1572, -28044, 8279, -18948, 12579, 
	20788, -18126, -10352, -12545, -1101, 15846, -989, -15529, 
	-26182, 7613, -29954, -6438, 18122, -18997, -9756, -11786, 
	-659, 4930, 16700, -18458, -22411, -9409, 26568, -20007, 
	16829, 7645, 23436, -10968, 25729, 16299, 28807, 18258, 
	-22116, 15845, 27642, -27043, -14084, 29914, -5659, 27688, 
	16475, -9169, 16677, 2088, 12449, -19421, -11403, 25784, 
	-16552, 24018, -5558, -19129, -9894, 15498, 5171, 6161, 
	16724, 11335, 211, -9617, -2934, -14656, 4088, 21066, 
	-17150, 22772, -1665, -26226, 4805, 10047, 18314, 4009, 
	28137, 18101, 23594, 25136, 5413, -6055, -17587, -1777, 
	10149, 22018, -30609, -986, -15590, -14771, -30550, -19651, 
	4224, 15061, 8844, -21363, 6601, 6873, 8609, -14714, 
	10634, -29065, -19944, -105, -3701, -17092, -27887, 2919, 
	-8409, -5831, -30357, -27096, -14047, -24549, 19044, -4440, 
	16962, 9872, -4076, 11507, 27786, 25695, -11291, -29853, 
	-21730, 121, 22216, -7639, 26000, -16582, 15724, 14176, 
	20682, -5356, 11187, -27608, 29026, 1978, -215, -6040, 
	-30777, -22884, -20588, 4995, 15519, -13075, -19853, 23417, 
	-6830, 4502, 6316, -29020, 25827, 21722, 16633, 11483, 
	-18561, -30320, -13437, 7037, -4700, 5666, -26878, -11245, 
	14310, -9050, 14100, 4470, -14529, -17980, -26970, 25490, 
	917, 30482, 1251, -8095, -4463, 8319, 260, 30653, 
	19438, -5999, 1273, 29758, 6145, 29444, 22283, 26423, 
	-17979, -19779, -29796, -11877, 16822, 18054, 10681, -288, 
	-29895, 11818, -21508, -4887, 28254, 24328, 23599, 27965, 
	9266, 17010, -6976, -27671, 9204, -25271, -25444, 7982, 
	25284, -659, 27777, 19511, -2773, -2271, -15131, -12335, 
	7588, 26209, 13083, -27432, -21588, 21208, 11197, -6933, 
	-4424, -29993, -25083, -23962, -23717, 6603, -18981, 28956, 
	24031, -21925, 8327, 16691, -10596, 4599, 3812, 3529, 
	-27814, -30367, 27858, 9882, 8602, -23001, 7626, 11946, 
	-17897, -18553, -6860, -29201, -1912, -7651, -27891, 6103, 
	3589, 11200, -4988, -7070, 12795, 30192, -8411, -7564, 
	-29707, -3091, 19549, -13835, -18348, -21064, -15470, 25798, 
	-443, -15201, -2261, -28455, -23952, 23427, -7723, 6411, 
	-14961, -5358, -22301, -27608, -18329, -26433, -17629, -24364, 
	-25703, -18419, 8713, -19497, -26253, 30505, -26132, 9080, 
	24059, 8799, 10090, 5061, -20380, -3208, 521, 7828, 
	-6194, 22895, -6844, -13345, 29589, 29437, -3752, 21315, 
	-8985, -2647, 25599, 4184, -15929, 19426, -23278, 9242, 
	298, -12738, 3196, -28896, -19104, 8319, 12695, 3935, 
	25102, -360, 13977, 1481, -18858, -29457, -11991, -961, 
	28694, 16993, -3294, -7427, 5739, -18442, -14439, 4202, 
	-11857, -13327, -13094, 26011, -664, -7789, 682, 29490, 
	-19565, -27116, 5957, 29403, 16459, -22520, -12739, 10684, 
	-9847, -5015, 29244, -30139, -4392, 13532, -16315, -16337, 
	15055, -5185, -26170, 11765, 23048, -25584, 17501, -221, 
	-26021, 11071, 5859, -27731, -25866, 14828, -7150, -12160, 
	-8518, 29446, 19775, -30657, -14376, -26688, 6878, -12569, 
	22264, -9642, -1243, -2297, -4086, 28840, 17064, 19057, 
	14072, 188, -25967, -17876, 15780, 30173, 27785, -5571, 
	-29736, -8891, -13852, -8169, -6283, 2033, 5137, -881, 
	-29461, -20860, -2006, -15824, 10521, -28158, -7634, -19719, 
	14876, -20540, -21579, -5627, 18051, 28400, 2622, 16008, 
	-6111, 5757, -15419, 20025, 10860, -26581, -13379, 11859, 
	-13738, -19090, 993, -30788, -11161, -20595, -6982, 14416, 
	-11326, -24642, 7380, -21895, 5290, -26365, -24100, -844, 
	-20643, -18758, -5472, 1108, -18132, -14335, 26493, 20520, 
	-23090, -15509, 4978, -14103, -5899, -9803, 9781, 11927, 
	6324, -25003, 28365, -28690, 15589, -6970, 1615, -7434, 
	15189, -8785, 1603, 1873, -25010, 26289, -30346, -21250, 
	7330, -14773, -25564, 22721, -5455, 3953, 20304, -21767, 
	15152, 12568, 28783, 24938, -29926, 15433, 24260, 15172, 
	-18040, -15795, 9522, 7394, 15005, -39, 21496, 24860, 
	-26732, 19763, -24007, 28467, -8569, 26908, 10842, -19151, 
	-29103, 25569, -11152, -16851, 26200, -1307, -19984, -1233, 
	7320, 3288, -30076, 24526, -11207, -25119, -362, 12718, 
	-8257, 17659, 12186, -7359, -25841, 23891, -28855, 17959, 
	-13248, -23761, -30771, 23568, 10302, -4824, 27277, -18854, 
	26448, 15429, 28643, 27950, 25123, 8254, -8877, 7130, 
	-25581, 15766, 309, -24457, 20340, 17285, -3856, -4224, 
	-19780, 9096, -16164, 21163, 30163, 21981, 12588, -6872, 
	-30667, -23637, 1050, -8188, 3954, 12565, 22033, 16525, 
	1193, 27214, 4396, -23693, 4044, 9164, -7880, 20902, 
	13056, -21584, 26043, 4206, 27334, 24160, 7702, -28552, 
	21194, -613, 24931, -5101, -1605, 3390, -20922, -17269, 
	-17794, 16791, -27494, 10431, 21117, 11415, 28773, 16682, 
	-7611, 28153, 16245, -15024, 26239, -28532, -16957, 12695, 
	3945, -17697, -26000, 18607, 23325, -12071, -14471, -21260, 
	-13774, -10174, 11523, -26390, 16814, 27988, 30757, 9340, 
	-28744, -30599, -23450, 9226, 23707, -25224, 15839, -7460, 
	23816, -9174, -21256, -17481, -14442, -576, -9597, -21200, 
	13762, 6793, -30084, -24941, -9097, -22660, 24734, 11665, 
	16219, 3155, -7178, 1441, -23661, 21451, -19188, -9772, 
	-364, 15085, -17348, 28119, 12351, 24963, -25240, -8969, 
	5442, 4939, -2096, 18467, -758, 22424, -19619, -21060, 
	-13569, -19218, -27737, -22651, 15368, 30477, 16041, 9745, 
	12396, -8925, -24601, -1016, -21514, 14722, 18208, 28485, 
	16974, -23223, -26887, 491, 8673, 24586, -21704, 17332, 
	-13946, -4352, -12710, 20866, -19289, -30371, -9052, -22168, 
	-24651, 21893, 4506, 25185, -26999, 17591, 3387, 1043, 
	13205, 6582, 20857, -24408, -3816, -19502, -7767, 12289, 
	1344, 15347, 18527, 5826, 17783, 6103, 20632, 4604, 
	-6809, -14821, -9263, -20950, 4887, -21601, 28767, 29412, 
	5382, -4726, -10043, -10712, -2847, -25198, 20025, 9411, 
	-19822, 6204, -881, -24853, -16960, -12293, -23774, -14455, 
	19507, 4423, -6480, 296, -9291, 11974, 16091, -29254, 
	-6054, 22291, 8225, -28337, 19242, -26518, 2779, 13457, 
	23230, 26647, 15545, 7830, -8193, 2696, -28938, -2512, 
	-7569, 17236, -17721, -10983, 22515, 22107, -15239, -1679, 
	-9855, 27017, -6628, 4821, 23315, -10617, -2648, -5601, 
	-17569, 4608, 2406, -18520, 17326, 7138, 16319, -21712, 
	-7776, -10341, -28010, 27355, 26441, 13938, 8401, -7598, 
	-16406, 5133, 9373, 11778, -2940, 8808, 28424, -26965, 
	28713, 22740, -22204, -144, 7502, -28250, 21044, -14257, 
	3617, -12786, -27359, 738, -4558, 28279, -19399, -22584, 
	1107, -3035, -30249, -17656, 14686, 3941, -8821, 20930, 
	-18762, 9868, -3899, 17930, 7853, -24864, -20956, -12964, 
	16344, -13715, 8228, 22120, -21749, -1868, 10679, -6540, 
	4706, 24600, 4067, 11184, 1135, 13627, 15212, 2860, 
	-17606, -23665, 292, 22903, 6341, -29580, -16947, 14276, 
	-3892, -4020, -15219, 16860, -1748, 27127, 19558, -13743, 
	-29728, -8004, -15290, 6481, -19140, 12731, 16112, 16022, 
	-28903, 9522, 29811, 18382, 29487, 26597, -26067, 9718, 
	-11219, 14400, -8492, 6408, 19916, 3815, 22487, 12488, 
	-28152, -15501, -19100, -11316, -22400, -4742, 12236, 22474, 
	27078, 16668, 29412, -8801, -2587, -13535, -2606, -4696, 
	23100, 16310, -19571, -13261, -20440, -21236, 682, -9872, 
	26537, 12079, 389, -25791, -6533, 2657, -1344, -23995, 
	4149, -8753, 21232, 18040, 26400, -4145, 7406, 16130, 
	-30710, 23547, -30762, 9191, -13173, 6099, -7887, -21116, 
	-16983, -17070, 3035, -8763, -24954, 24577, -28527, 28988, 
	-27451, -25556, -4904, -7645, -24791, 23440, 3278, 12466, 
	-20248, -12329, -3993, -16359, -22383, 26168, 13431, 7231, 
	-16102, 16634, -19344, 7589, 15158, -12729, 5414, 6097, 
	9744, -13388, -30, -20094, 16432, -17012, 14553, -9359, 
	3994, -14385, 22997, -23395, -7162, 5621, -26518, -21536, 
	25845, 2253, 6494, 12675, -23934, 23505, -23656, -3270, 
	14248, 18194, -3118, -19790, 13511, 26364, -28344, -7633, 
	6991, -18401, -19355, 8523, 2516, -15708, 25596, 10138, 
	12945, 15701, 7573, -27941, 15882, 8031, 7344, -885, 
	24749, 20948, -15146, -5672, -12158, -17148, -27582, 2611, 
	-17174, -4464, 3439, -28751, 23143, 4397, -6518, 22380, 
	10306, 29262, -26572, 1801, 6337, 29482, -13296, -410, 
	-29394, 11706, 12859, -24268, 6080, 13474, -9588, 3633, 
	-29889, -20427, -18869, -30781, 5400, 30389, 7371, -20602, 
	-25613, 20459, -12899, 1135, 28585, 4011, -18689, 6995, 
	-26779, 18842, -16497, -6889, -16758, 7069, -3922, 3687, 
	29064, 4841, -26610, 1597, 2920, -24915, 3229, 25731, 
	689, -22193, -5469, -27001, -15309, -7035, -10222, -24826, 
	-12261, -12146, 16804, -17945, -23109, 101, -29562, 28992, 
	-1854, -6239, -18022, -3591, 12042, 6884, 17241, 6451, 
	4914, 15193, 906, -9677, 17791, -15980, 25995, -29881, 
	-3437, -21694, 14392, 13488, -19821, -9186, 23520, -20318, 
	-5277, 27845, -23324, -7965, 30453, 12968, -16383, -27104, 
	-22144, 7906, 11922, 3300, 12717, -2632, -5910, -30622, 
	-20810, 6041, -13218, 12469, 4286, -15833, 988, -14842, 
	30474, 20430, -22376, 5396, 26161, 23274, 13195, -29155, 
	-22559, -12099, 23682, -29077, 17654, -1555, 5232, 13919, 
	4063, 21252, 13556, 22135, 30101, -6515, 18398, 19051, 
	813, -12, -17635, -27209, 30501, 25766, -9391, 27469, 
	19970, 18000, -26274, -261, 1034, -4297, -23368, 9550, 
	10021, 17019, -5560, -13712, 7386, 6930, 4995, 3779, 
	29883, 22212, -12370, 21497, -1730, 20291, 4136, -26726, 
	-11692, -22979, -23165, -26505, -15319, -30085, 199, 10850, 
	13233, -1786, 18528, 6067, -5738, -10531, 16526, -11513, 
	-16453, 30673, -21288, -27902, 15632, 14752, 11948, 18366, 
	24512, -362, -5767, 9773, 22523, -25349, 28327, -30876, 
	-7545, 5316, 794, 10026, -5178, -9839, 7329, -318, 
	-26005, -23228, -20757, 28431, 5997, 27960, 9226, 769, 
	-17087, 4228, 24476, -19218, -1020, 12972, -14656, 12883, 
	-24103, 558, -30038, 18082, 11511, -14899, 19700, 3215, 
	24274, -11767, 22058, -9289, -5509, -28492, -10602, -22471, 
	6834, 22179, 6154, -9079, -28337, 7793, -12541, -29259, 
	26996, 9667, -25868, -21104, 23140, 20715, -13720, 12698, 
	22606, -29682, 3295, 23344, 24137, 29084, -1939, 17949, 
	-9381, -12800, -24223, -11828, 18541, -24626, -19267, -23356, 
	29328, 21378, -21006, -15601, -19252, -30306, -2397, -3010, 
	-27367, -11125, 8491, 16513, -8291, 4622, 6317, 10732, 
	30747, 2432, -12193, -17474, -28082, 28369, 18823, -30538, 
	-19010, 25335, -20864, -9577, -27532, -4363, 13669, 23816, 
	1874, 20743, 17508, 5086, 23929, -30589, 16872, 4932, 
	-22839, -24600, -8507, 20733, -9526, 7431, 14275, -8126, 
	5989, -24872, 21588, -4852, 15020, 19018, -16169, 70, 
	-25540, -12777, 28550, -6908, 19438, 15420, -14575, 26794, 
	27674, -10173, -13090, -26795, 3463, -30503, -28127, -4321, 
	7180, -5009, -16606, -26167, -20727, 13759, -3355, 19265, 
	17633, 24892, 7484, 4440, 13144, 2931, 944, 14847, 
	-8307, -25830, -9660, 28836, -10848, 9136, -19996, 4661, 
	24812, 26905, 24653, -3160, -16419, -22808, 1905, -21504, 
	-28354, -9359, -28459, -30038, -362, 953, 9686, -12762, 
	2325, -14307, 15159, 18419, 12589, 30332, -19773, 14687, 
	2449, -25534, 2641, -2047, -5618, 21123, -27160, -27982, 
	-16284, 20447, 24058, 12756, 11465, 6232, 4822, -826, 
	-4079, -24912, -20878, -12040, 14917, -3891, -3396, -9582, 
	28505, 24113, 7179, 14495, 4656, -11930, 27717, 29925, 
	-6521, 30740, -9474, 17620, -24308, 8360, 24537, 17980, 
	24957, 24908, 12690, 4065, -7390, -5720, -14631, 6220, 
	-21092, -856, -19664, -4290, 24194, -4374, 25850, -24017, 
	-4767, 25304, -26580, 13169, 3676, 18881, -14078, -4694, 
	17316, -7571, 30802, 12633, 12091, 10652, 8309, -7106, 
	15010, 237, 27027, 2599, 20655, -6118, 12771, 24136, 
	-24288, -5775, 29767, -2315, 10290, 10958, -12349, -17765, 
	-13278, -30305, 679, -12152, -16666, 7046, -20808, -15725, 
	-19879, -23977, 25220, -4907, -26898, 18448, -22506, -22538, 
	581, 2278, 18752, 23096, 878, -22393, -7314, 976, 
	24164, -4318, 25595, 2814, -25656, -30788, -15618, -17591, 
	-2824, -11244, 22256, 11458, -4690, -25272, -14126, 17712, 
	11359, -29719, -20737, -4051, 12453, 15946, 20198, -15444, 
	2690, 14384, -22817, 19398, -5213, -21932, -11729, -30009, 
	-8421, 17254, 23014, 15268, -21936, -25699, -1454, 9476, 
	-2161, -22982, 12337, -8083, 10514, -16522, 27513, 15979, 
	15684, 30837, -17534, 21715, 30121, 20127, 4808, 26857, 
	-22168, -15753, 11147, 22898, 28177, -6077, -8142, 13970, 
	-5813, -6198, 11584, 12570, -17265, -16779, -10088, -3769, 
	16356, 18922, 3168, -25466, -1655, 13139, -10958, -6360, 
	-22786, 19421, -10937, -5519, -22748, 17276, -24594, -25721, 
	-21894, 5203, -11799, 4536, -10198, 22202, -12151, 4264, 
	5321, -28560, -6808, -12108, 29505, -30885, 18904, 4553, 
	2100, 9910, 27297, 6800, -25975, -11498, 28581, -15089, 
	-3294, -27942, 1186, -26389, 22773, -21198, -16261, 18401, 
	10443, -19420, -30729, 6023, -8673, -21443, 9988, -15020, 
	-4402, 28899, 7546, -7501, -25026, -10783, -3748, -23503, 
	-16333, -13232, 27899, 895, -786, -30120, 13120, -7875, 
	15, -29659, -2934, 10775, 27311, -8003, -8224, -24047, 
	-12502, 6694, -30033, 14836, -11690, -935, 22938, -23728, 
	-23821, 19796, -27946, 1026, -25859, -28580, -25137, -19947, 
	6923, -5928, 25107, -11632, -9323, 8649, -11358, -1049, 
	-26460, -9328, -5419, 26321, -28915, 10714, -29487, -18881, 
	10484, -30610, 12452, 24498, -4908, -19460, -21962, -11849, 
	10463, 3722, 18464, -20092, 7608, -18467, 23623, -21419, 
	15442, 20010, 1175, 10661, 12016, -3379, -4775, 29095, 
	15722, -21660, 22988, -21735, 28480, 10612, 10147, 14598, 
	-15101, -21421, -29465, 15797, -3837, 25504, 781, -8501, 
	5646, -29771, -19357, -28288, -244, 24899, -6840, -16101, 
	-10293, -29883, 28872, 7289, -3242, -26507, 24569, -14871, 
	-668, 16699, -2101, -10943, 12760, -12660, 21041, 1896, 
	13630, -777, 9630, -29300, 4443, 26741, -12076, -18751, 
	28075, 27619, 15200, -23901, 758, 6762, 7572, -14133, 
	24249, -30293, 8088, 23161, 25784, 2394, 6006, -17660, 
	459, -27609, 18805, 5855, 28094, -1002, -9276, 17112, 
	2207, -10933, -30755, 12987, -615, -12276, -15717, -16031, 
	-8717, 30566, -465, -12036, 25481, 10874, 5157, -15213, 
	-4725, 12774, -12839, -26971, -21750, 25959, -23721, 20095, 
	3230, -20185, 9425, 16739, 12145, -29855, 25275, 24056, 
	-8323, 16188, -20180, -7593, 16187, 25957, -4237, 13924, 
	11326, 2110, 5015, -13123, -14877, -16452, -6608, 14794, 
	22095, 21372, 27666, -19900, 19721, -19772, -1527, 19513, 
	14726, 28205, 27710, 13465, 2033, 12246, 15073, -11930, 
	-12389, -18396, 11560, 10523, -10845, 23806, -16908, 22738, 
	-29373, -26118, -6853, 27113, 27350, 15397, -8126, 5609, 
	-27217, 26421, -2587, 3005, -5975, 2990, 20314, -18486, 
	10294, 9039, -9615, 14243, 19699, 4914, -3266, -4151, 
	-24672, -23644, 19104, -29121, -17740, -21219, 29776, -3997, 
	-13046, -30262, -4404, -4131, -302, -10961, -25266, 28014, 
	-19792, 30237, 14516, -13230, 5244, 30264, 10202, -22153, 
	-15313, 8421, 27530, -29204, 10404, -27321, 676, 3036, 
	17401, -24887, 30153, -9320, -26582, -7831, 16079, -15419, 
	-9120, 4597, 4931, -18799, 474, 13953, -3125, 17615, 
	-5086, 29582, -9107, -13292, 19602, -4256, -12263, -12365, 
	-2268, 14345, -21756, 3871, 2847, -28649, 29091, -2000, 
	1234, 10022, 11158, 13257, -25390, 14051, -20871, -25573, 
	7137, -20734, 8875, 17630, 29561, 6619, 4425, 15979, 
	10899, -23636, -21763, 3675, -25356, 25674, 19178, 27557, 
	23775, 24149, -13102, 13438, -13718, -22147, -29823, -17113, 
	-23370, 11215, 7635, 15106, 8525, 25896, 26722, 1727, 
	24292, -25817, -2411, -6419, -6709, -15583, 5811, -538, 
	12554, -16947, -18312, -20630, 7553, -21038, 1256, -961, 
	4922, 9120, -26937, -24367, 30669, -29573, 26217, -816, 
	-14591, 9056, 10665, -12226, 25868, 5667, -9979, -30096, 
	-2970, 3762, -7098, 5235, 22633, -2541, -19820, -23300, 
	-4376, -9818, -107, 34, 20378, 26692, 123, -4892, 
	-27635, 22376, 24005, -2843, -10441, 15659, -9229, 14335, 
	20530, 4777, 29229, -13638, -28723, -22107, 2486, -8293, 
	11437, 25457, 11090, -8401, -30206, 26632, -9022, 10308, 
	-25277, 1910, 4089, 27348, -30330, 24256, 17230, -4734, 
	-28977, 1163, -5653, -27465, -5695, -7882, -29653, -10185, 
	29328, -8486, -5103, -28418, -15449, -17059, -17288, 9372, 
	21953, -23943, 29438, 23194, -6378, -15826, 30084, -16757, 
	-25289, 9688, 19806, 27917, 17976, -18422, 17441, -423, 
	-29569, -22779, 872, 17354, -13326, -19547, -9416, 22534, 
	17245, -25151, 24352, 17871, 25156, -14613, 10713, 6248, 
	-17859, -4263, 20938, -3751, 30034, 732, -29902, 17632, 
	-30745, -5324, -29946, 14811, 5471, 16231, 4930, -17941, 
	-14774, 5783, 14738, 19862, -15958, 26288, -281, -29856, 
	29536, -29492, -2852, -27227, -18266, -2750, 8751, -13784, 
	-22018, 15203, 24509, 4858, -17457, 16010, -17975, -7696, 
	-23104, 5649, 29835, -5847, 14666, -7580, 17632, 8982, 
	5084, 11771, 8247, 18182, -12808, 7363, 26868, -13447, 
	23583, 30794, -540, -1367, -7357, 23702, -17570, -22450, 
	-9281, 29379, -21701, -2026, 17870, 9770, 25660, -6959, 
	29472, -1189, 2827, -8823, -27230, 10492, -14463, -16466, 
	6034, -6782, 14737, 26014, 12827, 10744, -12216, 6745, 
	-27958, -3923, -18975, 2331, -14740, -23863, 18050, -8775, 
	20454, -12359, 1546, 15344, 27317, -7638, -28062, 12007, 
	-22588, -16197, 1806, -9489, 4816, 22078, 2148, 20843, 
	-537, 13915, 6767, -10533, -23684, -19103, -13750, 22585, 
	9727, -29627, -28636, 26784, 29474, 3415, 7144, 22727, 
	-1025, 18741, 4709, -20896, 8285, 8440, -22338, -29335, 
	5795, -26063, -6053, 15228, -1023, -10807, 26913, 9639, 
	-1634, -12480, -19609, -11062, -57, -3840, 10906, 24064, 
	25323, 26225, 27931, 14772, 18693, -8890, -29478, 8878, 
	27306, 1787, 26093, -169, 9116, -22746, -12773, -14131, 
	19305, 28088, -1370, -30245, -8609, -13165, -15277, 6521, 
	-28266, 22990, 4076, -30479, 10275, -15896, 20089, -3517, 
	28573, -5877, -12429, -21434, -9588, -28514, -24842, 10023, 
	-19160, -16798, -24693, -14980, 10539, 14744, 19745, 21330, 
	16545, 19607, 6365, -30768, 15491, 2686, -2638, -20557, 
	20494, 4220, -19191, -20601, 16382, 1230, -5415, -1251, 
	15122, -23594, -1410, -24411, -10447, 26345, -24765, 18739, 
	-27718, 3653, 325, 13352, 22559, 27029, -13096, -24784, 
	-23556, 11556, -476, 22335, 18357, -29273, -25238, 1342, 
	-22070, -25768, 6527, 11635, 3783, 26583, 24106, -29916, 
	-29714, 20482, -8110, -19009, -21137, 8130, 19277, 23184, 
	-10793, -23167, 28195, 22391, -10779, 8806, 8894, 13575, 
	-25986, 23333, -4104, 22975, -26376, -18470, -23987, 9940, 
	27537, -15440, 14280, -21932, -5976, 12000, 16658, 9927, 
	24875, -20518, 2976, 29199, -8869, -7053, -7553, 26167, 
	21714, 5352, 15302, 12629, 11992, -16817, -19250, -19547, 
	-19658, 27786, -18418, 29442, 1974, 26453, 30087, 28335, 
	30693, 22458, -1308, 25726, 19420, 24429, -3208, 23846, 
	11549, -4798, 6282, -17921, -6007, -29627, 15568, -17984, 
	-8009, -1905, -1983, -21937, 16212, 26159, -11620, -16980, 
	11788, 20864, -19549, -26298, 24681, 9594, -28400, 5284, 
	14198, -17078, -5043, 7130, 8141, 10806, -6795, -25729, 
	-19232, 8905, 30325, 21006, -149, 11666, 10044, 5449, 
	-5351, -16278, 15085, 20515, -14952, 20201, 11968, -22357, 
	10509, 6076, -10816, -5425, -16940, 19261, -16240, -25126, 
	18988, -24634, -19892, -7940, -12156, 12375, -26769, -4917, 
	-29742, 2004, 8650, -18561, 3997, 15665, -4610, -16363, 
	-535, -2380, 12231, 19214, -25653, -14984, 13181, -453, 
	-18483, -26474, 19236, 16837, 22545, -17336, 11586, 15407, 
	-16414, 16624, 21324, 12529, -26709, -23429, 28696, 20130, 
	14025, -17728, -20909, 27343, 13382, -11386, 21779, 24093, 
	9429, 25714, 25134, -7416, -21115, -3170, -15514, -24112, 
	-4148, -18791, 15504, 11134, -18287, 12284, -3471, 21580, 
	-8728, 27269, -27313, 30819, -30370, 20959, 23760, 8943, 
	18606, -26613, -7754, 21818, 7111, 5347, 19264, 5327, 
	18888, 27129, -9970, 29247, -28764, -3950, 7288, -404, 
	-23957, 30463, 14376, 26554, 1675, 8145, -10255, 12577, 
	9564, -18430, 29312, 1490, -1901, 13106, 7201, 16913, 
	16805, 11110, 2080, -8898, -3608, -30406, -22560, -29564, 
	-931, -15604, -5419, 15117, 2737, -19280, -457, 26844, 
	21442, -5063, -9659, -13442, 1670, 22298, -17041, 29576, 
	7970, -18631, -10919, -11272, 19018, -2658, -19327, 16952, 
	21821, 23092, 16286, 7639, 6651, 15784, 11828, -11808, 
	107, -125, -5205, 28132, 8085, -6123, -6303, 8240, 
	14343, 2280, 12188, 1053, -3018, -17023, -7039, -19066, 
	-23582, -4796, 2131, 19269, -15837, 4467, 11212, -21142, 
	4108, -13355, 5474, -4906, -22494, -8907, 11930, -2854, 
	13143, 17761, 5070, -24979, -1213, -8521, 28902, 19409, 
	-18449, 25823, -7763, 1004, -22456, 21244, -18868, 5491, 
	4059, 19153, -13918, 972, 24948, 11047, 11185, -10326, 
	-17666, 15814, -1504, -14030, 29247, -777, -9598, 14857, 
	-28722, 27898, 3070, 14701, 23606, 18264, -27627, -18008, 
	-21689, -28677, -19863, 22705, 27987, -12325, 9766, 27927, 
	-2739, -1234, -14364, -2868, -30335, -25145, -18892, -24227, 
	-10420, -14612, 5059, -23315, -11232, -19298, 6615, -13886, 
	7288, 30858, 9642, 21706, -618, -8589, -11784, -360, 
	-16871, 28768, 10874, 464, 2498, -13454, 15211, 27589, 
	26332, -26452, -6678, -30792, -29548, 27400, 28330, 3988, 
	-9699, -27351, 10896, 2126, -10681, 25918, -3961, 23721, 
	59, 15881, 17943, -14000, -3627, -18508, -22297, -26435, 
	-22990, 3420, 22727, 10865, 29481, -2483, -8763, -17910, 
	2903, 16269, -19631, 30214, -8571, 10410, 19041, 26804, 
	27507, 20160, -14216, 7167, -7996, 5349, -6299, -3199, 
	7556, 16916, 4840, 17025, 10783, -27659, -12346, 13137, 
	30131, -8313, -20455, 22662, 13145, 22527, 5811, -23814, 
	-10905, -29061, 14268, -19846, 25867, 24528, -30288, 14355, 
	645, -18460, 19301, -8256, -2711, 23549, -2554, -24503, 
	-10808, 13918, -25756, -30249, 27838, 2171, 5692, -4535, 
	22434, 6935, -19174, 9596, 14438, 24104, 22740, -9715, 
	27365, -30241, -22229, 5872, 26227, 13304, 29240, -26233, 
	26914, 10808, 4338, 30611, -9482, 25776, -24164, 19343, 
	-28076, -30879, -11854, -20365, -19065, 53, -25457, -13438, 
	9895, -24565, -27812, -13033, -1710, 13722, 8858, -28270, 
	-745, 20487, 18610, -21250, -4328, -30797, -14096, 27312, 
	8894, 10224, -979, -8337, -16487, -20452, 29802, 19555, 
	-26602, -17638, 25018, -7352, -24305, -1893, -13868, -21147, 
	17424, -25154, 17605, 14417, -19555, -25269, 7923, -11868, 
	42, -29907, 18409, 1769, 5982, -1615, -25704, 27217, 
	24038, -23425, 24537, 25529, 12370, 15984, 20815, 16845, 
	9775, -18545, 27693, 2531, 5617, -30273, -17775, -17599, 
	-13764, 9376, -7203, 4132, -19098, -20872, 18988, 16163, 
	11700, 16235, 19221, 26261, -22859, 28149, -19995, -15784, 
	2236, 22602, -28054, 10232, 4280, -11811, 5553, -17083, 
	-7628, -7442, 17333, 20189, -22338, -20315, 29094, -8640, 
	-10631, 9946, -9282, -27676, 6375, 11923, -3750, -25682, 
	779, 9423, -20703, 29656, 1396, -25612, 23933, 20397, 
	-22349, 17057, -16046, 13194, 13896, 572, 18168, 24098, 
	-1065, -18783, 13720, -27055, 4897, -24755, -7704, -21087, 
	-11036, 26051, -28930, 28724, -12673, -28842, -14528, -29586, 
	19385, 20831, 973, 26254, -5275, 12765, -450, -23301, 
	5549, 20692, 26777, 26761, 8968, -19190, 26240, -28386, 
	-1831, -12211, -27609, -29888, 5449, 10227, 7797, -8644, 
	-25237, -2988, -28957, -5954, 11422, 29657, 1816, 29975, 
	7653, 22362, 3442, 22699, 693, 11109, 12997, 6262, 
	-14308, -25757, -11081, -20914, -4745, 27613, 21149, -9615, 
	4819, -24634, 14659, -4756, 18010, -11503, -18517, -23882, 
	23235, 83, -5824, -28218, -14073, -3826, -11159, 25499, 
	12466, 3432, -7723, 1716, -8864, -29188, 20093, 9657, 
	-5485, -3671, 5304, -2707, -7325, 12547, -3437, 19326, 
	29060, -11669, 10107, 22444, 3320, 22897, 18710, 26544, 
	-19493, -9155, -8202, 6748, -27567, 21957, -22669, 8117, 
	-19476, 9283, 14156, 25779, 22944, -15779, -9432, -10393, 
	-27042, 30543, 2141, 29648, 21037, -16695, -14313, -9061, 
	-25515, -19684, 3349, -17879, -20074, 7907, 13330, 15729, 
	-12521, -30239, 7368, -22047, -28504, -5772, 20510, -16559, 
	-15109, -24896, -10979, 143, -26732, 16013, 13869, -21156, 
	24101, 21450, 20211, -29434, 9410, -1205, 24661, 26229, 
	-18714, 12575, 6791, -13687, 7498, -17287, -30221, 3318, 
	-23844, -22278, 29735, 26294, -19364, 12465, 12074, 29423, 
	24567, -14383, 20138, -25060, 10710, 15985, 12479, -2749, 
	-17541, 4024, -5904, -10350, -16384, 4912, -20632, 9030, 
	-18271, -12590, 23263, -14841, 28368, 28372, -5286, -6060, 
	10722, 22206, -1389, -17251, 10899, 11971, 20269, -761, 
	-20928, 4725, -9217, -19457, 19873, 29335, -6906, -23807, 
	-21311, 30855, -6776, -5090, -13304, -19948, -10670, 5266, 
	14799, 25641, 25077, 20385, -24024, -7670, -17811, -3005, 
	11028, 26496, 5985, 28396, -18612, -18267, -7812, 10410, 
	-14533, -22293, -20366, -30508, -14720, -1756, -2495, -24939, 
	8120, -7343, 20620, 7887, 11626, -13462, 27183, 29521, 
	-23573, 2104, 30122, 5338, -22321, 21099, 21821, -14385, 
	10610, -30801, 26613, 29086, -12364, 25571, -11958, -13037, 
	-28274, -28091, -28529, -4657, -20124, -11338, -183, -27780, 
	30724, -15544, 25691, 7161, 28610, 17753, -4409, -12528, 
	262, -26907, 9627, -1587, -27326, -18694, 4040, -11414, 
	2600, 23092, 8514, 2258, -23711, 17708, 7991, -14973, 
	30517, -17564, 4930, -10373, 30057, -24657, -7907, -20350, 
	18181, -11956, -24541, 2819, -7577, 14364, -25433, 6554, 
	6162, -15195, 2556, -24848, 29542, 18323, -14393, -20944, 
	-9671, 27628, -24118, -27437, 21839, 11134, 30805, 15250, 
	22665, 10291, -28544, -28050, 21045, -26741, 21108, 4943, 
	-540, -22411, 4345, -13237, -14545, 24247, -26062, 1783, 
	-6134, -4217, -22365, -11824, -26868, 30847, -14355, -22357, 
	-10520, -24117, 15052, -14956, -12529, -28949, -14925, -18239, 
	-3405, 30458, -23302, -11181, 23163, 538, 12386, 16031, 
	19144, 3640, -8065, 17240, 4877, 5767, -5106, 16917, 
	29410, 3182, 20565, 6498, 28268, 28499, -1490, -5742, 
	14556, -5964, -5373, -6314, -6544, -25209, 12182, -1825, 
	-17600, 19845, -23924, 15383, 22960, 3387, 12746, -21759, 
	-2262, 6567, -14599, 6285, -2397, -28372, -17781, 26467, 
	24413, 21621, -28280, 29805, 24417, 8757, -13153, 25918, 
	28629, -26515, -284, 14647, 15369, -15783, 23163, 24330, 
	-16774, -13457, -8857, -8612, -11518, 30124, -25336, -4446, 
	1910, 26372, -17482, -8994, 28348, 4396, -24375, -27953, 
	15951, 3597, -7038, 8635, -15393, -5585, 6143, 224, 
	9713, -7801, 13968, 205, -7876, 1952, 25303, -1093, 
	-11952, -23428, -9632, 10783, -27954, -6718, -808, -23708, 
	26244, -2562, 6647, -15976, 1005, -5004, 27443, -4919, 
	14992, 2189, -26989, 29341, -27170, -18784, -15832, 17273, 
	-6177, -902, -17105, 13131, 23673, -17928, 5925, -2469, 
	-27402, -20384, -13948, -24971, 19639, 24636, 7911, -26706, 
	18171, -1037, 14420, 26369, -28317, 5164, 14440, -16454, 
	-24966, 4441, -18469, 4984, 7765, -15324, 26801, 2250, 
	-15981, 13331, -16889, -14043, -4795, 1610, 26005, 4993, 
	-25240, -22768, -27267, 7881, 26698, -20502, 12936, -11867, 
	20216, -17550, -1881, 24665, 10133, 18594, 19643, 19058, 
	-16814, -15369, 10295, -24359, -7079, 23572, -28785, 21344, 
	15998, 9470, 29156, 19567, 11732, -14948, -26627, 22392, 
	-221, -1425, 3723, 21116, 19080, 30034, 12207, 30020, 
	1267, 11039, 27515, 27965, 425, 9107, -1817, -25919, 
	-29505, -16780, -10677, -82, -18387, 4345, -17736, 16058, 
	-8969, -2818, -13776, 4053, -7995, 16102, -24296, -15043, 
	-20900, -22136, 13504, 27288, -27095, 1521, -13082, -5137, 
	-26792, 24471, -4212, 29385, 2688, -22079, 1338, 4654, 
	-14766, 11470, 4152, -793, -11169, -1926, 25114, 2364, 
	5314, -23621, 7633, 29016, -24432, -21551, -27701, -2148, 
	-11149, 1664, 25134, 13754, -22930, -26551, 11586, 8131, 
	21380, 27803, 26409, -4579, -28546, 21628, 29773, 6202, 
	8101, -11612, 23540, 25193, -5815, 22104, 9866, 23328, 
	-18738, 24292, 25980, 22913, 24678, 6900, 14522, 30613, 
	8811, -4228, 24844, -13942, 10886, -26414, 16894, -6217, 
	-17257, 3464, -27816, 14223, 14139, 14952, -23411, 4687, 
	-719, -3355, -29608, 29456, 30736, -28716, 1678, 20994, 
	-16916, -23822, 10263, -1195, 1790, 11656, 12984, -26548, 
	-13685, -8968, 19097, 17746, -14635, 991, -24221, 5062, 
	-26733, -10639, 13359, 9208, 6431, 17805, 28397, 30296, 
	28872, -16715, -7298, 12916, 257, 7130, 11866, 21585, 
	10207, -13729, 12358, -6183, -2527, -14203, 9166, -6334, 
	30701, -2878, 6602, 6707, 6378, -4563, -21173, 3211, 
	-16730, -7507, -8790, 9497, 15304, -17042, 20460, 14589, 
	5111, 20034, 76, 6651, -23115, -152, 18259, -19242, 
	-17115, 29161, 16894, 17573, -9883, -13747, 25349, -7747, 
	-17964, 10878, -3299, 25819, 6950, -10909, -18495, 12448, 
	-4936, -15395, -9811, -5798, -27574, 1740, 22123, 11669, 
	10451, -23220, -24318, 3734, 15681, -17840, -30545, 7652, 
	-10190, -16945, 18942, 27190, 9549, -19128, -14700, 13061, 
	-14528, -4721, -4789, -6410, -12799, -3723, 23534, 15192, 
	8941, -14301, -20724, -4930, -15932, 30413, 30278, 21647, 
	4355, 16170, 20635, -5157, -6109, 15259, 12068, -15136, 
	-2849, 16349, -17019, -5597, -29041, -15553, 23851, 26167, 
	1832, 4437, 29785, 5274, -28047, 9954, 1859, 29811, 
	14248, 29825, 1976, -16054, -4479, 28682, -5891, 5485, 
	9951, -29239, -9174, 722, 29195, 18407, -3490, -2129, 
	17546, -28440, -1881, 511, -396, -13373, -27839, -17784, 
	14402, 25099, -12092, 18903, 8340, -23302, 22623, 25978, 
	-24463, 16812, 11333, 17971, -6150, -23888, -21786, -21027, 
	8634, 29696, 10909, -25782, 19503, 14897, 26999, -23806, 
	19911, -10330, -12686, 7053, 1308, -9983, 16469, -11852, 
	-23233, 18182, -2238, -10407, 26864, 21845, -13698, -10323, 
	-8478, -6023, -21762, -2788, 14625, 26441, -20764, -17848, 
	25182, 7128, 23047, -22763, 11585, -30466, 18620, 26347, 
	-24813, -370, -18711, -18412, -931, 440, 2989, 28923, 
	6040, 23623, 125, -5015, -4159, -23140, -14559, -13365, 
	24133, -5545, -25424, -8009, -9927, -12875, -8033, 16978, 
	-3441, -2882, 21430, 458, 3840, 17067, 20463, -11945, 
	-14431, -15512, -22608, -15960, -18978, 3256, 9001, 16882, 
	-29295, -10528, -19515, 7527, 26211, 3072, 9941, -4318, 
	25421, -23593, 27521, -11097, 17035, 8942, 4205, -5749, 
	-30648, -29562, -9830, 27026, 8002, -19620, -26617, 27895, 
	29402, -918, 740, -2973, 6066, 16931, 4441, 5756, 
	-22996, 689, -25712, 17989, -14560, -10918, -17039, 22103, 
	7876, 829, -16782, -5498, 24038, 3568, 19428, 27685, 
	23399, -10964, 21062, -23942, -1991, -19077, 22231, 1488, 
	-15508, -1264, -2875, -6610, -348, -18202, -15136, 26456, 
	-3344, 16750, -22553, -16536, -15886, 18709, 15620, 19141, 
	-6023, -4521, 10566, 22305, 6536, -20130, -24778, 15702, 
	6731, 26857, 17558, 17381, -12593, -17008, -22092, -11541, 
	-2543, 8483, -43, -19969, 5620, 19769, 15346, -15702, 
	29860, 17932, 25106, -21089, 28518, 26313, 26944, 5542, 
	-8116, -24212, 22421, 28623, -16158, -10349, 25868, -6265, 
	-28778, 7152, 28317, 12578, -30311, 3882, -3568, -11660, 
	-7348, -24711, 7875, -10675, -30295, 26778, -1049, -21184, 
	25287, 9949, 29127, 23645, -30135, 22393, 5006, -8383, 
	-4777, 13830, -25279, 18214, -2576, -25527, 15412, 13081, 
	-2182, -17225, -3066, 28503, 27593, -25105, -10563, -12423, 
	-2114, -30005, 17740, -25780, -15492, -8366, 27969, -9819, 
	3556, 12980, 30231, 4018, -10782, 1264, -25802, 10313, 
	6322, -24157, -18294, 22380, 13574, 19592, -7417, 4205, 
	162, -24725, -11887, 9644, 19337, -674, 10695, 18891, 
	-19962, -2896, -28575, 25571, -29168, 30239, 23311, 24063, 
	17918, -5958, 27517, -25439, 11757, 2366, -11959, 29933, 
	-6168, 30391, -11155, -7474, 21919, 1215, 666, 18682, 
	-27168, 473, 1883, 19068, 29505, -30751, 3640, 17160, 
	-9313, -8403, -14802, 30038, 28034, 27509, 17792, 14873, 
	20254, -22823, -10190, -29068, 13571, -25069, -10335, 183, 
	-8113, -29590, -15235, 21657, 10653, 10155, -25745, 9157, 
	-21415, -8175, -4833, -18629, 756, 1587, 29389, -7365, 
	7472, 4296, -9059, 26344, -22047, 18925, -9146, -20934, 
	3793, 3577, -21839, 9686, -10835, 1154, -20761, -29640, 
	-17065, -2668, 16981, -29211, 20720, 27685, 12297, -27823, 
	-18537, -12242, 18373, 2261, -588, -23492, -27794, 22564, 
	2279, -4269, -23516, -3137, 22904, -12766, -30856, -5005, 
	5567, -28238, -3923, 29608, 30272, -13139, -30448, -1785, 
	22466, 6811, -26527, -14412, 10456, -4135, 24585, -25898, 
	-7088, 7416, -15557, 9055, -20736, 6237, -20711, -4999, 
	-22878, 20358, -20392, -17952, -22799, -26790, 28655, -1825, 
	11163, 7628, -8420, -25903, -11775, -23296, 30802, -5972, 
	-28555, -30798, 9829, 19591, -1076, 4103, 28591, 8274, 
	13522, 22990, -25259, 9807, 22256, -12809, 22271, 5970, 
	-25787, -14893, -11664, -3652, 16009, 6662, 10209, -25151, 
	-7304, -6753, 27469, -3007, -8903, -9, -5994, 3115, 
	9261, 81, 17421, 12654, 9845, 17228, 8905, 24113, 
	-17619, 19228, 23643, -15619, 3705, -4416, 26507, 9106, 
	-22816, -15771, -12741, -27949, 27388, -30364, 1247, -15965, 
	1353, 29687, -13480, -5187, -13393, 7479, -27512, 10937, 
	27065, -10732, 6649, 25183, 18657, -12188, -18155, 3605, 
	9963, 8794, 518, -13613, -26161, -28538, 7335, -23319, 
	18055, -7979, -5236, 21319, 11167, 30544, -24111, 8614, 
	-6008, -8501, -10874, -14007, -14421, 23883, 12023, -22258, 
	26503, 6661, -2623, -10909, 3294, -15985, -19319, -5498, 
	-15715, 23495, 25285, 15108, 30626, 2841, 24866, -13629, 
	5927, -21473, -3784, 28976, -28427, 1169, 10272, -12195, 
	-29729, -7607, 25479, -10860, 18401, -4206, -25575, -14318, 
	-2544, -3840, -12284, -10892, -15313, 25211, -19325, -16807, 
	-20003, -242, 14674, 23331, 6009, -30854, -9308, -16914, 
	27159, -16854, -25887, -29614, 12126, 15618, 8481, -18055, 
	-20980, -27515, 12265, -7142, 12571, 14395, -30542, -24122, 
	11385, 27685, -20572, -25148, 11511, -9321, 7297, 19289, 
	3356, 5854, 2342, -15206, 17858, -29699, -22574, 6444, 
	-14699, 20660, -11224, -3145, 12832, 3031, -6813, 24782, 
	6191, 6187, 15664, -14563, 27584, -8410, 15250, 23781, 
	24401, -652, 3920, 1625, 12971, -22540, -12702, 29285, 
	-14890, 24931, -6847, -17646, -23195, 2340, -16144, -8908, 
	3256, -25218, 17047, 5561, 18565, 20742, 10334, -20709, 
	3929, -12390, -15033, -23881, -20207, 23595, 22325, 19867, 
	-21279, 13075, -24863, -21281, 22270, -30706, -12024, 17673, 
	-13321, 7859, -16780, -11357, 3056, 19291, -30021, 12702, 
	-11145, 14094, 21032, -28899, -12180, -20996, -20793, -4715, 
	-29748, -7670, 16583, 2372, 6100, -6720, 2935, -5107, 
	-26619, 1110, 16178, 4440, 20933, -532, -20965, 30718, 
	26638, -3734, 19353, 20094, 2018, -2512, -10815, 624, 
	-2352, 4191, -12063, 15979, 17661, -10134, -15737, 29489, 
	-10649, 3499, -28333, -1338, 12965, -29517, -25154, 14496, 
	8559, 26961, 26084, 29741, -5365, -9230, 19194, -9536, 
	-20414, -3179, -18165, -3341, -24601, 29793, 5842, -27746, 
	26035, -26815, 23884, -7372, -30569, -10592, -2844, 6058, 
	-17343, -19890, -6105, -28191, 11061, -22023, -27209, 1029, 
	-26382, -8735, 28147, 29951, -17812, 29767, 10187, -10388, 
	-13643, -29434, -19122, 28325, 3108, 12438, 27010, 17373, 
	-958, 18404, -1847, 26578, 14721, 15292, 11136, 18002, 
	26856, -8790, -15571, -1184, 15532, 5851, -1586, 6424, 
	-17216, 17382, 3535, 14901, 15564, -11527, -22286, -7919, 
	15657, 5604, 11264, 16106, 16065, 23938, -20780, -24666, 
	24324, 2537, 13216, -11502, -2291, 2722, -25159, -26618, 
	-19829, -29122, 30728, 28144, -17932, 1034, 23855, 14287, 
	-11949, 6008, 16073, -20274, 18313, 10751, -15645, -28997, 
	-28078, 16201, 6947, -1699, -7521, 293, -15539, -921, 
	17197, -17842, 17032, -18040, 8320, 28943, 19491, 10771, 
	18436, -24473, 20026, -22239, 11195, -15910, 19827, 8504, 
	-19099, -27186, 17126, -19375, 4953, 322, -17509, 29220, 
	27805, -4740, 21381, -1070, -8218, -23236, -30887, -6669, 
	25587, 1608, 21046, 18186, 22194, -12583, -9365, 474, 
	-27282, 7624, -7228, -9388, 11040, 22392, -8874, 7030, 
	5569, 20524, 14108, 9909, 24312, 30540, 15993, 23996, 
	-439, 25361, 23415, 26988, -15670, -18154, 13520, 13429, 
	-17795, 2326, -16171, 862, 29238, 8088, -9675, 27797, 
	-1189, 9264, -17131, 13339, -6163, 10576, -12374, -15559, 
	-10877, -22859, -6424, 4350, -26552, 5932, 24749, -24411, 
	-10345, -21314, 25704, -18561, 9329, 21700, -14515, -6520, 
	-3525, 28513, 10648, 7497, -27282, 21156, 12742, 12073, 
	-22119, 1626, -12904, 2434, -2772, -29522, 25960, 4475, 
	-1963, -2376, -22928, -16639, -21924, 17552, 14899, 12983, 
	-7462, 14154, -25025, -8029, 4018, 22160, 4418, -28582, 
	499, 29199, 16802, -8624, 23685, 21603, 23982, -7955, 
	25726, 24432, 12075, 10160, -28996, 27372, 3860, 8190, 
	16723, 29751, -18980, -2139, -22630, 21006, -27209, 6088, 
	-14632, 22716, 30366, 18936, 19823, -14984, 12118, 23178, 
	17386, 11863, 11847, -20817, -8461, -8510, 10074, -611, 
	-21036, -10399, -10887, -7664, 16311, 15948, 15215, -30317, 
	-7936, -23981, 13595, -17715, -27304, -3722, -30675, 4083, 
	19379, -18319, 5469, 21736, -5210, -4495, 13688, -23851, 
	13569, -21159, -5289, -6063, 17536, -25306, 21196, -19870, 
	8437, 17897, 15847, 16448, -4065, 13418, 10001, 10679, 
	-19649, -5028, 3930, -28623, -8630, 24752, -29166, 19100, 
	12575, 17980, -24875, -28113, 17020, 17100, -9585, -12135, 
	-17130, 106, -27436, 10078, -16082, 1465, 21313, 21930, 
	-26678, -29735, -1260, 5881, 24902, 28056, 20719, -26104, 
	-15675, -23406, -11538, 28890, -20082, 30580, -20912, -11537, 
	21221, 5873, -13538, 14823, -8635, -1628, 1143, -17737, 
	-12319, 21736, -971, -28929, -22439, 5096, 2467, -28420, 
	11458, 30149, 1030, 14295, 13388, 10638, -28638, -14812, 
	-25177, 12633, 6965, 23910, 3967, -29375, -3259, -30690, 
	-19595, 7475, -553, -3312, 18, 28124, 4363, 12726, 
	8444, -30700, 3879, 11217, -11174, 15606, 18199, -14509, 
	26938, 11978, -17920, -10172, 23315, -6601, 15794, 13190, 
	-30533, -27498, -28640, 20695, 19464, -3312, 5075, -23652, 
	8418, 28507, -1077, -907, -27940, -7427, -20265, -354, 
	-7578, -27455, 3073, -25954, -28802, -4394, -18332, 4951, 
	-10362, 22563, 10167, -17958, -18581, 24936, 2155, 10221, 
	25562, 6697, -14782, 24130, -17811, -4704, 29029, 10260, 
	-14857, 14767, -25451, 5222, -20888, 13727, -1030, 10360, 
	10240, 6376, 20362, 15169, 13149, -14827, -14126, 19583, 
	-8469, -18472, 20946, 26369, 28612, -29309, 2283, 14106, 
	20507, 20926, -24727, -26396, -26490, 28672, -16475, 19692, 
	-16638, 7467, -4598, 24852, 20792, 3404, -19478, -28969, 
	-29938, 27671, 28955, 3497, -21115, 24695, 22822, 6019, 
	-20133, 28415, 7384, 422, -3623, 12573, 11155, 12482, 
	-2622, -23086, 22127, -15853, -23821, 18396, -13464, 9208, 
	-14117, 19587, 908, -13835, -13055, 17910, 7378, -5241, 
	-517, -8495, -25148, -10956, -20109, -13665, 28285, -26415, 
	-2393, -9842, -23, 26203, -30212, 1108, 10057, -9251, 
	-5002, 2435, -28256, -16823, 13445, -8531, -6752, -20842, 
	-8775, 13122, -6146, 25590, 21120, 10729, 10952, 22195, 
	27159, 4109, 16598, 19391, 27149, -28020, 15024, 29511, 
	26419, 30765, -30383, -7430, 19090, 9725, 14015, -11841, 
	27670, -24592, -6107, -1926, 12915, -22917, -29838, -24583, 
	-24654, 28328, 26200, -28797, -2620, -5971, -8439, 22899, 
	16303, -13535, 9253, 30884, 14321, 30764, 16499, 8862, 
	5990, 8263, -17471, 1927, -25727, 1491, -3034, 1564, 
	9162, 12755, -18541, -2284, 20472, -2649, 10208, 601, 
	9668, 4535, 15684, 25057, 30325, -9009, 30199, -25391, 
	-25418, -4042, -8988, 26460, 18480, -3365, 4174, -27065, 
	13606, -8871, 14755, 14716, -4743, 22245, -9786, 29848, 
	-2439, -29119, 761, 3249, -3861, -6603, 23779, 29192, 
	19352, -16500, -10940, -631, -7616, 5731, -14540, -17612, 
	-10769, 1804, 22673, 20624, -23925, -30778, -13414, -16017, 
	15507, -19706, -12735, 16770, -9711, 18682, 19732, 1661, 
	15326, 4011, -15936, -24261, -20359, -7479, -21391, -25416, 
	-20296, 12421, -29202, -14355, -12040, -13003, 9879, -22709, 
	-19980, 30271, 20607, -22177, 16235, -9220, -12966, -18974, 
	-13153, 27917, -20221, 135, 13436, 29045, 24787, -4139, 
	10627, 29237, -28575, -11150, -1470, -12202, 19226, -6698, 
	-13409, 25093, 27959, -13196, -16593, 11515, 20869, 14337, 
	24099, -17989, -13070, 1929, 9873, 15498, -12593, 2358, 
	16951, -26350, -13170, 22291, -30226, 30265, 13873, -10351, 
	26069, 12413, 8919, 20851, 12164, 12908, 7599, 20749, 
	-2208, -27061, -30009, -28551, 13385, -2496, -21243, -10428, 
	-22844, 4418, 14619, 129, 20084, 16416, -25399, 13740, 
	24473, -27554, 17147, 27137, -1523, -6799, 28201, 2546, 
	-12040, 20179, 29754, 22918, 27780, -20556, -2406, -24116, 
	11534, -5241, -12430, -189, -20017, 10676, 3329, -8586, 
	-10295, -28015, 16562, 12818, 15506, 23751, 23049, 3923, 
	15785, 4766, -15577, -3161, -15901, 390, -12710, 9834, 
	23664, 29785, -28226, -913, 19904, -10217, 28244, -30185, 
	-25298, -27455, -8159, -4788, 3183, 15912, -14454, 22138, 
	-3104, -21027, 9154, 18659, 17145, -2512, 29728, -26789, 
	-4732, 20744, -7039, 7319, 2642, 26288, -18615, 16996, 
	7566, 18056, 23565, 13550, -5949, 11259, 13151, 22813, 
	7185, -18007, -22597, -11946, -2024, -24016, -25354, -22582, 
	-24838, -15168, -4161, 12006, -23663, -29660, -16580, 20834, 
	22425, -2605, 9859, 6173, 24596, -9709, -19511, 14122, 
	-2955, 17473, -4335, -27153, 23937, 3350, -19696, 12601, 
	17497, 26269, -2758, -24230, -10221, 16503, 1351, 17709, 
	-16780, -21903, 16941, -30617, 26318, 4976, -11313, -3955, 
	27832, -2069, 17876, 8816, -7982, -26326, 10085, -6036, 
	-8561, 11929, 5379, -17185, 26609, 4770, 23876, -6290, 
	-21897, -12781, -17493, -15959, -25378, -14139, -8506, -20685, 
	4640, 5814, 2268, 7255, 25682, -15025, 28429, -16600, 
	26617, -20163, -5099, -18772, -25112, 13932, 22028, -23174, 
	19544, 9273, 20016, 14534, 9809, 4849, 10912, 5870, 
	-30030, -18125, 23062, 3137, -3323, -6833, 20039, 27629, 
	29365, 9205, 19340, -2255, 8812, -22337, -2955, -27666, 
	-25876, 28576, 29399, 18079, -16334, 15598, 27978, 10255, 
	-6421, 2771, 3117, -30613, -29291, -20227, 23312, -30785, 
	30480, -4777, -7755, 5109, 17490, 18408, 30605, -15427, 
	-23357, -24121, 9894, -9825, 21202, 25407, 11069, 14513, 
	15921, 17523, 9508, -3118, -7807, -26898, 17490, -14676, 
	-13130, -17305, 17013, -24291, -13406, 22315, -2068, -23660, 
	18857, -17680, -11934, 24942, 20627, 6583, -22958, -20005, 
	-13911, 24255, 26971, -7069, 29449, -13448, -25383, -17571, 
	-26954, -26835, 25986, -15444, -18278, -30752, -24874, 211, 
	25200, -14575, 17415, -20697, -8068, -19514, 17423, -5990, 
	25304, -2279, 11542, 25092, 19243, 13124, 7816, -22734, 
	11422, 22243, 23971, 24468, 23198, -27355, 8939, 7260, 
	-19234, -8730, 13930, 22270, 26062, -7306, 16810, 19755, 
	-12185, 1223, 20054, 24210, -30445, 26061, -6641, -3170, 
	-13279, -29590, 17066, 857, -20609, 21652, -12832, 27150, 
	-10211, -29548, 5362, -29607, -24942, 19818, -4399, 22332, 
	21206, 16093, -7853, -13664, 9807, 29831, 5233, -8404, 
	-7629, -3269, 15654, 3950, 7571, 21824, 14316, -1462, 
	29039, 23292, 27260, 21277, 21074, 26538, 26011, -8914, 
	17952, -19710, 1103, -25390, 1497, 7306, 26077, -22459, 
	-7686, -11667, 6581, 25143, -4519, -25346, 24277, 15890, 
	5751, 22207, 2410, -11084, 8145, 27285, 17577, -28468, 
	8689, -16392, 26821, 5260, -6630, 8550, 3800, 12587, 
	28061, 5677, 26607, -21372, -27175, -26704, -23255, 23571, 
	24299, -24680, 10308, 4560, 499, -13781, 4373, 10243, 
	-28172, 25379, 8999, -14657, 10258, 1704, -24771, 4827, 
	-14684, 9652, 24059, 15826, 25979, -14590, 766, 1858, 
	-6918, 15871, -21900, 29907, 5875, -20166, -26231, 29856, 
	5476, 7058, -28613, -8163, 26882, 129, -6119, -22266, 
	30714, -4529, 2064, -24003, 17799, 13153, -29231, -28362, 
	-15629, 8780, 15497, 7642, -6009, -18917, 10191, 3919, 
	-20659, -20509, -14535, -2990, 21296, -8530, 15414, -15395, 
	-10323, 17240, -26774, 28758, -27494, -17942, 5994, 30194, 
	-1068, -8759, 16438, 25088, 27432, -23261, -10443, 6832, 
	3094, 13512, 13420, -11848, -306, -507, 23138, 25945, 
	-18484, -30071, 13679, -3789, -15818, -29323, 2490, -3538, 
	-18319, -25387, 7853, -15942, -19040, 287, 20499, -25385, 
	-20312, -25252, 21818, -29635, 11283, 14172, 2770, -11749, 
	1303, 19182, 18581, -2418, -20947, 8049, 30890, -5278, 
	-9011, -15019, 5836, -24883, 27629, -17075, -7891, 2116, 
	-3927, 6085, -14730, 18022, -10827, -16818, -1174, 7133, 
	-28081, -3956, 10357, 21985, -2146, 21052, 8959, 16149, 
	17664, 24637, 18913, -1001, 2295, 7790, 11200, 12448, 
	6635, -17788, 6563, 6873, -25915, 15086, 13411, 19819, 
	-13537, -11652, -10667, 14267, 23843, 4982, 24941, 10891, 
	11688, -4869, 16529, -23609, 28109, 30046, -27811, -15161, 
	-28771, -3316, 22683, -1050, -7448, -29233, 26649, 5762, 
	27201, -10013, 16428, 8093, -2276, 18541, -25548, -2741, 
	-29471, 19892, -21100, -19878, 9505, -14746, -19345, -18326, 
	-26968, -30814, -14402, 3696, 5494, 857, 24045, 25117, 
	948, -12154, 8385, -9929, -23556, -9893, 10204, -24266, 
	-15625, 28543, -2885, 27270, -5112, -18244, -2653, 21037, 
	29239, -4711, -26373, 16203, -963, 29942, -1123, 5282, 
	14676, -12645, 9935, -20686, -23162, -29156, 12469, -11620, 
	-14808, 4910, 2089, 2614, 20318, 22048, -28603, 11784, 
	-6587, 20547, 12531, -26655, 17297, 15465, 7706, 18459, 
	4822, 9375, -3270, 22123, -25093, -29529, -9087, -2826, 
	-12319, 566, 17794, 28172, -26250, 9976, -1627, 26125, 
	17089, -4429, -189, 24274, 10990, -13206, -13562, -12326, 
	-8077, 12836, -30035, -9440, -10598, 534, -26964, -16250, 
	-4293, -5716, -14253, -21320, -19657, 8431, -25089, -12633, 
	4873, -30750, -9570, 3227, 16372, -10525, 30276, 27892, 
	2524, -11780, -24268, -30491, -10393, 14780, -28159, 638, 
	29269, 3449, -30871, 29019, 30843, 23018, 17298, 6752, 
	-12500, -24598, 1170, -26362, -7723, -26014, -4628, 14974, 
	1729, -26778, -27913, -25625, 18656, -5602, 27173, -17132, 
	-9788, 21763, -4442, 29833, -11479, 26773, 22645, -26538, 
	-2649, -7099, 35, 17632, 17615, 2195, 13547, -1796, 
	24161, 5874, -13600, 17067, 1067, 21718, -1133, 19285, 
	2999, -30634, 6467, 2700, -21732, 8876, 26320, -17466, 
	-4127, -7818, -19573, 11599, -7692, 28748, -9771, 22992, 
	-22874, -8653, -6325, -19840, -6046, -8935, -11797, -12467, 
	11686, -3566, 11462, -23992, 1442, -23896, 14662, -12578, 
	-6967, 30684, 23207, 22792, -26992, 169, -1431, -2495, 
	-2492, -1779, 675, -13897, 9843, -2663, -4151, 12404, 
	18222, 20037, 15399, -7341, 4362, 24009, -21354, -15935, 
	4381, -21495, 16383, 6920, 11029, -26117, -10645, 25294, 
	11925, -23763, 10718, 16277, 6257, 11912, -19417, -29088, 
	3813, 12950, 29509, -24848, 18148, -28900, -23405, 579, 
	-21442, -11880, -7924, 13499, 25454, -18869, 18125, 26251, 
	-4375, -9068, -11521, 18021, -10837, -21053, 17138, 25187, 
	-14461, -10546, -28543, -8492, 21126, 18008, 10149, -6225, 
	-5766, 8048, 2068, -13459, -26332, 4969, 23584, 24263, 
	27361, 30208, -26834, 5569, -4251, 19745, 27617, 16719, 
	-25782, 28197, -28815, -400, 28673, -11270, 25740, 5525, 
	-19939, 26356, -309, 13337, 8517, -7480, -11180, -27102, 
	-5488, -4729, 30316, 14544, -30054, -11738, -10487, 30865, 
	23222, 1991, -13584, 4403, 20221, -27430, -6398, -23399, 
	-14101, -11484, 5371, -20415, 16757, 22733, -24871, 6536, 
	-5691, -26199, 30714, 20113, 16479, -11967, 14416, -6011, 
	-1878, 12945, -19240, -13893, 14721, 10829, -6056, 28183, 
	-27321, -26378, -23262, 2640, 5331, -20354, 22373, -12232, 
	13094, 9709, 6727, 24947, 8067, -29864, 14902, -692, 
	-6917, -5527, -7783, 26772, -29393, 10261, -409, 8796, 
	-9805, 783, -7579, 23650, 4708, 21867, 26059, -16102, 
	30684, 18525, 8718, 10683, 3611, -15661, 10673, -30556, 
	21728, 14916, 8467, -29337, -5853, -2973, 1907, -30424, 
	29567, -8406, -19373, 23493, 24009, -25969, 14933, 408, 
	-17455, -25160, -13024, 1124, -19275, -29998, 30243, 21002, 
	-26784, 22590, -12495, 27069, -28007, -27731, -8853, -27430, 
	-28507, 9048, -9218, -10501, 668, -10250, 6321, -28681, 
	-28424, -12969, 22070, -14444, 6710, 889, -5648, -30239, 
	23459, -871, 27126, -27860, -18446, 19933, 21352, 28333, 
	-18961, 12989, 22172, -5031, 7560, 677, -12448, -5616, 
	2544, 16025, -28184, 11909, 26449, -19674, 25219, -4743, 
	18477, 13827, 17084, 30467, -7042, -2482, 22271, 12245, 
	-20583, 23178, -2205, 1392, -53, -7648, 25311, -5438, 
	-30568, 26540, 861, -1004, -21651, -8936, 11453, 16576, 
	15927, 19435, -30402, -12846, -11773, 15900, 16324, -9339, 
	16715, -1737, 8478, -370, -25810, 22248, 26390, 28546, 
	-22278, 3455, 14188, -19142, -206, -29307, 20578, -12205, 
	30623, 29786, -23538, 17942, -21988, -5355, 17944, 59, 
	-9966, 22751, 6927, -30858, 28804, -3779, -24967, 16906, 
	18989, -7754, -881, -24564, -22230, 11292, 26937, -28138, 
	10583, -3102, 5845, -2895, 24092, 6127, -17603, 10432, 
	-10552, 2529, 651, -19099, -4069, 22961, -829, 3672, 
	-6962, 21096, 25851, 28759, 4278, -8164, 1289, 23862, 
	3087, 8546, -1606, 3312, -26562, 24468, 12310, -28000, 
	25095, -18322, -28050, -571, 10935, -17290, 12839, -24450, 
	28614, 18682, 20558, -18326, 18429, 4007, 8576, 18253, 
	4068, -2696, -6068, 6473, -10704, 18267, -25782, -12115, 
	7017, -23592, -10180, 10075, 23596, -2700, -19944, -5214, 
	20983, -20544, 26856, -9064, -8610, -10656, 4385, 9517, 
	2456, -27228, -22143, 26159, 4487, -4883, -21862, -26003, 
	27541, 20684, -8862, 10279, -3230, -25832, -9035, 619, 
	-10804, 192, 26752, -23712, 26342, -12654, -10983, 4699, 
	30856, 4754, -5984, -29823, -30472, -22566, -4002, 1634, 
	-15863, 18621, -25114, -26134, -6432, -25899, -4544, 26871, 
	-10658, 11243, -13390, -30535, -16092, 18410, -23131, -29266, 
	9862, 27997, 20225, 6647, 20659, -15680, 2399, -6917, 
	6109, 24406, -28740, 5246, -13968, 2132, 2914, -16340, 
	28844, 17451, -12979, 23322, 403, 13544, 21494, 29671, 
	-3572, 28729, 23399, -19527, -16501, 19333, 26174, -22609, 
	16567, -15844, 13431, 11810, -10959, 15903, -30674, -21192, 
	20344, -24340, -16579, -444, -13616, 4937, 30391, 4237, 
	-19925, 16882, 14283, 14254, -5160, -14244, 15953, -19044, 
	-17348, 9519, 2990, -10103, -1413, -15463, 5542, 29407, 
	28864, 11533, -5380, -24351, -19326, -22365, 19228, -20122, 
	30290, -30670, -3275, -28924, 17916, 16229, -15287, 6576, 
	12610, -15269, 10692, -25651, 23724, -9997, -26944, 6991, 
	17446, 812, -5818, -4927, 1604, 30773, -2626, -23779, 
	22879, -14787, -7773, -29773, -26122, 7333, 15739, -6456, 
	-1169, 26910, 24013, -16393, -25957, -16427, 9585, -27635, 
	-25887, -21240, -20387, -24016, -14349, 4704, 28247, 24452, 
	22993, 14512, 6054, -3220, 16091, -4777, -25589, 2984, 
	-10965, 6302, -20665, -26215, -2662, 9960, -21210, 9727, 
	-27152, 29468, 10825, -8241, -7453, -11022, -10691, 9537, 
	9465, -24247, 24969, 11869, 251, -2049, 1940, -15421, 
	4748, -4619, 6666, -7551, -2852, 11183, -30826, -28887, 
	-30666, 30125, -18651, 3136, 4207, 18464, 18810, 5791, 
	1372, 4679, 22799, -19610, 20151, -22408, 10507, -12634, 
	-23057, -27683, -8927, 12353, -28517, -6989, -15306, -15629, 
	30160, -22817, -6682, -24664, -23060, -1740, -28979, 10981, 
	6667, -6110, -30790, 16980, -9723, 22694, -14230, -12565, 
	9962, 10851, 3745, -23634, -5332, -3225, -20598, 10879, 
	11849, -21804, 9195, 22195, 22331, -29911, -13835, -8361, 
	-11777, 26301, 8209, -738, -27193, 5120, -16092, 22766, 
	-29090, -11125, 18178, 16151, 3130, -13607, -28932, -10944, 
	-14671, -27968, 22493, -27824, 18687, 24628, 11626, -16963, 
	-6740, 12066, 30211, 9558, -26388, -22883, 22615, 3800, 
	1594, 4240, -21505, -9487, -26275, -29167, 7027, 11016, 
	-12603, -23207, -26901, -8912, 1400, 4766, -14153, -12405, 
	-5077, -9051, 19136, 593, 30823, 2927, -10711, 8593, 
	21723, 9584, -5300, -1866, 19122, -9647, -6189, 8705, 
	-12442, -10284, -10559, 25181, 10928, 6407, -7688, 17005
};

static dl_matrix3dq_t pnet_conv2d_kernel2 = {
	.w = 3,
	.h = 3,
	.c = 32,
	.n = 32,
	.stride = 96,
	.exponent = -19,
	.item = (qtp_t *)(&pnet_conv2d_kernel2_item_array[0])
};

const static qtp_t pnet_conv2d_bias2_item_array[] = {
	0, 0, 0, 0, 0, 0, 0, 0, 
	0, 0, 0, 0, 0, 0, 0, 0, 
	0, 0, 0, 0, 0, 0, 0, 0, 
	0, 0, 0, 0, 0, 0, 0, 0
};

static dl_matrix3dq_t pnet_conv2d_bias2 = {
	.w = 1,
	.h = 1,
	.c = 32,
	.n = 1,
	.stride = 32,
	.exponent = -10,
	.item = (qtp_t *)(&pnet_conv2d_bias2_item_array[0])
};

const static qtp_t pnet_conv2d_kernel3_item_array[] = {
	-29431, -28325, -14678, -4723, 578, 27939, 22989, -9037, 
	18404, 7276, -18418, -17048, -4151, 25431, 13096, 8977, 
	-26777, 29230, -25523, 23812, -4631, -3948, 16866, -20755, 
	19221, 24106, 22624, -12532, -3563, -18833, -10340, -25474, 
	-2897, -24076, -16296, 18204, -15344, -13658, -8301, -21017, 
	-3730, 9097, -17791, 4479, 267, -17534, -23103, -17475, 
	19598, -16453, -26299, -8131, -14691, -7658, -29794, -26961, 
	-7067, 25588, 43, -12060, 12483, 22868, -27045, -30166, 
	-2010, -9967, -30642, 26113, 21235, -22521, -27757, -4369, 
	24111, 26478, 5777, 18061, 24864, 19286, 14192, 21676, 
	-30424, 27676, -8298, -932, -1868, -9586, 19427, 9580, 
	-26643, 12278, 12942, -8163, 24166, -26571, -8286, 22276, 
	-22299, -17147, 22179, -11986, -23395, -6937, -16154, 15824, 
	-30689, 30208, -20986, -20953, 11933, -14036, -1708, -24260, 
	-8333, 26764, -18695, 14341, -837, -16188, -11748, -9112, 
	-20664, 11308, 25007, -23338, 4996, 10463, -15008, -1676, 
	11322, 23781, -14140, -27726, 30663, -22329, 23519, 17650, 
	-27092, 23388, 5970, -2784, 22477, -8035, -13595, -23579, 
	-25028, 6855, -22627, -18929, 8776, 13150, -10300, -28105, 
	19034, 11362, -4003, 8955, 8214, -29480, -6302, 16666, 
	-10755, -12919, 10901, 13751, -28037, -19649, 15122, -26729, 
	5650, 2943, -21944, 2725, -7840, -13518, -28323, -28420, 
	-9084, 21142, 14404, 26747, -7454, 24213, 9415, -3919, 
	21862, 29967, 21884, 3637, 2902, -9237, -20873, -18326, 
	-27702, -289, -26596, 13506, -23897, -10647, 652, 12688, 
	-28584, 12785, 22479, 16570, 6605, 3314, 2979, -16347, 
	-10325, -8217, 18832, 7014, -13903, -9327, -26196, 3747, 
	-19107, 8100, -7280, 6761, 22044, 100, -25188, 25382, 
	-22662, -28383, -29528, -14750, -17813, 9912, -27736, 17940, 
	-15431, -12270, 29267, 8604, 29824, -11538, 15523, -15090, 
	-15368, 20494, -19666, -15733, -22054, 7052, 19045, -23438, 
	4960, -30469, 27326, 16087, 16037, 14994, 25231, 22903, 
	28028, -283, 29097, -28681, -2125, 26837, 1472, 12972, 
	18457, 28280, -18810, 20056, -10030, -13417, -21452, 20471, 
	12292, -555, 21413, -10996, 6851, 2743, 8738, -5454, 
	-17942, -12824, -27644, -22772, 29758, -9964, -8820, 3613, 
	17413, -3177, 9164, 19785, -6224, -8114, 29096, -29308, 
	-21390, 24699, 25094, 20544, -29115, 27050, 12136, 25124, 
	-8164, 6666, 24254, 7417, -2035, -24123, -5440, -22773, 
	7644, -12676, -9095, 26510, 19953, 23932, -827, -10971, 
	-2267, -30203, -12834, -17859, 578, -15995, -19581, -24503, 
	1383, 20387, 28225, 17875, 22867, 29208, 23930, -25038, 
	22638, -9030, 20323, -14263, 21673, 24643, -13701, -13999, 
	18918, -4194, 30693, -7921, 23093, 7646, 3952, 3546, 
	887, 24930, 28442, -16579, -8652, -747, -5961, -10793, 
	7198, -22643, 21406, -7892, -23963, 4327, 24781, 21454, 
	-2400, -7825, -9687, -16138, 2139, -3925, 17706, -25872, 
	-30241, 4078, 21232, -7002, 14305, -15644, -1621, 24697, 
	-26475, 10625, -3018, 20404, -24769, 15822, 26458, 1348, 
	30828, 9015, 30418, -28725, 7288, 18029, -186, -4921, 
	-24277, 28981, 30722, -18262, -26265, 14800, 20896, 6981, 
	7493, -27450, -26074, 16578, 982, 4025, -28166, -12765, 
	-27192, -1982, 9989, 17855, 2306, 7638, -10801, -5413, 
	4985, 29509, -11009, 22601, -14505, -4154, -16818, -1529, 
	-10563, -8147, -20412, -7950, -22246, -28848, 11616, -19304, 
	8857, -12183, -20149, -29499, 9558, 27196, 28767, 11894, 
	-12593, 15480, -19372, -4904, 10305, -11068, -15398, -14628, 
	-23341, -27964, -23840, 4029, 28457, 19563, -28344, 24696, 
	-26794, -17773, -2762, -21584, -4521, -22922, 13179, -22438, 
	-28249, 3991, 20177, 4842, -18212, -6612, -110, -3899, 
	23731, 14005, -17074, 24223, -27569, -22294, 8015, 22323, 
	27712, 22385, -20991, 14971, -18132, -19044, -24657, -29224, 
	6877, -26860, 18574, -5021, -29456, 20620, -16635, 22946, 
	-27117, 15649, -18934, -1656, 22132, -3103, 6963, -13040, 
	-7925, 7642, -6467, -30588, 7515, -8826, -14063, 16937, 
	-15736, 7819, 8063, 745, -6024, 28425, -20471, -4903, 
	1025, 10166, 2307, -19893, 21629, 1464, 3947, 30399, 
	10465, 26845, 16943, 16255, -2515, 7289, -9224, 6160, 
	-12544, 21021, 21007, 26022, 3238, 17615, 18412, 16454, 
	-8051, 19162, -29652, -4278, 17923, -12262, 10669, -19106, 
	30113, 25301, 2516, -21691, 23904, 21100, 24730, -26140, 
	-25392, -17348, 25295, -6977, 21726, -30363, -11350, 9009, 
	-25574, 14365, 28799, -7827, -3448, -7037, 11026, -28396, 
	-3571, 21872, 29752, 12727, 7352, 2943, -27816, 25932, 
	-22179, -21384, -14281, -4880, -2837, 7935, 10357, -14157, 
	21554, -6831, 18173, 25393, -8586, -29688, -3258, 27065, 
	11827, -4906, -5224, 1487, 26220, -30635, -1734, 19332, 
	-1218, -22451, 1479, 4480, -13291, -19784, -16499, -21984, 
	-9871, -16745, -26692, -25304, -27813, 12143, -27314, -16192, 
	-3294, -26287, 7359, -12395, 1020, -22316, 12245, 8363, 
	-25778, -25147, -14295, 12561, 3492, 18517, 11949, 25723, 
	-9228, 16921, -7271, 20183, 21747, -9550, -17358, 18120, 
	-74, -28033, 1129, 9025, -10884, -6244, -7457, 3333, 
	-19817, -19938, -16368, 29137, 5887, 23884, 21248, 10270, 
	19377, 23353, -25123, 3912, 12072, -4796, 9945, -25855, 
	19047, 5127, -13191, -30161, 14284, -16205, -19978, -24737, 
	26147, 2123, 3542, -27220, -6692, -12189, 4423, 9525, 
	601, 16437, 29027, 20569, 8002, -13575, -29837, 25143, 
	-19887, 14302, 5593, 21029, -17337, 18252, -12785, -27371, 
	-12850, 5728, -8762, -19863, 591, 8330, 20468, -26352, 
	2879, 3545, -5207, 20040, -22085, -13812, -16217, 21378, 
	-7563, 3563, -9812, -11143, 25823, -18000, -26450, 10767, 
	-28089, -4844, -11447, 2990, -17947, 14693, 770, 12459, 
	-19174, -1351, -18326, 9847, 3034, 16625, 3786, -30521, 
	-21215, 8392, -21869, -27154, 13649, -12299, -21806, -14217, 
	-1952, -14447, 24276, -16199, 12962, 2027, 18908, -18808, 
	25584, 19931, 28836, 19466, -19019, -8879, -26050, 21613, 
	16323, 10139, -8762, 10791, -4579, -4759, 2823, 10643, 
	5020, -22390, -16350, 10198, 8761, 1210, 13131, -26209, 
	-5260, 7790, 29020, -11897, -25826, -22621, 30668, -6441, 
	-1149, -14680, 26902, -13535, 16839, -13997, 23362, -26594, 
	-10393, 27522, -1218, 22610, -26042, 14977, 27029, 27437, 
	-5567, 2776, 20414, 6223, -28149, -29401, -25266, 22029, 
	16609, -2564, 14764, -27686, -10797, 10066, 7178, -26265, 
	23352, -18248, 12782, -23762, 23292, 16742, -27979, -19468, 
	-20405, -14222, 302, -12334, -13550, 21911, 1981, 18472, 
	15244, 9922, 24042, 8160, 16924, 20120, -1332, -27094, 
	20107, 25803, 27650, -338, 24828, 2612, 27680, 29971, 
	21100, 20899, -8584, -6657, 16782, -671, -20625, -7037, 
	-2963, -13403, -300, -10733, -21739, 22989, 3898, -11521, 
	26499, -27302, -5673, 6610, -28820, -6080, 28609, 14156, 
	20426, 267, -16646, -1477, -9265, -941, 9613, -21249, 
	28028, -15233, 16388, 6661, 23188, 21340, -14588, 6241, 
	26953, 349, 12861, -2376, -9295, 19769, 16511, 18221, 
	22968, 28462, 7941, 8564, -5146, 4980, 22689, -1225, 
	12647, -18558, -16102, -95, 4429, 8469, 17857, -6753, 
	-26311, -25063, 18244, 11730, -18570, 23000, 13537, 28294, 
	12414, 20573, 15532, 2910, 19961, 12236, 23388, 7, 
	29999, 30113, -6696, -23568, 9776, 18071, 4154, 1485, 
	-25469, 27213, 111, 19069, 13953, 7603, -25259, -2249, 
	27722, 12223, 2446, -23609, -24249, 11404, 19065, -26493, 
	-1313, 29984, -28821, -24881, 9196, 28917, 27892, -23143, 
	-10800, 25459, -17238, -19841, 21930, 6427, -10469, -7986, 
	6903, -13006, -1577, -29089, 12869, 22510, 3843, 26935, 
	-30320, 5691, 9640, -29088, -3973, -1820, 22127, -15548, 
	-23128, -18953, -4, 15652, -5135, 23350, 24396, -27708, 
	-2436, 5949, -1764, 20385, 19251, -15393, 12797, 9193, 
	516, 15081, 14303, 5260, 23881, 6992, -25127, 15611, 
	24586, -28921, 29147, 24944, 10063, -422, 1620, 12357, 
	28452, -16444, 13859, 23080, 11289, 10581, 19646, -6599, 
	-2250, 23603, 11982, 11116, -30158, -17388, -4820, 14176, 
	22309, -6291, -23743, -16754, -10527, -4652, 26006, 13086, 
	26228, 30387, 24768, -7737, -12197, 7866, 14819, -7990, 
	-8818, -21830, 28416, 11459, 30577, -27516, -4697, 12233, 
	12530, -20015, -16218, -14119, 18223, 14399, -30570, -14283, 
	17086, -21266, -16291, 7429, -25861, 16244, 21033, 21011, 
	-26136, -25453, -16803, -21516, 12990, -9489, 14999, 12439, 
	13448, 22135, 26111, -22293, 18128, 17195, 1484, -540, 
	16613, -23985, -20732, 5548, -11654, 24238, 16204, -30302, 
	14767, -8160, 13308, -2563, 19412, 10155, -3926, -448, 
	-16271, 18150, -28524, -12293, -6835, -25996, 14677, 20114, 
	-3732, -2195, 12721, 5331, 6124, 23426, 11506, 18124, 
	-28811, -8892, 7779, -19369, -14782, 1249, -6956, -18394, 
	-4599, -30589, -25204, -26684, 7143, -20953, 3311, -2643, 
	-12568, 794, -4163, 30391, 3979, 1257, -3242, -194, 
	3820, -26980, -15816, 29171, -14720, -1055, -22911, 28238, 
	12070, -27469, -1427, -3096, -3263, -25876, -3270, 1805, 
	10722, 15334, 27698, -5088, 1136, -4180, -16871, -15910, 
	18046, -25569, 238, -4648, 11494, 27127, 30326, -4887, 
	-3925, 23323, 19574, -26294, -21819, -23749, 24918, 7094, 
	26721, -572, 23510, -13475, -18922, -14967, -3130, 21524, 
	-9118, -24149, -618, -27099, -27876, -18996, 8406, -915, 
	8446, -3618, 4473, 8844, 26965, -4391, 4383, 20049, 
	4796, -19194, 11986, -12250, 19879, -2428, 1269, -1024, 
	-24696, 19200, 7706, -5986, 6877, -15684, 21481, 17996, 
	-29391, 11029, 5736, 16840, 15367, -30609, -5002, -30822, 
	9170, 1127, 25333, 17158, -28640, -8287, 27787, 21600, 
	-7795, 5100, 6764, -8197, 12484, 10729, -29396, 30860, 
	12514, 13113, -30446, -16604, 8315, -12106, -27000, -5082, 
	3007, -6154, 8576, -1359, -3593, -1741, -13698, 9691, 
	27561, 4589, 2852, 14633, -767, 24325, -30575, 17653, 
	-5870, -13327, -15929, -11501, 16991, 25397, -797, 30340, 
	-29191, 16478, 15809, 27061, -3793, -20247, 9134, -6294, 
	4304, 13919, 878, 24132, -25697, 20705, 29564, -9084, 
	5660, 17881, 24750, -28565, -25816, -20531, -14278, 26080, 
	20470, 28914, -7431, -23163, -19759, 4895, -20227, -21221, 
	23478, -559, 28384, -26756, -27746, 1689, 7532, 12673, 
	7841, 9062, 24208, -20787, -10003, 3846, 7284, 18688, 
	-10282, 7813, 10989, -5850, 5314, -21952, -1532, -3942, 
	24157, 25780, 25239, 23939, 14843, 14062, 19116, 25465, 
	22243, -18936, -10980, -445, -12487, 336, -8804, 11176, 
	19504, 8232, -29108, 18684, -19660, -18766, -23010, 26757, 
	-15251, -30483, -14393, 1212, -28538, -20488, -6326, -11252, 
	20056, 27367, 7692, 7160, 18433, 29908, -26864, -5974, 
	-8754, 17183, -28265, 16040, -24580, 3484, -24924, 13203, 
	5059, 19911, 10570, -11774, 29116, 30875, 10965, 2959, 
	15323, -15235, 11232, 6383, 18315, -16091, 959, -18145, 
	-11652, -1835, 3501, -5097, -24498, 5384, 10580, 12850, 
	-968, -3010, -24566, -16439, -5256, 6580, 3537, 147, 
	-21383, -17846, -3263, -11121, 19007, 6929, -20082, -18879, 
	-10397, -29124, -2983, 22694, -16109, 17156, -28864, -11540, 
	23905, -30056, -15350, -23105, 13785, -20836, -23018, -26091, 
	-1595, 23358, -8666, -22541, -23455, 12776, -7645, -5070, 
	26752, 3150, 24890, -18662, -8253, 12133, 24233, 2969, 
	-13418, -21653, -26308, 28064, 16729, 24772, -24824, -7508, 
	9654, 28442, -27837, 28379, 8695, -24132, -1437, 5461, 
	-12398, -21884, -13068, -12744, 28116, 962, -4736, 22808, 
	-15373, -28632, 22159, -18757, -16703, -5990, 24237, -18126, 
	15935, 9469, 12801, 10451, -1967, 256, -8894, 14267, 
	24582, -30409, 18832, -15586, 4688, 28238, 5885, 15245, 
	7640, 21802, 25356, 9963, -2339, -12736, 12089, 23230, 
	560, -20329, -18623, 23394, 14528, 26077, 2478, 14322, 
	-25584, 26889, 23029, -6708, 10953, 2708, 7539, -16798, 
	-3280, -16560, -2330, -7973, -5641, 18046, -15489, 17049, 
	-25627, -6100, -14351, 15148, 29662, 16473, 8772, -18556, 
	10283, -3298, -19655, -22453, 17583, 22042, -12040, -12170, 
	2253, -7619, -7028, 16835, -15642, -16240, 19397, 13053, 
	-29556, -28124, -27810, 5839, -14618, -9007, 444, 2166, 
	23664, -5555, -10828, -25931, -5225, 11671, -8717, 20086, 
	13407, -30374, -19866, 11861, 9239, 19133, 19142, 13848, 
	-22453, 28030, -6284, 580, -18008, 10807, -1374, -24552, 
	-5166, -22390, -5516, -27711, 1514, 3875, -6561, -4441, 
	-10359, -1719, -10612, -26121, -15345, -10015, -29992, 25497, 
	-17203, -20504, 9143, 3977, 20193, 14339, -26260, -29331, 
	9103, 14549, -1274, -6487, 15258, -14078, -21, -9614, 
	24813, 23551, -11536, -26972, 1758, -13026, -30583, -4509, 
	6773, 14968, 29452, -5965, -21245, 27572, 13385, 24586, 
	15797, 30727, -25413, 12951, -9584, -21114, 20071, -4760, 
	-18819, 23678, 22891, 9554, 1785, 12043, 2886, -5751, 
	-17764, 10016, 12738, 978, 30132, -12214, -28783, 7765, 
	29523, 14159, 22573, -9233, 17886, 20437, 28158, 25397, 
	-25931, 2010, -3462, 19077, 16770, -5633, 24079, -29725, 
	-25675, -4571, -30258, 2336, 6699, 11945, 21797, 3832, 
	29432, 13886, 25037, 27215, 19378, -21269, -5031, -8328, 
	-8426, 3556, -11458, 14714, -5254, 14159, -29043, 1106, 
	2895, -18492, 26628, 28383, -155, -12959, 24148, -15026, 
	21091, -8952, 21239, 26928, -10976, 30447, -20521, -12238, 
	11989, -26217, -28410, -14128, 274, -21130, 17574, 17057, 
	-17420, -21247, -588, 27359, 24960, 9551, 21171, -28866, 
	-25888, 28805, -20746, 17472, 16600, 8807, 4889, 24726, 
	24537, 19754, -8484, -5217, 4815, 22240, -18289, 26153, 
	-16307, -14389, -24172, -26841, -24721, -22551, -23649, 17232, 
	-27089, -15979, -13090, -12931, -1882, 27628, 27306, 21347, 
	-13103, 2547, 15699, -22533, -12145, 26953, -28175, -13326, 
	-23458, -1201, -24058, -23392, -16632, 14200, -30017, 20308, 
	-30110, -21647, 2328, 12135, 20754, 17211, 22470, 16209, 
	27177, 25800, 17344, -11416, -11749, 16214, -27047, 21673, 
	-11562, 24256, -23599, 1977, -1991, -27348, 3362, -16967, 
	-4725, 25204, -23561, 28738, 11755, -17149, 14816, -14819, 
	-30713, 9359, -26792, -29895, -12272, 25323, -21905, 340, 
	11370, -11092, -9611, 25404, -25853, 26259, 24747, 9717, 
	-28033, 2797, 12800, 8605, -16479, 14603, 22202, 22649, 
	-9685, 24178, 26152, -3936, -2059, -28414, 20574, 25610, 
	-26771, 14856, -23483, 5767, -19450, 6054, 218, 30485, 
	26685, 27442, -27319, 13115, 13543, -29754, -11472, -17346, 
	30845, 19843, 16266, 14709, -6254, 15261, 19365, 29339, 
	-9402, -6100, 6849, 28759, 26669, -1416, -12979, 29511, 
	27484, 13913, 11163, 17919, 13454, 21294, 14055, 22820, 
	-6752, -25028, -25909, 7271, 23655, 22398, -29267, -29458, 
	524, -10670, 575, -7844, 1844, -5327, -8904, -26973, 
	21508, 16576, 8652, -21582, -6737, -5519, -30068, -17662, 
	25118, 17629, -3578, 16778, 305, 1856, 15765, 25260, 
	-15265, 6945, -21370, 7046, 11345, -22053, -28197, 23041, 
	-14917, 23714, 27077, -2696, 6134, -16578, -21091, -30510, 
	440, 2053, -17810, -28676, 10854, 6979, -7913, -21117, 
	-19093, -3368, 4826, 23075, 15993, 17177, 27615, -10062, 
	-29124, 10043, 27512, 9443, -14908, 15052, 9421, 2566, 
	419, -27635, -14875, -12102, 19087, -17874, -19750, 22001, 
	11901, 28761, -21150, 22736, -5363, -23633, 3921, -12126, 
	-27982, 15601, -18370, 25983, -26556, -13819, 2095, 15021, 
	-9310, -16508, -20689, 24482, 20163, 18401, 21939, -3886, 
	13967, -13042, -9539, 27949, 25638, -27826, 16395, 20301, 
	-6942, -20794, -6061, 9430, 22641, 7018, 12286, 12724, 
	-19845, -29664, 28786, 16465, 13499, 18892, -19451, 28413, 
	6819, -18446, -18648, 28691, 7898, -9169, -14271, -2696, 
	28190, 29675, 5333, -7402, 10517, 9996, -21156, 4076, 
	27961, -444, 19621, 24344, 25474, -9561, 4284, 2543, 
	20611, -4249, 17515, 7050, 24489, -5049, -766, 29494, 
	-21396, -22094, 16332, -17334, -17769, 3194, -7238, -27837, 
	-1923, -19745, 3707, -10905, 14243, -4272, 25023, -22542, 
	-8763, 25277, -6725, -18208, 24592, -19756, 28128, 26767, 
	-7938, 17761, -16182, 1885, -29267, 25911, -29382, 20238, 
	7022, -4916, 2127, 17226, 27305, -23777, 29832, -21742, 
	-23195, -1192, 28482, 9283, -23961, 29522, 26201, 16157, 
	21076, 19472, -11696, 5424, 26422, -25451, 8622, -5475, 
	23920, -26079, -28502, -17743, 27147, -9318, 12480, 16697, 
	29274, -5214, -11611, 21858, 11578, 18808, 29437, -6741, 
	-913, 22431, 2158, -857, -4140, 29459, -16760, 28781, 
	15193, -11637, 26322, -17202, -19854, -698, -29086, 22646, 
	-5243, -5521, -18326, 30451, -20951, 11371, -22836, -8879, 
	1945, 6983, 28817, -14992, 27733, 3857, -16883, 30861, 
	-9185, 6763, 6512, 2053, 24337, 28942, 27615, -6441, 
	30712, 24839, 10804, -10501, 4180, 20428, 5787, -17032, 
	-76, 25198, -25924, -14730, 30552, 1960, -16384, -3125, 
	4134, -7133, -17309, -2557, -28004, -9468, 27317, 19476, 
	29179, 10070, 30675, 17411, 9955, -14569, -22038, 656, 
	-14955, -22035, -10307, -25832, -26849, -13702, -29541, 957, 
	-13232, 16564, -20806, -3183, -11382, 11476, -172, -19045, 
	22568, 3995, 20036, 12736, -5859, 13220, -5272, -7726, 
	16131, -27842, -11881, -265, -8112, -20901, 6642, 23631, 
	-7657, -29572, 25301, -2859, -2236, -230, 6740, 14471, 
	-25734, -22878, 12869, 6220, 10957, 20471, 18931, -5539, 
	-4254, -27478, -4982, -5672, -16669, -635, 15737, 25016, 
	-28585, -28550, -25848, 9153, 324, 12483, -11508, 27335, 
	12270, 18014, -4854, 23651, 11142, 2516, 14013, -17816, 
	12125, -9021, 5072, -3447, 21724, 14085, 28860, -2695, 
	11743, 16244, 22601, -3565, -23878, 7003, -28030, -9108, 
	28662, -9650, -25383, 5861, -24272, -3471, -28935, -13791, 
	19562, 11582, -24459, -8655, -13731, -21495, 7654, 7700, 
	4108, -23726, 27889, 6501, 13122, 23820, -23085, 14890, 
	21926, 30790, -3243, 26099, -24763, 17030, -28579, 13243, 
	-2694, -1676, -12477, -28286, -17363, 4384, 17382, 13206, 
	12986, 16865, 15697, -25810, 29300, 23989, 6927, -6614, 
	-540, -4789, 15594, -6696, -27973, -26653, -11355, -6026, 
	-858, -7053, 23676, 26405, 26287, 7846, 3395, -27274, 
	-19924, 2542, 1259, -14829, -27197, 8340, -21989, -16876, 
	27838, -5806, -22481, 8132, 6859, 25750, -4188, 272, 
	5221, -19215, 8183, 20293, -17687, -9444, 25291, 22841, 
	-9448, -29579, -10761, 5562, -25017, -7084, 8641, 28175, 
	-20444, 29689, -23508, 26925, 19529, 28516, 3053, -10720, 
	26092, -11651, -7144, -20491, -20902, -22236, -4263, -12564, 
	-6543, 15273, 24125, -18822, 27578, 364, 5408, 6945, 
	-29181, -20795, -21842, -30324, -21660, -26700, -307, -5084, 
	28362, -1579, -27269, -23411, -29079, -8881, -3031, 24882, 
	-13965, -3725, -29838, 28985, -10334, 13144, 12339, -16766, 
	3654, 10100, 18709, -24872, -6314, 19025, -27423, 5653, 
	-19668, -17255, -5967, -22013, -29696, 8772, 25079, 25309, 
	22535, -4524, 10778, 23927, 24839, -30081, -17895, -12720, 
	7219, -4642, -10984, -2799, -28915, 18039, 16426, -24395, 
	153, -20879, 23571, 6209, -23834, 24588, -19795, 16690, 
	-29702, 30271, 677, 29831, -26650, -8779, -14700, -25797, 
	30708, -5272, 1307, 27773, -6938, 9135, -4732, -4779, 
	19949, -22391, -25664, 18992, 4675, -9328, 15105, 20008, 
	26706, 7834, -3303, -25801, 4909, 28913, 30709, -23757, 
	5298, -3546, -20134, -1511, 5205, -4793, 9534, -25658, 
	5244, 17619, 3132, -20184, -22497, -597, 9170, 21406, 
	-30018, -29564, -14022, 29063, -12823, 8592, -28902, -22062, 
	20253, 2531, 26031, 10261, 29988, -29141, 17527, 3116, 
	-5444, 13914, 13724, -4825, -22977, 13256, 29599, -21721, 
	6967, 10284, -27899, 18528, -16731, -29537, 10493, -6719, 
	3896, -22556, -30649, -18304, -10501, -364, 11564, 19327, 
	28258, -15507, -8275, -29570, 22833, -15186, -15646, 3231, 
	2313, -25710, -15653, 572, 2486, -18930, 15113, -13901, 
	25532, 17648, 9012, 17010, -18493, -6066, -4503, -2630, 
	20957, -30676, -17316, 25376, -24810, -25876, 7032, 23585, 
	-3637, 22256, 12855, 10795, 6840, -10428, -22167, -23752, 
	18283, 27980, 28923, 4136, 14030, -29385, 22630, 14654, 
	29551, 23366, 3894, -11861, -430, 3046, 19154, 23516, 
	23793, 4726, -17881, 21513, 27814, 27525, -25273, -8608, 
	29383, 14694, 6886, -10622, -28534, -6830, -26336, 27878, 
	2161, 10175, -22305, -5392, 1415, -19565, 8147, -21216, 
	-11060, 22786, 10449, -16473, -19459, -30246, 30008, 1891, 
	13325, -26301, 17420, 24442, 15957, 8936, -791, -6631, 
	-8753, -12914, 17127, -27317, -5955, -22168, 25494, 18622, 
	14706, -18463, 394, -2445, -28158, -21239, 14776, 19071, 
	-18854, 28440, 5812, 8378, 9960, 5130, -8750, -5826, 
	-20236, 5547, 3315, 18273, -8034, -3271, 17239, -24742, 
	-1496, -6108, 7005, 27566, 3369, -16312, -809, -11826, 
	5121, 8793, 16088, -23674, -1451, -26686, -7580, 9419, 
	19964, 6548, 7574, -24449, -20978, 13934, -20685, 28833, 
	28675, 2587, 6137, 466, -26447, -792, -16147, -20920, 
	-13769, -21777, 6587, -2013, 22776, -8863, 28823, 15408, 
	-13313, 16486, 8838, -21277, -30180, 9199, -10475, -13324, 
	3287, 25473, 28929, 23573, 10136, -19456, -13162, -16241, 
	-24134, 4349, -18978, 28469, 10305, 23245, 22396, -3076, 
	1819, -22436, -21909, -12265, -30722, 10967, 3432, 8928, 
	18775, -23725, -20128, -16356, -17858, 14518, 19738, -30337, 
	-6232, -27907, 12975, -13578, 7943, 9858, -13283, -13682, 
	27671, 30462, 2351, -21661, -2847, 19406, -4374, 29539, 
	14566, -17050, 15810, 25674, 21617, -12123, -3076, 29533, 
	11151, -9792, -2170, 17681, -19555, -23788, 13678, 24599, 
	27298, -27686, 14892, -11422, -10230, 1389, 9470, 21093, 
	21005, -19717, -25658, -29747, -21849, -18146, -30113, 24667, 
	1143, -30591, 22789, 9044, 16057, -863, -24387, 28772, 
	14272, -21974, 5530, -22276, 24496, 17203, 3305, -66, 
	26661, -1638, -17338, -15094, 26995, -29677, -30838, 5483, 
	23490, 11449, 22688, 13707, -9396, -18627, -2386, 14269, 
	18863, -21056, 28498, -26979, -1703, -13488, -23564, 27644, 
	21919, -16815, 30308, -20739, -6244, -13798, 6818, 13724, 
	-13703, 2490, -24458, 19928, -24266, 15754, 23060, -26056, 
	26324, 10095, 22655, -24795, -25310, -30601, -3898, -3871, 
	29053, 20202, -4001, -13349, -9729, 15465, 25724, -4474, 
	-14891, 9604, 10769, 23555, -20235, -19838, -23515, -6766, 
	-27051, 19526, -8156, 4901, 28414, -8890, 7184, 1332, 
	8465, 24999, 12695, -17012, -13795, 17035, -3079, -11780, 
	30551, -6095, 11942, -8244, 2768, 6326, 24610, 422, 
	-27070, -1723, -20829, 19802, 531, 14707, 5150, -18497, 
	26529, 11893, 18153, -26562, -11331, -1170, -14565, 20396, 
	-25836, 10896, 19713, 21324, -20635, -5673, -24930, 25100, 
	-12005, 9046, -15001, -26698, -29729, 4965, 2181, 22261, 
	-3477, -20962, -5445, -20732, 21825, -18035, -11208, 18835, 
	14458, -3131, -14277, -16454, -28816, 27345, -21191, 11028, 
	-28356, -3984, -12716, -13237, 4296, -9888, 24827, -18053, 
	18816, -17264, -18757, 10655, -24511, -7607, 11389, -950, 
	-22311, 22257, 16649, -14862, 23274, -14395, 27346, 29314, 
	9955, 2565, 23977, -26266, -7065, -8120, 27444, 25474, 
	-18135, 25978, 6972, -815, -22776, 520, -15454, -6103, 
	6540, 23404, 25542, 27574, 14034, 27065, 16603, -14635, 
	-23029, -28785, 22138, 8683, -30872, 2439, -24435, -6961, 
	-13015, 2070, 15185, -22412, -13697, -23938, 4885, 13085, 
	7022, 7608, -3264, -27998, -19956, 11931, 15172, 5161, 
	15890, 21992, -19044, 4261, -25247, -16149, 10565, -12733, 
	-4108, 16362, -19320, 4378, 2960, -10429, -4901, 14659, 
	-3907, 17972, -12744, 22967, 1077, 28573, 27422, 15504, 
	-8445, 22071, -21490, 14165, -1410, 3730, 20731, 30687, 
	11310, 25272, -14420, -11579, -22105, 13219, -20456, 18476, 
	-4964, -4003, -4655, 26598, 19137, 25815, 20010, -3196, 
	17545, -9122, 29818, -27435, -24958, -17839, 29666, 8251, 
	-7994, -11212, -15333, -6793, 16147, 29293, -10256, -20804, 
	-14934, -17276, -17315, -15550, -7958, 13657, -17061, 22934, 
	9607, -29763, -7164, -14709, -24141, 23572, 23128, -28784, 
	12433, -10354, -26075, -18657, -21238, -10043, -6114, 14620, 
	28188, 6923, 27809, -21732, -4469, -19780, 28864, -30726, 
	-17147, 7194, 2129, -23335, -2028, -2877, 12783, -27953, 
	4722, 15466, 21027, 13650, -5069, 10957, 25755, 5612, 
	2781, 30544, 30076, -12678, -23985, 2489, 24503, 27148, 
	12081, -16618, 10124, 20453, 6836, -3748, -19807, -15228, 
	-23838, 19282, 25836, -8702, 21127, -15431, -22461, -22186, 
	-18619, -15220, -4513, 24302, 18051, -22444, 28166, 14930, 
	9662, 2817, 26173, -26571, 3775, 136, 12202, 3867, 
	30849, -28370, 7940, 24028, 17372, 902, 30729, 18815, 
	14485, 30423, -8225, -17633, -4409, -7093, -12373, -19244, 
	3498, -30415, -30116, -20588, 11214, 14298, -22930, -6946, 
	27158, 21298, -18488, 4488, -5576, 3631, 8247, -27316, 
	-11712, -8516, 15203, -1934, -21974, 29428, -2259, -940, 
	20557, 18966, -27882, -28081, 13217, -30338, 12525, 23943, 
	15188, 4325, -23346, -479, -10645, 13167, -6359, 8187, 
	-1703, -15378, -2490, -21402, -9178, -23380, 28929, 21890, 
